{"weights": [[[-0.07150065898895264, 0.03474202752113342, 0.046571604907512665, 0.08349602669477463, 0.08017533272504807, 0.04330942779779434, 0.052266038954257965, 0.07317007333040237, 0.05133732408285141, 0.012401588261127472, 0.035723842680454254, 0.05325225740671158, 0.22620250284671783, 0.17332732677459717, -0.1000562459230423, -0.08983635157346725, 0.036034584045410156, 0.0604221448302269, 0.06811187416315079, 0.0031142830848693848, 0.0016449540853500366, -0.021294422447681427, -0.011984683573246002, -0.05076349526643753, -0.023409415036439896, -0.06088145822286606, -0.0634547770023346, 0.0749722346663475, 0.04590297490358353, 0.03170540928840637, -0.030041515827178955, 0.06958208233118057, 0.007130762562155724, 0.028350278735160828, 0.3603002429008484, 0.5246977806091309, 0.2552034258842468, 0.14349952340126038, 0.0823671743273735, 0.20374520123004913, 0.8225966095924377, 0.12763598561286926, 0.2981818616390228, 0.4056239724159241, 0.1313503086566925, 0.535983145236969, 0.6830790638923645, 0.7833219766616821, 0.6591675877571106, 0.6476044654846191, 0.5556690096855164, 0.37918150424957275, 0.043722040951251984, 0.023755818605422974, 0.03525058925151825, -0.05204540491104126, -0.05124892294406891, 0.08057207614183426, 0.08883900195360184, 0.3931167721748352, 0.42613255977630615, -0.21755005419254303, -0.06684199720621109, 0.07835018634796143, 0.6281111240386963, 0.21639491617679596, 0.4133613407611847, 0.4375916123390198, 0.33693087100982666, 0.5051040649414062, 0.7489373683929443, 0.9485821723937988, 0.9303607940673828, 0.010535035282373428, -0.09898088127374649, 0.8861591219902039, 0.614551305770874, 0.526137113571167, 0.7857294678688049, 0.083083875477314, -0.04030294716358185, -0.28866177797317505, 0.02527746558189392, -0.0814121887087822, 0.03907223790884018, 0.01660393923521042, 0.46858489513397217, 0.45760172605514526, -0.43991658091545105, -0.1505238264799118, -0.027899274602532387, 0.4635883867740631, 0.461036741733551, 0.32031500339508057, 0.018207760527729988, -0.35955366492271423, -0.3906521201133728, 0.6970167756080627, 0.7524732351303101, -0.1041363924741745, 0.37552863359451294, 0.2095923125743866, 0.24117179214954376, 0.17065264284610748, 0.6085498332977295, 0.1122131422162056, -0.007887237705290318, 0.02498430199921131, -0.43466633558273315, -0.29468491673469543, -0.5194216966629028, -0.018774420022964478, -0.0679672434926033, -0.015620497986674309, 0.0968145877122879, -0.054409291595220566, 0.3478498160839081, -0.22940367460250854, -0.21027089655399323, 0.05837796628475189, 0.08047878742218018, -0.23140062391757965, -0.012056353501975536, -0.08631055802106857, -0.29535695910453796, 0.2806631922721863, -0.14781415462493896, -0.34673774242401123, -0.534896969795227, -0.4462440013885498, 0.08438791334629059, -0.03418869897723198, 1.5160882867348846e-05, 0.33512938022613525, -0.19107277691364288, 0.0405135340988636, -0.36609333753585815, -0.6953254342079163, -0.6963784098625183, -0.41401833295822144, -0.052637480199337006, 0.017127051949501038, -0.38635653257369995, -0.5115191340446472, 0.3673485517501831, 0.5297591090202332, 0.2578393220901489, 0.013116985559463501, -0.03873157128691673, -0.07517865300178528, 0.345680296421051, 0.09652771055698395, -0.31617408990859985, 0.008545213378965855, -0.20143574476242065, 0.1512296497821808, -0.16763529181480408, -0.05577433481812477, 0.0668378621339798, 0.15344679355621338, -0.14042750000953674, -0.2743472456932068, -0.3461984694004059, -0.255877822637558, -0.4383915066719055, -0.4253176748752594, -0.4482603669166565, -0.5323100686073303, 0.034052252769470215, -0.1243925541639328, -0.13827361166477203, 0.6738690733909607, 0.12437012791633606, 0.46454209089279175, -0.11206632107496262, -0.2531457543373108, 0.025593865662813187, 0.11337729543447495, -0.042873237282037735, -0.15724721550941467, -0.33850446343421936, -0.17574834823608398, -0.012700566090643406, 0.2059088945388794, -0.06009945273399353, 0.01782519556581974, 0.22375085949897766, 0.21080516278743744, -0.21272815763950348, -0.1361696720123291, 0.078676238656044, -0.12330672889947891, -0.487592488527298, 0.17020592093467712, -0.40408629179000854, 0.22551169991493225, 0.08375495672225952, 0.08175111562013626, -0.4941016137599945, 0.4549895226955414, 0.04358323663473129, -0.021313432604074478, 0.14841917157173157, -0.21451608836650848, -0.059229012578725815, 0.20865678787231445, -0.2463543713092804, -0.3256877660751343, -0.3315970003604889, -0.24381451308727264, 0.04311106726527214, -0.17609846591949463, -0.338407963514328, -0.22619718313217163, 0.02279285155236721, 0.23549580574035645, -0.16658666729927063, -0.10724356770515442, -0.12820763885974884, 0.031692296266555786, -0.19127777218818665, -0.159294992685318, 0.07840846478939056, 0.2833672761917114, 0.3744617998600006, 0.0879809781908989, 0.2118634134531021, 0.4109472632408142, 0.13165436685085297, -0.06241414323449135, 0.12833991646766663, -0.07322784513235092, -0.2981615364551544, -0.025841379538178444, 0.16694433987140656, 0.01566549949347973, -0.05769094079732895, -0.12117523699998856, 0.020916981622576714, -0.40870699286460876, -0.44934511184692383, -0.44280576705932617, -0.28616052865982056, -0.017041083425283432, 0.11147801578044891, 0.05387287214398384, -0.2575964331626892, -0.31898096203804016, -0.3893479108810425, 0.21162396669387817, -0.32716602087020874, -0.3508165180683136, 0.15509378910064697, 0.659818708896637, -0.13344912230968475, 0.11346201598644257, 0.1499805599451065, -0.3440839648246765, -0.49670833349227905, -0.469367653131485, -0.4384806156158447, -0.11302927136421204, 0.05249146372079849, 0.1266254335641861, 0.3054152727127075, 0.5866091847419739, 0.2294626235961914, -0.713468611240387, -0.9546071887016296, -0.3813704252243042, 0.08362851291894913, -0.04141006991267204, -0.14017616212368011, 0.019466156139969826, 0.1671515703201294, -0.032040562480688095, 0.21347196400165558, 0.5613842606544495, -0.09828069806098938, 0.4759857654571533, 0.24167600274085999, 0.6461691856384277, 0.556968629360199, -0.09556932002305984, 0.033562999218702316, -0.5460236668586731, -0.3457467257976532, -0.41734856367111206, -0.30944332480430603, 0.16408485174179077, -0.07733756303787231, 0.23181337118148804, 0.33621567487716675, 0.6197299361228943, -0.19592851400375366, -0.8333197832107544, -0.8149564862251282, -0.3071037530899048, -0.15355059504508972, -0.51288902759552, -0.45426735281944275, 0.05717824026942253, 0.07041895389556885, -0.2809012532234192, 0.19867411255836487, 0.15366683900356293, -0.25125977396965027, -0.27777791023254395, 0.0684964582324028, 0.6881532669067383, 0.9378582835197449, -0.3306180238723755, -0.25839945673942566, -0.8848350048065186, -0.38859421014785767, -0.043325912207365036, 0.051196616142988205, 0.021536750718951225, 0.37888044118881226, 0.7163578867912292, 0.4145392179489136, 0.27508965134620667, -0.5464385151863098, -0.7773904204368591, -0.312580406665802, 0.05266048014163971, -0.23534241318702698, -0.5315799117088318, -0.3443867564201355, -0.03548908606171608, 0.3276151120662689, 0.3749169409275055, -0.5621894598007202, -0.8487983345985413, -0.7123262882232666, 0.00329428818076849, 0.33729538321495056, -0.3226901590824127, 0.23982053995132446, -0.7468275427818298, -0.6886364817619324, -0.5764808654785156, 0.03303011134266853, 0.3566419184207916, 0.7434844970703125, 0.49863550066947937, 0.25807392597198486, 0.47901445627212524, 0.3485477566719055, 0.02258218638598919, -0.4025585651397705, -0.4145956337451935, -0.026370177045464516, 0.12709760665893555, 0.07030867785215378, -0.3196480870246887, -0.26202666759490967, -0.12364739179611206, 0.1426546722650528, 0.07346799969673157, -0.478143572807312, -0.38477623462677, 0.02698957920074463, 0.3810204565525055, -0.1737336665391922, -0.0558655671775341, 0.3602665364742279, -1.1998186111450195, -0.2912144660949707, 0.035895347595214844, 0.6764920353889465, 0.9649561047554016, 0.4993303418159485, 0.4819383919239044, 0.5191610455513, 0.1561073511838913, -0.049756698310375214, -0.3752850592136383, -0.23914654552936554, -0.15833589434623718, -0.14551331102848053, 0.05725793167948723, 0.010733459144830704, -0.11377594619989395, -0.47276249527931213, -0.1029738187789917, -0.003327383426949382, 0.5048282146453857, 0.21671418845653534, -0.18110699951648712, -0.17122219502925873, -0.8161187767982483, 0.3974658250808716, 0.036878399550914764, 0.4971122741699219, -0.8924128413200378, -0.01224164105951786, 0.8687002062797546, 1.151295781135559, 1.7402150630950928, 1.0363638401031494, 0.5826730132102966, 0.3033433258533478, -0.007872558198869228, -0.17039331793785095, -0.19218730926513672, -0.25729796290397644, -0.2121255248785019, 0.14383530616760254, 0.1493702530860901, 0.1622583270072937, -0.25442612171173096, 0.14709874987602234, 0.0786915272474289, -0.3294806182384491, 0.2293892353773117, 0.17250940203666687, -0.228021502494812, -0.13518472015857697, -0.7536420822143555, 0.2706165015697479, 0.1313759982585907, 0.262136310338974, -0.44003018736839294, -0.33300453424453735, 0.8596352338790894, 1.067895531654358, 1.1200555562973022, 0.5790481567382812, 0.278621643781662, -0.005221580620855093, 0.17164084315299988, -0.16791963577270508, -0.3386622667312622, -0.4142628014087677, -0.4357069432735443, -0.2157793939113617, 0.09050323814153671, 0.1841704249382019, -0.1856347620487213, 0.014200159348547459, 0.156421959400177, 0.07322157919406891, 0.18491920828819275, 0.04398446902632713, -0.17660480737686157, -0.15363523364067078, -0.23433683812618256, 0.10041548311710358, 0.12460923939943314, -0.08094649016857147, -0.38939839601516724, -0.18237926065921783, 0.6453432440757751, 0.9965334534645081, 0.8442940711975098, 0.17771609127521515, -0.006099933758378029, -0.10060390830039978, 0.19974078238010406, -0.07819733768701553, -0.2946334779262543, -0.30484405159950256, -0.4570448696613312, -0.29314732551574707, -0.36069169640541077, -0.23016387224197388, 0.2307591587305069, -0.13384012877941132, -0.09714566171169281, 0.05938636511564255, 0.1036396250128746, -0.06212134286761284, -0.5448654890060425, -0.8886643052101135, -0.28370609879493713, 0.05606669932603836, -0.05124069005250931, -0.21819666028022766, -0.7362297177314758, -0.8738799691200256, 0.21072064340114594, 0.41677579283714294, 0.6036171317100525, 0.406798392534256, 0.41941526532173157, 0.6059806942939758, 0.3845769464969635, -0.11446033418178558, -0.5732414126396179, -0.12024454772472382, -0.019183188676834106, -0.4086591601371765, -0.008098427206277847, 0.17320220172405243, 0.4642045795917511, -0.060676418244838715, -0.3349810838699341, -0.13134987652301788, -0.078183613717556, -0.06319168955087662, -0.15019245445728302, -1.1713238954544067, -0.38018423318862915, 0.3485783636569977, -0.09279174357652664, 0.021569080650806427, -0.9746495485305786, -0.8090823292732239, -0.40852826833724976, -0.21412108838558197, 0.21713101863861084, 0.6064437031745911, 0.5373339653015137, 0.6530541181564331, 0.23140910267829895, -0.25950106978416443, -0.3038668930530548, 0.2562566101551056, 0.37939131259918213, 0.5687028765678406, 0.5262376666069031, 0.5789715647697449, 0.21092237532138824, 0.03585462644696236, 0.004361845552921295, 0.12019367516040802, 0.13052316009998322, -0.5567765831947327, -0.43267178535461426, -0.259994775056839, -0.12281329929828644, -0.06509865820407867, 0.8874765038490295, 0.19598209857940674, -0.67933589220047, -0.5921162962913513, -0.6315720677375793, -0.3548617660999298, -0.34751269221305847, -0.14945153892040253, 0.02647947520017624, 0.10016333311796188, 0.0860709697008133, 0.3509765565395355, 0.31775736808776855, 0.8273853063583374, 0.7975713014602661, 0.7860567569732666, 0.3669765591621399, 0.12562935054302216, 0.047489795833826065, 0.14623811841011047, 0.11909909546375275, -0.22754502296447754, 0.534663200378418, -0.04425273835659027, -0.29297173023223877, -1.2984249591827393, 0.008293047547340393, 0.06885964423418045, 0.49344784021377563, -0.22105197608470917, -0.7964963316917419, -0.354653924703598, -0.20886076986789703, -0.3613380491733551, -0.4097924828529358, -0.4642059803009033, 0.04044688865542412, -0.382186621427536, -0.10618235915899277, 0.3124236762523651, 0.42486536502838135, 0.9208161234855652, 0.7003808617591858, 0.5837317109107971, 0.42943111062049866, -0.019301261752843857, 0.07145354896783829, 0.15162642300128937, -0.13140350580215454, -0.08390256017446518, -0.1583087146282196, -0.001625527860596776, -0.8692625164985657, -0.5818135142326355, 0.4931107759475708, 0.007872039452195168, -0.45608285069465637, -0.06737969070672989, -0.6080969572067261, -0.9120835065841675, 0.025679711252450943, -0.570989191532135, -0.20670321583747864, -0.5610343217849731, -0.3349672555923462, -0.4574595093727112, -0.3002440631389618, -0.26274704933166504, 0.006287037394940853, 0.17675332725048065, 0.46189045906066895, 0.3388270139694214, 0.1384599357843399, 0.059369444847106934, 0.022398266941308975, 0.006039947737008333, -0.12697094678878784, -0.07473556697368622, 0.216932013630867, 0.501558244228363, 0.24633578956127167, 0.2735373079776764, 0.33187001943588257, 0.016968930140137672, 0.09287814050912857, -0.618523895740509, -0.7797259092330933, -1.24211847782135, -0.24890947341918945, -0.8571913242340088, -0.3840782344341278, -0.339031457901001, -0.20731419324874878, -0.2913365662097931, -0.31856638193130493, -0.34990185499191284, -0.17844346165657043, -0.008385930210351944, 0.20336423814296722, 0.18601055443286896, -0.07057152688503265, -0.13043132424354553, 0.3038681447505951, 0.06260070949792862, 0.004256631247699261, 0.07164647430181503, 0.7642614841461182, 0.12552791833877563, 0.30367907881736755, 0.2233109325170517, 0.4349174499511719, 0.06794016808271408, 0.008150391280651093, -0.3867398500442505, -0.8757423162460327, -1.2055009603500366, -0.9173852801322937, -0.7364056706428528, -0.30337730050086975, -0.6784234642982483, -0.07325562834739685, -0.039433617144823074, 0.05497957393527031, -0.09707503020763397, -0.04606860503554344, 0.06146371737122536, 0.22421979904174805, 0.10867596417665482, 0.10360455513000488, -0.36578404903411865, -0.1628125160932541, -0.27435368299484253, -0.3276154100894928, -0.5287111401557922, 0.09769351780414581, -0.032258402556180954, -0.47278326749801636, -0.0002940510748885572, -0.046278297901153564, -0.07729783654212952, 0.012916795909404755, 0.17065800726413727, -0.20901596546173096, 0.5202713012695312, -0.4512522518634796, -0.7080816030502319, -0.525363028049469, -0.3699687421321869, -0.1470891386270523, -0.12142741680145264, -0.1536574363708496, 0.07070190459489822, 0.009568710811436176, 0.12742982804775238, 0.2241620421409607, -0.018275657668709755, 0.8980782628059387, 0.2672087848186493, 0.0011099687544628978, 0.3695940375328064, 0.3411106467247009, -0.3386092185974121, -0.2117518037557602, 0.010831743478775024, 0.013604739680886269, 0.15633855760097504, 0.062483079731464386, -0.05045328289270401, 0.05943819135427475, -0.4156748056411743, 0.0886959433555603, -0.4309989809989929, -0.32892724871635437, 0.0446200929582119, 0.21136508882045746, 0.02280302532017231, 0.07142569124698639, -0.30416324734687805, -0.08358282595872879, 0.14362548291683197, -0.2633480429649353, -0.32720884680747986, -0.0025565975811332464, 0.23511457443237305, 0.41435420513153076, 0.728151798248291, 0.30793145298957825, -0.028428686782717705, -0.4834817051887512, 0.05932280048727989, 0.05228588730096817, 0.7423409819602966, 0.30324938893318176, -0.32851454615592957, 0.06987585872411728, 0.05813085287809372, -0.011962316930294037, 0.04480937868356705, -0.18120399117469788, -0.8721339702606201, -0.2167750895023346, -0.26493602991104126, -0.05548073723912239, -0.38712671399116516, -0.328193724155426, -0.08472821116447449, -0.21829241514205933, -0.3504559397697449, -0.48722511529922485, -0.9726447463035583, 0.3437446355819702, 0.18200619518756866, 0.06878595799207687, 0.3806518018245697, 0.3736037313938141, 0.3752933740615845, -0.3147287666797638, 0.01084071770310402, -0.6119921803474426, -0.23959070444107056, 0.24516661465168, -0.0071591660380363464, 0.0494956448674202, 0.018058449029922485, -0.010264851152896881, -0.0034484639763832092, 0.04564454406499863, 0.18328343331813812, 0.42716875672340393, -0.2651052176952362, -0.1268385350704193, -0.49367406964302063, -0.23872575163841248, 0.6880724430084229, 0.46090131998062134, 0.7333075404167175, 1.027292013168335, 0.07540212571620941, -0.14578533172607422, 0.3780745565891266, 0.15094107389450073, -0.16319076716899872, 0.3815729022026062, 0.023872515186667442, 0.08284477889537811, 0.358046293258667, 0.1543373465538025, -0.026409298181533813, -0.020862028002738953, 0.0627327635884285, -0.009951040148735046], [0.021985650062561035, -0.02804844081401825, 0.07097817212343216, -0.04671388491988182, 0.053998880088329315, -0.0026099011301994324, 0.04366625100374222, -0.012198016047477722, -0.07119373977184296, -0.0701359286904335, -0.0402219332754612, -0.06436857581138611, 0.0778014212846756, 0.09328287094831467, -0.016709186136722565, -0.0699520856142044, -0.002858974039554596, 0.01850128173828125, 0.041883327066898346, 0.048773832619190216, 0.05839861184358597, 0.06655590981245041, 0.026593133807182312, -0.07050292193889618, 0.030159853398799896, -0.042820967733860016, 0.036578454077243805, 0.049310870468616486, -0.04137769341468811, -0.053199999034404755, 0.021123647689819336, 0.0404859259724617, 0.030166422948241234, 0.016963019967079163, 0.1321796178817749, 0.3223608136177063, 0.22661247849464417, 0.8387015461921692, 0.814781665802002, 0.7143768668174744, 0.7729095816612244, 1.1468594074249268, 0.7474862933158875, 1.2616424560546875, 0.6642248630523682, 0.5913510918617249, 0.5453802943229675, 0.5330623984336853, 0.41196319460868835, 0.12299466133117676, 0.04073389247059822, 0.036924462765455246, -0.04912062734365463, 0.0030533894896507263, -0.018768221139907837, -0.0694613829255104, -0.06854599714279175, -0.022840283811092377, 0.021393300965428352, 0.5001815557479858, 0.611452043056488, -0.25659576058387756, -0.04611232131719589, 0.1447930932044983, -0.719123363494873, -0.45304301381111145, -0.16180960834026337, -0.05566687136888504, -0.056878119707107544, 0.09625773131847382, -0.26533374190330505, 0.12313329428434372, 0.24346251785755157, -0.45493772625923157, -0.8333734273910522, -0.34730833768844604, -0.27426403760910034, -0.15505805611610413, -0.31808432936668396, -0.21955250203609467, 0.1878236085176468, 0.20300938189029694, 0.03294570744037628, 0.08522581309080124, 0.003141239285469055, 0.0762087032198906, 0.2881658673286438, 0.5132765173912048, 0.22847634553909302, 0.009318050928413868, 0.05450194329023361, 0.4925706386566162, -0.011331692337989807, -0.7474822402000427, -0.7389888763427734, -0.6932448148727417, 0.025349708274006844, 0.4543837010860443, 0.3324957489967346, 0.32858315110206604, 0.7869715690612793, 0.4895317256450653, 0.14261260628700256, -0.2502462565898895, 0.3216644823551178, 0.4074961245059967, -0.06838639080524445, 0.28701314330101013, 0.13391005992889404, 0.38028469681739807, -0.396969199180603, -0.05604521185159683, -0.024124734103679657, -0.03623036667704582, 0.20187363028526306, -0.10122999548912048, -0.08279169350862503, -0.07921143621206284, 0.5383515954017639, 0.5900965332984924, 0.021277595311403275, -0.6293179392814636, -0.2821986675262451, 0.30557528138160706, -0.11636795848608017, -0.028743116185069084, -0.275032103061676, -0.17832213640213013, 0.09218956530094147, 0.0013501567300409079, -0.3480890095233917, -0.16556845605373383, -0.31635311245918274, -0.07852955907583237, -0.12203097343444824, 0.10727210342884064, -0.27793681621551514, -0.6673004031181335, -0.5532366037368774, -0.2612380087375641, 0.01143154501914978, -0.02679336443543434, 0.009752967394888401, -0.344902902841568, -0.07246607542037964, -0.2144719809293747, -0.32604214549064636, -0.3024272322654724, -0.6675370335578918, -0.6047677397727966, -0.5204304456710815, -0.6319918632507324, -0.196975976228714, 0.27478766441345215, -0.14117492735385895, -0.19024015963077545, 0.1461324691772461, -0.3320218622684479, -0.8425717353820801, -0.03603789955377579, -0.03591945022344589, -0.42050889134407043, -0.6316465139389038, 0.005602588877081871, -0.46051743626594543, -0.6556157469749451, -0.27224254608154297, -0.3701949417591095, -0.05494645982980728, -0.04562922939658165, -0.10298860818147659, 0.5709786415100098, 0.39690104126930237, -0.39013031125068665, -0.7894949316978455, -0.38446077704429626, -0.4838200509548187, -1.0303890705108643, -0.7493203282356262, -0.1117124930024147, 0.30995193123817444, 0.2613491117954254, -0.2347119301557541, -0.4717353284358978, -0.243527352809906, -0.5101383924484253, -0.4581042528152466, 0.205923929810524, 0.09314019232988358, 0.6063022613525391, 0.21620497107505798, 0.6258621215820312, -0.05905105918645859, -0.47563278675079346, -0.6236010789871216, -0.37827348709106445, 0.07520714402198792, 0.5303102135658264, -0.32681161165237427, 0.8351463079452515, 0.43770337104797363, 0.06741274148225784, -0.06418100744485855, -0.08447402715682983, -0.5396829843521118, -0.8317630887031555, -0.3558155298233032, -0.2796380817890167, 0.1751219928264618, -0.2922438383102417, -0.46080854535102844, -0.5540464520454407, -0.37515968084335327, -0.4472889006137848, -0.37147045135498047, 0.1160808652639389, -0.5386856198310852, -0.16787046194076538, -0.05927339196205139, 0.25115692615509033, 0.1131834015250206, 0.20597892999649048, -0.3183083236217499, 0.06058797612786293, 0.464121013879776, 0.801373302936554, 0.20538441836833954, 0.808371901512146, 0.23671038448810577, 0.0942276120185852, 0.40655165910720825, -0.14624355733394623, -0.26390084624290466, -0.09741707891225815, -0.24806439876556396, -0.4414818584918976, 0.11999428272247314, -0.009618579410016537, -0.17077545821666718, -0.16224993765354156, -0.07765156030654907, -0.34174615144729614, -0.20681150257587433, -0.1295320838689804, -0.06991071999073029, -0.058341965079307556, -0.12726999819278717, 0.5044857263565063, 0.4264203906059265, 0.28900861740112305, -0.2605609595775604, -0.38112226128578186, 0.2644420564174652, 0.7668666243553162, -0.2797092795372009, 0.21603217720985413, 0.2649190425872803, 0.05360479652881622, 0.5121469497680664, 0.06965111941099167, -0.1390596181154251, 0.25190943479537964, -0.1463470160961151, -0.04768993332982063, 0.11908641457557678, 0.5354189276695251, 0.4651433229446411, 0.04658474028110504, -0.15700775384902954, -0.05474933981895447, 0.3804685175418854, 0.16060717403888702, 0.10857080668210983, 0.2519661784172058, 0.30189552903175354, -0.00961863063275814, 0.3567233383655548, 0.16570693254470825, -0.026538018137216568, -0.19769152998924255, 0.28466796875, 0.7834334969520569, 0.5719689130783081, 0.47721102833747864, 0.033363789319992065, 0.040276411920785904, 0.3732081353664398, -0.03578859567642212, -0.25514933466911316, 0.23235660791397095, 0.13187675178050995, 0.3659054636955261, 0.19621534645557404, 0.3957613408565521, 0.06438946723937988, -0.38415810465812683, -0.5792556405067444, -0.39448752999305725, -0.08064443618059158, 0.35983848571777344, 0.40086591243743896, 0.5510075092315674, 0.33272087574005127, 0.43589937686920166, 0.5950067639350891, 0.4774031639099121, 0.10209443420171738, 0.0847020298242569, 0.14757250249385834, 0.7764696478843689, 0.5929426550865173, 0.6759504675865173, 0.12638124823570251, -0.21561990678310394, 0.1458957940340042, -0.1885475218296051, -0.10862890630960464, 0.02116262912750244, 0.057796042412519455, 0.21392716467380524, 0.12097390741109848, -0.16776558756828308, -0.28070327639579773, -0.5215709805488586, -0.768401026725769, -0.4414614737033844, 0.2622188329696655, 0.4021226167678833, 0.6499443650245667, 0.10384570062160492, 0.18484944105148315, -0.07441233843564987, 0.3773390054702759, 0.16273097693920135, 0.2547816336154938, 0.12423078715801239, 0.2995871603488922, 0.8974300026893616, 0.10550493001937866, 0.3187001645565033, 0.01899261400103569, 0.02515788935124874, 0.0789160206913948, 0.13995227217674255, 0.28210294246673584, 0.5529651641845703, 0.3338952958583832, 0.3273928761482239, -0.04044399410486221, -0.3253575265407562, -0.24089032411575317, -0.6234692335128784, -0.13599815964698792, -0.32596924901008606, -0.12799303233623505, 0.010537357069551945, 0.28549033403396606, -0.28439512848854065, 0.07793959230184555, 0.2995850145816803, 0.8560696840286255, 0.63059002161026, 0.5891084671020508, 0.39443695545196533, -0.11282308399677277, 0.8309868574142456, 0.5198146104812622, 0.219788059592247, 0.1761246770620346, 0.29051467776298523, 0.2546273469924927, 0.3449505567550659, 0.37672722339630127, 0.6843664646148682, 0.5601122975349426, 0.23372820019721985, -0.5062689781188965, -0.9268566370010376, -0.10819962620735168, -0.1081431657075882, -0.04134224355220795, -0.47473981976509094, -0.5895991921424866, -0.6131020188331604, -0.13424205780029297, -0.03965767100453377, -0.0926145389676094, 0.37784892320632935, 0.280911922454834, 0.8122511506080627, 0.2971477806568146, -0.7985053062438965, -0.18578994274139404, 0.6053071022033691, 0.8076289892196655, 0.32799726724624634, -0.3247542083263397, 0.27448853850364685, 0.13565698266029358, 0.04280664399266243, 0.4145333468914032, 0.22453173995018005, 0.11713539808988571, -0.47655588388442993, -1.3475494384765625, -1.116021752357483, -0.3670603632926941, -0.2038184255361557, -0.33420059084892273, -0.7665495276451111, -0.5696410536766052, -0.42132997512817383, -0.38214102387428284, -0.16544727981090546, -0.0185973159968853, 0.7251328229904175, -0.04759540781378746, 0.019529731944203377, -0.03864678367972374, -0.09507198631763458, 0.10270942747592926, 0.11148251593112946, 0.08314432948827744, 0.3744480609893799, -0.041451722383499146, 0.16597168147563934, 0.3381712734699249, 0.3107927739620209, 0.16520071029663086, 0.11511783301830292, -0.21629741787910461, -1.4614862203598022, -2.148635149002075, -0.9967488050460815, -0.2275564819574356, -0.1401979923248291, -0.3598922789096832, -0.4326671063899994, -0.5258500576019287, -0.35989105701446533, 0.007901806384325027, -0.3282879590988159, -0.06780749559402466, 0.32487696409225464, 0.2531452775001526, -0.3625600039958954, 0.20949535071849823, 0.025420479476451874, 0.46426981687545776, 0.3729412853717804, 0.39705318212509155, 0.48298487067222595, 0.43825042247772217, 0.2995043694972992, 0.07845837622880936, 0.032328661531209946, 0.20857325196266174, 0.068890780210495, -0.768571138381958, -2.0402703285217285, -1.702402114868164, -0.2906032204627991, 0.027198631316423416, -0.04516516253352165, -0.2801131308078766, -0.5373359322547913, -0.4549899697303772, -0.14674045145511627, 0.33542928099632263, -0.017300644889473915, -0.12735100090503693, 0.09985748678445816, -0.1228024810552597, -0.6622045636177063, 0.01810280978679657, 0.3101571500301361, 0.030058875679969788, 0.5626330971717834, 0.2328793853521347, 0.25623413920402527, 0.24767887592315674, 0.2967565953731537, -0.08462922275066376, -0.4487854540348053, -0.14045339822769165, -0.25912773609161377, -1.2218613624572754, -1.2592413425445557, -0.6646748781204224, -0.02055719867348671, 0.3487245440483093, 0.004722252953797579, -0.3743041753768921, -0.36966750025749207, -0.31138086318969727, -0.4291107952594757, -0.09540102630853653, -0.10342448949813843, 0.09186659008264542, -0.0021024695597589016, -0.46543723344802856, -0.2777237892150879, -0.6934252381324768, -0.5023107528686523, 0.3556477725505829, 0.14847026765346527, 0.4617834687232971, -0.6763879656791687, -0.21224042773246765, -0.24650399386882782, -0.14581340551376343, -0.45689722895622253, -0.2448922097682953, -0.28694620728492737, -0.8186606764793396, -0.7570178508758545, -0.7154678702354431, -0.11806773394346237, 0.6245924830436707, -0.18216554820537567, -0.400098979473114, -0.5678964257240295, -0.21961325407028198, -0.238577201962471, 0.07130293548107147, 0.3856547474861145, 0.0025165306869894266, -0.21176600456237793, -0.797645628452301, 0.05008949339389801, -0.28515660762786865, -0.41836798191070557, -0.02731657214462757, 0.4896756410598755, 0.2892895042896271, -1.033703088760376, -0.34397536516189575, -0.1927434802055359, 0.08433807641267776, -0.4200946092605591, -0.6045549511909485, -0.31619954109191895, -0.8328888416290283, -0.8235381841659546, -0.7261189222335815, -0.13270527124404907, 0.06517508625984192, 0.01896255649626255, -0.10350576788187027, -0.21000729501247406, -0.270876407623291, -0.011609409935772419, 0.33927997946739197, -0.18854586780071259, -0.7979644536972046, -0.365488737821579, -0.6311976313591003, 0.3577127456665039, -0.7076226472854614, -0.2699763774871826, -0.04542320966720581, 0.7056092619895935, -0.40566113591194153, -1.1410834789276123, -0.7615247964859009, -0.20976276695728302, -0.268456369638443, -0.18051044642925262, -0.31735658645629883, -0.16989073157310486, 0.1202794536948204, -0.08089668303728104, 0.10500004142522812, -0.06648606806993484, 0.024315889924764633, 0.31005144119262695, 0.17567814886569977, 0.32047319412231445, 0.1356533318758011, 0.48507651686668396, 0.4376850128173828, 0.030001550912857056, 0.16028843820095062, -0.8171616196632385, -0.13664832711219788, 0.4010237753391266, -0.6363257765769958, 0.3473561108112335, 0.1508321613073349, 0.08782117068767548, 0.4803987145423889, -0.35375452041625977, 0.178430438041687, 0.0724925696849823, -0.07128489762544632, 0.3059895932674408, 0.16137945652008057, -0.15900249779224396, 0.3213910460472107, 0.6721487045288086, 0.30205047130584717, 0.15238027274608612, 0.0016099949134513736, 0.456091970205307, 0.4655667245388031, 0.31647586822509766, 0.45861345529556274, 0.50421541929245, 0.6069700121879578, 0.31844690442085266, 0.1356956511735916, -0.46071895956993103, 0.6053200960159302, 0.14367365837097168, -0.5025033950805664, 0.42497968673706055, 0.13062280416488647, 0.06529030948877335, 0.35656970739364624, -0.7151476740837097, 0.5308747291564941, 0.05070167034864426, 0.25342246890068054, 0.22736550867557526, 0.4874277710914612, 0.36069294810295105, 0.17476332187652588, 0.3103395402431488, 0.2372971624135971, 0.39350181818008423, 0.15207362174987793, 0.548306405544281, 0.4554387032985687, 0.50865638256073, 0.512795090675354, 0.5718593001365662, 0.2968004047870636, 0.3596225082874298, -0.17201752960681915, -0.4503367841243744, 0.11031360179185867, 0.3778993487358093, 0.5445539355278015, 0.4602733552455902, 0.034650079905986786, -0.07243827730417252, 0.06181070953607559, -0.6538385152816772, -0.7056326866149902, -0.34050148725509644, 0.14113207161426544, 0.13581582903862, 0.031500138342380524, 0.19420737028121948, -0.007417751010507345, -0.03162442892789841, -0.01207627635449171, -0.025054777041077614, 0.269405335187912, 0.3800237774848938, 0.2641584575176239, 0.23957544565200806, 0.17344994843006134, -0.012001683935523033, 0.0724049061536789, -0.02332141250371933, -0.31464147567749023, -0.4503038823604584, -0.03223057836294174, -0.10025527328252792, 0.5417341589927673, 0.0224054753780365, -0.041322365403175354, 0.03254106640815735, 0.1827774941921234, 0.006280526984483004, -0.9028829336166382, -0.28280550241470337, -0.3383822441101074, 0.13821274042129517, 0.03821460157632828, -0.02137119695544243, 0.060345135629177094, -0.06438637524843216, -0.06674321740865707, 0.009566210210323334, 0.07452892512083054, -0.09775349497795105, -0.27350959181785583, 0.27678102254867554, 0.1927684098482132, 0.28553301095962524, 0.027853989973664284, 0.34730738401412964, -0.29649728536605835, -0.8529196381568909, -0.38503900170326233, 0.3674716353416443, 0.5499762296676636, 0.06129121035337448, -0.045446403324604034, 0.029508188366889954, -0.5384700298309326, -0.40686675906181335, -0.40632879734039307, 0.30520546436309814, 0.02799360454082489, 0.49729806184768677, 0.46317410469055176, 0.5867501497268677, 0.1173955425620079, 0.40331974625587463, 0.16705578565597534, 0.546690046787262, 0.5081255435943604, 0.261446088552475, 0.16371341049671173, -0.401105135679245, 0.10554786771535873, 0.7267446517944336, 0.44177600741386414, 0.460692435503006, 0.3266734182834625, 0.008862670511007309, 0.5221386551856995, 0.10200489312410355, -0.054567720741033554, 0.0031167417764663696, -0.07131144404411316, 0.04569648951292038, 0.027303844690322876, -0.3026618957519531, -0.7526129484176636, -0.22704161703586578, -0.006217023357748985, 0.04309702292084694, 0.25139710307121277, -0.22162917256355286, -0.24099960923194885, -0.003110472345724702, 0.026612186804413795, 0.2087698131799698, 0.06734814494848251, 0.29319247603416443, 0.1946839690208435, -0.25179508328437805, 0.10830151289701462, 1.009608507156372, 0.6577618718147278, 0.3167756199836731, 0.6962960958480835, 0.28921541571617126, -0.1789541244506836, 0.44111672043800354, 0.022205986082553864, -0.019600972533226013, 0.021321915090084076, 0.009323880076408386, -0.07715199142694473, -0.07618555426597595, 0.6842463612556458, 0.934768795967102, 0.1358698159456253, 0.931166410446167, 0.23432236909866333, 0.14698098599910736, 0.4326087534427643, -0.13427628576755524, 0.1328878551721573, 0.7678973078727722, 0.22813823819160461, -0.5466023683547974, 0.02559458278119564, 0.46715831756591797, 0.5200681686401367, 0.9128694534301758, -0.10820916295051575, -0.06474073976278305, 0.34876516461372375, 0.608876645565033, -0.043500833213329315, -0.032204899936914444, 0.024842284619808197, -0.05412596836686134], [-0.017326563596725464, -0.08507010340690613, 0.0618402436375618, -0.08519193530082703, -0.003462262451648712, -0.061315737664699554, -0.06758318096399307, 0.05794034153223038, -0.011471033096313477, 0.0711495652794838, -0.06359634548425674, -0.08071983605623245, 0.05334373190999031, 0.26192358136177063, 0.38783180713653564, 0.06046617031097412, -0.023484844714403152, -0.02589312195777893, 0.059697262942790985, 0.07645834237337112, 0.04457809776067734, -0.020180217921733856, -0.035668227821588516, -0.04851004481315613, 0.06738599389791489, -0.04348507151007652, 0.06223217397928238, 0.040564797818660736, 0.019083529710769653, -0.049814168363809586, 0.03885800391435623, -0.07291290163993835, -0.038818709552288055, -0.026172885671257973, 0.10586844384670258, 0.2645142078399658, 0.035029541701078415, 0.10081662982702255, 0.5093023180961609, 0.22425884008407593, -0.19767670333385468, -0.38738298416137695, -0.0954103097319603, 0.42336949706077576, 1.0121012926101685, 0.8722463250160217, 0.5458753108978271, 0.49510592222213745, 0.3874629735946655, 0.32047438621520996, 0.24697400629520416, 0.01755688339471817, 0.041457973420619965, 0.011732935905456543, 0.04680090397596359, 0.020113810896873474, 0.05598730593919754, -0.03650845214724541, 0.03253844380378723, 0.293640673160553, -0.3627387583255768, -0.021776340901851654, 0.6558010578155518, -0.23964953422546387, 0.5667389035224915, 1.2445881366729736, 1.3481197357177734, 1.1045113801956177, 0.9051762819290161, 0.518565833568573, 0.17357468605041504, 0.12877149879932404, 0.44191405177116394, 0.5005913376808167, 0.43019023537635803, 0.2939033508300781, 0.16480103135108948, 0.5126200914382935, -0.14107684791088104, -0.01463652029633522, 0.6081690788269043, 0.42668887972831726, 0.036762677133083344, -0.0838545709848404, 0.023725688457489014, -0.07053326070308685, 0.37080103158950806, 0.5777611136436462, -0.073743537068367, 0.15834033489227295, 0.8965073823928833, -0.29928091168403625, 0.3247097134590149, 0.7420144081115723, 0.11124774068593979, -0.1252954602241516, 0.2291010320186615, 0.45095095038414, -0.36173081398010254, -0.6158385276794434, -0.025414111092686653, -0.0796247348189354, -0.16547483205795288, -0.06106073781847954, 0.20090149343013763, 0.17130300402641296, 0.15127979218959808, 0.30581483244895935, 0.37856560945510864, 0.35509082674980164, 0.23883044719696045, -0.06192339211702347, -0.04717671498656273, 0.3587755858898163, -0.024028804153203964, -0.10399211198091507, 0.06096791848540306, -0.12395588308572769, -0.21270672976970673, -0.682291567325592, -0.17578402161598206, -0.5032667517662048, -0.355674147605896, -0.1802811175584793, 0.011825948022305965, -0.15773306787014008, 0.08451119810342789, -0.0438627228140831, -0.1481669694185257, -0.19670704007148743, -0.24470387399196625, -0.04149564728140831, 0.2376587837934494, -0.04535622149705887, 0.13009010255336761, -0.10364442318677902, -0.7742617130279541, -0.24341987073421478, 0.3156633973121643, -0.02699519693851471, 0.00443807989358902, -0.024853117763996124, 0.4236330986022949, 0.10996793210506439, 0.5238728523254395, -0.4547865092754364, -0.11283247917890549, 0.11626961827278137, -0.07049877196550369, -0.2939000725746155, 0.10915541648864746, 0.11172524839639664, 0.10826381295919418, 0.19457855820655823, -0.033532824367284775, 0.09741930663585663, -0.14122481644153595, -0.26992133259773254, -0.23036149144172668, -0.07116822153329849, -0.02214995212852955, 0.064008928835392, -0.05530055984854698, 0.1398797184228897, -0.2178173065185547, 0.27418282628059387, 0.6058395504951477, 0.3126046061515808, 0.0706450566649437, -0.04066132754087448, -0.12246684730052948, -0.2900875210762024, -0.060855939984321594, -0.023877134546637535, 0.10535894334316254, -0.34814199805259705, -0.025447925552725792, 0.09312378615140915, 0.3756294548511505, 0.3688531219959259, 0.14970923960208893, 0.06424330919981003, -0.09848104417324066, -0.15634015202522278, -0.3580092191696167, -0.4107069969177246, -0.2137201577425003, 0.0038344068452715874, -0.0654928982257843, -0.42421549558639526, -0.002487566089257598, -0.16712306439876556, -0.3580145537853241, -0.11428620666265488, 0.30013057589530945, 0.4837968647480011, 0.0032278997823596, 0.08572041243314743, 0.17427240312099457, -0.2937988042831421, 0.0906030461192131, 0.04229573905467987, 0.24923479557037354, 0.19145488739013672, 0.15090617537498474, 0.23094992339611053, 0.13284115493297577, 0.5358572602272034, 0.24207541346549988, 0.10401368141174316, 0.07502679526805878, -0.24575698375701904, -0.5440902709960938, -0.3281551003456116, -0.3503245413303375, -0.1133127436041832, -0.034931525588035583, 0.17191287875175476, -0.09273408353328705, -0.1756369173526764, -0.017364507541060448, -0.7133567333221436, 1.0384060144424438, 0.3612561523914337, -0.051119331270456314, -0.02992659993469715, 0.06455323845148087, -0.333077996969223, 0.3378630578517914, -0.1696818321943283, -0.21710316836833954, 0.13125848770141602, 0.12776780128479004, 0.009906475432217121, 0.33301210403442383, 0.25254473090171814, 0.2903398871421814, 0.2597520351409912, 0.36188745498657227, 0.0223142821341753, -0.44989854097366333, -0.12402325123548508, 0.042051784694194794, 0.07556157559156418, 0.11591596156358719, -0.10926296561956406, 0.007615366950631142, -0.03574220463633537, -0.3704755902290344, -0.9410355091094971, 0.8954718708992004, 0.5490646958351135, -0.07615993916988373, -0.5791671276092529, 0.06696148216724396, -0.1538538634777069, 0.18622764945030212, -0.09569443762302399, 0.1880148947238922, 0.39671236276626587, 0.3860206604003906, 0.5146738290786743, 0.2649995684623718, 0.5336290597915649, 0.3334590792655945, -0.2118835598230362, -0.3707443177700043, -0.2792776823043823, -0.3220796585083008, -0.1649734377861023, 0.015945395454764366, -0.12643469870090485, -0.17183290421962738, -0.3284153342247009, 0.01662992127239704, 0.11617082357406616, -0.6478952765464783, -0.3770939111709595, 0.34961938858032227, 0.46159473061561584, 0.01412823423743248, -0.5642584562301636, -0.2779674530029297, -0.49344000220298767, 0.3295527696609497, 0.07262218743562698, 0.6537294387817383, 0.7999480366706848, 0.7405639886856079, 0.5276806354522705, 0.18369747698307037, 0.32378166913986206, -0.5026605129241943, -1.1037334203720093, -1.3465670347213745, -0.8222202658653259, -0.26626476645469666, 0.0617418996989727, -0.05619029700756073, -0.11917596310377121, -0.20329469442367554, -0.08895841240882874, -0.18827864527702332, -0.18837861716747284, -0.3586672246456146, 0.47099658846855164, 0.552128255367279, 0.199718177318573, -0.1302035003900528, 0.2949364483356476, -0.4872937500476837, -1.0334879159927368, -0.5300830006599426, 0.1945335865020752, 0.17960122227668762, -0.16726471483707428, -0.19303590059280396, -0.6079509854316711, -1.4344117641448975, -1.2960877418518066, -1.9184914827346802, -1.7720468044281006, -1.1727145910263062, -0.5098969340324402, -0.12358196079730988, -0.1976652592420578, -0.426238089799881, -0.21713773906230927, -0.15941758453845978, -0.11256612837314606, 0.051487404853105545, 0.021234683692455292, 0.024723293259739876, 0.687987744808197, -0.05029263347387314, -0.13382472097873688, -0.05499206483364105, -0.4355376660823822, -0.5506466031074524, -1.5220913887023926, -0.9410349130630493, -0.49459365010261536, -1.0669115781784058, -1.9731323719024658, -2.3046987056732178, -2.766737699508667, -3.1899425983428955, -2.3294005393981934, -1.3469997644424438, -0.8190045356750488, -0.33455920219421387, -0.1881050020456314, -0.31979143619537354, -0.525077223777771, -0.24431145191192627, -0.3509698212146759, -0.4184954762458801, -0.25446760654449463, -0.45458486676216125, 0.14165779948234558, 0.3024744987487793, 1.1042039394378662, 0.17062443494796753, -0.13450869917869568, -0.1987878680229187, -0.550721287727356, -0.5547886490821838, -1.4254087209701538, -1.8262470960617065, -2.278233766555786, -2.124112844467163, -2.410160541534424, -2.384695053100586, -1.4631074666976929, -1.001699686050415, 0.09358429908752441, 0.3876774311065674, 0.15794286131858826, -0.01278386265039444, -0.26967549324035645, -0.13517729938030243, -0.14032861590385437, -0.05993795767426491, -0.2421550452709198, -0.17488828301429749, 0.37295982241630554, 0.08906690776348114, 0.11576375365257263, -0.1851487159729004, 0.0675332099199295, 0.7783227562904358, 0.3652253746986389, -0.125472754240036, -0.3205830156803131, -0.4055326282978058, -0.9812806844711304, -1.1004061698913574, -1.3673653602600098, -0.7859834432601929, -0.16015534102916718, 0.06323042511940002, 0.5673192143440247, 0.697900116443634, 0.6046385765075684, 0.4875200092792511, 0.4852079749107361, 0.19695603847503662, -0.14537476003170013, -0.26384612917900085, -0.30405300855636597, -0.14240102469921112, -0.4192960560321808, -0.218543142080307, -0.03693253919482231, 0.07708784937858582, -0.22683759033679962, -0.1104273721575737, 0.5197635293006897, 1.0241039991378784, 0.5513381958007812, -0.11069884151220322, -0.09622485935688019, 0.5225799679756165, -0.37497225403785706, -0.3709201514720917, 0.5340762734413147, -0.04251174256205559, 0.1851242631673813, 0.5631386637687683, 0.4968036413192749, 0.5219777822494507, 0.30628111958503723, 0.07188878953456879, 0.5566734075546265, 0.22333009541034698, 0.12605047225952148, 0.05378264561295509, -0.2537308633327484, -0.21685576438903809, -0.4274548888206482, -0.2758462131023407, 0.0966053158044815, 0.06468821316957474, 0.2835403084754944, 0.5086222887039185, 0.552113950252533, 0.8100788593292236, 0.7212469577789307, 0.06514598429203033, 0.35491877794265747, 0.27295392751693726, 0.46759530901908875, 0.2249472439289093, 0.35179007053375244, 0.44483983516693115, -0.022726090624928474, 0.04277234897017479, 0.18452616035938263, 0.46019893884658813, 0.3895750045776367, 0.27304649353027344, 0.5037930011749268, 0.5915268063545227, 0.020436609163880348, 0.007303391117602587, -0.2705473303794861, -0.6049685478210449, -0.3979598581790924, -0.20063315331935883, -0.01380353607237339, 0.25665387511253357, 0.10022912919521332, 0.2707427144050598, 0.21282219886779785, 0.732683539390564, 0.5110604166984558, -0.013732954859733582, 0.5123490691184998, 0.40220388770103455, 0.10175204277038574, 0.18645602464675903, 0.138094961643219, 0.4566485285758972, -0.06456349790096283, -0.09621807187795639, 0.07037312537431717, 0.19782529771327972, 0.2815617024898529, 0.4113985598087311, 0.4060385823249817, 0.5258123874664307, 0.28244706988334656, -0.21974633634090424, -0.6408239006996155, -0.5394186973571777, -0.3775581419467926, -0.01951349712908268, -0.12405730783939362, 0.04445086047053337, -0.00023525673896074295, -0.2218763679265976, 0.2096346914768219, 0.4270991384983063, 0.35997888445854187, 0.13816092908382416, 0.2413637340068817, 0.038405999541282654, 0.16479434072971344, -0.14679819345474243, 0.012798699550330639, 0.06770048290491104, -0.015777140855789185, 0.09693121910095215, -0.01647300273180008, 0.013118378818035126, -0.031001828610897064, 0.38554179668426514, 0.12870463728904724, 0.31672951579093933, -0.0404675118625164, -0.22366194427013397, -0.20074747502803802, -0.3207606375217438, -0.443401575088501, -0.18376052379608154, -0.06946276128292084, 0.3444218635559082, 0.08842693269252777, 0.272739052772522, 0.5588317513465881, -0.2242729514837265, 0.1111854612827301, -0.37068653106689453, -0.4582405984401703, -0.6684548854827881, -0.03697000816464424, 0.2676744759082794, -0.48048195242881775, 0.0034494963474571705, 0.039401907473802567, -0.10490280389785767, -0.06129274517297745, -0.07418598979711533, 0.1786687821149826, 0.2944336235523224, 0.5350422859191895, 0.22137191891670227, 0.13382256031036377, 0.08940839022397995, -0.10704448819160461, -0.25897204875946045, -0.2026790976524353, 0.016191082075238228, -0.0786709114909172, 0.0627448707818985, 0.15504886209964752, -0.30171412229537964, 0.739142894744873, 0.5425586104393005, 0.07374537736177444, 0.07452670484781265, -0.549140214920044, -0.5457033514976501, 0.36886629462242126, 0.22910195589065552, -0.3869803845882416, 0.39556244015693665, 0.09040774405002594, 0.19523808360099792, 0.028206611052155495, 0.0692928284406662, 0.355113685131073, 0.19151727855205536, -0.03215833008289337, 0.16812586784362793, 0.21840064227581024, 0.16829977929592133, -0.012553812935948372, 0.007442136760801077, -0.08680863678455353, -0.09461269527673721, 0.06758002936840057, -0.22195136547088623, -0.011448603123426437, -0.0675540491938591, 0.20912371575832367, 0.9746862053871155, -0.511647641658783, -0.0227903351187706, -0.23117420077323914, -0.1674853265285492, 0.24122805893421173, 0.14509053528308868, 0.050398342311382294, -0.0012759340461343527, 0.09239204972982407, 0.06952454894781113, 0.07089231163263321, 0.1403609663248062, -0.15323196351528168, -0.171062633395195, 0.0027765033300966024, 0.2065190076828003, 0.2769061326980591, 0.29584193229675293, 0.11359024047851562, 0.3958013951778412, 0.2882840037345886, -0.23107388615608215, 0.0811145082116127, 0.02590741589665413, -0.28724801540374756, -0.004472924862056971, 0.10122556239366531, 0.6901171207427979, -0.07194690406322479, 0.046303775161504745, -0.08148523420095444, 0.5903011560440063, 0.09570036828517914, 0.3235108554363251, 0.3357028067111969, 0.06166904792189598, -0.013130719773471355, 0.25087180733680725, 0.25072160363197327, 0.24179711937904358, -0.12807394564151764, -0.0012694142060354352, -0.0006659991922788322, -0.14178693294525146, 0.04399779811501503, 0.35526999831199646, 0.3358866274356842, 0.4001823663711548, 0.08097589761018753, 0.32089367508888245, 0.37602102756500244, 0.4549572467803955, -0.2877575159072876, 0.2599595785140991, -0.23378337919712067, -0.25843489170074463, 0.00010234801447950304, -0.002691797912120819, -0.047905322164297104, -0.39191409945487976, -0.46927982568740845, -0.17266002297401428, 0.41081148386001587, 0.14241273701190948, 0.04943101108074188, -0.10680967569351196, 0.11682958900928497, -0.38285529613494873, -0.0731290727853775, 0.007515838835388422, -0.06644285470247269, -0.2154020071029663, -0.007963663898408413, 0.19960789382457733, 0.1015649288892746, 0.3081700801849365, 0.2051541805267334, 0.34034085273742676, 0.0415966659784317, 0.29572784900665283, -0.18463972210884094, 0.034350913017988205, -0.3104489743709564, -0.168454110622406, -0.018499255180358887, -0.034499529749155045, 0.05323571711778641, 0.22084009647369385, -0.6960098743438721, 0.11801397055387497, -0.054487504065036774, 0.05896823853254318, 0.37912651896476746, 0.537443220615387, 0.23298722505569458, 0.077956922352314, 0.024404002353549004, -0.051803845912218094, -0.3061678111553192, -0.2363540679216385, -0.13970895111560822, -0.1389927864074707, 0.11662402004003525, -0.3294781744480133, 0.23397691547870636, 0.359366774559021, 0.16575542092323303, -0.14882002770900726, 0.16144885122776031, 0.3500942289829254, 0.7491298913955688, 0.4901021420955658, -0.06529714167118073, -0.021501943469047546, 0.07166429609060287, -0.14971637725830078, 0.6015214323997498, -0.2903771996498108, -0.6354930400848389, -0.07115617394447327, 0.371641606092453, 0.4324478209018707, 0.044976506382226944, 0.10803364217281342, 0.046420734375715256, 0.15194953978061676, -0.7021545171737671, -0.4696823060512543, -0.014529852196574211, -0.014989134855568409, -0.0771121233701706, -0.2519862651824951, -0.2761121690273285, 0.14955207705497742, 0.17706899344921112, -0.33589887619018555, -0.542876124382019, -0.6442703008651733, 0.4035201966762543, 0.3336867690086365, 0.05325988680124283, -0.03621307760477066, -0.04208372160792351, 0.056248776614665985, -0.08087966591119766, -0.48433974385261536, -0.4715806841850281, -0.3611551523208618, -0.39544031023979187, -0.15858615934848785, -0.005360742565244436, 0.187563955783844, 0.5130904316902161, 0.40436744689941406, -0.11067638546228409, -0.33798089623451233, -0.45597782731056213, -0.12295182794332504, 0.20728754997253418, 0.4344601035118103, 0.38937845826148987, 0.3488633632659912, -0.4254804253578186, -0.5983341336250305, -0.008785947225987911, -0.15471850335597992, -0.13376808166503906, 0.027413129806518555, -0.006771989166736603, 0.04230576008558273, -0.03812059387564659, -0.03370838984847069, -0.06460560858249664, -0.04030847176909447, -0.0632585659623146, -0.2170468419790268, -0.33727800846099854, -0.323678195476532, 0.12108729034662247, 0.5940059423446655, 0.3490259647369385, -0.2507834732532501, -0.9380016326904297, 0.2617354691028595, 0.2682984471321106, 0.38772469758987427, 0.013072852045297623, 0.15054307878017426, -0.16495724022388458, -0.7487543225288391, -0.7625879645347595, -0.47283056378364563, 0.017236530780792236, 0.06707555800676346, 0.020947545766830444, -0.03742916136980057, -0.026287175714969635], [-0.002367153763771057, 0.0327208936214447, -0.07046036422252655, 0.0630340501666069, 0.021783962845802307, -0.015091396868228912, 0.07557781785726547, -0.07588410377502441, 0.0775066390633583, 0.05821163207292557, 0.07821423560380936, -0.05617840588092804, -0.21683615446090698, -0.31212806701660156, 0.12012207508087158, -0.04773904010653496, 0.07352306693792343, -0.043300870805978775, -0.08419661223888397, 0.014870695769786835, -0.02241184562444687, -0.049422506242990494, 0.0055585503578186035, 0.05048549920320511, -0.049130432307720184, 0.0005977228283882141, -0.07110410928726196, -0.05864035338163376, 0.06112100929021835, -0.013340987265110016, 0.03581202030181885, -0.06656290590763092, -0.23975946009159088, -0.42495161294937134, -0.6266286373138428, -1.0122562646865845, -0.6362441182136536, -0.9015848636627197, -1.0379210710525513, 0.4884589910507202, 0.3827802836894989, -0.3120133578777313, -0.5069292187690735, 0.23950299620628357, 0.516257107257843, 0.6268609762191772, -0.8004240393638611, -0.47535333037376404, 0.473981648683548, 0.3043198585510254, 0.2703136205673218, 0.22066816687583923, -0.06643179804086685, 0.06674163788557053, -0.06975255906581879, -0.02069898694753647, 0.06903409212827682, 0.08343169838190079, 0.10280688852071762, 0.4015452563762665, 0.3922048509120941, -0.7369316220283508, -0.4951573610305786, 0.00697340490296483, -0.25209856033325195, 1.0054765939712524, 1.318878412246704, 0.3489719331264496, 0.4058001637458801, 0.328789621591568, -0.13806481659412384, -0.44686996936798096, -0.5054942965507507, -0.29423022270202637, -0.09019390493631363, -0.20736803114414215, -0.6579458713531494, -0.4066314101219177, -0.8978240489959717, 0.05950930342078209, 0.6866071820259094, 0.059958189725875854, 0.015805304050445557, 0.04831741005182266, 0.03876239061355591, -0.008385606110095978, 0.2014034390449524, 0.3090541362762451, -0.24215079843997955, -0.5446301698684692, -0.557810366153717, -1.0541075468063354, -0.22736583650112152, 0.3632562756538391, 0.4499000310897827, 0.3025665879249573, -0.07079172134399414, -0.02718973718583584, -0.008703234605491161, -0.4764955937862396, -0.286836177110672, -0.21359595656394958, -0.5372739434242249, -0.3384970426559448, -0.5208842158317566, -0.2798808217048645, -0.13458660244941711, -0.1663811057806015, 0.12280954420566559, 0.3396766483783722, -0.31286486983299255, -0.02327108383178711, 0.002559974789619446, -0.0796392634510994, -0.4333117604255676, -0.6317287683486938, -0.5492525696754456, -0.2949622869491577, -0.21620973944664001, -0.15765775740146637, -0.27191361784935, -0.05563448742032051, -0.15033869445323944, -0.007340177893638611, -0.017276396974921227, 0.05071697011590004, 0.11838318407535553, -0.25124868750572205, -0.22197692096233368, -0.06010596081614494, -0.3013230860233307, -0.04592028632760048, -0.24464064836502075, -0.6177535057067871, -0.2807619571685791, -0.22702085971832275, -0.6502504944801331, 0.19231928884983063, -0.5085251331329346, 0.7044010162353516, 0.02699899673461914, -0.05503908544778824, -0.1991090625524521, -0.10052251815795898, -0.18044573068618774, -0.1779690682888031, -0.3197788596153259, -0.2466866374015808, -0.02150755189359188, 0.00904229935258627, 0.37633538246154785, 0.15448962152004242, -0.254350870847702, 0.10589412599802017, -0.04305766522884369, -0.13553312420845032, -0.16916242241859436, 0.1885383129119873, 0.3718721270561218, 0.16741833090782166, -0.3316519260406494, 0.1691131740808487, 0.03353917971253395, -0.20831573009490967, -0.04702245071530342, 0.11486215889453888, -0.1949457824230194, -0.27511829137802124, 0.08119400590658188, -0.24032756686210632, -0.2602933943271637, 0.12387033551931381, -0.49228742718696594, -0.38312289118766785, -0.17109942436218262, -0.18888939917087555, -0.2201470583677292, -0.16501648724079132, 0.2923681139945984, -0.05077417567372322, -0.2862766981124878, -0.2318713665008545, 0.0043327356688678265, -0.1734841912984848, 0.06509166955947876, 0.28099846839904785, 0.27918753027915955, 0.4152360260486603, 0.10956498980522156, 0.11757435649633408, 0.3503550887107849, -0.06331922113895416, -0.5763422846794128, -0.4480741620063782, -0.230672687292099, 0.19105659425258636, 0.07787802815437317, 0.03042430616915226, -0.0033992643002420664, -0.14760079979896545, 0.1817510575056076, 0.23577773571014404, -0.18408603966236115, -0.313416451215744, 0.033677805215120316, 0.12894307076931, 0.5002899765968323, 0.12415767461061478, -0.17616797983646393, 0.0669369101524353, -0.009858637116849422, 0.22106030583381653, 0.48486393690109253, 0.7109367847442627, 0.49598246812820435, 0.1945129930973053, -0.09881238639354706, -0.04119375720620155, 0.253730833530426, -0.29875513911247253, -0.25862497091293335, -0.30821219086647034, -0.5748283267021179, 0.1620596945285797, 0.4440920948982239, 0.4924981892108917, 0.17983363568782806, -0.17430639266967773, -0.21179471909999847, -0.2051730901002884, -0.22854991257190704, -0.2962363660335541, 0.3751128911972046, 0.5258874893188477, 0.40312322974205017, 0.10658062994480133, -0.15890608727931976, -0.18678107857704163, 0.04668588563799858, 0.4409772455692291, 0.9077649116516113, 0.9004056453704834, 0.5381590127944946, 0.0812021940946579, 0.1330375075340271, -0.32689350843429565, -0.14365844428539276, -0.18012596666812897, -0.39125189185142517, -0.7238019108772278, -1.3712414503097534, -0.3257363438606262, 0.20715591311454773, 0.4375903010368347, -0.01858709007501602, -0.45091867446899414, -0.928339421749115, 0.12322963029146194, -0.3004519045352936, -0.1157744750380516, 0.3302723467350006, 0.1546715646982193, 0.09088563919067383, -0.292910099029541, -0.602965235710144, -0.5513201951980591, -0.3564472198486328, 0.015496301464736462, 0.45159199833869934, 0.8212429285049438, 0.32695770263671875, 0.4815954864025116, 0.30743396282196045, -0.15313756465911865, -0.3088758885860443, -0.3252158761024475, -0.07487330585718155, -1.2925947904586792, -0.9767587184906006, -0.4668618440628052, 0.265815794467926, 0.22208604216575623, 0.06148602440953255, -0.475881963968277, -1.0715380907058716, -0.22786232829093933, 0.009988688863813877, -0.09942447394132614, -0.09109608083963394, -0.044795967638492584, 0.05108138918876648, 0.061815228313207626, -0.6623205542564392, -0.8192899227142334, -0.6374528408050537, -0.11446140706539154, 0.29989373683929443, 0.5707529783248901, 0.1772133857011795, 0.31310218572616577, 0.5228774547576904, 0.32986584305763245, 0.05448887497186661, 0.47196006774902344, 0.5476999878883362, -0.9249732494354248, -0.3537362217903137, -0.12435734272003174, 0.11148034781217575, 0.47849783301353455, -0.6512690186500549, -0.24518992006778717, -1.113331913948059, -0.22840601205825806, 0.2105746567249298, 0.3802904784679413, 0.10059671849012375, 0.04653474688529968, -0.23415346443653107, -0.1560242921113968, -0.6548783183097839, -0.8177604079246521, -0.9536831974983215, -0.6786499619483948, -0.24990876019001007, -0.17873065173625946, -0.37553295493125916, 0.027138838544487953, 0.34250324964523315, 0.3862265646457672, 0.5581409335136414, 1.0601439476013184, 1.0495800971984863, -0.0337410494685173, -0.3742813169956207, 0.0639842078089714, 0.15382371842861176, 0.28704458475112915, -0.5931580662727356, -0.8142867684364319, -0.6006626486778259, 0.03918691724538803, -0.12243901193141937, -0.1874370127916336, 0.18410374224185944, 0.2626841068267822, 0.040833692997694016, 0.011010312475264072, 0.013038807548582554, -0.12036263197660446, -0.8510029911994934, -1.0003122091293335, -0.4091934859752655, -0.18010331690311432, -0.06406404823064804, 0.13546884059906006, -0.13156630098819733, 0.4407164454460144, 0.3461341857910156, 0.6446311473846436, 1.2740861177444458, 1.191277265548706, 0.7676874399185181, 0.5328431725502014, -0.2693049907684326, 0.30846643447875977, 0.1423177570104599, 0.012634648941457272, -0.014155632816255093, -0.11915022134780884, -0.0323643796145916, -0.016382470726966858, 0.03594042733311653, 0.2637844383716583, 0.328587144613266, 0.49771082401275635, 0.3009635806083679, -0.2638058662414551, -0.5739595293998718, -0.7464239597320557, -0.6433286666870117, -0.10124979168176651, 0.0906810462474823, 0.1542627066373825, -0.24163909256458282, 0.13590696454048157, 0.4156593382358551, 0.8212230205535889, 0.8952726721763611, 1.2674996852874756, 1.2785124778747559, 0.3569587469100952, -0.04416798800230026, -0.5366295576095581, -0.1819402277469635, 0.06310807168483734, 0.32776758074760437, 0.3784257769584656, 0.06301989406347275, 0.36477556824684143, 0.08987594395875931, 0.15382857620716095, 0.4805225729942322, 0.6659727096557617, 0.4109194874763489, -0.4037254750728607, -0.42401090264320374, -0.34278392791748047, -0.5240980386734009, -0.049058761447668076, 0.236422598361969, 0.11214738339185715, 0.27850136160850525, 0.044035904109478, 0.03003610298037529, -0.003578159026801586, 0.42515984177589417, 0.3367413282394409, 1.2915339469909668, 0.46070194244384766, 0.02047853358089924, -0.40177473425865173, -0.4524266719818115, 0.14829792082309723, 0.09791066497564316, 0.34377720952033997, -0.018148694187402725, 0.23405534029006958, -0.30071523785591125, -0.050332486629486084, 0.4239172637462616, 0.3941314220428467, 0.12635591626167297, -0.03966198489069939, -0.1955845206975937, -0.24341899156570435, -0.3545350134372711, -0.06642355769872665, 0.14070692658424377, 0.06471584737300873, -0.007428796496242285, -0.23423129320144653, -0.2862286865711212, -0.030411608517169952, 0.3245784640312195, 0.19047167897224426, 0.7670996189117432, 0.5064886808395386, 0.2209630012512207, -0.566642701625824, -0.46443915367126465, -0.037435948848724365, 0.03484058007597923, -0.21854205429553986, -0.2733427882194519, 0.0717124491930008, -0.3090496063232422, 0.07029956579208374, 0.37751099467277527, 0.6370696425437927, 0.5071727633476257, 0.14566560089588165, -0.08558747917413712, -0.2566479444503784, -0.05275551229715347, 0.26425492763519287, 0.024271363392472267, -0.12901698052883148, -0.3143139183521271, 0.10478795319795609, -0.03275992348790169, -0.11143442988395691, -0.003906972706317902, 1.4748303890228271, 1.4147863388061523, 0.5998297929763794, 0.06278664618730545, -0.6153071522712708, -0.3776354193687439, 0.061683718115091324, 0.2501943111419678, -0.5331166982650757, -0.2228507101535797, -0.22504080832004547, -0.26645880937576294, -0.08008049428462982, 0.3640521466732025, 0.6648260354995728, 0.6097345948219299, 0.040864866226911545, -0.3050689399242401, -0.1700013130903244, -0.14242875576019287, -0.06031084805727005, -0.055915717035532, -0.2225712388753891, -0.05664689466357231, -0.1498003751039505, -0.04795662686228752, 0.04485141485929489, 0.5959557890892029, 1.2934530973434448, 0.8111510276794434, 0.546058714389801, 0.4539181590080261, -0.5868253707885742, -0.4777866303920746, 0.14621400833129883, -0.27109360694885254, -0.11597412079572678, -0.23568327724933624, -0.2588632106781006, -0.24427513778209686, -0.10171892493963242, 0.43646711111068726, 0.4501759707927704, 0.3700847625732422, -0.1851961612701416, -0.3855147361755371, -0.5110024213790894, -0.4430261254310608, -0.15707477927207947, 0.12653733789920807, -0.12775488197803497, -0.0068109421990811825, -0.12141916155815125, 0.21362099051475525, -0.09509554505348206, 0.9437664151191711, 0.35461586713790894, 0.12016688287258148, -0.039591189473867416, -0.4245699942111969, 0.49578502774238586, -0.21615339815616608, 0.17526166141033173, 0.05013347417116165, -0.4220886528491974, -0.07192353904247284, 0.05263262242078781, -0.2558286786079407, 0.07972020655870438, 0.41097262501716614, 0.47386130690574646, 0.5277718305587769, 0.16550374031066895, -0.18258392810821533, -0.6267160177230835, -0.4718550145626068, -0.19994491338729858, -0.06107791140675545, -0.2859652638435364, -0.03462938964366913, 0.019791603088378906, 0.43852540850639343, -0.05093156173825264, 0.5196318626403809, -0.21084652841091156, 0.49093034863471985, 0.20518745481967926, -0.05995161831378937, -0.04106811806559563, 0.5441054701805115, 0.733561635017395, 0.04525101184844971, 0.10447144508361816, -0.022744663059711456, 0.010673901997506618, -0.018104104325175285, 0.28190335631370544, 0.613203763961792, 0.5015386343002319, 0.36816319823265076, 0.1027897447347641, -0.5652211308479309, -0.4917506277561188, -0.451708048582077, -0.4961778223514557, -0.37125375866889954, -0.04715916886925697, 0.06266634911298752, 0.11692866683006287, 0.3720422089099884, 0.34377866983413696, 0.75185227394104, -0.37463587522506714, 0.5408359169960022, 0.03652425482869148, -0.19991932809352875, -0.49708861112594604, 0.6302967071533203, 0.8473100662231445, 0.06637851893901825, 0.4940955638885498, 0.4698258936405182, 0.12520189583301544, 0.10526593029499054, 0.2742082178592682, 0.45074909925460815, 0.17930971086025238, 0.17483296990394592, 0.13864146173000336, -0.16279920935630798, -0.38942864537239075, -0.28422313928604126, -0.4270502030849457, -0.24853281676769257, 0.03342308849096298, -0.07622184604406357, 0.08111044019460678, 0.7722989320755005, 0.9625139236450195, 0.7064107060432434, 0.31624552607536316, 0.7634722590446472, 0.28938180208206177, -0.24636228382587433, -0.4582570493221283, 0.41431722044944763, 0.12044212967157364, 0.17124715447425842, 0.7494753003120422, 0.7545088529586792, 0.6075857877731323, 0.5089253187179565, 0.6258629560470581, 0.3217327296733856, 0.2908289134502411, 0.5662142634391785, 0.23777996003627777, -0.12870419025421143, -0.44754883646965027, -0.5738698244094849, -0.539434552192688, -0.27851954102516174, -0.3408995270729065, -0.10974675416946411, 0.2982921302318573, 0.6893511414527893, 0.6348921656608582, 0.6206461787223816, 0.43299734592437744, -0.34091103076934814, 0.37265437841415405, 0.055719874799251556, -0.0029872730374336243, -0.6687353253364563, -0.41357824206352234, 0.07721149176359177, 0.5130459070205688, 0.34169289469718933, 0.19467350840568542, 0.44853490591049194, 0.5865780711174011, 0.2046123743057251, 0.3488708734512329, 0.4394828975200653, 0.3113299310207367, 0.2105332762002945, -0.2516256272792816, -0.40592753887176514, -0.5263653993606567, -0.6011030077934265, -0.2834607660770416, 0.14136341214179993, -0.010487181134521961, 1.266608476638794, 0.6021848320960999, 0.31023865938186646, -0.017834912985563278, -0.7560343146324158, -0.014445528388023376, -0.01320292055606842, 0.050352729856967926, -0.08797311782836914, -1.1188117265701294, 0.46396633982658386, -0.2989155948162079, -0.4373657703399658, -0.6138954162597656, -0.1770946979522705, -0.10336346179246902, -0.13560445606708527, 0.04529896378517151, 0.5229570865631104, 0.346972793340683, 0.19692492485046387, 0.18816058337688446, -0.3015033006668091, -0.5590011477470398, -0.14258964359760284, 0.16377852857112885, -0.0495607815682888, 0.5790801048278809, 0.7538518309593201, 0.17227591574192047, 0.19282157719135284, 0.3758939206600189, 0.40219682455062866, 0.07369933277368546, -0.05503920838236809, -0.049766186624765396, -0.7381381988525391, 0.10103615373373032, 0.0017541478155180812, -0.4696274399757385, -0.4993654191493988, -0.49994412064552307, -0.8434818387031555, -0.6685996055603027, -0.5908842086791992, -0.4260208010673523, -0.5010455846786499, -0.8163049817085266, -0.5993091464042664, -0.06741885095834732, -0.2492596060037613, -0.8958721160888672, -1.5445678234100342, -2.090667486190796, -1.1277072429656982, -0.433351069688797, -0.043707553297281265, -0.2927189767360687, -0.6547775268554688, 0.5549517273902893, 0.2637169361114502, -0.014692038297653198, 0.049601756036281586, -0.047067757695913315, -0.06382369995117188, 0.1823319047689438, -0.4511546492576599, -0.1331968605518341, -0.1782330572605133, -0.15844525396823883, 0.05563221871852875, -0.2947079837322235, -0.10523486137390137, -0.25321513414382935, -0.23242178559303284, -0.34825512766838074, -0.49871155619621277, -0.2500426173210144, -0.5164808630943298, -1.517759084701538, -1.509359359741211, -1.535858392715454, -1.9968059062957764, -1.9540550708770752, -0.9747525453567505, -0.2083110809326172, -0.2888540029525757, 0.3673263192176819, -0.07376542687416077, -0.019196517765522003, -0.08374174684286118, 0.06074466556310654, 0.05765552073717117, 0.042205147445201874, 0.48685550689697266, 0.7564681172370911, -0.23431582748889923, 0.13770446181297302, -0.05068134889006615, 0.14238516986370087, 0.4925116300582886, 0.07109905779361725, 0.04874158650636673, 0.8925976157188416, 0.34792348742485046, 0.3470080494880676, 1.2862675189971924, -0.4495964050292969, -0.45998382568359375, -0.1738155633211136, -0.7632942199707031, -0.6895578503608704, -0.43644407391548157, 0.5373862981796265, 0.014832071959972382, 0.01085854321718216, 0.021154187619686127, -0.05041602626442909], [-0.00098467618227005, -0.07103659957647324, 0.055030010640621185, 0.06577213853597641, -0.015533886849880219, -0.0031032338738441467, 0.02335038036108017, 0.03465454280376434, 0.06429297477006912, 0.03124554455280304, -0.06116950511932373, -0.03731273114681244, 0.2513149678707123, 0.09037584811449051, -0.04615774378180504, -0.07346517592668533, 0.012985803186893463, 0.018745727837085724, 0.04118981212377548, 0.021105900406837463, -0.07260973006486893, -0.01383364200592041, 0.03836682438850403, 0.08533839136362076, 0.08319412916898727, -0.07888267189264297, -0.052484553307294846, -0.0857611671090126, 0.06571491807699203, -0.0782727524638176, 0.04730302840471268, -0.04851203039288521, 0.025139618664979935, 0.30527761578559875, 0.32165762782096863, 0.6350322961807251, -0.00883385632187128, 0.46312975883483887, 0.43229642510414124, 0.1648768037557602, 0.2536388337612152, 0.6112043857574463, 0.6055193543434143, 0.55808025598526, 0.24695613980293274, 0.4495292007923126, 1.157704472541809, 0.892341673374176, 0.32202574610710144, -0.402649849653244, -0.17545069754123688, -0.24356980621814728, -0.08152557164430618, 0.07107753306627274, -0.0335039421916008, -0.05799540877342224, 0.02937384694814682, 0.005998618900775909, 0.053226444870233536, -0.04194274917244911, 0.07684309035539627, -0.1522199958562851, -0.0244516059756279, -0.3568200170993805, -0.5162438154220581, -0.7127743363380432, -0.31649160385131836, -0.5498958826065063, -0.536199152469635, -0.7852632999420166, -0.8721150755882263, -0.5142409801483154, 0.19950143992900848, 0.07566142082214355, 0.3829350173473358, 0.5323699116706848, 0.5480079054832458, 0.11966542899608612, 0.21117594838142395, 0.1832830309867859, -0.4203343689441681, -0.18290546536445618, -0.07216134667396545, 0.07169792801141739, 0.0331440344452858, -0.041570331901311874, 0.18685415387153625, 0.2724258005619049, 0.2243029773235321, 0.1630057692527771, -0.10001640766859055, 0.4174515902996063, 0.45228368043899536, -0.16247744858264923, -0.517450749874115, -0.07109472900629044, 0.5805386900901794, 0.8239474296569824, 0.696937620639801, 0.4281778037548065, 0.3413851261138916, 0.1747775822877884, 0.6598231196403503, 0.5663766860961914, 0.6268216967582703, 0.00474401842802763, -0.7690136432647705, -0.16457247734069824, 0.08279827237129211, -0.050701189786195755, 0.25302913784980774, 0.050785429775714874, 0.0648617222905159, 0.036226022988557816, -0.09943617135286331, 0.3970370292663574, 0.06234772130846977, -0.022405168041586876, 0.0708085224032402, 0.2847541570663452, 0.4484381675720215, 0.024609850719571114, 0.6275878548622131, 1.0870270729064941, 0.24097810685634613, -0.0013942293589934707, -0.14201560616493225, 0.13488160073757172, 0.05030786991119385, -0.1731853485107422, 0.10242868959903717, 0.13803225755691528, -0.2739056646823883, 0.05090159922838211, 0.008160792291164398, -0.16683101654052734, 0.018782608211040497, -0.01973602920770645, 0.6166499257087708, -0.5151126980781555, 0.044666461646556854, -0.030755240470170975, -0.32467639446258545, 0.5778229832649231, 0.6616991758346558, 0.5857109427452087, 0.5346177220344543, 0.2865571677684784, 0.09647871553897858, 0.24184764921665192, 0.43290889263153076, -0.33304035663604736, -0.5298548340797424, -0.12417617440223694, -0.39295175671577454, 0.010311773978173733, 0.07153123617172241, -0.05285348370671272, -0.18617287278175354, 0.19905774295330048, 0.20337769389152527, -0.0647464171051979, -0.09967613220214844, 0.1192193403840065, -0.050761524587869644, -0.01320786215364933, 0.2676347494125366, -0.1711064875125885, -0.018247641623020172, 0.2920663356781006, 0.19021473824977875, 1.0164223909378052, 0.20087005198001862, 0.9986099600791931, 0.6668312549591064, 0.24991586804389954, 0.285153865814209, 0.3503902852535248, 0.31638503074645996, -0.12132451683282852, -0.4007580876350403, -0.13071687519550323, -0.2338642030954361, -0.15057002007961273, -0.2499709129333496, -0.2668405771255493, -0.02351340465247631, 0.043236538767814636, -0.11237955838441849, -0.04511204734444618, -0.020124394446611404, -0.1791190803050995, 0.059931229799985886, 0.39376118779182434, -0.035468582063913345, 0.03094383329153061, -0.01707889512181282, 1.067360520362854, 0.01637011580169201, 0.5258502960205078, 0.2688192129135132, 0.2570924162864685, 0.4770297408103943, 0.20560485124588013, 0.47009438276290894, 0.07124826312065125, -0.1638469249010086, 0.07149673253297806, 0.15709932148456573, -0.054112475365400314, 0.09773238748311996, -0.3295038640499115, -0.4465298652648926, -0.1288594752550125, 0.0391797311604023, 0.060361724346876144, 0.3790525496006012, 0.18483179807662964, -0.20136770606040955, -0.023964080959558487, -0.40559840202331543, 0.28364303708076477, 0.3755756616592407, 0.24402868747711182, 0.3751789331436157, -0.12320996075868607, 0.7937695980072021, -0.0912807360291481, 0.3171454071998596, -0.02410438098013401, -0.04237072169780731, -0.06991536915302277, 0.16396363079547882, 0.0961638018488884, 0.15960250794887543, 0.3202259838581085, 0.4028049111366272, 0.18843474984169006, 0.21959112584590912, 0.008481060154736042, -0.08512964844703674, -0.026373162865638733, -0.0028539136983454227, 0.06653346121311188, 0.27918606996536255, 0.09104795753955841, -0.29598167538642883, -0.24070943892002106, -0.2717936933040619, -0.2715277373790741, 0.087399922311306, -0.2603221833705902, 0.19942790269851685, 0.7328992486000061, 0.5191323161125183, -0.3158634305000305, 0.675294041633606, -0.09815692156553268, -0.05606842041015625, -0.19912834465503693, 0.12863664329051971, 0.2159855216741562, 0.18330836296081543, 0.22480596601963043, 0.25553110241889954, 0.18346472084522247, 0.23758704960346222, 0.11462278664112091, 0.14388400316238403, 0.10444033890962601, 0.009625334292650223, 0.024891560897231102, 0.04792498052120209, -0.06496105343103409, 0.07576527446508408, 0.14767147600650787, -0.024205738678574562, 0.11599151045084, -0.3330305814743042, 0.3590969443321228, 0.1332058608531952, 0.709357738494873, 0.9432265758514404, 0.32483309507369995, 0.43220818042755127, 0.1859627366065979, 0.15090887248516083, -0.10922490805387497, 0.04533891752362251, 0.021619481965899467, -0.18068303167819977, 0.08296148478984833, -0.11410357803106308, 0.007778767962008715, -0.3017529547214508, -0.2485227882862091, 0.015506603755056858, 0.07123281061649323, -0.22016151249408722, -0.1171412318944931, -0.1505177766084671, 0.1467982679605484, 0.22037926316261292, -0.40874364972114563, -0.09423846751451492, -0.04081001505255699, 0.3501075208187103, 0.42997169494628906, 0.2781199514865875, 0.9112693071365356, 0.2642483115196228, 0.34061717987060547, 0.0785151794552803, -0.08294377475976944, 0.2743796110153198, -0.38148218393325806, -0.304507315158844, -0.25501295924186707, -0.45910167694091797, -0.3351707458496094, -0.796298086643219, -0.6110974550247192, -0.8356490731239319, -0.6154400110244751, -0.42698854207992554, -0.09833525121212006, 0.055072296410799026, -0.06910783797502518, 0.06719458848237991, -0.10373018682003021, -0.2711452841758728, -0.36315852403640747, -0.37742912769317627, -0.15349453687667847, 0.7550088167190552, -0.23640458285808563, 0.21380530297756195, 0.9625938534736633, -0.12963242828845978, 0.09239654988050461, -0.04975220933556557, -0.13561531901359558, -0.1723315715789795, -0.52912437915802, -0.4661524295806885, -0.5328384637832642, -0.2944563627243042, -0.48835667967796326, -0.705362856388092, -0.9915916323661804, -0.7765093445777893, -0.7053831219673157, -0.5358702540397644, -0.6577383875846863, 0.2911892533302307, -0.1157994270324707, -0.39342743158340454, -0.26099276542663574, -0.1707398146390915, -0.4099867045879364, 0.10126367956399918, -0.04577768221497536, 0.2817199230194092, -0.3389786183834076, -0.10793477296829224, 0.6320315003395081, -0.07244083285331726, -0.18424417078495026, -0.5734313726425171, -0.6555652022361755, -0.7832794189453125, -1.0771085023880005, -0.4722529351711273, -0.339852511882782, -0.1965552121400833, -0.37255239486694336, -0.5841087102890015, -0.3985174298286438, -0.4564697742462158, -0.8282998204231262, -0.822880744934082, -0.43804267048835754, 0.2336382418870926, 0.006714769639074802, -0.3610968589782715, -0.5633482336997986, -0.21626418828964233, -0.0375063456594944, 0.02139366790652275, 0.04251982644200325, -0.49273961782455444, -0.8446493744850159, -0.4113483726978302, 0.6442915797233582, 0.7164215445518494, -0.7893486618995667, -0.7951493263244629, -0.9435297250747681, -0.8305920958518982, -0.3637939393520355, -0.1328052133321762, -0.19363988935947418, -0.3195178806781769, -0.6507234573364258, -0.16326723992824554, -0.09690366685390472, -0.11562437564134598, -0.30359014868736267, -0.8152463436126709, -0.6168789267539978, -0.046926505863666534, 0.21451321244239807, 0.13266120851039886, 0.034312162548303604, -0.26972493529319763, 0.1428752839565277, 0.1411740928888321, 0.18192356824874878, -0.5468664169311523, -0.437252014875412, -0.3179122507572174, 0.20389513671398163, 0.696346640586853, 0.37160980701446533, 0.13714881241321564, -0.11524544656276703, -0.3571470081806183, -0.09984718263149261, -0.20099101960659027, -0.30844223499298096, -0.1917237639427185, -0.21901914477348328, -0.07157108932733536, 0.1826629787683487, -0.10304871201515198, -0.18564550578594208, -0.5101699829101562, -0.409532368183136, 0.13456754386425018, 0.4362170398235321, 0.6071310043334961, 0.32736432552337646, 0.16006620228290558, 0.4250626266002655, 0.3982086777687073, 0.018901821225881577, 0.20769721269607544, -0.13452976942062378, 0.38405710458755493, 0.5860017538070679, 0.2808789014816284, 0.6726570725440979, 0.3035131096839905, 0.3473094701766968, -0.006310299038887024, -0.02153739519417286, -0.2780602276325226, 0.03517035022377968, -0.12387678027153015, -0.03954380005598068, 0.2559610605239868, 0.26394760608673096, 0.04526078328490257, -0.35972946882247925, -0.626039445400238, -0.3265784978866577, -0.13123592734336853, 0.2648965120315552, 0.41897571086883545, 0.4627995789051056, 0.520188570022583, 0.6173796653747559, 0.4945758879184723, -0.7015610337257385, -0.7860105037689209, -0.46005192399024963, -0.03246152400970459, 0.6102600693702698, -0.08733142912387848, 1.0957746505737305, 0.024953003972768784, 0.3651992082595825, -0.044117216020822525, 0.05461236834526062, -0.15791055560112, -0.25595879554748535, -0.0794389620423317, -0.027303708717226982, 0.13027644157409668, -0.3416179418563843, -0.3263290226459503, -0.4539078176021576, -0.5154378414154053, -0.060840219259262085, 0.2226126790046692, 0.8005241751670837, 0.10266175866127014, 0.3104771673679352, 0.536257266998291, 0.010217965580523014, 0.022466711699962616, -0.1171833723783493, -0.3034236431121826, -0.6481527090072632, -0.26547032594680786, 0.583845853805542, 0.03154489025473595, 0.4665786027908325, 0.1232474073767662, 0.1461702436208725, -0.13374339044094086, 0.016110237687826157, -0.06317050009965897, -0.3519795835018158, -0.3602163791656494, -0.7217676639556885, -0.6611186265945435, -0.7907750606536865, -0.5152125358581543, -0.27725428342819214, 0.22940266132354736, 0.5747712254524231, 0.6967113614082336, 0.5187128782272339, 0.3422529399394989, 0.3781188130378723, 0.4598166048526764, 0.25619402527809143, -0.13487206399440765, -0.3239387273788452, -0.1634586900472641, -0.7078909277915955, 0.0019486857345327735, 0.630561113357544, 0.7204775810241699, 0.5250831842422485, 0.6126170754432678, 0.42192670702934265, 0.19267027080059052, 0.1767129898071289, -0.156738743185997, -0.2864413559436798, -0.5703310370445251, -0.5294322967529297, -0.649463951587677, -0.5472341179847717, -0.21998189389705658, 0.16734641790390015, 0.4583010971546173, 0.7822144627571106, 0.46211403608322144, 0.12938402593135834, 0.10249128937721252, 0.32266533374786377, -0.11255854368209839, 0.16840308904647827, -0.11930876225233078, -0.11448223888874054, -1.0715594291687012, -0.47168871760368347, -0.06568503379821777, 0.6034899353981018, 0.1208186000585556, 0.8099704384803772, 0.3362603187561035, 0.2626408040523529, 0.41578370332717896, 0.30374011397361755, 0.0312180295586586, 0.11535521596670151, -0.1522727906703949, -0.08289670944213867, -0.1994364708662033, -0.24490100145339966, 0.3445168733596802, 0.6061200499534607, 0.8211911916732788, 0.5984483957290649, 0.5488108992576599, 0.17701798677444458, 0.22105835378170013, 0.31037500500679016, 0.3343456983566284, 0.10692939907312393, -0.31586503982543945, -1.2566810846328735, 0.10865908861160278, 0.16639061272144318, -0.08123214542865753, -0.15041810274124146, 0.5469311475753784, 0.45225468277931213, 0.7465468049049377, -0.03681130334734917, 0.08893035352230072, 0.38544389605522156, -0.06348245590925217, -0.09791319072246552, -0.04707625135779381, 0.3657229244709015, 0.21120941638946533, 0.41376447677612305, 0.5528399348258972, 0.8497062921524048, 0.651677668094635, 0.2451169341802597, 0.14446252584457397, 0.08912331610918045, 0.13182809948921204, -0.06921226531267166, 0.1275787353515625, 0.15350228548049927, 0.028319912031292915, 0.016622386872768402, 0.46492597460746765, 0.40116265416145325, -0.07619376480579376, -0.054222945123910904, 0.8575030565261841, -0.047427333891391754, -0.15181055665016174, 0.035769276320934296, 0.2695324122905731, -0.020555637776851654, 0.01141898799687624, 0.23050706088542938, 0.275579035282135, 0.39405837655067444, 0.28732961416244507, 0.36460915207862854, 0.3312183618545532, 0.4261617660522461, 0.2809286117553711, 0.14517198503017426, 0.3130386471748352, 0.5687341690063477, 0.29835081100463867, -0.053084421902894974, -0.37195998430252075, -0.26035168766975403, -1.1656259298324585, -0.34147006273269653, 0.2565027177333832, 0.40046972036361694, 0.031733714044094086, 0.036971136927604675, 0.8681412935256958, -0.5278941988945007, -0.023874429985880852, 0.4166271686553955, 0.5049312114715576, 0.12220442295074463, -0.056368641555309296, 0.08226408064365387, 0.4550362825393677, 0.6343955397605896, 0.14729025959968567, 0.0948970764875412, 0.08713994920253754, 0.2076474279165268, -0.03939193859696388, 0.31475088000297546, 0.1948184370994568, 0.0741242840886116, -0.21221880614757538, -0.5098837614059448, -0.7018952369689941, -0.20745013654232025, -0.31883108615875244, -0.09383544325828552, 0.25246095657348633, 0.044637374579906464, 0.07262665778398514, 0.026453040540218353, 0.5124873518943787, 0.8358729481697083, 1.2552345991134644, 0.7796568870544434, 0.8042377829551697, 0.6454158425331116, 0.14443929493427277, 0.18843141198158264, 0.5643579959869385, 0.46873170137405396, 0.4938912093639374, 0.42411598563194275, 0.2955358624458313, -0.05453197658061981, 0.21691402792930603, 0.48193103075027466, -0.11976657807826996, -0.3809691071510315, -0.8405659198760986, -0.3366475999355316, 0.038494858890771866, -0.15022817254066467, -0.2763928174972534, -0.18667231500148773, 0.4179390072822571, 0.030450865626335144, -0.08215226233005524, 0.06198274344205856, -0.025926923379302025, -0.2065749317407608, 0.43345826864242554, -0.2484358549118042, -0.1185569241642952, 0.467616468667984, 0.7547987699508667, 0.8178350329399109, 0.7180578708648682, 0.9803415536880493, 1.2272588014602661, 0.568591296672821, -0.32516172528266907, -0.3001919090747833, 0.05983481556177139, -0.09099147468805313, 0.0861584022641182, 0.07751813530921936, 0.13910840451717377, -0.7311863303184509, -0.04392119124531746, 0.2944740653038025, 0.7766032218933105, -0.3005961775779724, -0.1385045200586319, -0.027532856911420822, -0.04116123169660568, -0.030549995601177216, 0.028359390795230865, -0.2828085422515869, -0.4770800769329071, -0.6445200443267822, -0.2235552966594696, 0.006666939705610275, 0.4943705201148987, 0.1241397112607956, 0.46491387486457825, 0.3807416558265686, 0.09976065903902054, 0.639474093914032, 0.5389320254325867, 0.975005030632019, 0.9255924820899963, 0.31462347507476807, 0.62798672914505, 0.7428917288780212, 0.2972055673599243, -0.9480270147323608, -0.3531307578086853, -0.10665101557970047, 0.09995632618665695, 0.05472284182906151, -0.07638361304998398, -0.07109585404396057, 0.06797491759061813, 0.02544941008090973, -0.03010382503271103, 0.03533019870519638, 0.12321116775274277, 0.344349205493927, -0.09204032272100449, 0.056078869849443436, 0.030260415747761726, 0.3578307032585144, 0.7626498341560364, 0.38608473539352417, 0.8147633075714111, 0.798382580280304, 0.4833584427833557, 0.5023328065872192, 1.1602675914764404, 0.9267705082893372, 0.23209908604621887, -0.05688043683767319, -0.5171787142753601, -0.5106421113014221, -0.3628353476524353, 0.22680217027664185, -0.0018278062343597412, -0.07707007229328156, 0.05363477021455765, -0.07778365910053253], [0.050475381314754486, -0.009982295334339142, 0.061577312648296356, 0.006925612688064575, 0.029168009757995605, -0.04580090939998627, -0.020962513983249664, 0.014393620193004608, 0.054873861372470856, 0.03752129524946213, -0.031570758670568466, 0.043499745428562164, 0.09153608977794647, 0.16887788474559784, 0.1717824786901474, 0.08689360320568085, -0.03521092236042023, 0.053455762565135956, 0.052447326481342316, -0.019804134964942932, 0.012741439044475555, 0.013392403721809387, 0.02087242901325226, -0.01884794980287552, 0.034957222640514374, -0.02480282261967659, -0.05516307055950165, 0.016199134290218353, -0.05014083907008171, 0.06891871243715286, 0.0073506757616996765, 0.02572561800479889, 0.028346946462988853, 0.04930203780531883, -0.24898816645145416, -0.12861338257789612, -0.20429039001464844, -0.287834107875824, -0.3523559272289276, -0.7989159822463989, -0.9453400373458862, -0.4832780659198761, 0.6728075742721558, 0.3077681362628937, 0.05248755216598511, -0.256612092256546, -0.2443414330482483, -0.3682796061038971, -0.6987859606742859, -0.15087011456489563, -0.3242223262786865, -0.1793743222951889, 0.06138191372156143, -0.018077075481414795, -0.04770858958363533, -0.041172631084918976, -0.009256333112716675, -0.07860109955072403, -0.15342415869235992, 0.16059306263923645, 0.2808051109313965, -0.06938078254461288, -0.32920122146606445, -0.611592710018158, -0.19309167563915253, 0.12432195991277695, 0.08781961351633072, -0.19123248755931854, -0.0556521937251091, 0.49576619267463684, 0.3237397074699402, 0.4202961325645447, 0.5482997298240662, -0.5202969312667847, -1.0348482131958008, -0.7292503714561462, -0.4785745143890381, -0.7077444791793823, -0.8506748676300049, -0.3425050675868988, 0.8367962837219238, 0.40434303879737854, 0.04725179821252823, -0.08173957467079163, 0.047060780227184296, 0.023649662733078003, 0.3070564866065979, 0.5352016687393188, 0.12722711265087128, 0.3665194809436798, 0.544582188129425, 1.042832612991333, 0.6715580821037292, 0.6224846839904785, 0.4659869968891144, 0.29084131121635437, 0.5270488262176514, 0.5143829584121704, -0.01093515008687973, 0.17287515103816986, 0.08062531054019928, -0.15763264894485474, -0.5675267577171326, -0.3021698594093323, 0.07518208771944046, -0.3660746216773987, -0.4498845934867859, -0.06954972445964813, 0.21403630077838898, 0.6785518527030945, 0.42250850796699524, 0.059183262288570404, 0.04242321103811264, 0.4449619650840759, 0.4427874982357025, 0.5377069711685181, 0.8221881985664368, 0.37137308716773987, 0.5572274327278137, -0.02030307985842228, 0.49865299463272095, 0.18964703381061554, 0.3521803915500641, 0.28284138441085815, 0.18878142535686493, 0.49460867047309875, 0.30283868312835693, 0.23880843818187714, 0.31466713547706604, 0.0755738914012909, 0.14419004321098328, 0.09381876140832901, 0.1592678278684616, 0.03936946392059326, 0.0058427792973816395, -0.5722249150276184, -0.4130573868751526, 0.08873091638088226, -0.2853856086730957, -0.11262887716293335, -0.011696971952915192, 0.028912514448165894, 0.18914449214935303, 0.09461503475904465, 1.1409964561462402, 0.2532641589641571, 0.5262997150421143, 0.2489900290966034, 0.11560570448637009, 0.04098875820636749, 0.010868013836443424, -0.09915677458047867, 0.12650781869888306, 0.1163390502333641, -0.0659402534365654, 0.48046568036079407, 0.08984804153442383, -0.22904114425182343, -0.3327321410179138, -0.16729280352592468, -0.14698490500450134, 0.07944004982709885, -0.1221095621585846, -0.8028122186660767, -1.0752655267715454, 0.5758935213088989, -0.44861817359924316, -0.032705508172512054, -0.043624941259622574, 0.49063095450401306, 0.5888552665710449, 0.16476942598819733, 0.4550490379333496, 0.1469287872314453, 0.3210031986236572, 0.03471880778670311, 0.045154768973588943, 0.10649700462818146, 0.059413790702819824, 0.22004173696041107, 0.14398419857025146, 0.39647090435028076, 0.04732317477464676, -0.07017185539007187, -0.13816416263580322, -0.2603098452091217, 0.017953934147953987, -0.13335658609867096, -0.255664587020874, -0.09318926185369492, -0.3529545068740845, -0.6805647611618042, -1.043383002281189, 0.549543559551239, 0.18430767953395844, 0.19596950709819794, -0.030178211629390717, 0.6344306468963623, 0.12929736077785492, 0.347740113735199, 0.3671998381614685, 0.11011940240859985, 0.4922269284725189, 0.16281282901763916, 0.322565495967865, 0.12294019758701324, -0.17450079321861267, -0.053018368780612946, 0.05134781822562218, 0.07412256300449371, 0.19909542798995972, 0.10506623983383179, -0.09091422706842422, -0.3136005401611328, -0.33872297406196594, -0.13606928288936615, 0.13689523935317993, -0.025152621790766716, -0.660631000995636, -0.42156898975372314, -0.5487015843391418, -0.48158276081085205, 0.02830648608505726, -0.00229104096069932, -0.5880273580551147, -0.3553636074066162, -0.23797351121902466, 0.0771690085530281, 0.32810133695602417, 0.0900602638721466, 0.31749865412712097, -0.12487667798995972, -0.15561813116073608, -0.1326933354139328, -0.11588124930858612, -0.5298569798469543, -0.11826417595148087, 0.2288859337568283, 0.15539658069610596, 0.47763246297836304, 0.16976694762706757, 0.14232783019542694, -0.03032590076327324, 0.31876012682914734, -0.3070652484893799, -0.29834654927253723, -0.41538485884666443, -1.2066998481750488, -0.8781716823577881, -0.3133384585380554, 0.3738664388656616, -0.07807653397321701, -0.038833439350128174, 0.021137455478310585, 0.35737544298171997, 0.16439220309257507, 1.0153907537460327, 0.1709291636943817, 0.4075256288051605, -0.13914331793785095, -0.5230821371078491, -0.9919750690460205, -1.2001146078109741, -1.3901489973068237, -0.9717376828193665, -0.418599933385849, 0.2042214274406433, 0.8250461220741272, 0.7604722380638123, 0.5536538362503052, 0.06932785362005234, -0.04967445135116577, -0.11828506737947464, -0.5386964082717896, -1.180537462234497, -1.2491909265518188, -1.4806472063064575, 0.20456622540950775, -0.09972614794969559, 0.281353622674942, -0.15964877605438232, 0.21827265620231628, 0.5702879428863525, 0.3241769075393677, 0.04606189206242561, -0.6108062863349915, -0.6584821939468384, -1.920406699180603, -2.8093955516815186, -2.051755666732788, -0.8578870296478271, -0.7650507688522339, -0.5350358486175537, -0.042027171701192856, 0.4995812773704529, 0.5561431050300598, 0.44909927248954773, 0.3203110992908478, 0.14547079801559448, 0.05291799455881119, -0.6741740703582764, -0.759623110294342, -0.7600725889205933, -0.8213833570480347, -1.8920081853866577, 0.6539105772972107, 0.4787711203098297, 0.4033374786376953, 0.018886063247919083, 0.21784541010856628, -0.2003888040781021, -0.32312941551208496, -0.989737331867218, -1.4135291576385498, -2.3739025592803955, -2.0383999347686768, -1.3075212240219116, -0.6494756937026978, 0.01791336014866829, 0.25748559832572937, 0.21936999261379242, 0.25670742988586426, 0.3241159915924072, 0.2966856360435486, -0.0009635066380724311, -0.0017451266758143902, 0.21257443726062775, -0.4758124053478241, -0.8309011459350586, -1.0174683332443237, -1.1219128370285034, -0.7999939918518066, -0.4100833237171173, 0.1278810352087021, 0.4090157747268677, 0.2829486131668091, 0.010175148956477642, -0.16540567576885223, -0.36377522349357605, 0.06390736252069473, -0.4368239939212799, -1.4406131505966187, -1.0410445928573608, 0.2876499593257904, 0.4212988018989563, 0.5958927869796753, 0.5287306308746338, 0.6009809970855713, 0.37989795207977295, 0.22980400919914246, 0.5793845653533936, 0.08128895610570908, -0.09681149572134018, -0.2997688353061676, -0.294429749250412, -0.8986632227897644, -1.0456594228744507, -0.7703049778938293, -0.9429190754890442, -1.2867506742477417, -0.36864691972732544, 0.1713344156742096, -0.2852848470211029, -0.2163165807723999, -0.1451767534017563, -0.46866467595100403, -0.4391907751560211, -0.3789456784725189, -0.18258832395076752, -0.27903279662132263, 0.4655766189098358, 0.2308686077594757, 0.6602017879486084, 0.5176255106925964, 0.1769373118877411, 0.09634452313184738, 0.04346698522567749, 0.4145112931728363, 0.5011792182922363, -0.0004623015411198139, -0.2384185492992401, -0.22043046355247498, -0.5322988629341125, -0.5906527638435364, -0.6121201515197754, -0.36369121074676514, -0.48072323203086853, -0.7820687890052795, -0.5355477929115295, -0.2684767544269562, -0.44318708777427673, -0.39447855949401855, -0.3549000918865204, 0.15604814887046814, -0.05199062079191208, -0.0680943951010704, -0.015665600076317787, -0.13020236790180206, 0.2697669565677643, 0.5294300317764282, 0.25037550926208496, 0.03430691361427307, -0.41477036476135254, -0.3060109317302704, -0.009739878587424755, 0.1958755999803543, 0.059192221611738205, -0.06777903437614441, -0.20789775252342224, -0.5264367461204529, -0.5098433494567871, -0.2827671766281128, -0.5059889554977417, 0.16531887650489807, 0.2951372265815735, -0.11918691545724869, 0.07889324426651001, 0.35914894938468933, 0.23114578425884247, -0.17445966601371765, -0.4335993528366089, 0.03843783587217331, 0.46288028359413147, 0.16540919244289398, -0.37914028763771057, 0.31166377663612366, 0.3109012544155121, 0.14523912966251373, 0.11006034910678864, -0.040617574006319046, -0.35721296072006226, -0.18985651433467865, -0.44102993607521057, -0.06605800241231918, -0.010752110742032528, -0.2092936486005783, -0.2545555830001831, -0.4264194667339325, -0.48970043659210205, -0.1300176978111267, -0.020500637590885162, -0.2113674134016037, 0.16088640689849854, 0.24713905155658722, 0.35845398902893066, 0.403627872467041, 0.2721630930900574, 0.3976610004901886, 0.06207217648625374, 0.6624348163604736, 0.4480794072151184, 0.020413683727383614, -0.5359893441200256, -0.005008390638977289, 0.13537196815013885, 0.1693064421415329, -0.042224641889333725, 0.046966250985860825, -0.22643627226352692, -0.5097104907035828, -0.6492288708686829, -0.36677977442741394, -0.21851909160614014, -0.5147625803947449, -0.44633588194847107, -0.5229767560958862, -0.29881200194358826, -0.02524648979306221, 0.1791662573814392, -0.19626522064208984, -0.10556364804506302, 0.18980365991592407, 1.0677173137664795, -0.3039533793926239, 0.132592111825943, -0.14987358450889587, 0.08289838582277298, 0.7858440279960632, 0.33644548058509827, -0.030322009697556496, -0.5592868328094482, -0.12702688574790955, 0.19309046864509583, 0.05542866513133049, 0.08344325423240662, -0.19526872038841248, -0.5085034966468811, -0.4959408938884735, -0.5068603754043579, -0.14719143509864807, -0.265967458486557, -0.5042366981506348, -0.6244889497756958, -0.25321677327156067, -0.4780641794204712, 0.16217774152755737, -0.1281021237373352, -0.06698891520500183, 0.4429967701435089, 0.10097166895866394, 0.2628392279148102, -0.1915893405675888, -0.312520295381546, -0.2838965058326721, -0.3304271399974823, 0.6487399935722351, 0.30934032797813416, 0.032992877066135406, -0.16664695739746094, -0.34080907702445984, 0.22343960404396057, -0.09014727920293808, 0.37865427136421204, 0.2003660798072815, 0.040617916733026505, -0.3107507824897766, -0.28005626797676086, -0.022554997354745865, 0.07146306335926056, -0.13736198842525482, -0.2789727747440338, 0.010193785652518272, -0.18734565377235413, 0.059193823486566544, -0.09280332177877426, 0.3669112026691437, 0.1726652979850769, 0.0015151433181017637, -0.4021393060684204, -0.24979311227798462, -0.22405435144901276, 0.3866289258003235, 0.28019681572914124, 0.24032798409461975, -0.09545222669839859, 0.3037487268447876, -0.11459891498088837, 0.12688814103603363, -0.14596693217754364, 0.06914529949426651, -0.13493254780769348, 0.1875344067811966, -0.24575571715831757, -0.4028055965900421, -0.19196614623069763, 0.18045254051685333, 0.30252933502197266, 0.10941242426633835, 0.12862126529216766, 0.2583934962749481, -0.018330877646803856, 0.16121231019496918, -0.15703250467777252, 0.4794057607650757, 0.05071454867720604, -0.1652052104473114, -0.5558183789253235, 0.39525219798088074, 0.3520433306694031, 0.2996993064880371, -0.020014740526676178, 0.006430884823203087, -0.4115346670150757, 0.3093527853488922, -0.03889352083206177, -0.25062718987464905, 0.06145332753658295, -0.004196708556264639, -0.008405241183936596, 0.17951101064682007, -0.05455152690410614, 0.043512698262929916, -0.13537368178367615, -0.13982217013835907, 0.28640174865722656, 0.17155693471431732, 0.1561194807291031, 0.15021838247776031, 0.16685500741004944, 0.0877506360411644, 0.10795938223600388, 0.23759528994560242, 0.31062889099121094, 0.11423449963331223, -0.3116929829120636, 0.28185319900512695, 0.5443906784057617, -0.11604368686676025, 0.2924880385398865, 0.7288418412208557, 0.44290152192115784, -0.16810551285743713, 0.2470928579568863, 0.05433819070458412, 0.16218610107898712, -0.027694307267665863, -0.15602464973926544, 0.004485597833991051, -0.21717311441898346, -0.20532290637493134, -0.3027535676956177, -0.11329019069671631, 0.12740053236484528, 0.2076186090707779, 0.04030653089284897, 0.07692614197731018, 0.368707537651062, 0.32574957609176636, -0.3289662003517151, -0.06923070549964905, -0.03548330441117287, 0.3974447548389435, -0.30831852555274963, -0.34602588415145874, 0.14317773282527924, -0.25270554423332214, 0.29133936762809753, 0.6552114486694336, 1.4412260055541992, -0.048346031457185745, -0.04165441915392876, -0.13424889743328094, 0.036919113248586655, 0.07357677817344666, -0.00010432195995235816, -0.007199888117611408, -0.19359661638736725, -0.2548769414424896, -0.34786808490753174, -0.19038254022598267, -0.009577489458024502, 0.03290513902902603, -0.25204965472221375, -0.06726910173892975, 0.1814408302307129, 0.23670537769794464, 0.5320087671279907, 0.42267680168151855, -0.31824782490730286, 0.16726349294185638, 0.11082768440246582, 0.22336362302303314, -0.02148285321891308, -0.19067314267158508, 0.054696448147296906, 0.004979610443115234, 1.4710630178451538, 0.661043107509613, 0.18419355154037476, -0.10480396449565887, 0.0598144456744194, 0.1560087352991104, 0.3043750524520874, 0.3012680411338806, -0.04330632463097572, 0.11743847280740738, -0.021687639877200127, 0.03682299703359604, -0.057461950927972794, 0.15152578055858612, -0.12592600286006927, -0.2149720937013626, -0.07706419378519058, -0.1588120013475418, 0.5442926287651062, 0.13188256323337555, -0.2972080111503601, 0.29007112979888916, 0.20518209040164948, 0.2107616513967514, 0.5545860528945923, -0.0396186001598835, -0.016082197427749634, -0.004096873104572296, 0.39078792929649353, 1.3208496570587158, -0.22473075985908508, 0.15155012905597687, 0.35438355803489685, -0.06284287571907043, 0.19985894858837128, -0.1827603578567505, 0.09083598852157593, -0.10855668783187866, -0.3714260756969452, -0.1812668740749359, 0.04240209609270096, -0.24282655119895935, -0.05178915709257126, 0.18833594024181366, -0.08326152712106705, -0.6507004499435425, -0.31453925371170044, 0.04795512184500694, 0.1952071636915207, -0.08605080842971802, -0.12072324007749557, 0.16074973344802856, 0.4755112826824188, -0.04464118182659149, 0.08462756127119064, 0.005832470953464508, 0.6155914068222046, 0.02481476217508316, 0.8838993310928345, 0.5414191484451294, 0.6432293653488159, 0.32764706015586853, 0.6514196991920471, 0.07214988023042679, -0.704710841178894, -0.5355895757675171, 0.6584433913230896, 0.1812613606452942, -0.1986362487077713, -0.45014524459838867, -0.5533431172370911, -0.6889833211898804, -0.9137670993804932, -0.561337947845459, 0.19071929156780243, -0.334152489900589, -0.17149986326694489, -0.7928872108459473, -0.3439881205558777, -0.0035175031516700983, 0.0501888170838356, 0.029209747910499573, 0.04379379004240036, -0.014637082815170288, 0.05794011801481247, -0.16672135889530182, -0.2400481253862381, -0.20993801951408386, -0.5322674512863159, -0.266032338142395, -0.40526023507118225, -0.6680800318717957, -0.49631866812705994, -1.2920129299163818, -0.34132686257362366, 0.20966047048568726, -0.23412321507930756, -0.22044634819030762, 0.11504655331373215, -0.025595104321837425, -0.026607951149344444, -0.03379993885755539, -0.047979891300201416, -0.0005883783451281488, -0.47570136189460754, -0.30615872144699097, -0.02286575920879841, 0.015622500330209732, 0.033633023500442505, -0.07287181913852692, 0.07690256088972092, 0.07664882391691208, -0.019067853689193726, -0.04182267561554909, 0.1370287984609604, 0.1659931242465973, 0.120096854865551, 0.08769410103559494, 0.3655397295951843, 0.30171024799346924, 0.5777447819709778, 0.4461008310317993, 0.42651382088661194, 0.6889582872390747, 0.9392914175987244, -0.13225647807121277, 0.18484614789485931, 0.15750257670879364, 0.10682395100593567, 0.23371675610542297, 0.05521903187036514, 0.19442562758922577, 0.28749150037765503, 0.27557262778282166, 0.03510311245918274, 0.0769616886973381, -0.024506568908691406, 0.05147933214902878], [0.058710359036922455, 0.025047309696674347, -0.07019616663455963, 0.030187562108039856, -0.08163197338581085, 0.07096115499734879, 0.0133746936917305, -0.012178100645542145, -0.046106886118650436, -0.023816630244255066, 0.07567565888166428, 0.033350855112075806, 0.04763932153582573, -0.15608389675617218, -0.3206849992275238, -0.05450296401977539, -0.014496661722660065, -0.06766976416110992, 0.06144588440656662, -0.014021448791027069, -0.0075455233454704285, -0.0022094622254371643, 0.04554948955774307, -0.04508235678076744, 0.007860653102397919, 0.009111732244491577, 0.041748277842998505, 0.022606261074543, 0.08006463199853897, -0.023082725703716278, 0.05322650820016861, 