{"weights": [[[0.03551623970270157, -0.043719977140426636, 0.07097939401865005, -0.012417919933795929, 0.07675487548112869, 0.05700661987066269, 0.009813092648983002, -0.06167679652571678, -0.020885057747364044, 0.01256752759218216, 0.06346679478883743, -0.049044378101825714, 0.01207269262522459, -0.13331136107444763, -0.11901421844959259, -0.08451966941356659, -0.056928157806396484, -0.03154296055436134, 0.05589456111192703, 0.04774484783411026, 0.050989292562007904, 0.00952167809009552, 0.0851968303322792, 0.0035631954669952393, -0.014721862971782684, 0.0034630000591278076, -0.00949852168560028, -0.02460603043437004, -0.07137886434793472, 0.03333863615989685, 0.016013234853744507, 0.06561712175607681, -0.2449778914451599, -0.14668627083301544, -0.5213413238525391, -0.6655076742172241, -0.5059699416160583, -0.497682124376297, -0.7742363810539246, -0.8372350931167603, -0.9005391001701355, -0.49438512325286865, 0.13269326090812683, -0.847430944442749, -0.8238101005554199, -0.5665709972381592, -0.37675395607948303, -0.7134541273117065, -0.8041919469833374, -0.7074491381645203, -0.5919365882873535, -0.4218825399875641, -0.021493136882781982, 0.059515394270420074, -0.03231930360198021, 0.024867095053195953, 0.021229557693004608, 0.025585487484931946, -0.25529322028160095, -0.5251588821411133, -0.8120298981666565, -0.45964738726615906, -1.0176312923431396, -0.6997936964035034, -0.9570547938346863, -0.9431624412536621, -0.6640583872795105, -0.7388055920600891, -1.0324783325195312, -0.9534373879432678, -0.9509503841400146, -0.8639609813690186, -0.6714267730712891, -0.1292642056941986, -0.20964059233665466, -0.40373972058296204, -0.38337966799736023, -0.46798431873321533, -0.002479428192600608, -0.4692545533180237, -1.04482901096344, -0.7048639059066772, 0.07433062046766281, -0.04914162680506706, -0.06801393628120422, -0.06923411041498184, -0.4927603006362915, -0.7378464341163635, 0.0783810019493103, -0.010833034291863441, -0.2992132306098938, -0.15627732872962952, -0.13713869452476501, -0.7881801128387451, -0.5081726312637329, -0.36731550097465515, -0.9049476385116577, -1.3174889087677002, -0.5446191430091858, -0.1340591311454773, -0.3249073624610901, -0.05047030746936798, 0.023130590096116066, 0.15951286256313324, 0.2720295190811157, 0.3226395547389984, -0.06015405058860779, 0.2805091440677643, -0.36401182413101196, -0.1786181926727295, -0.1869068145751953, 0.009101048111915588, 0.0038811862468719482, 0.02907528169453144, -0.0004337966674938798, 0.28512465953826904, -0.24457751214504242, -0.6761261224746704, -0.17404039204120636, -0.02142270840704441, 0.11227694898843765, -0.39593684673309326, -0.8064308166503906, -0.15946021676063538, -0.14393280446529388, -0.13885708153247833, -0.26635515689849854, 0.19249281287193298, 0.16543243825435638, 0.1761946678161621, 0.06986827403306961, -0.0009258649661205709, 0.09030825644731522, 0.4959162771701813, 0.051984429359436035, 0.02871636115014553, -0.03658955916762352, 0.4162748157978058, -0.37536028027534485, -0.4257040023803711, -0.00022841989994049072, -0.07025060057640076, -0.7673676013946533, 0.15520423650741577, -0.3796137273311615, -0.25822168588638306, -0.024962663650512695, 0.18377554416656494, 0.6850169897079468, 0.759864330291748, 0.46818217635154724, 0.4915972650051117, 0.4636213481426239, 0.3320622444152832, 0.1834374964237213, 0.23393072187900543, 0.2620992064476013, 0.21387410163879395, 0.26272109150886536, 0.24443958699703217, 0.4079335927963257, -0.11134931445121765, 0.08624976873397827, 0.05868041142821312, -0.22627775371074677, 0.08668848872184753, -0.5025807023048401, -0.28024807572364807, 0.07471998780965805, -0.2298951894044876, 0.25897616147994995, -0.5683097839355469, 0.12792900204658508, 0.38602954149246216, -0.3973315954208374, 0.23616082966327667, 0.804627001285553, 0.7260302305221558, 0.41815781593322754, 0.1475709229707718, 0.014184902422130108, 0.24542228877544403, 0.2902206480503082, 0.2231362760066986, 0.0817059725522995, 0.30805695056915283, 0.2806941568851471, 0.22441431879997253, 0.46008947491645813, 0.41262680292129517, -0.04434175789356232, 0.31308674812316895, 0.6027641296386719, 0.29517000913619995, -0.05282643809914589, -0.254878968000412, -0.10154573619365692, -0.23350168764591217, 0.21972519159317017, -0.09419626742601395, 0.37954458594322205, 0.7640895843505859, 0.24743437767028809, 0.42579004168510437, 0.7847518920898438, 0.5074746608734131, 0.3434044122695923, -0.09840177744626999, -0.09322641044855118, 0.2047077715396881, 0.0472264401614666, 0.12876617908477783, 0.32248735427856445, 0.20102988183498383, 0.24048034846782684, -0.08998966962099075, 0.20900119841098785, 0.16740188002586365, -0.048062827438116074, 0.6304543614387512, 0.8549900650978088, -0.0871073454618454, 0.11166641116142273, -0.2069782167673111, -0.5322380065917969, -0.5809101462364197, 0.5261315703392029, 0.6349671483039856, 0.49589356780052185, 0.32896628975868225, 0.3280683159828186, 0.8401538729667664, 0.6111766695976257, 0.16233010590076447, -0.18134742975234985, 0.29421186447143555, 0.15719249844551086, -0.15386930108070374, -0.19064535200595856, -0.0212491936981678, 0.2077353596687317, -0.12418409436941147, 0.5271888375282288, 0.14334599673748016, -0.2058248221874237, 0.4368676245212555, 0.3095895051956177, 0.8471472859382629, 1.0450636148452759, 0.5867152214050293, -0.04821184650063515, -0.05554373934864998, -0.05539242550730705, 0.003936565946787596, 0.9167885184288025, -0.4106501340866089, -0.46061134338378906, 0.07870236784219742, 0.3290957510471344, 0.2866867482662201, 0.2791062593460083, -0.1293012946844101, 0.3111278712749481, 0.4195878207683563, 0.30661872029304504, 0.1148361787199974, -0.34702447056770325, -0.3666693866252899, 0.026440128684043884, -0.015423317439854145, 0.3102787137031555, 0.12318109720945358, 0.04973477125167847, 0.24318866431713104, 0.3486703634262085, 0.9861506223678589, 1.3933405876159668, 0.6157019138336182, 0.130933940410614, 0.29660502076148987, -0.02936125546693802, -0.06019265949726105, 0.6943501830101013, -0.07416059821844101, -0.12440229207277298, -0.3636244535446167, -0.051972754299640656, -0.05325251817703247, 0.05714810639619827, -0.03080912120640278, 0.05360693112015724, 0.26875239610671997, 0.3514030873775482, -0.18661324679851532, -0.2297249734401703, -0.193546324968338, -0.2306838184595108, -0.24634356796741486, 0.130290225148201, 0.44787314534187317, 0.2874409556388855, 0.3500536382198334, 0.05420636385679245, 1.1010749340057373, 1.6533393859863281, 0.9798901081085205, 0.48996084928512573, 0.03400558605790138, -0.17726406455039978, -0.3080779016017914, 0.7359937429428101, -0.2411903738975525, -0.5481043457984924, -0.6134455800056458, -0.33251094818115234, -0.07002677768468857, -0.024819085374474525, -0.16378678381443024, -0.05199476704001427, 0.021178748458623886, 0.31687670946121216, 0.12844358384609222, -0.3072977364063263, -0.18353217840194702, 0.17176370322704315, 0.3378821313381195, 0.3808755874633789, 0.125643789768219, -0.05805312469601631, 0.13111484050750732, 0.3088984489440918, 0.3582742214202881, 0.5133678317070007, 0.07224252074956894, 0.6921308040618896, 0.17123708128929138, -0.4327508509159088, -0.05850325897336006, 0.10320965945720673, 0.2366129755973816, -0.30720776319503784, -0.5003651976585388, -0.11225833743810654, -0.5947757363319397, -0.13946928083896637, -0.2444879710674286, -0.23763544857501984, -0.172589972615242, -0.17777973413467407, 0.11191308498382568, -0.3693793714046478, -0.26593300700187683, 0.062034722417593, 0.21607095003128052, 0.17294330894947052, 0.04266733676195145, 0.04372597485780716, 0.12539377808570862, 0.29220229387283325, -0.044075556099414825, 0.3735545873641968, -0.07220543175935745, 0.2816394865512848, 0.27173781394958496, -0.3176244795322418, 0.07425235211849213, -0.26735278964042664, 0.1402527391910553, 0.12268456071615219, -0.26014405488967896, -0.12102419137954712, -0.23622168600559235, -0.18546709418296814, -0.10401248931884766, -0.3227578103542328, -0.3545944392681122, -0.3338668942451477, -0.44924476742744446, -0.49102723598480225, -0.19029587507247925, -0.20044198632240295, 0.043708037585020065, 0.1564091145992279, -0.3949832022190094, -0.08591970056295395, 0.15001405775547028, -0.07993385940790176, -0.42892900109291077, -0.08501246571540833, 0.06620344519615173, -0.10271359980106354, -0.13866469264030457, 0.08144135028123856, 0.5482692718505859, 0.02665417268872261, 0.13865973055362701, 0.5378574132919312, -0.17684753239154816, -0.21470151841640472, 0.21916145086288452, 0.06923119723796844, 0.11316182464361191, -0.4233521819114685, -0.19564317166805267, -0.2413506805896759, -0.7592117190361023, -0.6759547591209412, -0.26682496070861816, -0.25913935899734497, 0.3279417157173157, -0.15749096870422363, -0.10401318967342377, -0.13887403905391693, -0.09961608797311783, -0.37497252225875854, -0.3302549719810486, -0.22035732865333557, -0.28873318433761597, -0.5975438356399536, -0.48776137828826904, -0.014852584339678288, 0.5333960056304932, -0.19766974449157715, -0.08706940710544586, 0.369941383600235, -0.023820726200938225, -0.03213367611169815, 0.3069882392883301, 0.32125943899154663, 0.5166589021682739, 0.31522873044013977, -0.3522036671638489, -0.4515511095523834, -0.9051662087440491, -0.893939733505249, -0.17924131453037262, -0.022171098738908768, 0.4615456163883209, 0.258647084236145, 0.08474019169807434, 0.24589863419532776, -0.043245889246463776, -0.22925184667110443, -0.09683887660503387, -0.242904394865036, -0.006447633728384972, -0.16142567992210388, 0.03457779437303543, -0.2884525954723358, -0.23505783081054688, -0.4105881452560425, 0.03666234016418457, 0.0892583578824997, 0.12605063617229462, 0.19062542915344238, 0.15051142871379852, 0.5462072491645813, 0.4542057514190674, 0.097850501537323, -0.5067155361175537, -0.24450957775115967, -0.4652070999145508, -0.6323953866958618, -0.24128751456737518, -0.09519690275192261, 0.29050952196121216, 0.3257007300853729, 0.411106675863266, 0.43310990929603577, 0.4479353129863739, -0.03553102910518646, 0.0394044853746891, 0.024069173261523247, -0.08817565441131592, -0.5145273804664612, -0.21949687600135803, -0.07053348422050476, -0.069288469851017, -0.3167213201522827, -0.06647523492574692, -0.24319346249103546, 0.3840427100658417, -0.1329532265663147, 0.6614559888839722, 0.16833937168121338, 0.2715335786342621, -0.044434573501348495, -0.45054301619529724, -0.3900507986545563, -0.513459324836731, -0.5637681484222412, -0.4742209315299988, -0.19527164101600647, 0.27224138379096985, 0.22744795680046082, 0.2852228283882141, -0.04656747356057167, -0.0124373659491539, -0.0195182953029871, 0.2429325133562088, 0.026745935901999474, -0.22436405718326569, -0.14973212778568268, -0.5620660781860352, -0.34593117237091064, 0.14473386108875275, 0.11388383060693741, -0.29661133885383606, -0.09053756296634674, 0.20577754080295563, -0.12047895044088364, 0.6023823618888855, 0.13863852620124817, 0.14973211288452148, -0.04276781901717186, -0.1829027682542801, -0.7157592177391052, -0.6819635629653931, -0.518174946308136, -0.280818372964859, 0.15885038673877716, -0.051656339317560196, -0.14002178609371185, -0.08085115998983383, -0.2515997886657715, 0.40342164039611816, -0.05472969636321068, 0.06590946018695831, -0.15602637827396393, -0.2562757730484009, 0.12276290357112885, -0.042681656777858734, -0.004686663392931223, -0.4553191363811493, 0.3977070748806, -0.05953601747751236, -0.09487597644329071, 0.4722973704338074, 0.20391330122947693, 0.35316675901412964, 0.8020888566970825, 0.0569000169634819, -0.05420711636543274, -0.2445543259382248, -0.4653449058532715, -0.5324650406837463, -0.2952190041542053, -0.3958861827850342, -0.2452407330274582, -0.4569903314113617, -0.13306553661823273, -0.03388194739818573, 0.07497464865446091, 0.2823081314563751, 0.28374195098876953, 0.28882548213005066, -0.17300401628017426, -0.35045793652534485, -0.5980206727981567, -0.3629970848560333, 0.012925028800964355, 0.2899954319000244, 0.6737842559814453, -0.07358238846063614, -0.2725921869277954, 0.4787844121456146, 0.04565460979938507, 0.4148653447628021, 0.3520491123199463, -0.006513496860861778, -0.3099016547203064, -0.45478883385658264, -0.4415925443172455, -0.08477045595645905, -0.2531195282936096, -0.2856980860233307, -0.11802565306425095, -0.14144904911518097, -0.07597768306732178, -0.07983317226171494, -0.46044355630874634, -0.1264343112707138, -0.00959067139774561, 0.1839962601661682, -0.17273551225662231, -0.03723758086562157, -0.34898829460144043, -0.21553084254264832, -0.12087607383728027, -0.2595285177230835, -0.12341678887605667, 0.1894311159849167, -0.009146532043814659, -0.034718018025159836, 0.021813947707414627, 0.04349525645375252, 0.18503165245056152, -0.17437388002872467, -0.16354316473007202, 0.07701724767684937, 0.1709337830543518, -0.012822325341403484, -0.1181492730975151, -0.18543724715709686, 0.14733625948429108, 0.3648320734500885, 0.1183336079120636, -0.4251132011413574, -0.49705517292022705, -0.4439622163772583, -0.026515556499361992, 0.0072902594693005085, -0.2628095746040344, 0.006047314964234829, -0.7667964100837708, -0.03849830850958824, -0.08846096694469452, -0.21729257702827454, -0.9516569972038269, -0.14725002646446228, -0.39608505368232727, -0.15177953243255615, 0.2846379280090332, -0.0972372516989708, 0.002820533700287342, -0.3605490028858185, 0.29462146759033203, 0.33321815729141235, 0.2991352081298828, 0.2549819350242615, 0.2844357192516327, -0.0362449586391449, 0.2701096832752228, 0.41768914461135864, 0.25493350625038147, 0.1004495695233345, -0.21293994784355164, -0.20554211735725403, 0.23142999410629272, 0.5391151309013367, -0.2588281035423279, -0.20271489024162292, 0.12942171096801758, 0.09530075639486313, -0.05272844806313515, 0.06033480912446976, -0.2296890914440155, 0.5387783050537109, 0.10888148844242096, -0.4296380579471588, 0.2444821000099182, 0.526405930519104, 0.12127893418073654, -0.2423451691865921, 0.4085344970226288, 0.525145411491394, 0.4611966013908386, 0.5272536277770996, 0.6822220087051392, 0.4505048990249634, 0.3545153737068176, 0.28024888038635254, -0.09761699289083481, -0.0181273203343153, -0.2111508697271347, 0.14669908583164215, -0.23050661385059357, 0.4704895615577698, -0.035509850829839706, 0.2765350043773651, -0.03302013874053955, -0.04411562904715538, -0.043393269181251526, -0.07401855289936066, -0.4007834494113922, 0.12698614597320557, 0.6502251029014587, 0.43584561347961426, 0.5314978957176208, 0.7799081802368164, 0.4938023090362549, 0.21531303226947784, 0.6171561479568481, 0.5212293863296509, 0.7221100926399231, 0.5773005485534668, 0.12987539172172546, 0.04785739630460739, 0.13052424788475037, 0.20621493458747864, 0.2948852777481079, 0.4050118923187256, -0.062111493200063705, -0.10850337892770767, 0.20886822044849396, 0.8447486162185669, 0.38018378615379333, -0.5999345183372498, -0.46810537576675415, 0.05862516909837723, -0.04366596043109894, 0.07998382300138474, 0.0921565592288971, 0.7668557167053223, 0.4700935482978821, 0.5399535894393921, 1.1752526760101318, 1.1970382928848267, 0.8854755759239197, 0.950543224811554, 1.1094006299972534, 1.096207618713379, 0.5096263289451599, 0.41215750575065613, 0.027307521551847458, -0.078875333070755, 0.33370962738990784, 0.5348445773124695, 0.4951719045639038, 0.7564493417739868, 0.29472947120666504, 0.4209834039211273, 1.212213158607483, 1.1835861206054688, 1.008669137954712, -0.0901951864361763, -0.4877541661262512, 0.014558643102645874, -0.08553021401166916, -0.04124319180846214, -0.033017367124557495, 0.20477984845638275, 1.0326696634292603, 0.38011759519577026, 0.6728490591049194, 1.5855717658996582, 0.6628323197364807, 1.3583649396896362, 0.6037635207176208, 0.5065731406211853, 1.3005672693252563, 1.1059467792510986, 1.4421308040618896, 0.8706931471824646, 1.2302000522613525, 1.1593987941741943, 0.558132529258728, 0.9398987889289856, 1.0920329093933105, 1.652367353439331, 0.813111424446106, 0.6126870512962341, 0.23090463876724243, -0.1268930584192276, 0.031351082026958466, -0.08164355903863907, 0.06651567667722702, 0.03279496729373932, 0.0307261124253273, 0.02104424685239792, -0.08448062092065811, -0.16216354072093964, 0.16463574767112732, 0.01870042271912098, -0.4169935882091522, -0.45489054918289185, -0.11096171289682388, 0.4257505238056183, 0.2306952327489853, 0.28895750641822815, 0.9474050402641296, 0.7667240500450134, 0.23151229321956635, 0.01557388436049223, 0.04721381515264511, 0.3837941586971283, 0.4571264982223511, 0.533148467540741, 0.10462703555822372, -0.2199648767709732, -0.015261150896549225, -0.013031736016273499, -0.06345750391483307, 0.0677940770983696], [0.04114235192537308, 0.06854432076215744, -0.04338409751653671, -0.04672814905643463, -0.01818457990884781, -0.02194248139858246, 0.069243423640728, 0.017425984144210815, 0.0400182381272316, 0.07268736511468887, -0.004571288824081421, 0.06138748675584793, -0.05074121430516243, 0.050844594836235046, 0.034560997039079666, -0.009798555634915829, 0.011410750448703766, 0.06221509724855423, 0.021374620497226715, -0.04973634332418442, -0.03940090909600258, -0.06085345894098282, 0.013440892100334167, 0.03458976000547409, 0.004508756101131439, -0.024236928671598434, 0.03650966286659241, 0.03899692744016647, -0.002316802740097046, -0.013422347605228424, -0.005450814962387085, 0.06007658690214157, 0.0595640167593956, 0.2575850784778595, 0.6964284777641296, 0.7362685203552246, 0.6918016076087952, 0.8743579983711243, 0.8502541780471802, 0.797792911529541, 0.7111535668373108, 0.5273891687393188, -0.341702401638031, -0.40775570273399353, -0.5097853541374207, -0.18017274141311646, 0.9798088669776917, 0.6128755211830139, 0.6369442939758301, 0.6592065095901489, 0.5220409631729126, 0.2894546389579773, 0.00393146276473999, -0.02917531505227089, 0.061258234083652496, -0.07316722720861435, 0.04737289994955063, -0.00664161890745163, 0.00025986708351410925, 0.18882180750370026, 0.2772844135761261, 0.21136246621608734, 0.8085309267044067, 0.9258154630661011, 1.5867626667022705, 2.0300660133361816, 0.7565771341323853, 0.5326300263404846, -0.16705898940563202, -0.34925377368927, -0.58900386095047, 0.07783440500497818, 0.5371637940406799, 0.9733082056045532, 1.1655590534210205, 1.1011027097702026, 0.8090516924858093, 0.09428196400403976, -0.11164204031229019, 1.0294179916381836, 0.39393290877342224, 0.04086343199014664, -0.02330555021762848, 0.012198753654956818, -0.0272938571870327, -0.06488384306430817, -0.5007374286651611, -0.4054028391838074, -0.052930429577827454, 0.7181592583656311, 0.901178777217865, -0.0001744570763548836, 0.17100128531455994, 0.5939304232597351, 0.7705055475234985, 0.6369210481643677, -0.18421810865402222, -0.8646488189697266, -0.7328534126281738, -0.025239869952201843, -0.2817145586013794, -0.26898065209388733, -0.3258872628211975, -0.03719567880034447, 0.033238526433706284, 0.347316175699234, -0.018735259771347046, 0.6658401489257812, 0.38349130749702454, 0.47934237122535706, 0.05116328224539757, -0.027351129800081253, -0.01881687343120575, -0.04452655091881752, -0.5509616732597351, -0.7424188852310181, 0.10907939076423645, 0.9372633695602417, 1.3260537385940552, 0.5551233291625977, 0.6132840514183044, 1.589410662651062, 1.5465927124023438, 1.5365737676620483, 0.9863341450691223, 0.729804277420044, 0.33141952753067017, -0.09099683165550232, -0.1662408709526062, 0.15453597903251648, -0.20812369883060455, -0.9085291028022766, -0.6756332516670227, -0.48210951685905457, -0.4771612882614136, -0.38354620337486267, -0.012707742862403393, 0.9857116937637329, 0.48861512541770935, 0.45742174983024597, -0.044256869703531265, -0.02840333804488182, -0.3505537807941437, -0.7434819936752319, 0.3757423758506775, 0.10389965027570724, 0.6078863739967346, 0.29278144240379333, 0.7750023603439331, 1.2628389596939087, 2.198458671569824, 2.175412178039551, 1.691358208656311, 2.018862009048462, 1.4946084022521973, 0.7469220757484436, 0.7597929835319519, 0.39438870549201965, 0.1755167543888092, -0.1778142899274826, -0.1891566812992096, -0.3355425298213959, -0.3763471841812134, 0.5199405550956726, 0.2755998373031616, 0.815090537071228, 0.382865846157074, 0.4400138556957245, 0.049253858625888824, -0.04259765148162842, 0.12323974817991257, -0.25201818346977234, -0.20827722549438477, -0.3405299782752991, -0.41293948888778687, -0.289258748292923, -0.003437217092141509, 0.01833536848425865, 0.6335100531578064, 0.9524518847465515, 0.7401180267333984, 0.8664970993995667, 0.886563241481781, 1.0185890197753906, 0.6799049973487854, 0.31616002321243286, 0.11633376777172089, -0.05518081784248352, 0.43655213713645935, 0.28709423542022705, -0.05180833116173744, 0.06362113356590271, 0.5910170674324036, 0.6635787487030029, 0.30258259177207947, 0.2910860776901245, -0.04191688075661659, -0.5425670146942139, -0.08800037950277328, -0.46021533012390137, -0.4048248529434204, 0.14377212524414062, -0.14333559572696686, -0.7844943404197693, -0.9431408643722534, -0.38574284315109253, 0.2620958685874939, 0.30059894919395447, 0.11924595385789871, 0.505370020866394, 0.762676477432251, 0.8896895051002502, 0.2922593057155609, -0.018481744453310966, -0.11178086698055267, -0.15523090958595276, 0.09315431118011475, 0.04543674737215042, 0.2127445638179779, -0.37119394540786743, 0.4504814147949219, 0.569878101348877, 0.7151862382888794, 0.06955331563949585, 0.2332826852798462, -0.02189161814749241, -0.398714154958725, -0.057743337005376816, 0.009966850280761719, -0.10930155217647552, -0.13096380233764648, -0.6880430579185486, -0.7849466800689697, -0.303584486246109, -0.1759822517633438, -0.326406866312027, -0.043579962104558945, 0.32234448194503784, 0.21112073957920074, 0.2858063280582428, 0.3157227337360382, -0.0728176012635231, -0.06900306791067123, 0.14255523681640625, -0.18841366469860077, 0.005671805702149868, 0.019482433795928955, -0.2688133716583252, 0.43699008226394653, 0.8649872541427612, 0.9349019527435303, 0.3397959768772125, -0.22894448041915894, -0.7209855318069458, 0.16495032608509064, -0.16839537024497986, -0.33840423822402954, -0.4457499086856842, -0.3328564763069153, -0.2578319013118744, -0.3776445984840393, -0.5118446946144104, -0.2773844599723816, -0.22925660014152527, -0.4468024671077728, -0.1855831742286682, -0.3786710798740387, -0.3704862594604492, -0.4249642789363861, -0.23478259146213531, 0.3321158289909363, 0.17516955733299255, -0.1559467613697052, -0.35659587383270264, -0.2072756141424179, -0.23802413046360016, -0.08143039792776108, 0.1965114176273346, 0.4303617775440216, -0.34740760922431946, -0.18491984903812408, -0.5947852730751038, 0.09483014047145844, -0.17149603366851807, -0.5390070080757141, -0.6808430552482605, -0.2682023346424103, -0.19786833226680756, -0.18763354420661926, -0.517050564289093, -0.1380164623260498, -0.13495151698589325, 0.3470279574394226, -0.1449507176876068, -0.3884226083755493, -0.8006773591041565, -0.5224998593330383, -0.19984287023544312, 0.22964639961719513, 0.3065834641456604, -0.025988413020968437, 0.004527633544057608, 0.1927141398191452, 0.6126435399055481, 0.08247249573469162, -0.3584446907043457, -0.13686347007751465, -0.4925016462802887, -0.24982339143753052, -0.07735960185527802, -0.15309663116931915, -0.8031019568443298, -0.7656872868537903, -0.42962464690208435, 0.21685223281383514, -0.02780059352517128, -0.07408950477838516, -0.45836004614830017, -0.4981047809123993, -0.11769484728574753, 0.35449492931365967, 0.019029678776860237, -0.5849284529685974, -0.8883760571479797, -0.2752161920070648, -0.11354325711727142, -0.05748189985752106, 0.09381426870822906, -0.09706787765026093, 0.3223992586135864, 0.7343785166740417, 0.24294620752334595, 0.5514049530029297, 0.4325266182422638, -0.06992213428020477, -0.6381865739822388, -0.17267753183841705, -0.9664871692657471, -0.6662803292274475, 0.07013879716396332, -0.046332843601703644, 0.12332694977521896, 0.006032237783074379, -0.21453142166137695, -0.24364422261714935, -0.2545890212059021, 0.13750681281089783, 0.7738922238349915, 0.6171506643295288, 0.2017870843410492, -0.6238951683044434, -0.6392513513565063, -0.5540943145751953, -0.012393353506922722, -0.18182553350925446, -0.0568920373916626, 0.030566461384296417, 0.21533624827861786, 0.5592806339263916, 0.7656385898590088, 0.8426825404167175, -0.23363561928272247, -0.39866799116134644, -0.4551478624343872, 0.1615167260169983, -0.5913151502609253, -0.6185309886932373, -0.08453976362943649, -0.11563925445079803, -0.2528110444545746, -0.21158689260482788, 0.17899101972579956, 0.06521717458963394, 0.44428253173828125, 1.0299268960952759, 1.0727239847183228, 1.0967016220092773, 0.2660682797431946, -0.10968460887670517, -0.09909049421548843, -0.32805851101875305, -0.16313573718070984, -0.25975868105888367, -0.1591167002916336, -0.13217516243457794, 0.08566370606422424, -0.20933644473552704, -0.18901243805885315, -0.24807338416576385, -0.1801804155111313, -0.3474879264831543, 0.12920628488063812, 0.2530931532382965, -0.565123438835144, -0.7964060306549072, -0.12130418419837952, -0.013867208734154701, 0.35812491178512573, 0.2755843997001648, 1.129184365272522, 0.9919571876525879, 1.4841855764389038, 1.3298333883285522, 0.6533299088478088, 0.512192964553833, 0.1685636192560196, -0.10924145579338074, 0.03821346163749695, -0.08448421955108643, -0.2806752324104309, -0.2689724862575531, -0.4457288384437561, -0.31154510378837585, -0.1680423617362976, -0.27785372734069824, -0.3183281719684601, -0.16032205522060394, -0.2574444115161896, -0.279430627822876, -0.14575232565402985, -0.18658821284770966, -0.08868828415870667, -0.6096875667572021, -0.14993369579315186, 0.7503387928009033, 0.7881165146827698, 0.650260329246521, 1.0552564859390259, 1.115225911140442, 0.64128577709198, 0.5362939834594727, -0.41660720109939575, -0.13393937051296234, -0.23029857873916626, 0.061177536845207214, 0.29773733019828796, 0.33697178959846497, -0.06840027868747711, -0.283712774515152, -0.2609187066555023, -0.5114583373069763, -0.21714256703853607, -0.3201451301574707, -0.16596971452236176, 0.15227016806602478, -0.3000754415988922, -0.02936960943043232, 0.22514232993125916, -0.31044501066207886, -0.24631379544734955, -0.6535698175430298, 0.07219749689102173, 0.7380523085594177, 0.7500523924827576, 0.4943740963935852, 0.2820166349411011, 0.20471511781215668, 0.1745370775461197, 0.212649866938591, -0.0268412996083498, 0.1290624588727951, 0.04806491732597351, 0.2908609211444855, 0.34467893838882446, -0.07508832216262817, -0.3205568790435791, -0.5949026346206665, -0.8300716876983643, -0.5766066312789917, -0.577668309211731, -0.7167489528656006, -0.30332908034324646, -0.25083112716674805, 0.20542319118976593, -0.12395726144313812, 0.43787333369255066, -0.006937645375728607, -0.4294869005680084, -0.4633207321166992, 0.3866545259952545, 0.5050934553146362, 0.22999371588230133, 0.17547665536403656, 0.265909343957901, 0.4995863735675812, 0.10606273263692856, -0.23736663162708282, -0.2018149495124817, 0.06656695157289505, -0.17344628274440765, 0.060194775462150574, 0.3301662504673004, -0.06952216476202011, -0.1324002742767334, -0.9379565119743347, -0.8382535576820374, -0.6389849185943604, -0.49082499742507935, -0.8372663259506226, -0.591693639755249, -0.29422757029533386, -0.4095430374145508, -0.18800269067287445, 0.3208812177181244, -0.2833835482597351, -0.1543983668088913, -0.8517060875892639, -0.08713850378990173, 0.42627909779548645, 0.3051825165748596, 0.6397815346717834, 0.4859575927257538, 0.1525588184595108, -0.49033892154693604, -0.19762219488620758, -0.15676459670066833, -0.0528961606323719, -0.05218636617064476, 0.47412657737731934, 0.746155321598053, 0.5949053168296814, 0.11163325607776642, -0.2689515948295593, -0.3058679699897766, -0.19338980317115784, 0.434042364358902, 0.17740215361118317, 0.6016318798065186, 0.6317891478538513, -0.09364715963602066, -0.3053427040576935, -0.2822366952896118, -0.03704626485705376, -0.516147792339325, -0.3467610776424408, 0.37710845470428467, -0.4925984740257263, 0.22191059589385986, 0.20000766217708588, -0.28655585646629333, -0.25715452432632446, -0.33448633551597595, -0.17528478801250458, -0.0881463885307312, 0.017014261335134506, 0.1456536203622818, 0.5245957374572754, 0.4506262242794037, 0.3120030164718628, 0.675368070602417, 1.0037800073623657, 0.5767737627029419, 0.9794504046440125, 1.2704006433486938, 1.391080617904663, 1.1937150955200195, 1.0402114391326904, -0.11041466891765594, 0.03441793844103813, -0.5298709273338318, -0.05292026326060295, -0.09876143932342529, 0.5795018672943115, 0.5777018666267395, -0.4412056803703308, 0.14889158308506012, -0.15891961753368378, 0.06058330461382866, -0.026909051463007927, 0.12929566204547882, 0.07291888445615768, -0.33259403705596924, -0.41287142038345337, 0.10091808438301086, 0.06436806917190552, 0.05577022582292557, 0.2452605664730072, 0.7402791976928711, 1.212506890296936, 1.4091930389404297, 1.544755458831787, 1.379245638847351, 1.6491018533706665, 1.3389031887054443, 0.841747522354126, 0.42245736718177795, -0.2044229656457901, -0.04747842624783516, -0.2210671305656433, -0.10828018933534622, 0.43770328164100647, 0.7061800956726074, 0.4506458640098572, 0.6462923884391785, -0.07244110852479935, 0.49331289529800415, 0.6071197986602783, 0.029482118785381317, 0.15290528535842896, 0.4338485896587372, 0.13500715792179108, 0.20374028384685516, 0.00600658543407917, 0.28392601013183594, 0.2964724004268646, 0.868837833404541, 0.6577056646347046, 1.0341204404830933, 0.741215169429779, 0.40895891189575195, 1.2611567974090576, 1.473831295967102, 0.7107304334640503, 0.35673272609710693, -0.5744526386260986, -0.08844993263483047, -0.15487344563007355, -0.1685771495103836, 0.33230361342430115, 0.4889433681964874, -0.10025618225336075, 0.24681901931762695, 0.5317102670669556, 0.41101396083831787, 0.11533709615468979, -0.03063260205090046, 0.5164234042167664, 0.4608016312122345, 0.19852212071418762, 0.053329166024923325, -0.17051663994789124, 0.1573171317577362, 0.2647264897823334, 0.43853262066841125, 0.4568939208984375, 0.42643171548843384, 0.6814911365509033, 0.9269816279411316, 1.3377232551574707, 1.5541183948516846, 0.8191127777099609, 0.41493454575538635, -0.5215372443199158, 0.02348414808511734, -0.012208931148052216, -0.04513879120349884, 0.513136625289917, 0.4191665053367615, -0.4642149806022644, -0.06982693821191788, -0.2826496362686157, -0.17651624977588654, -0.17193332314491272, -0.13726121187210083, 0.06647714972496033, 0.119811050593853, 0.26174962520599365, 0.3851102590560913, 0.4301717281341553, 0.40702056884765625, 0.3594122529029846, 0.5397663116455078, 0.6043375134468079, 0.5660425424575806, 0.652740478515625, 0.7355936169624329, 0.5510050654411316, 0.27180904150009155, -0.3881382942199707, -0.4323153793811798, -0.6318989396095276, -0.06935453414916992, -0.004065163433551788, -0.020689882338047028, 0.12511710822582245, 0.08085556328296661, -0.6296142339706421, -0.7057939767837524, -0.716308057308197, 0.08848538249731064, 0.36874857544898987, 0.20696599781513214, -0.09064938127994537, -0.2295508086681366, 0.2757832407951355, 0.7483676075935364, 0.6903541088104248, 0.39946645498275757, 0.4903680980205536, 0.01429825834929943, 0.5126140713691711, 0.17646682262420654, 0.2096310257911682, 0.26674380898475647, 0.3636636435985565, 0.15748438239097595, -0.028731998056173325, -0.026753295212984085, -0.18034179508686066, 0.0030183643102645874, -0.06866934150457382, 0.02603086084127426, 0.403409481048584, -0.5911198854446411, -0.39546704292297363, -0.2692277133464813, -0.022365253418684006, 0.03334468603134155, 0.4088220000267029, 0.5855794548988342, 0.4313623011112213, 0.18659265339374542, -0.1243809387087822, 0.037454940378665924, 0.18030302226543427, -0.1285688579082489, -0.29788169264793396, 0.36161625385284424, 0.01439810823649168, -0.10671133548021317, 0.6852992177009583, 0.7872625589370728, 0.44312161207199097, 0.7770142555236816, 0.18486768007278442, -0.06345714628696442, -0.029855385422706604, 0.025701157748699188, 0.07365726679563522, -0.05593535304069519, -0.0001972392201423645, -0.09640378504991531, 0.733412504196167, -0.07515693455934525, 0.018606022000312805, -0.28189465403556824, 0.18058696389198303, 0.5047647953033447, -0.23771211504936218, -0.5689318180084229, 0.1065516322851181, -0.20754127204418182, 0.47785162925720215, 0.3114856481552124, 0.24329526722431183, 0.24688157439231873, -0.28520697355270386, -0.20277225971221924, -0.04834418371319771, 0.28354743123054504, -0.19128379225730896, -0.45228010416030884, 0.4490724205970764, -0.15941499173641205, 0.06777194887399673, -0.030187707394361496, -0.05472860485315323, 0.029601961374282837, -0.02089228481054306, -0.08514028787612915, -0.2904823422431946, -0.5591467618942261, 0.03468473255634308, 0.07084295153617859, -0.24031232297420502, -0.6042426228523254, -0.904384434223175, -0.1988818496465683, -0.38439393043518066, -1.3092397451400757, -0.7705262899398804, 0.17049424350261688, -0.05099872872233391, -0.5278173685073853, -0.35517603158950806, -0.3557858169078827, 0.45967429876327515, 0.3108721375465393, -0.1711471676826477, -0.3964913785457611, -0.07140856981277466, 0.06171175092458725, -0.06206395477056503, 0.0007063150405883789], [0.05063707381486893, -0.06157580018043518, -0.01806776225566864, -0.04830379784107208, 0.07018869370222092, -0.07401087135076523, -0.06215585768222809, -0.04880005493760109, -0.04421320930123329, -0.012933298945426941, -0.056878458708524704, 0.013920716941356659, 0.08879980444908142, 0.13096123933792114, -0.22321248054504395, -0.06700336933135986, -0.0027194321155548096, 0.07509943097829819, 0.0558721199631691, 0.0775885358452797, 0.0457528755068779, -0.013583362102508545, 0.04006340354681015, 0.05616921931505203, 0.05447446554899216, -0.008108757436275482, -0.05440637841820717, -0.016806989908218384, -0.06047666072845459, -0.0541844516992569, -0.059047818183898926, -0.006837330758571625, -0.10014596581459045, 0.04785909131169319, -0.09181290864944458, 0.04187748208642006, 0.06638990342617035, 0.4104449450969696, 0.14518143236637115, -0.5637410879135132, -0.45926767587661743, -0.3524632751941681, 0.5773424506187439, -0.38064485788345337, -0.8510085344314575, -0.7058762907981873, 0.10477080196142197, -0.03170819953083992, -0.3488353490829468, 0.3255341947078705, -0.3424053490161896, -0.2670186460018158, -0.06326380372047424, 0.003130391240119934, -0.06743739545345306, -0.0212080180644989, 0.028089292347431183, -0.062408022582530975, -0.15010356903076172, -0.4043770134449005, -0.6080179214477539, 0.9070379734039307, 0.17937447130680084, 0.19565290212631226, 0.4554190933704376, -0.09562917053699493, -0.025649376213550568, 0.33938154578208923, 0.028070351108908653, 0.08111455291509628, 0.20123590528964996, 0.33580154180526733, 0.16757027804851532, 0.29827681183815, 0.16706056892871857, 0.34034690260887146, 0.021820366382598877, 0.0644812062382698, 0.15737643837928772, -0.09082567691802979, -0.522647500038147, -0.6784443855285645, -0.00032601505517959595, 0.05571416765451431, 0.03591455519199371, -0.01650243252515793, 0.08421510457992554, -0.5223245620727539, -0.49237388372421265, -0.2347470372915268, -0.23684126138687134, -0.3569073975086212, -1.0158251523971558, -0.6336692571640015, -0.816512942314148, -1.138868808746338, -1.157621145248413, -0.6408307552337646, -0.5831815004348755, -0.6729832887649536, -0.6672307252883911, -0.5438843369483948, -0.021819449961185455, 0.4373725354671478, 0.21889044344425201, 0.33395466208457947, 0.4224300682544708, 0.5225810408592224, 0.027665970847010612, -0.3207087516784668, 0.6308823823928833, 0.036909319460392, -0.05511400103569031, -0.004076313693076372, -0.09817294776439667, -0.48399457335472107, -0.32347729802131653, -0.5772779583930969, -0.12445522099733353, -0.2706470489501953, -0.5145102143287659, -0.7958420515060425, -0.7818534970283508, -0.4526945948600769, -0.361875057220459, -0.31329306960105896, -0.15343184769153595, -0.28954094648361206, -0.22098030149936676, 0.17846286296844482, -0.03906354308128357, -0.26851746439933777, 0.4725671708583832, 0.32383567094802856, 0.05733195319771767, 0.3757422864437103, 0.6476913094520569, 0.5454146265983582, 0.7594882845878601, 0.43191736936569214, -0.06702696532011032, 0.05294359475374222, -0.003706353483721614, -0.7859597206115723, -0.7276056408882141, -0.7796713709831238, -0.6828653812408447, -0.26262998580932617, -0.563982367515564, -0.6052648425102234, -1.015890121459961, -0.47602441906929016, -0.26531699299812317, -0.30097392201423645, -0.17423078417778015, -0.14432337880134583, -0.19149768352508545, -0.32786422967910767, -0.3121887147426605, -0.006435118615627289, 0.34682297706604004, 0.20481455326080322, 0.4209231734275818, 0.11673873662948608, -0.014675171114504337, 0.7035147547721863, 0.6624171733856201, 0.7225120663642883, -0.00827779620885849, -0.11650332808494568, -0.7181561589241028, -0.9128516316413879, -0.33982032537460327, -0.6293247938156128, -0.736354410648346, -0.14355196058750153, -0.35063111782073975, -0.5905346274375916, -0.6953746676445007, -0.5131954550743103, -0.3566262125968933, -0.5242547988891602, -0.23022334277629852, 0.005794678349047899, 0.022441554814577103, -0.12245451658964157, 0.04289186745882034, 0.38082441687583923, 0.25898921489715576, -0.043077848851680756, -0.07675537467002869, 0.1314493715763092, 0.5189962983131409, 0.4183773100376129, 0.8481184244155884, 0.8049838542938232, 0.07192555069923401, -0.5460060834884644, -0.4301675856113434, -0.7617383599281311, -0.26476308703422546, -0.29754817485809326, -0.6336275935173035, -0.07527488470077515, -0.47686469554901123, -0.20882071554660797, -0.2876206934452057, -0.42042747139930725, -0.37030237913131714, -0.337037593126297, -0.4391057789325714, -0.07962695509195328, 0.15095101296901703, -0.15386895835399628, 0.041329700499773026, 0.022485310211777687, -0.19182899594306946, 0.02539675682783127, 0.08924999833106995, -0.019874723628163338, 0.32782766222953796, -0.11153437197208405, 0.5368542671203613, 0.3907332122325897, -0.5815778374671936, -0.8922470211982727, -0.6172683835029602, -0.7454712390899658, 0.03390812128782272, 0.041216351091861725, -0.048595327883958817, -0.02508450858294964, -0.11521823704242706, -0.2149541825056076, -0.1100432351231575, -0.09333910048007965, -0.11997531354427338, 0.037161290645599365, -0.26778215169906616, -0.32880204916000366, -0.18241165578365326, -0.17936185002326965, -0.12957343459129333, 0.1717200130224228, -0.14273689687252045, -0.23346936702728271, -0.059689488261938095, 0.31752923130989075, 0.5365028381347656, 0.8486793637275696, 0.6346065998077393, 0.031078564003109932, -0.17432831227779388, -0.31391048431396484, -0.060939252376556396, -0.05060147866606712, -0.3491855263710022, -0.07349094748497009, -0.1999291479587555, 0.40536871552467346, 0.4101327359676361, 0.56111079454422, 0.6607881188392639, 0.7746744155883789, 0.7916560173034668, 0.4622572362422943, -0.07016903907060623, -0.34057408571243286, -0.5919409394264221, -0.6613815426826477, -0.25954070687294006, -0.3871532678604126, 0.0028583332896232605, -0.19124048948287964, -0.08724593371152878, -0.19634635746479034, 0.6869382858276367, 0.807960033416748, 0.29618680477142334, -0.20302759110927582, -0.16460710763931274, 0.13738353550434113, -0.44961312413215637, 0.16969391703605652, 0.5118969678878784, 0.31236445903778076, 0.6223065853118896, 1.6004639863967896, 1.8325904607772827, 1.738573670387268, 1.3079166412353516, 1.2059446573257446, 1.331923007965088, 0.7080060839653015, 0.5489124655723572, 0.12199340760707855, -0.4430304169654846, -0.563374400138855, -0.16768524050712585, -0.16492187976837158, -0.31241872906684875, -0.3427250385284424, -0.27805009484291077, 0.505800187587738, 1.119519829750061, 0.2802363634109497, -0.020149338990449905, 0.4064878821372986, -0.1990588903427124, -0.5116220116615295, 0.8623439073562622, 0.37299418449401855, 1.4257413148880005, 1.901370882987976, 2.6261467933654785, 2.888587713241577, 2.0058274269104004, 1.1915395259857178, 0.9323335886001587, 0.29673972725868225, 0.08759894222021103, 0.28086674213409424, 0.5389087200164795, 0.4017569422721863, 0.26639053225517273, -0.10893286764621735, -0.07210159301757812, -0.23343290388584137, -0.36850205063819885, -0.3331502676010132, 0.5025891661643982, 0.2643384039402008, 1.1508378982543945, 0.43827396631240845, 1.4677525758743286, 0.7148727178573608, -0.0018655444728210568, 0.05414177104830742, 0.5534441471099854, 0.662604808807373, 1.7919083833694458, 2.0001399517059326, 1.7908070087432861, 1.0074306726455688, 0.24136115610599518, -0.09011286497116089, -0.262056827545166, -0.3920708894729614, -0.5507111549377441, 0.03494931757450104, 0.5032601356506348, 0.5324690341949463, 0.26440364122390747, 0.20223872363567352, -0.1790708750486374, -0.26922890543937683, 0.093636155128479, -0.16094830632209778, 0.48301589488983154, 0.5376225113868713, 0.5280264616012573, -0.07450924813747406, 0.6604764461517334, 0.6101750135421753, 0.0841810554265976, 0.15257997810840607, 0.0013277557445690036, 0.3078949451446533, 0.9276365041732788, 0.5672008395195007, -0.2342776358127594, -0.4015262722969055, -0.46550172567367554, -0.45709264278411865, -0.6413599252700806, -0.7199096083641052, -0.2791730463504791, 0.08333572000265121, 0.24201570451259613, 0.6661555171012878, 0.5305706858634949, 0.22531329095363617, -0.3996168076992035, -0.1418440341949463, 0.39121875166893005, -0.09976207464933395, 0.10107623040676117, -0.39822518825531006, -0.002214316977187991, -0.10843639820814133, 0.3760005831718445, 0.1737786829471588, 0.24976064264774323, 0.3437730073928833, 0.3662116229534149, -0.10328327864408493, -0.018617568537592888, -0.7474303841590881, -0.47932732105255127, -0.21069538593292236, -0.014486310072243214, -0.37858420610427856, -0.4977128207683563, -0.5163267254829407, 0.030264073982834816, 0.337895929813385, 0.5618060231208801, 0.6419075131416321, 0.6186175346374512, 0.12901420891284943, -0.2753809094429016, -0.05684114247560501, 0.033502254635095596, -0.0045834677293896675, 0.16580258309841156, 0.36702489852905273, -0.065350241959095, 0.34526583552360535, 0.14759673178195953, -0.2443229705095291, 0.11174454540014267, -0.10142961889505386, 0.23642732203006744, -0.1535969376564026, -0.5640640258789062, -0.775678813457489, -0.14457100629806519, 0.13184241950511932, 0.13582561910152435, -0.28816765546798706, -0.3376949727535248, -0.07231314480304718, 0.3089940547943115, 0.5753577351570129, 0.5791261196136475, 0.05084661394357681, 0.07594939321279526, 0.023210113868117332, -0.13769732415676117, -0.13115014135837555, 0.09312596917152405, 0.09021880477666855, 0.1385037750005722, 0.1294901967048645, 0.34237682819366455, -0.07329192012548447, -0.4463830590248108, 0.053860582411289215, -0.014954695478081703, -0.5688058733940125, -0.1717780977487564, 0.33814457058906555, -0.2355015128850937, -0.11255402117967606, 0.12450248003005981, 0.04602237418293953, 0.27469757199287415, -0.10199785232543945, 0.1538853645324707, 0.3505682647228241, 0.3744718134403229, 0.7363877892494202, 0.6112841367721558, -0.05337577685713768, -0.1235697865486145, -0.33003488183021545, 0.07889901101589203, -0.18046800792217255, 0.08449836820363998, 0.20424027740955353, 0.024046534672379494, 0.16311341524124146, 0.22113685309886932, 0.1655029058456421, -0.4565584063529968, -0.558502733707428, 0.03832942247390747, -0.4673382341861725, 0.024639666080474854, 0.13489887118339539, -0.15815740823745728, 0.02252698689699173, 0.35854992270469666, 0.6267656087875366, 0.4362580478191376, 0.20326799154281616, 0.25289928913116455, 0.40829795598983765, 0.2779042422771454, 0.45700135827064514, 0.5470494031906128, 0.18619388341903687, -0.2430800497531891, -0.2612869143486023, 0.06196710094809532, 0.30132099986076355, 0.4051162302494049, 0.4113832712173462, -0.2896411120891571, 0.29591453075408936, 0.2744567096233368, 0.03009256348013878, -0.03634677082300186, -0.7012028098106384, 0.13393506407737732, -0.6414731740951538, 0.22686249017715454, -0.3588157296180725, -0.49213236570358276, -0.25142472982406616, 0.16592231392860413, 0.29496002197265625, 0.06100011616945267, 0.09863371402025223, -0.03971361741423607, 0.18514661490917206, -0.12163620442152023, 0.08554980903863907, 0.21009230613708496, 0.04076897352933884, -0.25530117750167847, -0.2645293176174164, -0.006202853750437498, 0.16672009229660034, 0.5215514302253723, 0.148668110370636, -0.15637855231761932, -0.00034896613215096295, 0.010503994300961494, 0.04612826555967331, 0.3820432126522064, 0.07113609462976456, 0.46561118960380554, -0.6241081953048706, -0.09062543511390686, -0.7749238610267639, -0.32701730728149414, -0.312004953622818, -0.18801462650299072, -0.0625065341591835, 0.04528355970978737, -0.10363062471151352, -0.2907703220844269, -0.03318433091044426, -0.14981012046337128, -0.026056047528982162, 0.050241053104400635, -0.1298082321882248, 0.07710389047861099, 0.04413965716958046, 0.10835042595863342, 0.2971920073032379, 0.3242614269256592, 0.06402788311243057, -0.1491226851940155, 0.17967742681503296, -0.2681967616081238, 0.21178697049617767, -0.05982430279254913, -0.46545010805130005, 0.04054141789674759, -0.7468093633651733, -0.145578533411026, -0.8159511089324951, -0.5441249012947083, -0.26807454228401184, 0.02392815798521042, -0.35056987404823303, 0.03643133118748665, -0.21890251338481903, -0.1522078961133957, -0.3078943192958832, -0.3120551109313965, -0.24328860640525818, -0.21094205975532532, 0.1673559695482254, 0.3848237991333008, 0.673815131187439, 0.3577686846256256, 0.20538444817066193, -0.09078759700059891, -0.16000640392303467, -0.043292086571455, -0.11756496131420135, -0.34121760725975037, 0.5960755944252014, -0.3584049940109253, 0.2660834789276123, 0.22520609200000763, -0.6169260144233704, -1.3725601434707642, -0.4146970808506012, -0.2094365805387497, -0.17602010071277618, -0.045720454305410385, -0.01683470420539379, 0.010156049393117428, 0.0649048313498497, -0.08057116717100143, -0.1875608116388321, -0.2128204107284546, -0.16935987770557404, 0.14806778728961945, 0.1387045830488205, 0.22830715775489807, 0.5195350050926208, 0.2301592379808426, 0.2257310003042221, 0.1825132817029953, 0.2929975390434265, 0.19153356552124023, -0.46401578187942505, -0.0006995509611442685, 0.03780582919716835, -0.7885046601295471, -0.18297651410102844, 0.20104923844337463, 0.22075402736663818, -1.304862141609192, 0.06128455325961113, 0.18401627242565155, 0.3878973424434662, -0.3158555328845978, -0.07426164299249649, 0.17746229469776154, 0.21605604887008667, -0.14298157393932343, -0.24878302216529846, 0.07665456831455231, 0.24183951318264008, 0.25318390130996704, -0.05173816531896591, 0.02738155424594879, 0.3018966317176819, 0.3510264754295349, 0.20090916752815247, 0.1992812305688858, -0.01028130017220974, -0.3417080044746399, -0.5082182288169861, -0.07740490883588791, -0.49404266476631165, -0.36449134349823, -0.05793076008558273, -0.009414762258529663, -0.03597626835107803, -0.6232995986938477, 0.2832132577896118, 0.2723521590232849, 0.1703973263502121, 0.12331584841012955, -0.04167383164167404, 0.1664687842130661, -0.10545436292886734, -0.19411423802375793, -0.3798946440219879, 0.20389482378959656, 0.19066554307937622, 0.2201925367116928, 0.1752336174249649, 0.2943429946899414, 0.3627474308013916, 0.44158613681793213, -0.014911176636815071, 0.46363353729248047, -0.013910291716456413, -0.47158750891685486, -0.4992316663265228, -0.2787899076938629, -0.6287042498588562, 0.17149700224399567, -0.007754065096378326, 0.06821929663419724, -0.01855321228504181, -0.8631433248519897, -1.1775435209274292, -0.15209253132343292, -0.006701713893562555, 0.31377673149108887, 0.5516833662986755, 0.03884512558579445, 0.07460279762744904, -0.03977300226688385, 0.20031435787677765, 0.20382407307624817, -0.27337387204170227, -0.24683010578155518, -0.04313516616821289, -0.03702240809798241, -0.024552691727876663, -0.23916548490524292, 0.1183849349617958, 1.028900146484375, 0.7519376277923584, 0.2618078291416168, 0.5005841255187988, -0.1924908459186554, -0.21503041684627533, -0.2004999816417694, -0.06568765640258789, 0.016652122139930725, -0.013675004243850708, 0.26191574335098267, 0.04632973670959473, -0.583514928817749, -0.36651742458343506, 0.15454058349132538, 0.07502179592847824, 0.44112104177474976, 0.13673505187034607, -0.024405907839536667, -0.022716930136084557, -0.17138075828552246, -0.20933882892131805, -0.04556926339864731, -0.0523516945540905, -0.18946154415607452, -0.5657713413238525, -0.4209521412849426, 0.3388444185256958, 0.635392427444458, 1.326953411102295, 0.7846677303314209, 0.6958807110786438, 0.6995647549629211, 0.1431201994419098, -0.15668146312236786, 0.06764257699251175, -0.021569468080997467, -0.007271766662597656, -0.029433127492666245, 0.12361079454421997, 0.5508491396903992, 0.7511504888534546, 0.6287020444869995, -0.03234856575727463, -0.050337664783000946, 0.019019652158021927, -0.11256955564022064, -0.1510344296693802, -0.39360713958740234, -0.43048468232154846, -0.3659478724002838, -1.007298231124878, -1.1897871494293213, -0.5014480352401733, -0.5408883094787598, 0.11329041421413422, 0.12548565864562988, 0.7163525223731995, 0.42884302139282227, 0.13771070539951324, 0.47598204016685486, -0.2668701708316803, -0.05860459804534912, 0.04389529675245285, 0.021471627056598663, -0.08418218046426773, -0.07767383754253387, -0.0034970641136169434, -0.1946895271539688, -0.09057394415140152, 0.18471723794937134, -0.03274506330490112, 0.10892967134714127, -0.008602434769272804, 0.008450034074485302, 0.3920017182826996, 0.2570052146911621, 0.19377848505973816, 0.05455228313803673, 0.002688789274543524, -0.4309515655040741, -0.4203737676143646, -0.23851214349269867, 0.39377254247665405, 0.21343672275543213, 0.27878785133361816, 0.21989059448242188, -0.06917183101177216, 0.07436590641736984, -0.07237418740987778, 0.004549965262413025, 0.07659152895212173], [-0.08524908125400543, -0.0316837914288044, 0.0761738196015358, -0.07622446864843369, 0.08574221283197403, -0.021535389125347137, 0.06307122856378555, 0.04252669960260391, 0.08332093805074692, 0.0647950991988182, -0.02605859562754631, 0.03873573988676071, 0.024003377184271812, -0.07123057544231415, 0.022396378219127655, 0.06194430962204933, -0.05238969996571541, -0.06285282224416733, -0.07733993977308273, 0.02728894352912903, 0.07014939934015274, -0.033235326409339905, 0.038046129047870636, -0.03945998474955559, 0.07984732836484909, -0.07560864835977554, -0.05333167687058449, 0.029583431780338287, -0.0006239637732505798, 0.054750747978687286, 0.00784572958946228, 0.005609452724456787, 0.024459771811962128, -0.039258163422346115, -0.11597765237092972, -0.14172734320163727, -0.169899120926857, -0.21902461349964142, -0.30997100472450256, 0.044421788305044174, -0.15944470465183258, -0.1756490170955658, -0.6571789383888245, -0.5078235864639282, -0.2149626910686493, -0.20397795736789703, -0.1875503957271576, -0.21964742243289948, -0.15629424154758453, -0.10327855497598648, 0.1451772153377533, 0.0009301097015850246, 0.04085572808980942, 0.05035374313592911, 0.06837386637926102, -0.0518360435962677, -0.04140806943178177, 0.04275622218847275, -0.07429898530244827, 0.23335586488246918, 0.26062044501304626, -0.05921269953250885, -0.5224930047988892, -0.509331464767456, -0.772441029548645, -1.1347837448120117, -1.3035391569137573, -1.1442421674728394, -1.3127275705337524, -1.3672040700912476, -1.1926265954971313, -0.945862352848053, -1.1895763874053955, -1.6048853397369385, -1.2533248662948608, -0.8702831864356995, -1.3939470052719116, -0.7108946442604065, -0.40211570262908936, -0.2570667564868927, -0.13078579306602478, 0.09285221993923187, -0.003877691924571991, 0.04458685964345932, -0.02434273436665535, 0.03240586817264557, 0.014518825337290764, 0.23043519258499146, -0.041554708033800125, -0.2710173428058624, -0.45002320408821106, -0.9284972548484802, -0.8917863368988037, -1.109330654144287, -0.7833753824234009, -0.8938198089599609, -1.2147574424743652, -1.1190017461776733, -0.2883201837539673, -0.5407660603523254, -0.5187023282051086, -0.5179324150085449, -0.5843875408172607, -0.48157885670661926, -0.22568850219249725, 0.44158318638801575, -0.009675687178969383, 0.5241832137107849, 0.020649254322052002, 0.33297601342201233, -0.16528552770614624, -0.06587833166122437, 0.0698048397898674, -0.004942324012517929, 0.16592374444007874, 0.7748885750770569, -0.39107102155685425, -0.43366068601608276, -0.36518216133117676, 0.11777150630950928, -0.8009961247444153, -0.6097247004508972, -0.7979233860969543, -0.16723965108394623, -0.1294258087873459, 0.27711066603660583, -0.18132086098194122, -0.28140148520469666, -0.19119927287101746, -0.29473599791526794, -0.4128132462501526, -0.25795096158981323, -0.618558943271637, -1.1366034746170044, 0.12878327071666718, 0.5883615016937256, -0.407031387090683, -0.5202932953834534, -0.40919411182403564, -0.1332671195268631, 0.03819841891527176, -0.03702130913734436, -0.1503157615661621, 0.19095464050769806, -0.2855953276157379, -0.7328712940216064, -0.7620583176612854, -0.667949914932251, -0.08388321846723557, -0.3613400161266327, -0.546221137046814, -0.12508365511894226, -0.22747808694839478, -0.16841371357440948, -0.1717897355556488, -0.3523302674293518, 0.20801226794719696, 0.31438177824020386, 0.308867871761322, 0.1661175638437271, -0.23997506499290466, -0.4840126633644104, -0.34881851077079773, -0.4765390455722809, -0.6875023245811462, -0.5334038138389587, -0.16779698431491852, -0.12586399912834167, -0.051573894917964935, 0.0035479937214404345, 0.530032753944397, 0.6697618961334229, 0.3382125496864319, -0.2150265872478485, -0.15593425929546356, -0.18813253939151764, -0.03179396316409111, -0.46385177969932556, 0.10610082745552063, 0.026861267164349556, 0.08806789666414261, -0.3097728192806244, -0.5070502758026123, -0.18876251578330994, -0.09484699368476868, -0.23582269251346588, -0.04225306585431099, 0.219186469912529, -0.050726164132356644, 0.034077808260917664, 0.22643078863620758, 0.004884941969066858, -0.7209228277206421, -0.5484703183174133, -0.7025060653686523, -0.17800897359848022, 0.011130544357001781, 0.5903702974319458, 0.2791684567928314, 0.7322269678115845, 0.13556349277496338, -0.15666204690933228, 0.21176469326019287, -0.22657623887062073, -0.15150991082191467, -0.007877695374190807, 0.23811833560466766, 0.3845900595188141, 0.3749009072780609, -0.2807154953479767, -0.3620748519897461, -0.2570970356464386, -0.14635318517684937, -0.002199577633291483, 0.06452329456806183, 0.2042340785264969, 0.1849629133939743, -0.10366808623075485, -0.0720052495598793, 0.21060769259929657, 0.04589557275176048, -0.17923685908317566, -0.9342613220214844, -0.12827329337596893, 0.5065810084342957, 0.8185918927192688, 0.8975663185119629, 0.5785524845123291, -0.4482872188091278, -0.24567459523677826, -0.11009561270475388, -0.19846418499946594, -0.08418220281600952, 0.15327760577201843, 0.17381130158901215, 0.20009109377861023, 0.3416655361652374, 0.11749733239412308, 0.10567669570446014, -0.1619824320077896, -0.19276681542396545, -0.14422482252120972, 0.17790524661540985, -0.056892748922109604, 0.019645629450678825, 0.16708454489707947, -0.1462397426366806, 0.5609154105186462, 0.3156799376010895, 0.044232916086912155, -0.36888009309768677, 0.2641664147377014, 0.35106274485588074, 0.9730633497238159, -0.3308189809322357, -0.012670032680034637, -0.2610968351364136, -0.2794298231601715, -0.016099005937576294, -0.18699979782104492, -0.11581779271364212, 0.6027502417564392, 0.3335721790790558, 0.11823872476816177, 0.15323349833488464, 0.32560208439826965, 0.13517679274082184, -0.2693583071231842, -0.15488651394844055, 0.11391272395849228, 0.753608226776123, 0.599064826965332, 0.0394798219203949, 0.29484251141548157, 0.5222352743148804, 0.03628739342093468, 0.6779601573944092, -0.5060468912124634, -0.9612413644790649, 0.33752092719078064, 0.361741840839386, 0.9135892987251282, -0.1260508894920349, 0.29822254180908203, -0.23953911662101746, -0.014867342077195644, 0.06688568741083145, -0.09415648132562637, 0.04927581548690796, 0.6098873615264893, 0.3916355073451996, 0.5521332025527954, 0.18968158960342407, 0.06800682842731476, -0.28422555327415466, -0.4230811595916748, -0.25290897488594055, 0.05214059725403786, 0.4106290638446808, 0.41617509722709656, 0.330706924200058, 0.5360013842582703, 0.20900550484657288, 0.3086056113243103, 0.06923261284828186, -0.10717767477035522, -0.7333590388298035, 0.14926409721374512, 0.10529474169015884, 0.7801122069358826, 0.4521120488643646, 0.46223190426826477, -0.044102199375629425, -0.2698584198951721, 0.13217881321907043, -0.0011192546226084232, -0.05870205536484718, 0.405168741941452, 0.4221021234989166, 0.5306491255760193, -0.1648775339126587, -0.6562127470970154, -1.122223973274231, -0.5061559677124023, -0.19214260578155518, 0.0935739204287529, 0.15533022582530975, -0.07673509418964386, 0.2749239504337311, 0.16823852062225342, 0.4510650038719177, 0.06985200941562653, 0.20012213289737701, 0.012766707688570023, -0.13761086761951447, 0.18511024117469788, 0.03145306557416916, 0.823937177658081, -0.1063326820731163, 0.03250546380877495, 0.14649146795272827, 0.0736229196190834, 0.22820575535297394, 0.16775284707546234, 0.023445840924978256, 0.5331706404685974, 0.2510979473590851, 0.13149897754192352, -0.49521905183792114, -1.301905870437622, -1.3587968349456787, -0.48082855343818665, 0.33232444524765015, 0.018267732113599777, 0.13612060248851776, -0.3487793803215027, 0.04675370827317238, -0.16717204451560974, 0.6544634103775024, 0.12596577405929565, 0.7254142761230469, 0.410248726606369, 0.1400885432958603, 0.3357507288455963, -0.17057369649410248, 0.5094353556632996, 0.1018110141158104, 0.32618248462677, -0.13265003263950348, 0.18616406619548798, 0.15836811065673828, 0.09284991770982742, 0.11811785399913788, 0.491703599691391, 0.23232975602149963, 0.10738209635019302, -1.111992597579956, -1.6343928575515747, -0.96123206615448, -0.6028915643692017, 0.06333770602941513, 0.041744280606508255, -0.06692501157522202, -0.3764742314815521, -0.17198000848293304, 0.2079450786113739, 0.020969536155462265, -0.13034780323505402, -0.09746021777391434, 0.19229978322982788, -0.025445882230997086, -0.394697904586792, -0.16779202222824097, 0.4157916307449341, 0.5932624936103821, 0.08495233952999115, -0.31258270144462585, -0.08637130260467529, 0.06149828061461449, -0.11183087527751923, 0.21995297074317932, 0.4474226236343384, 0.23304879665374756, -0.22700291872024536, -1.2426549196243286, -1.2766642570495605, -0.3495040237903595, -0.032536011189222336, -0.2021998018026352, -0.3473247289657593, -0.459974080324173, -0.17543593049049377, -0.07798445224761963, 0.1388971507549286, -0.1907125562429428, 0.1449047476053238, 0.02909909188747406, 0.4303496181964874, -0.262457013130188, -0.1769128441810608, -0.1356509029865265, 0.41664353013038635, -0.09325786679983139, -0.056522056460380554, -0.15993855893611908, 0.08159126341342926, 0.029070625081658363, 0.5210559964179993, 0.17058713734149933, 0.2866792678833008, 0.04110405966639519, -1.4177489280700684, -2.126276731491089, -1.0918142795562744, -0.2703651487827301, 0.11049710959196091, -0.5080923438072205, -0.1852532923221588, -0.22111153602600098, 0.0913320779800415, 0.08855078369379044, -0.17850734293460846, -0.16827216744422913, -0.11730942130088806, -0.3481401801109314, 0.5512768030166626, -0.15681523084640503, -0.1484147012233734, 0.07540187239646912, 0.16219155490398407, -0.1325787752866745, -0.3630252480506897, 0.14231570065021515, 0.34983792901039124, 0.3302645683288574, 0.2793651223182678, 0.2224692851305008, 0.13533198833465576, -0.5920711755752563, -1.7555365562438965, -1.5839316844940186, -0.6908994317054749, -0.1686343252658844, -0.26129433512687683, -0.4647786319255829, -0.3191041946411133, -0.3501444458961487, -0.04005814716219902, -0.12176433205604553, -0.09027429670095444, -0.19372893869876862, -0.03837534040212631, -0.3413212299346924, -0.10448756068944931, -0.4068920910358429, -0.36861708760261536, -0.032712455838918686, 0.38824376463890076, -0.14523135125637054, 0.5132585763931274, 0.24651199579238892, 0.3695847988128662, -0.11152742058038712, -0.3026999235153198, -0.2556201219558716, 0.03675059974193573, -0.47362980246543884, -1.2526562213897705, -0.9808347225189209, -0.5017849802970886, -0.17707057297229767, -0.3908098042011261, -0.5038648843765259, -0.2533535361289978, -0.026591142639517784, -0.14781275391578674, 0.06401233375072479, -0.12986665964126587, -0.23537273705005646, 0.02455070987343788, -0.011829081922769547, 0.3427198529243469, -0.26126009225845337, -0.23094870150089264, 0.44249245524406433, 0.06796504557132721, 0.0174346212297678, -0.05933604761958122, -0.25395989418029785, -0.017870161682367325, 0.029629891738295555, -0.38094907999038696, -0.32897552847862244, -0.444080114364624, -0.29036685824394226, -0.6263333559036255, -0.6436582207679749, -0.5437650084495544, -0.3595397174358368, -0.6031204462051392, -0.3503618538379669, -0.3295893371105194, 0.25841864943504333, 0.38727444410324097, 0.32230591773986816, 0.019062526524066925, -0.0920247733592987, 0.2633938491344452, -0.14819055795669556, -0.11726507544517517, -0.14352840185165405, -0.4651437997817993, 0.03605372831225395, 0.6028560400009155, 0.5849692821502686, -0.39374613761901855, -0.02236243337392807, -0.12544375658035278, 0.16559050977230072, 0.004739746917039156, -0.4098915457725525, -0.26925575733184814, -0.18680143356323242, -0.4900567829608917, -0.6317686438560486, -0.7430915236473083, -0.6466161608695984, -0.714206337928772, -0.47783520817756653, -0.004891292192041874, 0.05795474350452423, -0.13106420636177063, 0.28350138664245605, -0.09271898120641708, -0.28382694721221924, -0.077979177236557, -0.3561948835849762, -0.009081725962460041, -0.5195638537406921, -0.05107567459344864, -0.012403629720211029, 0.6072167754173279, 0.3538709282875061, -0.6677780747413635, -0.2942468225955963, 0.19144386053085327, -0.1646965742111206, -0.024696899577975273, -0.16288524866104126, 0.16495336592197418, 0.2048160284757614, 0.06874042004346848, -0.02841024659574032, -0.35156455636024475, -0.3087238669395447, -0.6798980832099915, -0.2425599992275238, -0.19077901542186737, -0.20938800275325775, -0.2375836968421936, -0.13225919008255005, 0.14639630913734436, 0.17849233746528625, -0.46284210681915283, -0.3112727999687195, -0.6072312593460083, 0.1310647875070572, 0.15829914808273315, -0.13464069366455078, -0.019078893586993217, -0.0273608211427927, -0.3975968360900879, -0.022231021896004677, -0.10418938845396042, -0.259142130613327, -0.45421531796455383, -0.32444408535957336, -0.041942570358514786, 0.4837164282798767, 0.3053624629974365, -0.003626713529229164, -0.2592202425003052, -0.27620625495910645, -0.2862143814563751, -0.003140802029520273, -0.08329556882381439, -0.15481890738010406, -0.0745871514081955, -0.07865619659423828, 0.2069537192583084, -0.4279661178588867, -0.21846573054790497, 0.8815038204193115, 0.10419848561286926, 0.39978253841400146, 0.3092045783996582, -0.10908874124288559, -0.013931630179286003, -0.5984141826629639, -0.5728591084480286, -0.2102942317724228, 0.10866118967533112, -0.14053913950920105, -0.27530837059020996, 0.27706634998321533, 0.4670548141002655, 0.21729548275470734, 0.07183106243610382, 0.09929298609495163, 0.30818042159080505, 0.1525300145149231, 0.03163107857108116, 0.3680577278137207, 0.6061941385269165, 0.3181338310241699, 0.1788625866174698, -0.1794404536485672, -0.06079985946416855, -0.33118706941604614, -0.10805774480104446, 0.15837140381336212, -0.35074424743652344, 0.1372191309928894, 0.40086954832077026, -0.02722235769033432, 0.08029516786336899, -0.44339850544929504, -0.8184993863105774, -0.874663770198822, -0.32131245732307434, 0.07336857169866562, -0.20289981365203857, -0.04325319826602936, 0.3406279981136322, 0.05632418766617775, 0.11354856193065643, -0.06654042750597, 0.19199331104755402, 0.46948546171188354, 0.25903162360191345, 0.24303752183914185, 0.43870818614959717, 0.4343819320201874, 0.5344671010971069, -0.17070960998535156, -0.12478460371494293, -0.09160533547401428, -0.19655141234397888, -0.2749797999858856, -0.3912692368030548, -0.5798612236976624, 0.04110967367887497, 0.030993670225143433, 0.04167970269918442, 0.11153323203325272, -0.5699885487556458, -0.4055171012878418, 0.05876382067799568, -0.5331806540489197, -0.12203073501586914, 0.1542716771364212, 0.3083270788192749, 0.1701996922492981, -0.12213808298110962, -0.04223741590976715, -0.07694080471992493, -0.13743683695793152, -0.2748197019100189, -0.06544826924800873, 0.3488349914550781, 0.09060096740722656, 0.4663108289241791, -0.025220250710844994, 0.14534597098827362, -0.06146471947431564, -0.3577108383178711, 0.07703419029712677, -0.4932214915752411, -0.09491436183452606, 0.03051261603832245, -0.05796495079994202, 0.02459428459405899, -0.3934929370880127, -0.08069363236427307, -0.5482744574546814, -0.12811127305030823, -0.39488935470581055, -0.05276191607117653, 0.3869306147098541, 0.45232707262039185, 0.1297113597393036, 0.46928659081459045, 0.3171125054359436, 0.12233081459999084, -0.08407305926084518, -0.23641671240329742, -0.013953397050499916, -0.4645049273967743, 0.47031453251838684, 0.77531498670578, 0.2849006950855255, -0.1032881885766983, 0.09787806868553162, 0.1418328434228897, 0.09450940042734146, 0.0957416221499443, -0.1306408941745758, -0.001332305371761322, -0.01406465470790863, -0.022393502295017242, -0.015219353139400482, 0.07955561578273773, -0.6076077818870544, 0.04332964867353439, -0.035346366465091705, 0.17804625630378723, -0.00901516992598772, -0.23208563029766083, -0.09293397516012192, -0.021678628399968147, -0.252846360206604, -0.2126810997724533, -0.2090514898300171, -0.07965891063213348, 0.026918526738882065, -0.5010822415351868, 0.21144989132881165, 0.4187537729740143, 0.20734389126300812, -0.751663327217102, 0.37406617403030396, 0.2202824056148529, -0.57462078332901, 0.1873912513256073, 0.07675052434206009, -0.0816023126244545, -0.07818565517663956, 0.039920978248119354, 0.024542085826396942, -0.07830652594566345, 0.1907976120710373, 0.2894022464752197, 0.023754576221108437, 0.02863384038209915, 0.5055286884307861, 0.6988632678985596, 0.5914657115936279, -0.2599114775657654, -0.3570491373538971, 0.3027106821537018, 0.57731032371521, -0.33574944734573364, 0.14442944526672363, 0.5844259858131409, 0.2529975473880768, 0.4439168870449066, -0.3535647988319397, -0.3138255476951599, 0.1968313753604889, 0.3805745542049408, -0.006768368184566498, 0.053171150386333466, -0.07521970570087433, -0.021377280354499817], [-0.004832416772842407, -0.007870472967624664, 0.00743652880191803, -0.08102331310510635, 0.07778140157461166, 0.08295086771249771, -0.07913082838058472, 0.012352988123893738, 0.06416364759206772, -0.06244361773133278, -0.0029774457216262817, -0.07002320140600204, -0.28879907727241516, -0.25426363945007324, 0.18525302410125732, 0.1207612156867981, -0.058895938098430634, -0.024080216884613037, -0.06394129991531372, 0.07385020703077316, 0.0644882544875145, 0.07547659426927567, 0.07377064973115921, 0.04486020654439926, 0.018012166023254395, 0.012496277689933777, 0.00157233327627182, -0.03346290439367294, 0.020507603883743286, 0.021814264357089996, -0.06666429340839386, 0.03399447351694107, -0.27604958415031433, -0.43123042583465576, -0.7638702392578125, -0.8431064486503601, -0.43886616826057434, -0.8178818225860596, -1.0946825742721558, -0.9254124760627747, -0.8820028901100159, -0.6571629643440247, 0.289643257856369, 0.10326474159955978, 0.14881236851215363, -0.3081637918949127, -1.236302137374878, -1.1052124500274658, -1.1440621614456177, -1.062873125076294, -0.4953024089336395, -0.2819262742996216, -0.006698384881019592, -0.028649378567934036, 0.01296263188123703, -0.005453683435916901, -0.04129892960190773, -0.013896703720092773, -0.11669252067804337, 0.1545182764530182, 0.1778869926929474, -0.8822557330131531, -0.5967975854873657, -0.6028438210487366, -0.7109798789024353, -0.13277818262577057, -0.12008634209632874, -0.012368068099021912, -0.2643497884273529, -0.14586898684501648, -0.09673354029655457, -0.6148099899291992, -0.6330327391624451, -1.0989130735397339, -1.1548292636871338, -1.8170210123062134, -1.610065221786499, -1.192842721939087, -0.9290091395378113, -0.09639684110879898, 0.22145648300647736, 0.47582051157951355, -0.03188580274581909, -0.02841772511601448, 0.018418096005916595, 0.0028217583894729614, 0.24386678636074066, -0.06670185178518295, -0.17904752492904663, 0.1763240545988083, 0.13078109920024872, 1.0050312280654907, 0.6549655199050903, -0.13524702191352844, 0.15081793069839478, 0.12226565182209015, 0.3193211853504181, 0.4319537878036499, 0.13836129009723663, 0.08358760923147202, 0.008724150247871876, -0.6104543805122375, -1.3906017541885376, -2.39327335357666, -1.4567534923553467, -1.4823888540267944, -1.9655174016952515, -1.688441276550293, -0.5812839269638062, 0.13043111562728882, -0.2617001235485077, -0.05530897527933121, 0.030069619417190552, 0.34371501207351685, 0.18141622841358185, 0.5733440518379211, 0.41076546907424927, -0.031149495393037796, -0.07701139897108078, 0.003844608087092638, 0.3460248112678528, 0.001548214117065072, 0.3280731737613678, 0.34163740277290344, 0.3357313573360443, 0.1981549710035324, 0.2797224521636963, 0.3079167902469635, -0.15300899744033813, -0.34419140219688416, -0.07866673916578293, -0.4936710298061371, -1.0542525053024292, -0.5615453720092773, -0.3030323088169098, -0.4129412770271301, -0.5057265758514404, -0.2600628137588501, -0.0878826230764389, -0.3304225206375122, -0.03725394606590271, -0.025447137653827667, -0.38448646664619446, -0.17628271877765656, 0.028621850535273552, 0.3231624960899353, 0.43266820907592773, 0.14605337381362915, 0.40525782108306885, 0.1971564143896103, 0.047186579555273056, 0.025524906814098358, 0.1983022391796112, 0.1288931965827942, 0.07489436864852905, 0.22434718906879425, -0.05510273948311806, -0.2182299941778183, -0.03223191574215889, 0.00042624271009117365, -0.35646870732307434, -0.5676027536392212, -0.7088091969490051, -1.0649616718292236, -1.0006405115127563, -0.4409302771091461, 0.1419706493616104, -0.1037524864077568, 0.02215978503227234, 0.2843872904777527, 0.6239302158355713, 0.8827311992645264, -0.2284090667963028, 0.06369287520647049, -0.10754714906215668, 0.054770730435848236, 0.23219361901283264, 0.2433032989501953, 0.03340822458267212, -0.0451887845993042, -0.0039626723155379295, 0.07901880145072937, 0.0987744927406311, 0.004584132228046656, -0.11623118072748184, -0.23863552510738373, 0.17215469479560852, 0.12320443987846375, 0.0241025872528553, -0.03173599764704704, -0.6400330066680908, -1.376112461090088, -1.189293622970581, -0.013259174302220345, -0.16757579147815704, -0.10927100479602814, 0.12283527106046677, 0.37368807196617126, 0.44954201579093933, 1.1466461420059204, 0.6815020442008972, 0.46211037039756775, 0.13135215640068054, 0.18201318383216858, 0.29016441106796265, 0.06964477896690369, -0.21355324983596802, -0.18592827022075653, -0.027942994609475136, 0.0248146690428257, 0.0006208964623510838, -0.34564390778541565, -0.11820527166128159, 0.027357783168554306, -0.013370007276535034, 0.19994165003299713, -0.09858329594135284, -0.31328439712524414, -0.9275301694869995, -0.8526408076286316, -0.3058781027793884, -0.078492172062397, 0.10347114503383636, 0.11929901689291, -0.22581951320171356, 0.16476382315158844, -0.077922523021698, 0.3352033197879791, 0.3960079848766327, -0.18362152576446533, 0.1275782585144043, 0.04482246935367584, 0.13243962824344635, 0.10241883993148804, -0.04950208216905594, -0.5934683680534363, -0.4569656252861023, -0.3244416415691376, -0.25467467308044434, -0.012986782006919384, 0.24162159860134125, -0.1052418053150177, -0.08183865249156952, 0.026079494506120682, -0.23229438066482544, -0.4496937096118927, -0.4832199513912201, -0.3198833465576172, 0.12720103561878204, 0.040830474346876144, 0.39732396602630615, 0.12933500111103058, 0.045734938234090805, 0.0832798108458519, 0.18312442302703857, 0.32003113627433777, 0.514966607093811, -0.4475124478340149, -0.02939220704138279, -0.08369284123182297, -0.29147928953170776, -0.5010343194007874, -0.7008804678916931, -0.8913806676864624, -0.8298755884170532, 0.15844178199768066, 0.4402575194835663, 0.7547401189804077, 0.7876546382904053, 0.4756741523742676, -0.13207688927650452, -0.12725447118282318, -0.248612642288208, -0.39196982979774475, -0.5317043662071228, -0.3867611885070801, -0.12464655935764313, 0.4527856409549713, 0.2127634584903717, 0.2715248763561249, 0.09360754489898682, 0.01208382286131382, 0.980448305606842, 0.5831764936447144, -0.33719509840011597, -0.5172293186187744, -0.6263752579689026, -1.0869015455245972, -1.9632912874221802, -0.8413448929786682, -0.45110639929771423, -0.6443696618080139, -0.3568762242794037, 0.6386359930038452, 0.6509668827056885, 0.7128416299819946, 0.5577449798583984, 0.15060363709926605, -0.2506629228591919, -0.32113078236579895, -0.19809262454509735, 0.05938152223825455, -0.20025090873241425, -0.6768631339073181, -0.25120964646339417, 1.2621487379074097, 0.4658052921295166, 0.6180725693702698, 0.3197869658470154, -0.10610296577215195, -0.06415583193302155, 0.7840768098831177, -0.1378515511751175, -0.619097888469696, -0.6744310855865479, -1.0315840244293213, -0.7457259893417358, -0.18590006232261658, 0.05147312954068184, 0.36552634835243225, 0.4436355233192444, 0.5376222729682922, 0.47990521788597107, 0.464987576007843, -0.15841664373874664, -0.45292699337005615, -0.4023016095161438, -0.1544773131608963, 0.19493287801742554, -0.15405865013599396, -0.4700043201446533, -0.13503991067409515, 0.3996356725692749, 0.4658931493759155, -0.036529865115880966, 0.16567419469356537, 0.13004110753536224, -0.15036119520664215, 0.4672201871871948, 0.7244948744773865, -0.06990543007850647, -0.04800301045179367, -0.30033043026924133, -0.11064931005239487, 0.5629482865333557, 0.5422277450561523, 0.5849738717079163, 0.45776861906051636, 0.4743797183036804, 0.4745326638221741, 0.5905604362487793, 0.14634597301483154, -0.1333560347557068, -0.22121383249759674, -0.17923833429813385, -0.16614602506160736, -0.10357463359832764, -0.27519819140434265, -0.5105531215667725, -0.4491346776485443, -0.1391066163778305, 0.902252733707428, 0.586408257484436, 0.43985551595687866, 0.019483184441924095, -0.3299157917499542, 0.49796807765960693, 0.9632593989372253, 0.190202996134758, 0.21841023862361908, 0.27781957387924194, 0.275723397731781, 0.4594867527484894, 0.6254226565361023, 0.35023030638694763, 0.18154184520244598, -0.0761321559548378, 0.08620797842741013, 0.5473893284797668, 0.05653511360287666, 0.08592348545789719, 0.03849940374493599, -0.12951472401618958, -0.14667139947414398, 0.09149514138698578, -0.009128223173320293, -0.5037729144096375, -0.361798495054245, -0.045614924281835556, 0.6198304295539856, 0.32641395926475525, -0.3162279427051544, -0.24403972923755646, -0.22866003215312958, 0.14096885919570923, 0.8682544231414795, -0.05448497086763382, 0.4210895001888275, 0.39755550026893616, 0.06045505031943321, 0.3962968587875366, -0.08524780720472336, -0.04370100423693657, -0.3971041142940521, -0.5203862190246582, -0.20931480824947357, 0.425531268119812, 0.28701600432395935, 0.16298949718475342, -0.029065504670143127, 0.03207610175013542, 0.16245046257972717, 0.09479568153619766, 0.09161151945590973, -0.1737060695886612, 0.1729225218296051, 0.52724689245224, 0.4504425525665283, 0.45644286274909973, -0.44629019498825073, -0.10904914140701294, -0.25431615114212036, -0.2599036991596222, 0.5648096799850464, 0.12056505680084229, 0.05303332954645157, -0.4112134277820587, -0.05717405304312706, 0.05849295109510422, -0.07681289315223694, -0.5279374718666077, -0.5559614300727844, -0.3885554373264313, -0.18887968361377716, 0.3323265314102173, 0.4212917387485504, 0.18238310515880585, 0.2852018475532532, 0.04599212855100632, 0.18979871273040771, 0.40086233615875244, 0.16829627752304077, 0.4408199191093445, 0.2934195399284363, 0.034560590982437134, 0.2620917856693268, 0.00884939357638359, -0.3192746341228485, 0.3981208801269531, 0.5447364449501038, 0.039893537759780884, 0.22785550355911255, -0.527874231338501, -0.578361988067627, -0.4122123122215271, -0.3951311707496643, -0.1675001084804535, -0.092862568795681, -0.8267244100570679, -0.8420401215553284, -0.8355498909950256, -0.6241447925567627, -0.42482906579971313, -0.22525016963481903, 0.15043450891971588, 0.2609426975250244, 0.38260331749916077, 0.5308496952056885, 0.5854383111000061, 0.5280550122261047, 0.40261074900627136, 0.2973545491695404, 0.4222205877304077, -0.3444848358631134, 0.14518384635448456, 0.02985522337257862, -0.03160277381539345, 0.683856189250946, 0.09246324747800827, -0.09763968735933304, -0.37339699268341064, -0.42238110303878784, -0.13397899270057678, 0.0983867421746254, -0.2850475013256073, -0.6784112453460693, -0.8075423240661621, -0.8094993233680725, -0.7290793061256409, -0.9414817690849304, -0.7217816114425659, -0.10252021998167038, 0.17886419594287872, 0.3448234796524048, 0.22013652324676514, 0.48356202244758606, 0.13659515976905823, 0.3367379605770111, 0.25608381628990173, -0.2248077392578125, -0.29793328046798706, 0.28145596385002136, -0.35983017086982727, 0.12182074040174484, 0.08308951556682587, 0.6625770926475525, 0.16717414557933807, -0.3967928886413574, -0.08177027106285095, -0.09311570972204208, 0.39643266797065735, 0.35936295986175537, 0.2626444399356842, 0.26285019516944885, 0.02863978035748005, -0.13379307091236115, -0.37487736344337463, -0.25835224986076355, -0.5316061973571777, -0.06976480036973953, 0.19483205676078796, 0.11018297076225281, -0.017579108476638794, 0.3018767833709717, 0.09276754409074783, 0.18882925808429718, 0.10017018765211105, 0.046850867569446564, -0.41075196862220764, 0.3056796193122864, -0.8956837058067322, 0.10210323333740234, -0.021640365943312645, 0.5471038222312927, 0.06872373819351196, -0.554624617099762, -0.21212822198867798, 0.36720094084739685, -0.005420207511633635, -0.04256392642855644, 0.0833282396197319, 0.3632764518260956, 0.2686662971973419, -0.2098526507616043, -0.08068711310625076, -0.037182748317718506, -0.196136474609375, -0.2250264436006546, -0.07594870030879974, 0.0518728569149971, -0.2738485038280487, -0.1294884830713272, -0.08135360479354858, 0.34994369745254517, 0.007458894047886133, 0.08556339144706726, -0.036821454763412476, 0.13461421430110931, -0.38345953822135925, 0.12868241965770721, 0.07885230332612991, -0.3370760977268219, -0.2829260230064392, -0.22452104091644287, -0.1985125094652176, -0.052085891366004944, -0.1422688215970993, -0.07228761166334152, -0.14793041348457336, -0.005922660231590271, -0.18665823340415955, -0.2628079950809479, -0.41493725776672363, -0.17807713150978088, -0.2893027663230896, -0.37427860498428345, -0.2109394520521164, -0.16532684862613678, -0.07063320279121399, -0.16028431057929993, 0.41777169704437256, 0.334330290555954, 0.21483011543750763, -0.11491315066814423, -0.04673783481121063, -0.0968349352478981, -0.42965206503868103, -0.09711437672376633, -0.09041909873485565, 0.6074592471122742, 0.11777504533529282, 0.143647700548172, 0.06694044917821884, -0.21566475927829742, -0.06964875012636185, -0.27175453305244446, -0.09784917533397675, -0.040532298386096954, -0.34836527705192566, -0.36816418170928955, -0.2938101589679718, -0.2952468693256378, -0.21284782886505127, -0.0520874448120594, -0.1281476467847824, -0.30581358075141907, -0.08609771728515625, -0.07564131170511246, -0.0955372154712677, -0.5324597954750061, -0.4419373869895935, -0.026304040104150772, -0.0007213189965113997, -0.28411927819252014, 0.3105974495410919, -0.02206939458847046, -0.01079574041068554, 0.04732324555516243, 0.16210012137889862, 0.22081631422042847, -0.188859760761261, -0.5724903345108032, -0.14157529175281525, 0.1051173061132431, -0.24509172141551971, -0.3571798503398895, -0.461519718170166, -0.10711921751499176, -0.42205339670181274, -0.40763992071151733, -0.22720183432102203, 0.022526593878865242, -0.4408322274684906, -0.31143832206726074, -0.20262491703033447, -0.157566636800766, 0.15039938688278198, -0.36693426966667175, -0.7963114976882935, -0.03085443377494812, -0.7511613965034485, -0.2483200877904892, 0.27654680609703064, -0.13290216028690338, -0.01467423141002655, 0.07025911659002304, 1.1565192937850952, 0.2740950286388397, 0.33828482031822205, -0.07072509080171585, -0.1640796661376953, -0.06580991297960281, -0.08488021790981293, 0.03625432401895523, -0.09531652182340622, -0.0523090660572052, -0.3314135670661926, -0.4345104694366455, -0.2352183312177658, -0.02742603048682213, -0.29120954871177673, -0.49318230152130127, -0.10807973146438599, -0.14803282916545868, 0.040369950234889984, -0.44007307291030884, -0.8079380989074707, -0.39622417092323303, -0.11786377429962158, 0.27466651797294617, 0.6059731245040894, -0.020576581358909607, 0.0653461441397667, 0.017341405153274536, 0.4442054033279419, 0.48377111554145813, 0.043764375150203705, 0.12105771899223328, 0.48531419038772583, 0.07531873136758804, 0.1406828612089157, -0.33414220809936523, -0.18525712192058563, -0.277461439371109, -0.5614159107208252, -0.1385084092617035, 0.11900941282510757, -0.4281151294708252, -0.5292539596557617, -0.2555416524410248, -0.1754784733057022, -0.24228109419345856, -0.42245808243751526, -0.25475192070007324, 0.14629559218883514, -0.2238534390926361, 0.6168525218963623, -0.41929420828819275, 0.15019869804382324, 0.052438728511333466, -0.0700187012553215, -0.013386443257331848, 0.11942600458860397, -0.24798358976840973, 0.3422102630138397, 0.43333858251571655, 0.675670862197876, 0.37717875838279724, -0.04235219210386276, 0.053723450750112534, 0.03616306558251381, -0.1175028458237648, 0.4380320906639099, 0.3588191866874695, -0.058919552713632584, -0.4531574547290802, -0.3627149760723114, -0.42035841941833496, 0.21266452968120575, 0.40488407015800476, 0.22576822340488434, -0.23258240520954132, 0.23069939017295837, 0.18253475427627563, 0.10142070055007935, -0.19207969307899475, -0.040206197649240494, -0.0625041052699089, -0.08435256779193878, -0.05938805639743805, 0.08264041692018509, -0.40259087085723877, -0.5950047969818115, -0.016619127243757248, -0.1222303956747055, -0.09208395332098007, -0.19838492572307587, -0.37031683325767517, -0.06354052573442459, -0.020299090072512627, 0.023335183039307594, 0.5746279954910278, -0.10551363974809647, 0.12714537978172302, 0.00647719856351614, 0.09416816383600235, 0.06719127297401428, 0.3362330496311188, 0.39633414149284363, 0.06462546437978745, 0.3731851875782013, -0.09353095293045044, -0.1440027356147766, 0.21839699149131775, -0.08024115860462189, 0.06011267751455307, 0.05732210725545883, 0.056081898510456085, -0.017972595989704132, 0.02461622655391693, 0.2734556794166565, 0.5607346892356873, -0.1923193633556366, -0.0835174024105072, 0.15098978579044342, 0.4289073944091797, 0.047838445752859116, -0.11803359538316727, 0.1360529214143753, 0.5520015954971313, -0.29642802476882935, -0.4712212383747101, 0.04703427106142044, 0.12483636289834976, -0.022285688668489456, -0.06963430345058441, 0.1873035579919815, 0.07214600592851639, 0.2570554316043854, 0.54546058177948, -0.050720345228910446, -0.0028527453541755676, 0.08267772942781448, -0.036333438009023666], [-0.06636273860931396, 0.026508569717407227, -0.026245318353176117, -0.05155970901250839, 0.08121103793382645, 0.06428294628858566, -0.026387497782707214, -0.07737547904253006, -0.008145764470100403, -0.04780416190624237, -0.04521307349205017, -0.05901963263750076, -0.06439587473869324, 0.03622676432132721, -0.035961050540208817, 0.05925861373543739, -0.029859360307455063, -0.020076148211956024, -0.07932841777801514, 0.06491997092962265, -0.0480697937309742, -0.034331128001213074, -0.0837414562702179, 0.08556737750768661, 0.07845742255449295, 0.044674910604953766, 0.03371389955282211, 0.04293736070394516, -0.03742236644029617, 0.07120532542467117, -0.05482640862464905, 0.06577911227941513, -0.0432790070772171, -0.10970974713563919, -0.41705113649368286, -0.5441066026687622, -0.5345508456230164, -0.5818033218383789, -0.6078421473503113, -0.479649156332016, -0.5007409453392029, -0.5975918173789978, -0.6820909380912781, 0.08916765451431274, 0.4289705157279968, 0.19449016451835632, -0.4615411162376404, -0.29886510968208313, -0.21097059547901154, -0.15329237282276154, 0.06439466774463654, 0.052813053131103516, -0.0010650008916854858, -0.050362396985292435, 0.08311852067708969, 0.06837839633226395, 0.010517202317714691, -0.0770924910902977, -0.030999744310975075, -0.1711687445640564, -0.07711579650640488, -0.7790229916572571, -0.9463604688644409, -0.8341650366783142, -1.2538055181503296, -1.4381725788116455, -0.33580130338668823, -0.3325570821762085, -0.7501720786094666, -1.0778069496154785, -0.8235101699829102, -0.9495751261711121, -1.2168041467666626, -1.3309892416000366, -0.604285478591919, -0.3076492249965668, -0.12181687355041504, -0.8134205937385559, -0.3849196434020996, -0.09365610033273697, 0.30554482340812683, 0.33224138617515564, 0.03875305503606796, -0.04333372414112091, -0.036330755800008774, -0.07687952369451523, 0.24253669381141663, -0.3392494022846222, 0.04993446543812752, -0.04151314124464989, -0.23233899474143982, 0.7533843517303467, 0.3612571656703949, -0.6257198452949524, -0.6704353094100952, -0.10604771226644516, 0.20175571739673615, -0.04748868942260742, -0.403538316488266, -0.3113981783390045, -0.4993286728858948, -0.7021074891090393, -0.984933614730835, -0.6883103251457214, -0.16803553700447083, 0.12007021903991699, -0.5011978149414062, -0.1381155103445053, 0.6963914632797241, 0.35390427708625793, 0.48046591877937317, -0.03018011525273323, 0.07448328286409378, 0.16349534690380096, 0.3850199580192566, 0.5552508234977722, 0.32373300194740295, -0.34763166308403015, -0.49789178371429443, 0.01813730038702488, -0.14083166420459747, -0.7838588953018188, -0.2391018271446228, -0.06925573945045471, -0.6684582233428955, -0.6725759506225586, -0.6952248215675354, -0.14649958908557892, -0.819362223148346, -1.0393379926681519, -0.6452552080154419, -0.5392903089523315, -0.7704610228538513, 0.070029616355896, 0.5852895975112915, 0.23145994544029236, 0.533531129360199, 0.7413340210914612, 1.07907235622406, -0.5017849206924438, -0.0716070607304573, -0.06663778424263, 0.008008292876183987, -0.3459492027759552, 0.09770907461643219, 0.49760186672210693, 0.41732150316238403, 0.05797895789146423, -0.043899256736040115, -0.30729424953460693, -0.2553616762161255, -0.6352677941322327, -0.7078436613082886, -0.11541865020990372, -0.21368330717086792, -0.04206154868006706, -0.3272435963153839, -0.05439433827996254, 0.04812690243124962, 0.24715988337993622, 0.36517414450645447, -0.11248841136693954, 0.43939048051834106, 0.17239144444465637, 0.1874246746301651, 0.5180012583732605, 0.44032517075538635, -0.08600203692913055, -0.018096275627613068, 0.11149270832538605, 0.5126028656959534, 0.17364460229873657, -0.47791847586631775, 0.9777693748474121, 0.2726069688796997, 0.08761566132307053, 0.08120546489953995, -0.12104751914739609, -0.07237033545970917, -0.04892046004533768, 0.1748015582561493, 0.3237975537776947, 0.44356176257133484, 0.4261252284049988, 0.30192455649375916, 0.0856655091047287, 0.1161116287112236, -0.1022818386554718, -0.28271937370300293, -0.17315474152565002, 0.050679586827754974, -0.008514296263456345, -0.26572686433792114, -0.1686616837978363, 0.2234271764755249, 0.5376483798027039, 0.02368100732564926, 0.5064463019371033, 0.4421291947364807, 0.8299511075019836, 0.49125078320503235, 0.4618273079395294, 0.4922551214694977, 0.2408435195684433, 0.29592248797416687, 0.07139686495065689, -0.08442062139511108, 0.04178844019770622, 0.43689092993736267, 0.5313090085983276, 0.6944678425788879, 0.26963818073272705, 0.32537102699279785, 0.2775367200374603, -0.06562802940607071, -0.21976399421691895, -0.3377455770969391, -0.7891613841056824, -0.7554294466972351, -0.5785346627235413, -0.3831713795661926, -0.7672469615936279, -0.1696784645318985, 0.5943717360496521, 0.2624368667602539, 0.46144750714302063, 0.07780267298221588, 0.08352872729301453, 0.3615913391113281, 0.18744100630283356, 0.03210637345910072, -0.10977371037006378, -0.1150004044175148, 0.14226529002189636, 0.025730926543474197, 0.214579239487648, 0.5027583241462708, 0.5344934463500977, 0.5194292068481445, 0.027270184829831123, 0.0016056511085480452, 0.056032776832580566, 0.02187374047935009, -0.09487142413854599, -0.3653256893157959, -0.39421015977859497, -0.7378495335578918, -0.38873228430747986, -0.1955835074186325, -0.6948786377906799, -0.7156804800033569, 0.6037924289703369, 0.30517399311065674, 0.9217458963394165, -0.09066907316446304, -0.18622511625289917, 0.4921303689479828, 0.15440338850021362, 0.04514220729470253, -0.03091522864997387, -0.04146266356110573, 0.22993740439414978, 0.3411392569541931, 0.4357869029045105, 0.2961966395378113, 0.5593452453613281, 0.28957048058509827, 0.002706737956032157, -0.3940005302429199, 0.14112253487110138, -0.016557803377509117, 0.14843782782554626, -0.24195249378681183, -0.3812836706638336, -0.12646374106407166, -0.18664422631263733, 0.4441535472869873, -0.42302367091178894, -0.5400324463844299, 0.3161959648132324, 0.2376781553030014, 0.23324008285999298, 0.398272305727005, 0.15214702486991882, -0.3782658278942108, 0.022217832505702972, 0.08284484595060349, 0.06660731881856918, 0.224586620926857, 0.09995869547128677, 0.09236922860145569, 0.15283244848251343, -0.06652664393186569, 0.15579885244369507, -0.022329092025756836, -0.2053930163383484, -0.13678358495235443, -0.006972732953727245, 0.29303184151649475, 0.1744806468486786, -0.033135171979665756, -0.07537653297185898, -0.02163715288043022, -0.09757082909345627, -0.27651312947273254, -0.0037411306984722614, 0.2976802885532379, 0.4480935335159302, 0.048741646111011505, -0.04822705313563347, 0.2924076318740845, -0.03256538510322571, 0.13518626987934113, -0.12588389217853546, 0.14260675013065338, 0.17330025136470795, -0.16045089066028595, -0.11230961233377457, -0.3789885640144348, -0.02693161740899086, -0.391144722700119, -0.08452969789505005, -0.061492495238780975, -0.1044166088104248, -0.15383553504943848, 0.37938302755355835, 0.3637050688266754, 0.11301036924123764, -0.022595804184675217, -0.21250800788402557, 0.31232911348342896, 0.5937371253967285, 0.18293939530849457, -0.1577473282814026, 0.19566406309604645, 0.18362264335155487, 0.014748641289770603, -0.12610608339309692, -0.07041443139314651, 0.1320655196905136, 0.24199174344539642, 0.19261570274829865, 0.2597053647041321, 0.015471858903765678, -0.15269209444522858, 0.06671680510044098, -0.1677260398864746, -0.1654810756444931, -0.40826666355133057, -0.3293658494949341, -0.1781751662492752, -0.20438607037067413, 0.031337670981884, 0.13171979784965515, 0.30129945278167725, -0.015335869044065475, -0.09023603796958923, -0.19340690970420837, 0.06494131684303284, 0.3840196430683136, 0.013770299963653088, -0.12944969534873962, -0.07814399898052216, 0.21617858111858368, -0.21406221389770508, -0.1392364799976349, 0.04693576321005821, 0.14733728766441345, -0.16940933465957642, 0.2046501338481903, 0.07805243879556656, -0.26514196395874023, -0.31380495429039, -0.0041206879541277885, 0.12463227659463882, -0.0018298153299838305, -0.1965104192495346, -0.24388307332992554, -0.014220056124031544, -0.47803062200546265, -0.40059658885002136, 0.04808535426855087, 0.015338686294853687, -0.10633419454097748, -0.17040160298347473, 0.21172042191028595, 0.0003803821455221623, -0.012509285472333431, 0.2152242213487625, -0.565151572227478, -0.4087916910648346, -0.7395715117454529, -0.47548919916152954, -0.1234503835439682, 0.4259263575077057, 0.1254856139421463, -0.1780637949705124, 0.1467810720205307, 0.11335121840238571, -0.2908085584640503, -0.18046458065509796, -0.0001866872189566493, 0.15378865599632263, 0.05721636489033699, -0.1109522134065628, -0.20571570098400116, -0.272843599319458, -0.2039833515882492, -0.6499463319778442, -0.2876712381839752, -0.021034235134720802, 0.12396661937236786, -0.10306638479232788, 0.5405582785606384, 0.2888154983520508, 0.5012950897216797, -0.04722973704338074, -0.3873794376850128, -0.7142711281776428, -0.4647964835166931, -0.3401128351688385, 0.41004106402397156, -0.4686832129955292, 0.15978887677192688, -0.2946423888206482, 0.1397855132818222, -0.025213228538632393, -0.2940289378166199, -0.10244269669055939, -0.1338900476694107, 0.13632763922214508, 0.024833254516124725, -0.08758191764354706, -0.2678885757923126, -0.447834849357605, -0.37598517537117004, -0.601395308971405, -0.1459682136774063, 0.17318834364414215, 0.03916516900062561, 0.18602681159973145, 0.42458611726760864, 0.42435652017593384, 0.39224308729171753, 0.12142080068588257, -0.11894560605287552, -0.41252270340919495, -0.26545509696006775, 0.07394350320100784, 0.43293896317481995, -0.19171340763568878, 0.11500328779220581, 0.19648392498493195, -0.20586195588111877, -0.15983620285987854, -0.2785283327102661, -0.11516054719686508, 0.09447219222784042, 0.2413584589958191, 0.3128936290740967, 0.1793988198041916, -0.2784365117549896, -0.6427903175354004, -0.7587843537330627, -0.5498154759407043, -0.3427141606807709, 0.0021112747490406036, 0.33777838945388794, 0.03972676023840904, 0.2639075815677643, 0.4220498502254486, 0.01972644031047821, 0.1328759342432022, -0.7901952266693115, -0.7641493082046509, 0.20766542851924896, -0.0019136369228363037, 0.4364311695098877, -0.07906900346279144, -0.21181853115558624, -0.31656333804130554, -0.3589724600315094, -0.5637850761413574, -0.16877572238445282, -0.6695781946182251, -0.29961061477661133, 0.05368802323937416, 0.07695535570383072, 0.1509004831314087, -0.5804234743118286, -0.8212187886238098, -0.47439804673194885, -0.23918063938617706, 0.08287768810987473, 0.05778741091489792, 0.1542021930217743, 0.0076929726637899876, 0.006689440459012985, -0.017515504732728004, -0.46210089325904846, -0.25685039162635803, -0.08651309460401535, 0.11679395288228989, 0.4111301004886627, 0.41914817690849304, 0.3920653164386749, 0.4811561405658722, 0.22542454302310944, -0.4742889404296875, -0.6590816378593445, -0.4243676960468292, -0.8519483804702759, -1.0070884227752686, -0.9172437787055969, -0.4390154480934143, -0.4625353515148163, -0.7633064985275269, -0.9407604932785034, -0.4261806011199951, 0.002549567958340049, 0.27837276458740234, 0.4399728775024414, 0.2854239344596863, 0.32987385988235474, -0.062030769884586334, -0.08969863504171371, 0.10119102895259857, 0.051295097917318344, -0.2886417508125305, -0.0951765701174736, 0.21577520668506622, -0.1449052393436432, -0.017458133399486542, 0.6422398090362549, 0.5530958771705627, 0.22480736672878265, -0.5464209914207458, -0.5598184466362, -0.5326289534568787, -1.0025098323822021, -1.1900385618209839, -0.9763451218605042, -1.105515956878662, -0.9810513257980347, -0.6252443194389343, -0.5940167903900146, 0.1322108656167984, 0.36869752407073975, 0.4131735861301422, 0.33791106939315796, 0.4001101851463318, 0.6580209136009216, 0.16993778944015503, 0.31961026787757874, 0.20150573551654816, 0.1373070478439331, 0.206741064786911, 0.04322969913482666, -1.497077226638794, -0.020811857655644417, 0.048417337238788605, 0.4637219309806824, 0.029016820713877678, 0.21591731905937195, 0.20839790999889374, 0.0207626074552536, -0.17838376760482788, -0.06664315611124039, -0.6237947344779968, -0.31869086623191833, -0.6494578123092651, -0.9798700213432312, -0.7033674120903015, -0.11980360001325607, 0.27577683329582214, 0.22601677477359772, 0.3269454836845398, 0.34052732586860657, 0.24565275013446808, 0.42487233877182007, 0.35721343755722046, 0.42760494351387024, 0.31027528643608093, 0.22073431313037872, 0.24475230276584625, -0.8089690804481506, -0.44989213347435, 0.4055289030075073, 0.005315910093486309, -0.02983957529067993, 0.006358006037771702, 0.5678077936172485, 0.6066443920135498, 0.6083431839942932, 0.38981378078460693, 0.36468690633773804, -0.3331555128097534, -0.21230249106884003, -0.27242085337638855, -0.29717811942100525, -0.024991057813167572, 0.07978080958127975, 0.31056156754493713, 0.35619860887527466, 0.4363744258880615, -0.25378233194351196, 0.11502638459205627, 0.12070711702108383, 0.16010460257530212, -0.1283176839351654, -0.08837036043405533, 0.08809895068407059, -0.24817928671836853, -0.7266288995742798, 0.2664673924446106, -0.018414586782455444, -0.007119935471564531, -0.11101368069648743, -0.2021084725856781, 0.21904854476451874, 0.35918766260147095, 0.381323903799057, 0.1800059974193573, 0.2303600311279297, 0.1239633560180664, 0.08385959267616272, 0.2744934558868408, 0.10267963260412216, 0.14983637630939484, 0.015469592995941639, 0.27698972821235657, 0.17215925455093384, 0.26763880252838135, 0.050144072622060776, 0.06395641714334488, -0.10067546367645264, 0.03128722310066223, -0.1397528052330017, -0.4843883514404297, -0.11756893247365952, -0.758368730545044, -0.47092533111572266, -0.2889910638332367, 0.0031348238699138165, 0.08400928229093552, 0.07302846759557724, 0.7769075632095337, 0.10061836242675781, 0.751554548740387, 0.580078661441803, 0.55425626039505, 0.12677904963493347, 0.2753065228462219, 0.6036577820777893, 0.7541118264198303, 0.6271799802780151, 0.11539345979690552, 0.2783254086971283, 0.22591525316238403, 0.34566107392311096, 0.16589903831481934, 0.1731003224849701, -0.0755409374833107, -0.5744182467460632, -0.21608927845954895, -0.020530031993985176, -0.6518305540084839, -0.4954743981361389, -0.5002801418304443, -0.42506471276283264, -0.2778064012527466, -0.019170507788658142, -0.03442006930708885, -0.010156184434890747, 0.4827592074871063, 0.2745976150035858, 1.8013743162155151, 1.0115375518798828, 0.31689774990081787, 0.36646243929862976, 0.2259916067123413, 0.4690682291984558, 0.7300121784210205, 0.5670210719108582, 0.1115068644285202, 0.04845527932047844, 0.09714432805776596, 0.21328230202198029, 0.06362443417310715, 0.403141587972641, -0.4073944091796875, -1.0047062635421753, -0.7001060843467712, -0.25407537817955017, -0.46875715255737305, -0.5903850197792053, -0.11652079969644547, -0.46379873156547546, -0.02410976029932499, -0.006631955504417419, 0.0617038831114769, -0.07099592685699463, -0.08352803438901901, 0.23582865297794342, 0.44974803924560547, 0.22273120284080505, -0.05689600855112076, 0.07021746784448624, 0.39984890818595886, 0.7714805006980896, 0.45772460103034973, 0.3773038983345032, 0.34410718083381653, 0.028837764635682106, -0.0669349730014801, 0.08639021962881088, 0.12371978163719177, 0.053359854966402054, -0.15209420025348663, -0.2705654501914978, -0.3351157307624817, -0.40880247950553894, -0.0614878349006176, 0.009483600966632366, 0.18137383460998535, 0.06091928109526634, -0.09931273758411407, -0.03191192075610161, -0.055737171322107315, -0.07442187517881393, -0.033184561878442764, 0.10029382258653641, -0.4954454004764557, -0.4173341393470764, -0.39090752601623535, -0.08558906614780426, 0.2481970340013504, 0.6447261571884155, 0.8366931676864624, 0.444124698638916, 0.07759031653404236, 0.2710781693458557, 0.5962254405021667, 0.8377334475517273, 0.8600758910179138, 0.6063817739486694, 0.8801214098930359, 0.5230952501296997, 0.22837580740451813, -0.3164095878601074, 0.11995033174753189, 0.5048950910568237, -0.18811491131782532, 0.16156961023807526, 0.013715550303459167, -0.02078426629304886, 0.05171728879213333, -0.025665931403636932, 0.07121703773736954, -0.0657731145620346, 0.13063260912895203, 0.35020017623901367, -0.016168268397450447, 0.05871936306357384, 0.31659483909606934, 0.5802991986274719, 0.651398777961731, -0.12401343137025833, -0.07284454256296158, 0.7027251124382019, 1.177680492401123, -0.2657865583896637, 0.4103134572505951, 0.9774091243743896, 0.5785984396934509, 0.620426595211029, -0.24588708579540253, 0.020867986604571342, 0.330354243516922, 0.27186667919158936, 0.025343231856822968, 0.025125257670879364, 0.02356027066707611, 0.07633578032255173], [0.04442927986383438, 0.07650012522935867, -0.054432108998298645, 0.003962799906730652, 0.08223807066679001, -0.07174547016620636, -0.07679175585508347, -0.039751119911670685, -0.03142845630645752, -0.05754561722278595, -0.04845021292567253, -0.04511117562651634, 0.18685798346996307, 0.10900406539440155, -0.16926617920398712, -0.019635777920484543, 0.03637620061635971, 0.008636415004730225, -0.06274529546499252, 0.03830737620592117, 0.043029092252254486, -0.031429439783096313, 0.014030002057552338, 0.031027689576148987, -0.02310986816883087, 0.030374594032764435, -0.027653176337480545, 