{"weights": [[[-0.043375663459300995, -0.038632430136203766, -0.06572290509939194, -0.04785320535302162, 0.01346103847026825, -0.06970230489969254, -0.07303821295499802, 0.012020714581012726, -0.04971395060420036, 0.0856938436627388, 0.002068161964416504, 0.02717861533164978, -0.017070835456252098, -0.2713443338871002, -0.43051350116729736, -0.09121834486722946, -0.02081122249364853, -0.008576340973377228, -0.05934450030326843, 0.049268461763858795, -0.06354032456874847, -0.06974979490041733, -0.025772761553525925, 0.028715595602989197, 0.08003181964159012, -0.011931054294109344, 0.048527054488658905, 0.008394755423069, 0.0002872049808502197, 0.012901075184345245, 0.007011115550994873, 0.027451694011688232, 0.11912447214126587, 0.10097096115350723, 0.03585037961602211, 0.2858491539955139, 0.2447037696838379, 0.8276041150093079, 1.1452133655548096, -0.3268285393714905, -0.23909012973308563, -0.19369986653327942, -0.3809773027896881, -0.6241926550865173, -0.47236698865890503, 0.24678285419940948, 1.0094834566116333, 0.628638505935669, 0.7779644131660461, 1.171473503112793, 0.6331429481506348, 0.15003037452697754, -0.03706478700041771, -0.019237175583839417, -0.020281396806240082, 0.033682867884635925, 0.030641615390777588, 0.07335411757230759, 0.01549490261822939, -0.16666385531425476, -0.2148764431476593, 0.8558380603790283, 0.055523209273815155, -0.10495508462190628, 0.5641788244247437, 0.15373744070529938, -0.042630475014448166, 0.00021450968051794916, 0.29452213644981384, -0.0035297973081469536, 0.5935564041137695, 0.17503182590007782, 0.039730995893478394, 0.816075325012207, 0.7497662305831909, 1.3008131980895996, 0.861378014087677, 1.0225498676300049, 0.6925258040428162, 0.3212616443634033, 0.20461402833461761, -0.3218444287776947, -0.026756905019283295, 0.04646178334951401, -0.04060360789299011, -0.022478491067886353, -0.4365991950035095, -0.31037062406539917, -0.17520490288734436, 0.8168867230415344, 0.4746418595314026, -0.4486949145793915, -0.36516839265823364, -0.17825356125831604, -0.016892747953534126, 0.4949992001056671, 0.14253480732440948, -0.030767599120736122, 0.3457472026348114, 0.3639492988586426, 0.399495393037796, -0.17856071889400482, 0.0388735756278038, 0.44642162322998047, 0.17934736609458923, 0.28971949219703674, 0.42634913325309753, 0.4628940224647522, 0.08504784852266312, 0.15583452582359314, 0.11432423442602158, 0.08239922672510147, -0.005721136927604675, -0.10113035887479782, -0.47790631651878357, -0.5019159317016602, -0.19624710083007812, 0.4330199062824249, 0.23471762239933014, -0.15590305626392365, -0.8001073598861694, -0.6154599189758301, -0.2711564004421234, -0.4529065489768982, -0.2032671421766281, -0.022493647411465645, -0.5719134211540222, -0.5808377265930176, -0.2891899645328522, -0.21502597630023956, -0.09330593049526215, 0.21609951555728912, 0.3800521194934845, -0.005315636750310659, 0.22223788499832153, 0.45430612564086914, 0.43935590982437134, 0.23309054970741272, -0.395317405462265, 0.27450841665267944, 0.06352885812520981, -0.05157293379306793, 0.25520583987236023, -0.3660328686237335, -0.16277679800987244, 0.19815106689929962, -0.16961103677749634, -0.23465502262115479, -0.10413049906492233, -0.1100454032421112, -0.12936532497406006, -0.0828005000948906, -0.017086956650018692, -0.7616235613822937, -0.7062011957168579, -0.41286367177963257, -0.17518435418605804, -0.17786075174808502, -0.19332288205623627, -0.17786380648612976, 0.023110736161470413, -0.05090605095028877, -0.11780235916376114, 0.44625842571258545, 0.26333606243133545, 0.16319125890731812, -0.33741018176078796, 0.43327808380126953, -0.014570042490959167, -0.09177863597869873, 0.5240656137466431, -0.2553837299346924, -0.1301765888929367, 0.47877925634384155, -0.3935187757015228, -0.08220652490854263, 0.32871559262275696, -0.0731591135263443, -0.5617415308952332, -0.45452946424484253, -0.48561298847198486, -0.7644469738006592, -0.5637760758399963, -0.6168892979621887, -0.611387312412262, -0.5893369317054749, -0.9386915564537048, -0.7549797892570496, -0.5514927506446838, -0.20474587380886078, 0.05791076272726059, 0.13270941376686096, -0.056309640407562256, 0.3378361463546753, 0.09418077021837234, -0.11101527512073517, 0.0846991017460823, -0.5567484498023987, 0.2427486777305603, -0.17494690418243408, 0.527171790599823, 0.20524826645851135, -0.27196651697158813, -0.20878340303897858, 0.06189081817865372, -0.37192004919052124, -0.4454881250858307, -0.12182573229074478, -0.5503134727478027, -0.5764362215995789, -0.32987162470817566, -0.4945175051689148, -0.616631269454956, -0.3782649636268616, -0.7712559103965759, -0.4626145362854004, -0.23270133137702942, -0.37576431035995483, -0.20377211272716522, -0.24312736093997955, 0.5487779378890991, 0.4048316478729248, 0.016864903271198273, -0.06569523364305496, 0.2274767905473709, -0.5573362112045288, 0.1035112664103508, -0.3737407326698303, 0.07434862852096558, -0.05785094201564789, -0.23732180893421173, 0.07271383702754974, -0.3311154246330261, -0.2923841178417206, -0.3197239339351654, -0.18228115141391754, -0.42853856086730957, -0.5828924179077148, -0.6833677887916565, -0.52946537733078, -0.8392543196678162, -0.6333785057067871, -0.588297963142395, -0.4347490072250366, -0.24967284500598907, 0.18764281272888184, -0.25463753938674927, -0.188069686293602, -0.40987884998321533, -0.07853928953409195, -0.11963530629873276, -0.6400479078292847, -0.4434967637062073, -0.8848737478256226, -0.2606925368309021, -0.3227710425853729, -0.39744770526885986, -0.7903389930725098, -0.42711979150772095, -0.0031412593089044094, -0.1518041342496872, -0.3120783865451813, -0.12705247104167938, -0.050447847694158554, -0.22512049973011017, -0.7075968384742737, -0.7073060870170593, -0.6647379994392395, -0.5270624160766602, -0.5787776112556458, -0.4262573719024658, -0.1964157074689865, -0.04760324954986572, 0.04003193601965904, -0.0814538523554802, -0.004379520658403635, -0.6153175830841064, -0.8171544671058655, -0.3369012773036957, -0.7215278148651123, -0.4367396831512451, -0.6405677795410156, -0.7038632035255432, -0.18732291460037231, 0.14653263986110687, -0.36493781208992004, -0.2837463319301605, 0.07178419083356857, -0.17623773217201233, 0.034578919410705566, -0.20437860488891602, -0.08698711544275284, -0.2654131054878235, -0.7808529734611511, -0.8973934650421143, -0.1931280493736267, -0.14717073738574982, -0.23447807133197784, -0.15683431923389435, -0.09408500045537949, 0.12794815003871918, -0.12222059071063995, 0.25032609701156616, 0.0414685420691967, -0.2226410210132599, -0.4343793988227844, -0.5476853847503662, -0.9281049370765686, -0.14658336341381073, -0.24950598180294037, -1.1435937881469727, -0.48384299874305725, -1.1405142545700073, -0.540917158126831, -0.3842025399208069, 0.0799168273806572, 0.15206749737262726, 0.014158577658236027, 0.0919751301407814, -0.1813153624534607, -0.21803608536720276, -0.6448729634284973, -0.2554413080215454, 0.1566682755947113, 0.18754446506500244, 0.0036801875103265047, -0.09578421711921692, 0.0022081290371716022, 0.10322943329811096, 0.4210341274738312, 0.06831656396389008, 0.22119921445846558, -0.19129911065101624, -0.4945110082626343, -0.7810750007629395, -0.19917717576026917, -0.09434832632541656, -0.13849522173404694, -0.8157407641410828, -0.7815397381782532, -1.133766770362854, -0.472902774810791, 0.20853134989738464, 0.0855000838637352, 0.13110344111919403, 0.1561691015958786, 0.43176349997520447, 0.5641188025474548, 0.48818227648735046, 0.5040680766105652, 0.1408030241727829, 0.18580937385559082, 0.22585101425647736, -0.06279259920120239, -0.1905347853899002, -0.010784219950437546, 0.009536058641970158, 0.1642390340566635, 0.42380619049072266, 0.11862727999687195, -0.06710073351860046, 0.01764829270541668, 0.07863979041576385, -0.05175436660647392, -0.18742531538009644, -0.02379455789923668, -0.8390605449676514, -1.2252908945083618, -0.929400622844696, 0.04238055273890495, 0.39040958881378174, 0.042575690895318985, 0.24642015993595123, 0.35105428099632263, 0.5487340092658997, 0.7186151146888733, 0.8111347556114197, 0.2790593206882477, 0.1540377140045166, 0.362758070230484, 0.1988557130098343, 0.017798416316509247, -0.07393258064985275, -0.2189609557390213, -0.0790388360619545, 0.1492583453655243, 0.1564990133047104, 0.2890457510948181, 0.1581432968378067, 0.08911208808422089, 0.23736043274402618, -0.009959704242646694, 0.4568284749984741, 0.4370677173137665, -0.40515631437301636, -1.1610442399978638, -0.6249225735664368, -0.11274716258049011, -0.01107823383063078, 0.16958771646022797, 0.3861187696456909, 0.125836580991745, 0.14687660336494446, 0.501832127571106, 0.7250956892967224, 0.10653593391180038, -0.012469787150621414, 0.3252694010734558, 0.56736820936203, 0.22162364423274994, -0.0735885351896286, -0.19160960614681244, 0.3495132029056549, 0.03731591999530792, 0.3514414429664612, 0.12117712199687958, 0.08578074723482132, 0.40938711166381836, 0.020954573526978493, 0.2387787401676178, 0.21907763183116913, 0.441606342792511, 0.5045651197433472, -0.3235680162906647, -0.601124107837677, -0.2290157824754715, -0.007668085861951113, -0.1373157501220703, -0.13430409133434296, 0.09596168249845505, 0.15864594280719757, 0.40998172760009766, 0.34851497411727905, 0.2024381309747696, 0.3350885212421417, 0.5274918079376221, 0.6698489189147949, 0.3239240348339081, -0.09428843855857849, 0.42331036925315857, 0.1519358605146408, 0.23202012479305267, 0.3078029751777649, -0.07842175662517548, -0.1600833535194397, 0.0020792775321751833, 0.092127725481987, -0.09049789607524872, -0.3984110653400421, -0.35946398973464966, -0.017319455742836, 0.07588393986225128, -0.35779064893722534, -0.23243354260921478, 0.010591759346425533, 0.10624871402978897, -0.15796776115894318, -0.1782897412776947, 0.1895839422941208, 0.5878008604049683, 0.15705381333827972, 0.08941911906003952, 0.4026954472064972, 0.5208107829093933, 0.4363410472869873, 0.289449542760849, 0.322384238243103, 0.2221786379814148, 0.23956429958343506, 0.07445251196622849, 0.1104736477136612, 0.009069041348993778, 0.20165696740150452, 0.5316101908683777, 0.09592495858669281, -0.10126964002847672, -0.07893314957618713, -0.5962486267089844, 0.09108737111091614, 0.01752779819071293, -0.06500675529241562, -0.32871049642562866, 0.07912139594554901, -0.11945648491382599, 0.07960018515586853, -0.07581494748592377, 0.5595646500587463, 0.503442645072937, -0.1257924884557724, 0.2752058207988739, 0.27789145708084106, 0.17267294228076935, 0.11245404183864594, 0.07890969514846802, 0.1564108431339264, -0.10682691633701324, -0.027271727100014687, 0.3470664620399475, 0.12268101423978806, -0.030627300962805748, -0.07691556215286255, -0.39457136392593384, -0.6038385033607483, -0.35121220350265503, -0.5652115941047668, -0.24590490758419037, -0.43006306886672974, -0.2375711053609848, 0.10661002993583679, -0.2230747938156128, -0.24677236378192902, -0.3275830149650574, -0.0339791476726532, 0.3169195353984833, 0.3072367012500763, 0.6496081948280334, 0.4857264757156372, 0.6309053301811218, 0.13609279692173004, 0.08907965570688248, 0.19907672703266144, -0.24033819139003754, -0.1976606398820877, -0.5046103596687317, -0.3436068594455719, -0.01284900400787592, 0.047659892588853836, -0.2869488000869751, 0.06876135617494583, -0.26474499702453613, -0.46257343888282776, 0.15472891926765442, 0.11082037538290024, -0.6559681296348572, -0.7853605151176453, -0.18201106786727905, -0.01554113533347845, -0.4810708165168762, -0.26220229268074036, -0.08068031072616577, -0.3483983874320984, 0.3274505138397217, 0.43404826521873474, 1.0218567848205566, 0.2858588695526123, 0.4784706234931946, 0.4899444580078125, 0.48183271288871765, 0.23385217785835266, -0.18977773189544678, -0.08382001519203186, -0.43753141164779663, -0.038605526089668274, -0.18443642556667328, -0.4601704478263855, -0.5277590751647949, -0.11512918025255203, -0.17490558326244354, -0.04723057150840759, -0.41956132650375366, -0.0417640320956707, 0.10161025077104568, -0.05175618454813957, 0.4199909269809723, -1.1248698234558105, -0.7926831245422363, -0.6773319840431213, -0.423920601606369, -0.3287205696105957, -0.12253077328205109, 0.17257380485534668, 0.049344517290592194, 0.14032121002674103, 0.16697484254837036, 0.4725753366947174, 0.2846935987472534, 0.19713197648525238, 0.051493410021066666, -0.040696121752262115, -0.22447918355464935, -0.3493635654449463, -0.7430882453918457, -0.9823353290557861, -0.5930599570274353, -0.22916755080223083, -0.2986224293708801, 0.29503241181373596, -0.33606722950935364, 0.10378623753786087, 0.003659120760858059, 0.3350127339363098, 0.34518876671791077, -0.312703013420105, -0.35019543766975403, -0.7595933675765991, -0.5670238137245178, -0.18532291054725647, -0.3700459897518158, 0.0005855659255757928, -0.03665497153997421, 0.13205642998218536, 0.28739258646965027, 0.20324888825416565, -0.06843916326761246, -0.09101086854934692, 0.016976993530988693, 0.1190936267375946, -0.375866562128067, 0.006849184166640043, -0.6844566464424133, -0.4335290193557739, -0.30882060527801514, -0.3617043197154999, -0.13793686032295227, -0.1542179137468338, -0.006812868639826775, -0.015094241127371788, 0.02429027482867241, -0.3200570046901703, -0.6514535546302795, -0.32855552434921265, -0.8383533954620361, -0.5791958570480347, -0.7842714786529541, -0.7844626307487488, -0.5296332836151123, -0.31149277091026306, -0.3043391704559326, -0.3801026940345764, -0.36277350783348083, -0.6115918755531311, -0.46448445320129395, -0.44991374015808105, -0.7380635142326355, -0.7019665837287903, 0.03862381726503372, -0.5178294777870178, -0.05654626712203026, -0.26777613162994385, 0.012468555010855198, -0.028376255184412003, -0.3786233365535736, -0.044701237231492996, -0.019948795437812805, 0.05009026080369949, -0.0750836730003357, 0.14896845817565918, 0.39150169491767883, -0.29250285029411316, -1.0942933559417725, -0.15781113505363464, -0.5158812999725342, -0.2839137315750122, -0.2634689509868622, -0.1555861532688141, -0.7084920406341553, -0.6016970872879028, -0.7335385084152222, -0.6209958791732788, -0.5972840189933777, -0.968294620513916, -0.6198713779449463, -0.5594379305839539, 0.007637226954102516, -0.7545955181121826, -0.0490497425198555, 0.045137785375118256, -0.047103896737098694, -0.4218999445438385, -0.21079136431217194, -0.09546631574630737, 0.04246386140584946, 0.06915970891714096, 0.025309354066848755, -0.34042811393737793, 0.1436268538236618, -0.2966122329235077, 0.20419271290302277, -0.21011991798877716, -0.08108571916818619, 0.12209590524435043, 0.09839191287755966, -0.19159944355487823, -0.11612304300069809, 0.07978811115026474, -0.17603842914104462, -0.22429464757442474, -0.16037428379058838, -0.26128390431404114, -0.2465125322341919, 0.05577369034290314, 0.3164665997028351, -0.08762909471988678, -0.19355100393295288, 0.11926932632923126, 0.3214651048183441, 0.13576765358448029, 0.3631880283355713, -0.44829249382019043, 0.054065875709056854, 0.08199804276227951, -0.013642415404319763, 0.13802766799926758, -0.6744589805603027, 0.3608678877353668, -0.42101290822029114, -0.1698899269104004, 0.07110700756311417, 0.06203065067529678, -0.2555040717124939, -0.2999221980571747, -0.278525710105896, -0.6032494902610779, -0.5632608532905579, -0.5227217674255371, -0.23643270134925842, -0.4535186290740967, -0.09004711359739304, -0.1588655412197113, -0.06117314100265503, 0.0008567120530642569, -0.04791858419775963, 0.021991396322846413, 0.48541226983070374, -0.03616578131914139, -0.36230891942977905, -0.2462853044271469, -0.05744556337594986, 0.05675617605447769, -0.043488673865795135, 0.08409639447927475, 0.0191873237490654, 0.5455373525619507, -0.48640739917755127, -0.22735929489135742, -0.623849630355835, -0.8431694507598877, -0.8245529532432556, -1.0837823152542114, -1.1834791898727417, -0.7737773656845093, -1.2828353643417358, -1.5418987274169922, -0.6869214177131653, -0.8956366777420044, -0.49070990085601807, -0.9136726260185242, -0.38451680541038513, -0.4294731020927429, -0.4023210406303406, -0.040920570492744446, -0.06726671010255814, 0.42662885785102844, -0.07255542278289795, -0.012628301978111267, 0.01617453247308731, -0.003203675150871277, 0.07374577969312668, -0.05995194613933563, 0.009786300361156464, -0.1193055510520935, -0.4697636365890503, -0.30465981364250183, -0.4846442937850952, -0.6647950410842896, -0.7152941823005676, -1.0483628511428833, -0.6610888838768005, -0.363075315952301, -1.1259269714355469, -1.1711395978927612, -0.16391758620738983, -0.2329549640417099, -0.20667286217212677, -0.1698545664548874, -0.540099561214447, -0.06421846151351929, 0.10864099860191345, 0.1730891615152359, -0.4671107828617096, 0.08388926833868027, -0.061231281608343124, 0.00849362462759018, -0.012792259454727173], [0.030924171209335327, 0.046562694013118744, -0.054787229746580124, -0.06460374593734741, -0.028386101126670837, -0.058277882635593414, 0.015844814479351044, 0.025991864502429962, -0.08524104207754135, 0.05757979303598404, 0.015838995575904846, 0.056866683065891266, -0.039085324853658676, 0.01968509331345558, -0.0024111235979944468, 0.044591378420591354, -0.07764042913913727, 0.05851294845342636, 0.0017842724919319153, -0.00905202329158783, -0.05054615065455437, -0.0019051805138587952, -0.022608324885368347, 0.012723550200462341, -0.002287529408931732, -0.031123626977205276, -0.066493920981884, 0.06754107028245926, 0.028872452676296234, 0.07494425028562546, -0.058846358209848404, 0.003205724060535431, 0.10699627548456192, 0.16677066683769226, 0.23456329107284546, 0.4411695599555969, 0.4612322151660919, 0.4446123540401459, 0.20170795917510986, 0.05344969034194946, -0.11974519491195679, -0.08235573023557663, -0.5370081663131714, -0.2129029780626297, -0.08494585752487183, 0.3551570177078247, 0.5260053277015686, 0.5864439606666565, 0.494712233543396, 0.21139857172966003, 0.2983810305595398, 0.10424858331680298, -0.052058156579732895, -0.017525628209114075, 0.05488920956850052, 0.0688350573182106, -0.0628526359796524, 0.05072177201509476, 0.20925161242485046, 0.47489529848098755, 0.573461651802063, 0.21969138085842133, 0.2142219990491867, 0.6134713888168335, 0.892322301864624, 0.8235939741134644, 0.6398261785507202, 0.09411342442035675, 0.15200553834438324, -0.18809330463409424, -0.04934293031692505, -0.36722713708877563, -0.7957921624183655, -0.3585205674171448, -0.531804084777832, -0.3236277401447296, 0.3273368179798126, 0.5820068717002869, 0.08039174228906631, -0.03167075663805008, 0.700738787651062, 0.4645766615867615, -0.07042405009269714, -0.05772259086370468, -2.84537672996521e-05, -0.0010724663734436035, 0.08251702040433884, 0.557743489742279, 0.12719760835170746, 0.45658570528030396, 0.800737202167511, -0.2797156572341919, -0.16961118578910828, 0.19254109263420105, 0.580280601978302, 0.7247195243835449, 0.666793942451477, 0.14508508145809174, -0.06503105908632278, 0.14594437181949615, 0.3055966794490814, 0.0064889006316661835, -0.3248337209224701, -0.3602563440799713, -0.007726137060672045, -0.19979621469974518, 0.19271546602249146, -0.08502145111560822, -0.10563983768224716, -0.547242283821106, 0.39175862073898315, 0.0012682825326919556, 0.02263455092906952, -0.18138134479522705, -0.3594141900539398, -0.07730203866958618, 0.32443001866340637, -0.04074965417385101, 0.883699893951416, 0.512806236743927, 0.326635479927063, 0.34187057614326477, 0.7665542960166931, 0.774831235408783, 0.21381327509880066, 0.1995706409215927, 0.011368927545845509, 0.41314107179641724, 0.6857089400291443, 0.5148773193359375, 0.7461581230163574, 0.7843452095985413, 0.03112519346177578, -0.33433789014816284, -0.13851377367973328, -0.45877766609191895, 0.14569994807243347, 0.09742974489927292, 0.5160965323448181, 0.24937187135219574, 0.027496173977851868, -0.02773190289735794, 0.29637545347213745, 0.19761042296886444, 0.4577810764312744, 0.035475462675094604, 0.3180478513240814, 0.25469496846199036, 0.4722908139228821, 0.22556696832180023, 0.41496172547340393, 0.061031945049762726, -0.21997801959514618, -0.3115803599357605, -0.2225140482187271, -0.09764374047517776, 0.6693336963653564, 0.7129493951797485, 1.1735014915466309, 0.7806301712989807, 0.8391979336738586, 0.2933345139026642, 0.1562650203704834, 0.4799676835536957, 0.459978848695755, 0.12537997961044312, 0.4895491898059845, 0.3253597915172577, -0.034203849732875824, -0.01967165805399418, 0.44951963424682617, 0.34875211119651794, -0.12050110101699829, 0.08235341310501099, 0.45157694816589355, 0.10542105883359909, 0.25737571716308594, -0.07922884076833725, -0.21461564302444458, -0.45990610122680664, -0.6271751523017883, -0.6892703771591187, -0.3261563181877136, -0.19263800978660583, 0.10441222041845322, -0.24611395597457886, 0.28020310401916504, 0.8413035273551941, 1.013696551322937, 0.7325283288955688, 0.5111253261566162, 0.4161655604839325, 1.0165294408798218, 0.6641203165054321, 0.5125364661216736, -0.05679174140095711, -0.01127972174435854, -0.014583660289645195, 0.322864294052124, -0.34615153074264526, 0.774642825126648, 0.6173883676528931, 0.42185235023498535, 0.972544252872467, 0.48801058530807495, -0.306344211101532, -0.6712746620178223, -0.35955724120140076, -0.3487061858177185, -0.723003089427948, -0.28964436054229736, -0.22538094222545624, -0.17160089313983917, -0.14210335910320282, 0.37498533725738525, 0.6002525091171265, 0.5400882363319397, 0.8443602323532104, 1.3686076402664185, 0.39229196310043335, 1.0939645767211914, 0.038427677005529404, 0.3413589894771576, 0.21448281407356262, 0.21322788298130035, 0.22526925802230835, -0.3324994146823883, 0.07389979064464569, 0.21477407217025757, 0.22711610794067383, 0.43190065026283264, 0.20916977524757385, 0.11946666985750198, -0.44718900322914124, -0.3262096345424652, -0.335337370634079, -0.3408258259296417, -0.24715286493301392, -0.4388023912906647, -0.3864687383174896, -0.397299200296402, -0.06749535351991653, 0.06822490692138672, 0.43326205015182495, 0.497010201215744, 0.7285998463630676, 0.7038742303848267, 0.700894296169281, 1.1796298027038574, 0.1062028631567955, -0.5804941654205322, 0.17084909975528717, -0.28171461820602417, -0.5281686782836914, -0.049356866627931595, -0.21709011495113373, 0.35876938700675964, 0.39020106196403503, 0.3517560064792633, -0.12222018837928772, -0.11600998044013977, -0.2015964388847351, -0.22490811347961426, -0.046242471784353256, 0.2665325701236725, 0.4781512916088104, -0.19433680176734924, -0.756248950958252, -0.24170345067977905, -0.27640047669410706, -0.24136659502983093, 0.2813979983329773, -0.10784294456243515, 0.1386888474225998, 0.06949774920940399, 1.1680935621261597, 0.9808520078659058, 0.43368420004844666, 0.13692621886730194, -0.20212814211845398, -0.27920210361480713, -0.748272716999054, 0.0803942084312439, 0.6264874935150146, 0.47725629806518555, 0.10982004553079605, -0.18550308048725128, -0.47340869903564453, 0.051568254828453064, 0.22882620990276337, 0.4129093587398529, 0.8920930027961731, 0.5435832738876343, 0.21821674704551697, -0.6816570162773132, -0.9096401333808899, -0.547526478767395, -0.17506611347198486, -0.1908341944217682, 0.017440669238567352, -0.12386787682771683, 0.002418956719338894, 0.6709404587745667, 0.5763134360313416, 0.9728363752365112, 0.7058393359184265, 0.16540823876857758, -0.22727875411510468, -0.8070390224456787, 0.15699076652526855, -0.39675480127334595, 0.6377137899398804, 0.3231917917728424, -0.11018653959035873, 0.06373105198144913, -0.1493903249502182, -0.16223585605621338, 0.17904633283615112, 0.662182092666626, 1.0308705568313599, 0.2988862991333008, -0.28889957070350647, -0.5569691061973572, -0.7178317308425903, -0.6484495997428894, -0.7153685688972473, -0.2975565195083618, -0.12959392368793488, -0.3336353302001953, 0.2648230493068695, 0.4384557008743286, 0.7032341957092285, 0.8857383728027344, 0.7193250060081482, -0.45603692531585693, 0.13222093880176544, -0.6644651889801025, -0.5797922015190125, -0.1260327696800232, 0.24322645366191864, 0.1568155288696289, -0.2048737108707428, -0.21553994715213776, 0.2466152161359787, 0.07524970918893814, 0.06395649909973145, 0.5866706371307373, 0.5909184813499451, 0.5287157893180847, 0.013939420692622662, -0.14666728675365448, -0.40939778089523315, -0.40383249521255493, -0.22335924208164215, 0.03875749558210373, 0.060638535767793655, -0.22623233497142792, 0.40883976221084595, 0.5836141109466553, 0.8890318870544434, 0.6615439057350159, -0.13289670646190643, 0.5962952375411987, -0.008037119172513485, 0.41319939494132996, -0.21822842955589294, 0.09806345403194427, -0.38871461153030396, 0.11918278783559799, -0.07513505220413208, -0.08716188371181488, -0.18799147009849548, 0.15716789662837982, 0.29110008478164673, 0.35027459263801575, 0.2761797606945038, 0.08126545697450638, -0.10240741819143295, -0.21784406900405884, -0.42389267683029175, -0.270956426858902, -0.12326903641223907, 0.2608641982078552, 0.311733603477478, 0.02657301351428032, 0.3493352234363556, 0.44377297163009644, 1.0030320882797241, 0.5798308253288269, -0.19587700068950653, 0.6472593545913696, 0.16016964614391327, 0.4920267164707184, -0.543490469455719, -0.28129467368125916, -0.5805495381355286, 0.13553833961486816, -0.06658069044351578, -0.037895165383815765, -0.27709946036338806, 0.22923746705055237, 0.3655344247817993, 0.2992885112762451, 0.28613659739494324, 0.17696163058280945, 0.010143068619072437, 0.16325898468494415, 0.07343576103448868, -0.11955694109201431, -0.24791736900806427, 0.07249580323696136, -0.20161567628383636, -0.025993891060352325, -0.03635970130562782, 0.3643151819705963, 0.5615533590316772, 1.4549883604049683, 0.45611080527305603, 0.8485495448112488, 0.5399702787399292, 0.4112232029438019, -0.5059460997581482, 0.4103625416755676, -0.36932018399238586, 0.16220569610595703, 0.018602777272462845, -0.3573790490627289, 0.5336259603500366, 0.3389444053173065, 0.3492479920387268, 0.13394583761692047, -0.030366510152816772, 0.00030017655808478594, 0.3979600965976715, 0.4902515709400177, 0.004103788174688816, -0.16059547662734985, -0.23468808829784393, -0.2959940433502197, -0.28307145833969116, 0.043998945504426956, 0.050138235092163086, 0.37656036019325256, 0.42578163743019104, 1.2863644361495972, 0.18495112657546997, -0.17177675664424896, 0.7240941524505615, -0.5264340043067932, 0.16341876983642578, 0.19291676580905914, 0.057798393070697784, -0.7588863968849182, 0.2207774519920349, 0.4657973051071167, 0.24164898693561554, 0.2940099835395813, 0.19948378205299377, -0.1108790785074234, 0.2127373218536377, 0.4210682213306427, 0.7300418019294739, 0.655308187007904, 0.3413286507129669, -0.3235001862049103, -0.1796383261680603, -0.2404436618089676, -0.2588658630847931, -0.24755308032035828, 0.1495833694934845, 1.069895625114441, 0.9367578625679016, 0.975793182849884, 0.3108493685722351, 0.6409854888916016, -0.16824215650558472, -0.015427999198436737, -0.09365364164113998, 0.3084650933742523, 0.3346654772758484, -0.6766636371612549, 0.2497430145740509, 0.37910664081573486, 0.46538829803466797, 0.12672127783298492, -0.21372318267822266, -0.1478753685951233, 0.30497318506240845, 0.20386271178722382, 0.22196409106254578, 0.18603378534317017, -0.1613692045211792, -0.2139865607023239, -0.3029782474040985, -0.43682199716567993, -0.030882572755217552, 0.02304835617542267, 0.3318822979927063, 0.17383794486522675, 0.47094377875328064, 0.9907546639442444, -0.14588989317417145, -0.10801969468593597, -0.29222744703292847, -0.7325097918510437, -0.24060919880867004, -0.2091166079044342, 0.3869885802268982, 0.16179706156253815, 0.5514453053474426, -0.006428270600736141, 0.21392551064491272, 0.09250682592391968, -0.25342559814453125, -0.07275981456041336, -0.061613529920578, 0.2859863042831421, 0.4453584849834442, 0.08327808976173401, -0.010492046363651752, -0.10901392996311188, -0.08967742323875427, -0.2883319854736328, -0.15383417904376984, 0.3899596035480499, 0.19695210456848145, 0.08173012733459473, 1.1000949144363403, 1.641561508178711, -0.08729903399944305, -0.4836929738521576, 0.5788202881813049, 0.2786147892475128, 0.25823166966438293, -0.34424328804016113, 0.4639067053794861, -0.15589933097362518, -0.22309616208076477, -0.41245773434638977, -0.11376054584980011, -0.22116291522979736, -0.031031936407089233, 0.07984626293182373, 0.04542432725429535, 0.052644163370132446, 0.5019682049751282, 0.3559705913066864, 0.30806997418403625, 0.07408148795366287, 0.2058424949645996, -0.0848512351512909, -0.2303006500005722, -0.05516939237713814, 0.1190900057554245, 0.11074777692556381, 0.8333666920661926, 0.6476157903671265, -0.2089962214231491, 0.6121401190757751, 0.2773798704147339, 0.0026203617453575134, 0.11379110813140869, -0.22402960062026978, 0.6674347519874573, -0.6871529817581177, -0.44436153769493103, -0.21450254321098328, -0.2232024222612381, -0.22521528601646423, 0.2156514972448349, 0.0030834865756332874, 0.09625287353992462, 0.3453633189201355, 0.36924317479133606, 0.2617632746696472, 0.39946484565734863, 0.19848501682281494, 0.14115744829177856, 0.2715624272823334, -0.34450218081474304, 0.3021218776702881, 0.14331096410751343, 0.6439766883850098, 1.1741172075271606, -0.12370079010725021, -0.3699706196784973, 0.7857846617698669, -0.04364524781703949, 0.15942569077014923, 0.23174051940441132, 0.07527350634336472, -0.09933263808488846, -0.6840348243713379, -0.5203564167022705, -0.2228337824344635, -0.061582569032907486, -0.46192029118537903, -0.04105763137340546, -0.10557477176189423, 0.25047239661216736, 0.2760275900363922, 0.5323658585548401, 0.5356295704841614, 0.4495297968387604, 0.15337620675563812, 0.21572884917259216, 0.311985582113266, 0.010950351133942604, 0.05675791949033737, -0.1856316775083542, 0.40762194991111755, 1.0058319568634033, -0.14345596730709076, 0.08788816630840302, 0.35921046137809753, -0.1843586415052414, 0.11606215685606003, -0.045898500829935074, 0.6113414764404297, -0.4489939510822296, -0.595055878162384, -0.4246878921985626, -0.23045897483825684, -0.21899983286857605, -0.49703657627105713, -0.14224399626255035, -0.11455753445625305, 0.30035948753356934, 0.19341111183166504, 0.2163422703742981, 0.1698807179927826, 0.33553287386894226, 0.18714746832847595, 0.10193577408790588, -0.035565655678510666, 0.26037296652793884, 0.048348650336265564, 0.6338522434234619, -0.26601728796958923, 0.24929462373256683, -0.31528669595718384, -0.2060638815164566, 0.1064964011311531, -0.30237218737602234, -0.033296793699264526, -0.008690476417541504, 0.5530479550361633, 0.3116675317287445, -0.2860791087150574, -0.03785073757171631, -0.438077449798584, -0.49640777707099915, -0.2633201479911804, -0.06107703596353531, 0.33194732666015625, 0.1755491942167282, 0.23195654153823853, 0.2810259163379669, 0.2968263030052185, 0.36088231205940247, 0.5242451429367065, 0.12295184284448624, -0.2844614088535309, 0.027931703254580498, 0.2572064995765686, 0.2513488829135895, -0.20477202534675598, -0.05428674444556236, -0.034524012356996536, 0.5472328662872314, 0.556998074054718, 0.05640982836484909, -0.007728010416030884, -0.05425384268164635, -0.02895456738770008, 0.36491402983665466, -0.6361534595489502, -0.4161231517791748, -0.8485493659973145, -1.1027508974075317, -0.4148055911064148, -0.22380702197551727, -0.20350241661071777, 0.18066589534282684, 0.435859352350235, 0.6783764958381653, 0.6580766439437866, 0.47039151191711426, 0.5426547527313232, 0.05334668979048729, 0.16938894987106323, 0.2331961840391159, 0.1419837921857834, 0.29820913076400757, 0.32357853651046753, -0.445700466632843, 0.34459513425827026, 0.5803242921829224, 0.3860699534416199, 0.08527911454439163, 0.007294036448001862, 0.07680990546941757, -0.19053488969802856, -0.43462666869163513, 0.2647337317466736, -0.2872576415538788, -0.3883218765258789, -0.29754844307899475, -0.37425580620765686, 0.16313137114048004, -0.003166390582919121, 0.029757237061858177, 0.494939386844635, 0.40758222341537476, -0.05402551591396332, 0.27751389145851135, -0.08650966733694077, -0.31315886974334717, -0.06885621696710587, -0.038795165717601776, -0.14312990009784698, -0.0891200453042984, 0.15574246644973755, 0.5430675148963928, 0.26286834478378296, 0.11913822591304779, 0.5983057618141174, 0.0021758079528808594, -0.013049989938735962, -0.06336651742458344, 0.056755028665065765, -0.33388596773147583, -0.663453996181488, -0.3621290922164917, -0.6145961284637451, -0.5825270414352417, -0.6361840963363647, -1.2966331243515015, -1.1699517965316772, -1.2779736518859863, -0.9796512722969055, -0.8554239869117737, -1.4956400394439697, -0.5099685788154602, 0.0983278825879097, -0.20087754726409912, -0.6382722854614258, -0.41895100474357605, -0.11309167742729187, -0.2409764528274536, -0.0014708454255014658, -0.5538800358772278, 0.23368413746356964, -0.09748487174510956, 0.03865469992160797, 0.0632040873169899, -0.025733932852745056, -0.009460777044296265, 0.08380106836557388, 0.07867199927568436, -0.155675008893013, 0.2919394075870514, -0.39297181367874146, -0.381924033164978, -0.3201996088027954, -0.5871329307556152, -0.31831255555152893, -0.8700354695320129, -0.4977653920650482, -0.2611652910709381, -1.0559351444244385, -0.8082095384597778, -0.45108792185783386, -0.5424237251281738, -0.7144782543182373, -0.6422281265258789, -0.5875818133354187, -0.33277755975723267, 0.009668831713497639, 0.5476563572883606, 0.01777629554271698, 0.08544421941041946, 0.02857670933008194, 0.012221477925777435], [-0.06890113651752472, 0.026567503809928894, 0.02089594304561615, -0.05952272564172745, -0.004984915256500244, 0.026117749512195587, 0.05342463403940201, -0.08386034518480301, 0.05125788599252701, 0.01608293503522873, 0.07303910702466965, -0.06662500649690628, 0.000800493115093559, -0.04215220734477043, 0.03846625238656998, -0.02372713014483452, -0.05410687252879143, 0.06871858984231949, 0.0009515956044197083, -0.053247056901454926, -0.062307171523571014, -0.043156541883945465, 0.06213108450174332, -0.07470937073230743, 0.013652488589286804, -0.029436688870191574, 0.03179868310689926, 0.026823312044143677, 0.0230606347322464, -0.08326980471611023, -0.043487876653671265, 0.004134804010391235, -0.03665100410580635, 0.04237689822912216, 0.4378034770488739, 0.25762808322906494, 0.5347100496292114, 0.9070577025413513, 0.7028868198394775, 0.12024694681167603, 0.08410333842039108, 0.29513078927993774, 1.3841865062713623, 1.3180429935455322, 1.217641830444336, 0.9041845798492432, 0.7924322485923767, 0.32776227593421936, 0.37823817133903503, 0.17683176696300507, 0.1935805380344391, 0.2265581488609314, -0.02392825111746788, -0.055431216955184937, -0.03349712863564491, -0.020675674080848694, 0.07038480788469315, -0.031773876398801804, -0.021749412640929222, 0.5209553837776184, 0.5422428846359253, 0.28761619329452515, 0.6356600522994995, 0.9653448462486267, 0.8721203804016113, 1.2917735576629639, 1.5387340784072876, 1.458254337310791, 1.4827098846435547, 1.5800312757492065, 2.5994653701782227, 1.9978684186935425, 1.6170309782028198, 1.221326231956482, 1.1328885555267334, 2.0355873107910156, 1.203449010848999, 0.9244012236595154, 0.6373855471611023, 0.5644161701202393, 0.32348495721817017, 0.11315374821424484, 0.059937067329883575, 0.06637854129076004, -0.04997947812080383, -0.06430090218782425, -0.030261339619755745, 0.4077247381210327, 0.6562185883522034, -0.08088418841362, 0.3982882499694824, 0.40035754442214966, 0.5329155325889587, 0.6171111464500427, 0.5332247614860535, 0.9750346541404724, 0.9056234359741211, 0.7285486459732056, 0.814528226852417, 0.49455904960632324, 0.3662770092487335, 0.5090073347091675, 0.5646029114723206, 0.38981032371520996, 0.7270933985710144, 1.1535602807998657, 0.7361823320388794, 0.5454683303833008, 0.11004428565502167, -0.08668176084756851, -0.35512644052505493, -0.046129196882247925, -0.06128222867846489, -0.019560150802135468, -0.10378398001194, 0.021895835176110268, 0.06808135658502579, -0.1938794106245041, 0.0909074917435646, -0.0487230010330677, 0.2778823971748352, 0.6516687273979187, 0.06865823268890381, 0.20745500922203064, 0.15728528797626495, 0.7225532531738281, 1.1703077554702759, 0.594538688659668, 0.07538485527038574, 0.2690916657447815, 0.9874613881111145, 0.0775730237364769, 0.3605751395225525, 0.09795168042182922, 0.6257691383361816, 0.4516236186027527, -0.02681010030210018, -0.40194159746170044, -0.6639925837516785, -0.03315826132893562, -0.08518456667661667, -0.07846479117870331, 0.3708782494068146, 0.2628580927848816, 0.25470513105392456, 0.4581626355648041, 0.23826991021633148, -0.2921263575553894, -0.15187422931194305, -0.03167925775051117, -0.10563703626394272, -0.2806510329246521, 0.29115667939186096, 0.43745729327201843, 0.47770702838897705, -0.0950600653886795, -0.053929079324007034, -0.034916140139102936, -0.03263746201992035, -0.07401452213525772, 0.6370803117752075, 0.10512778908014297, -0.1915264129638672, 0.11005008965730667, 0.07964953780174255, -0.7635135054588318, -0.4537496864795685, -0.5112401843070984, -0.0011491253972053528, -0.04527851939201355, -0.6337732076644897, -0.6216430068016052, -0.3192085325717926, -0.11244678497314453, 0.5176957845687866, 0.12268885225057602, -0.1453864872455597, -0.052206236869096756, 0.36495301127433777, 0.009712876752018929, -0.15011684596538544, 0.28219687938690186, 0.44085946679115295, 0.29064157605171204, 0.1824204921722412, 0.18174099922180176, 0.43900206685066223, -0.008651241660118103, -0.36468085646629333, -0.5594265460968018, -0.1362830102443695, 0.5561097264289856, 0.3152599334716797, -0.2710825502872467, 0.7650012373924255, -0.03952101990580559, -0.022854045033454895, -0.5595018267631531, -0.4994259476661682, -1.0051755905151367, -0.012344400398433208, 0.46169188618659973, 0.060209356248378754, -0.24057123064994812, -0.1879919320344925, 0.022646674886345863, 0.07420578598976135, 0.16887839138507843, -0.16203951835632324, -0.023327047005295753, 0.4879413843154907, 0.63083416223526, 0.4072452485561371, 0.6229261755943298, 0.30653640627861023, -0.20592288672924042, 0.1211748942732811, -0.20971861481666565, -0.20898713171482086, 0.0865258127450943, 0.5265702605247498, 0.38161376118659973, 0.772434651851654, 0.43390509486198425, 0.46328505873680115, -0.7230933904647827, -0.13063886761665344, -0.990670919418335, -0.22334635257720947, 0.0764710009098053, -0.3312689960002899, -0.04410642385482788, -0.10932723432779312, -0.20476160943508148, 0.1275670826435089, 0.007615967653691769, 0.022695716470479965, -0.13795021176338196, 0.17308098077774048, 0.21078722178936005, 0.43601346015930176, 0.3582681119441986, 0.20112468302249908, 0.0516972690820694, -0.10475628077983856, 0.13796094059944153, 0.03803529590368271, -0.20755119621753693, -0.0715663731098175, 0.05315579101443291, 1.0141435861587524, 0.1648416370153427, -0.11645510792732239, -0.8921592831611633, 0.47731778025627136, -0.22595244646072388, -0.13173814117908478, -0.02595135197043419, -0.2278926968574524, 0.14916767179965973, 0.27459242939949036, -0.006775238551199436, 0.0034921111073344946, -0.14832518994808197, -0.014936666004359722, -0.060521941632032394, -0.3192248046398163, 0.008063539862632751, -0.03685718774795532, -0.16543564200401306, 0.050399672240018845, -0.044447872787714005, 0.06274421513080597, 0.0009664552053436637, -0.3325551748275757, 0.24073827266693115, -0.08176319301128387, 0.14528392255306244, 1.0456271171569824, 0.6919710040092468, -0.24100777506828308, -0.7770660519599915, -0.3214878439903259, -0.6109063029289246, 0.25413447618484497, -0.2250528484582901, -0.07455158978700638, 0.40423446893692017, 0.360697865486145, -0.18315660953521729, -0.15360243618488312, -0.16847217082977295, -0.030838239938020706, -0.06141486391425133, -0.0997079387307167, 0.22509562969207764, 0.16246303915977478, 0.09035845845937729, -0.2066955268383026, -0.10941054672002792, 0.20048171281814575, -0.06271030008792877, -0.24723707139492035, -0.6566561460494995, 0.2601734697818756, -0.03302217274904251, 1.466387391090393, 0.5058043599128723, -0.15902937948703766, 0.27648869156837463, -0.7804449796676636, -0.7798624038696289, -0.5865544676780701, 0.035773854702711105, 0.43519166111946106, 0.21532493829727173, 0.4374767541885376, -0.16990862786769867, -0.19529330730438232, -0.29814425110816956, -0.4219242036342621, -0.32495835423469543, 0.2633221447467804, 0.6214048266410828, 0.5579130053520203, 0.11282320320606232, -0.48594188690185547, -0.3657064735889435, -0.15198557078838348, -0.32615453004837036, -0.4100337326526642, -0.2873305082321167, 0.41062745451927185, -0.02047353982925415, 1.3065862655639648, 0.5074549913406372, -0.21272467076778412, -0.24451185762882233, -0.38864195346832275, -0.416454553604126, -0.16961076855659485, -0.3047811985015869, -0.18699783086776733, -0.37661153078079224, -0.15985047817230225, -0.12145937234163284, -0.3562168478965759, -0.45170658826828003, -0.04812420904636383, 0.7278493642807007, 0.8629208207130432, 0.9372462034225464, -0.04386080428957939, -0.21012286841869354, -0.5436998605728149, -0.0638846755027771, -0.19044052064418793, -0.14941620826721191, -0.16583925485610962, 0.15755267441272736, 0.5044280886650085, -0.09181170910596848, 0.1111452579498291, -0.16424360871315002, 0.16444182395935059, 0.135310560464859, -0.5020943880081177, -0.3356369733810425, -0.0443158783018589, -0.6231674551963806, -0.6400635242462158, -0.2221430242061615, 0.0066041164100170135, -0.4970218539237976, -0.6446301341056824, -0.4272936284542084, 0.4138777554035187, 1.5195553302764893, 1.3441871404647827, 0.888588011264801, 0.09712018072605133, -0.007408787962049246, -0.09610334783792496, 0.1512633115053177, -0.2245078682899475, -0.3212144672870636, -0.012802286073565483, 0.9169085621833801, 0.41850578784942627, -0.1547892987728119, -0.1100987046957016, 0.12685973942279816, 0.44446542859077454, -0.30416470766067505, -0.8044968247413635, -0.2762375473976135, 0.19871190190315247, -0.2230539172887802, 0.04730093851685524, 0.1243077889084816, -0.14800184965133667, -0.4619108736515045, -0.4499151408672333, 0.17623591423034668, 1.8566946983337402, 2.3062782287597656, 1.5301836729049683, 0.4803352653980255, 0.029905937612056732, 0.15442797541618347, 0.23071400821208954, 0.3048386871814728, 0.2422088384628296, 0.12936101853847504, 0.28317344188690186, 0.021407362073659897, 0.06613495200872421, -0.5112688541412354, 0.17551925778388977, -0.10561203956604004, 0.29597461223602295, -0.005484945606440306, 0.32264599204063416, -0.5738227367401123, -0.2673304080963135, -0.026353249326348305, -0.06957882642745972, -0.10362996906042099, -0.19168607890605927, 0.02806069329380989, 0.09561561048030853, 1.2951233386993408, 3.18274188041687, 2.482358694076538, 0.38712170720100403, -0.06010778993368149, -0.016170863062143326, 0.11815712600946426, 0.2664216458797455, 0.17159096896648407, -0.4246528446674347, 0.36954957246780396, 0.08041161298751831, 0.3985823094844818, 0.24438747763633728, -0.41737866401672363, -0.5370767712593079, 0.32466185092926025, -0.38269346952438354, -0.17562861740589142, -0.11760426312685013, -0.22932317852973938, -0.2772989869117737, 0.14764435589313507, -0.5835666060447693, -0.574173629283905, -0.24842724204063416, 0.04566836357116699, 0.5646429061889648, 2.2745189666748047, 3.0638017654418945, 1.1081522703170776, -0.12458071112632751, -0.42997053265571594, -0.3486938178539276, -0.2374332845211029, 0.09938127547502518, -0.12585856020450592, -0.32283830642700195, -0.19574911892414093, -0.010421115905046463, 0.2250538319349289, 0.748650848865509, 0.6397082209587097, -0.41483932733535767, 0.21068920195102692, -0.05347256734967232, -0.2382771372795105, -0.49206942319869995, -0.31185030937194824, -0.25936612486839294, -0.0895892083644867, 0.34433507919311523, 0.011208001524209976, 0.39699938893318176, 0.6946700811386108, 1.2676587104797363, 1.7224218845367432, 1.6249428987503052, 0.3266148865222931, -0.2076922357082367, -0.5043562650680542, -0.3140161335468292, 0.0842796117067337, -0.05474550649523735, 0.30517277121543884, 0.19647735357284546, 0.1991352140903473, 0.5001055598258972, 0.9242587685585022, 1.670680046081543, 0.4963831305503845, 0.25763416290283203, 0.09986283630132675, -0.4389270842075348, -0.012500596232712269, -0.5192606449127197, 0.42412295937538147, 0.09516999870538712, 0.30663397908210754, 0.3948878049850464, 0.2484767585992813, 0.2831137776374817, 0.812533438205719, 1.498972773551941, 1.0411280393600464, 0.4127078354358673, -0.09205085784196854, -0.4611932039260864, -0.2673666477203369, 0.005152169615030289, -0.043886393308639526, 0.03933675214648247, 0.11493609845638275, 0.6065503358840942, 0.4807169735431671, 1.2388296127319336, 1.1375230550765991, 1.7577049732208252, 0.15458416938781738, 0.3824002146720886, 0.21281424164772034, -0.014679309912025928, -0.5650232434272766, -0.566241443157196, 0.45387789607048035, 0.24535934627056122, 0.6745378375053406, 0.989378809928894, 1.3364782333374023, 1.0244415998458862, 1.1219130754470825, 0.5537182092666626, 0.2655659019947052, -0.1647951304912567, -0.19346146285533905, -0.27243104577064514, -0.3229444622993469, -0.21756930649280548, -0.25405851006507874, 0.29574811458587646, 0.24637334048748016, 0.761588454246521, 1.087963342666626, 1.0663760900497437, 1.5090336799621582, 0.9148770570755005, -0.20321108400821686, -0.3105041980743408, -0.27872177958488464, -0.06839939206838608, -0.403795450925827, -0.39211252331733704, 0.863304078578949, 0.903681218624115, 1.06365966796875, 1.4121980667114258, 1.9575153589248657, 0.884284257888794, 0.5972190499305725, 0.15083177387714386, 0.12973502278327942, 0.04767930135130882, -0.007980243302881718, -0.40141239762306213, -0.35816508531570435, -0.38867831230163574, -0.3640505373477936, 0.2881690561771393, 0.3904680907726288, 0.7393950819969177, 0.822335958480835, 0.9019622206687927, 1.3514890670776367, 0.7493475675582886, 0.2736678719520569, -0.23531706631183624, -0.19222639501094818, -0.055666521191596985, -0.003765194909647107, 0.4390217661857605, 1.4214540719985962, 0.6305578351020813, 0.29483330249786377, 0.5814312100410461, 0.9182179570198059, 0.1196851059794426, 0.17089015245437622, -0.0624212883412838, -0.18170879781246185, 0.22759144008159637, -0.09511122107505798, 0.0691625326871872, -0.36684444546699524, -0.5103630423545837, -0.5616174936294556, -0.5315189361572266, -0.7076383829116821, -0.009378546848893166, -0.7160060405731201, 0.5393136143684387, 0.6095301508903503, -0.5452448725700378, -0.27606022357940674, 0.6685977578163147, 0.09011325985193253, 0.014787891879677773, 0.034997425973415375, -0.3284662663936615, 0.9667043685913086, 0.5139201283454895, 0.23509687185287476, 0.17101670801639557, -0.14054112136363983, -0.5896896719932556, -0.12407610565423965, 0.1897161453962326, 0.04301503300666809, 0.04943547025322914, 0.2778259217739105, -0.07823316007852554, -0.42027923464775085, -0.5834686756134033, -1.065565586090088, -0.9449883103370667, -0.7630413770675659, -0.09841160476207733, 0.11352050304412842, 0.7536662817001343, -0.2682096064090729, -0.5132470726966858, -0.05676896497607231, 0.5081368684768677, 0.036931660026311874, 0.08155050128698349, -0.008457884192466736, 0.25426214933395386, -0.2961016893386841, 0.15545839071273804, 0.21861106157302856, -0.39667433500289917, -0.34392327070236206, 0.33163854479789734, -0.030621441081166267, 0.33999142050743103, 0.3695289194583893, 0.44995054602622986, 0.5125054121017456, 0.3289720118045807, 0.01215315330773592, -0.2806355953216553, -0.5853934288024902, -0.6918918490409851, -0.05431235581636429, 0.2738655209541321, 0.47277602553367615, 0.3687625229358673, -0.07618951052427292, -0.36084434390068054, 0.27300480008125305, -0.358231782913208, 0.07108431309461594, 0.07646254450082779, -0.04844982549548149, -0.3229864537715912, -0.12310430407524109, -0.06364598125219345, -0.22025297582149506, -0.19188979268074036, 0.12765978276729584, 0.2766323387622833, 0.09160592406988144, 0.5238503217697144, 0.30617547035217285, 0.41328710317611694, 0.42156684398651123, 0.1921280324459076, -0.10446365922689438, -0.19321729242801666, 0.20329473912715912, -0.04215240851044655, 0.22156831622123718, 0.4773713946342468, 0.30166417360305786, 0.5978679656982422, 0.4505135715007782, -0.026400109753012657, 0.442687064409256, -0.17828568816184998, 0.0057750120759010315, -0.04341582581400871, 0.05208081752061844, 0.43120935559272766, -0.1542496681213379, 0.32499027252197266, -0.26816579699516296, 0.09369738399982452, -0.4309576451778412, -0.1875232607126236, -0.1486680805683136, 0.14477874338626862, -0.20071206986904144, -0.4336928427219391, 0.14910279214382172, 0.004429350607097149, -0.5743315815925598, -0.7998223900794983, 0.22000059485435486, 0.405193030834198, -0.17189177870750427, -0.35834386944770813, -0.13940295577049255, -0.02451040968298912, -0.15304633975028992, -0.2666514217853546, -0.05404835194349289, -0.05521298199892044, -0.07553641498088837, 0.025356538593769073, 0.03536155819892883, 0.06070061773061752, 0.009605702944099903, 0.08653534948825836, -0.32900938391685486, -0.09821567684412003, -0.1584872156381607, -0.2677660286426544, 0.08091993629932404, -0.034678176045417786, 0.09813936799764633, -0.06000511720776558, -0.16659866273403168, -0.3182651400566101, -1.1764121055603027, -0.9893280863761902, -0.10215319693088531, -0.6856644153594971, -0.8853759169578552, -0.5623734593391418, -0.21525831520557404, -0.5755100250244141, -0.27922603487968445, 0.4945424497127533, -0.2331937998533249, -0.039024703204631805, 0.029813118278980255, 0.028634637594223022, 0.04222031682729721, -0.054289497435092926, -0.05085306614637375, -0.25463616847991943, -0.5708290338516235, -0.07899090647697449, -0.11320477724075317, -0.3371979594230652, -0.7569780945777893, -0.5183419585227966, 0.28878647089004517, 0.24976637959480286, -0.6617574095726013, -0.916901171207428, -0.5535010099411011, -0.5810980796813965, -0.9828141331672668, -0.8604509234428406, -0.9112197756767273, -0.09406185895204544, -0.3625142574310303, -0.5203787088394165, -0.5425775051116943, 0.019801467657089233, 0.05863916128873825, 0.002702377736568451, 0.05353706330060959], [0.046304620802402496, -0.047706134617328644, -0.07607289403676987, 0.0516987219452858, 0.009582899510860443, 0.05225793272256851, -0.08223462849855423, 0.07960403710603714, 0.007273837924003601, 0.04075559228658676, -0.06014888361096382, -0.03943965956568718, 0.04765358194708824, 0.1969013661146164, 0.42933812737464905, 0.13438116014003754, 0.04692821949720383, -0.014475151896476746, -0.05220993980765343, 0.053554467856884, -0.015855006873607635, 0.06509370356798172, 0.03270633518695831, 0.045131079852581024, 0.056891463696956635, -0.03724022954702377, -0.03828023374080658, 0.01542825996875763, -0.0035603120923042297, 0.009550496935844421, -0.03568216785788536, 0.08001831918954849, -0.2845333218574524, -0.5457846522331238, -0.3518630862236023, -0.6852545738220215, -0.7180449962615967, -1.9493716955184937, -2.1397058963775635, -1.72874915599823, -1.1957950592041016, -1.3894991874694824, -0.08979970216751099, 0.4150395691394806, -0.14559036493301392, -0.7078254818916321, -1.4850159883499146, -0.304848313331604, -0.31499749422073364, -0.7366609573364258, -0.5949694514274597, -0.539712131023407, -0.05406245216727257, 0.04612571746110916, 0.02098517119884491, -0.03921496868133545, 0.04108399897813797, -0.05125850439071655, 0.04084182530641556, -0.5363891124725342, -0.2211552858352661, -1.0293693542480469, -1.1727509498596191, -1.1972357034683228, -1.705406904220581, -2.537571430206299, -0.9095242023468018, -1.094282865524292, -1.1126058101654053, -0.8378633260726929, -1.3415470123291016, -1.325319766998291, -1.2239463329315186, -0.9793363213539124, -1.3149489164352417, -3.176959276199341, -3.1733765602111816, -1.7914396524429321, -1.1652748584747314, -0.5155675411224365, -0.5276790261268616, -0.5009226202964783, -0.08337458968162537, 0.038308195769786835, 0.07827840000391006, 0.06233293563127518, 0.49484243988990784, -0.3436982035636902, -0.7300432920455933, -0.542678713798523, -0.8818677663803101, -0.6989741921424866, -0.4149862825870514, -1.2192506790161133, -1.4153773784637451, -1.2790700197219849, -0.3643166124820709, -0.35458239912986755, -0.8009263873100281, -0.6616699695587158, -1.0134429931640625, -1.3812470436096191, -0.8591560125350952, -0.3714188039302826, -0.1667460799217224, -0.7758018970489502, -0.7731258869171143, 0.16753846406936646, -0.08253081142902374, 0.0063883401453495026, -0.4693771004676819, -0.013044774532318115, 0.06443841010332108, 0.02445962280035019, 0.4257964789867401, 0.30883002281188965, -0.8570290803909302, -0.6377338767051697, -0.907960057258606, -0.9857349395751953, -1.0127713680267334, -1.318678617477417, -1.2845237255096436, -0.8450586795806885, -0.590869128704071, -0.20164425671100616, -0.19381482899188995, -0.2783897817134857, -0.5229907631874084, -0.8460658192634583, -0.6915695667266846, -0.3235621750354767, -0.271061509847641, -0.1857934147119522, -0.4427812695503235, -0.5896490216255188, -0.5829110145568848, 0.20549523830413818, 0.45423465967178345, 0.019976912066340446, -0.017402470111846924, 0.028977684676647186, -0.25620341300964355, -0.48676711320877075, -0.30747875571250916, 0.3576974868774414, 0.3286759555339813, 0.32564881443977356, -0.182827427983284, -0.5540736317634583, -1.0077301263809204, -0.7555034756660461, -0.790454626083374, -0.6872769594192505, -0.8537150025367737, -0.561866283416748, -0.2403101772069931, -0.0032474908512085676, -0.3241533935070038, -0.10025474429130554, -0.34964480996131897, -0.5857025980949402, -0.5957851409912109, -0.6432071328163147, -0.622816264629364, 0.06507167965173721, -0.9837661981582642, -0.5362986922264099, 0.048181019723415375, 0.03200574964284897, 0.4398443400859833, -0.20631518959999084, -0.04210396856069565, 0.2565079927444458, 0.26761767268180847, 0.4009649157524109, -0.1821562647819519, -0.15455493330955505, -0.19473914802074432, -0.5516225695610046, -0.30779969692230225, -0.13722921907901764, 0.22099211812019348, 0.4319509267807007, 0.5502695441246033, 0.9594119787216187, 0.4290432333946228, 0.11312614381313324, -0.09456080943346024, -0.04747342690825462, -0.31999149918556213, -0.7956305146217346, -1.147754192352295, -0.37966305017471313, -0.6821308135986328, 0.19099898636341095, -0.0024546487256884575, 0.4397627115249634, 0.5565972924232483, 0.0036873500794172287, 0.07898521423339844, 0.12777099013328552, 0.0513027086853981, -0.05658752843737602, -0.09397519379854202, -0.39384180307388306, -0.14366133511066437, -0.3134976327419281, 0.12524689733982086, 0.11541136354207993, 0.4223508834838867, 0.502592921257019, 0.63776034116745, 0.605991780757904, 0.2155262678861618, 0.2465045005083084, 0.07267510890960693, -0.011837298050522804, -0.13036096096038818, -0.4054250717163086, -0.921128511428833, -0.23523904383182526, -0.5554922223091125, 0.0025381918530911207, -0.3492310345172882, 0.28991007804870605, 0.1606661081314087, -0.16515304148197174, 0.1197388619184494, -0.23736244440078735, -0.005720286630094051, -0.18124666810035706, 0.014363202266395092, -0.24038922786712646, -0.0990050807595253, -0.4033913314342499, -0.02185160294175148, 0.42142248153686523, 0.7747217416763306, 0.6894127726554871, 0.5227839350700378, 0.2074151486158371, 0.1927425116300583, 0.1172572448849678, 0.13345091044902802, -0.06968623399734497, -0.6641273498535156, -0.14413714408874512, -0.9124769568443298, -0.750628650188446, -0.8165166974067688, -0.3583126366138458, -0.038073547184467316, 0.7486151456832886, -0.3178790807723999, 0.3664309084415436, 0.540544867515564, -0.194707453250885, -0.1680682897567749, -0.45714691281318665, -0.39590001106262207, -0.10041923820972443, -0.35195037722587585, -0.4802470803260803, 0.06296027451753616, 0.3965470790863037, 0.7843831777572632, 0.7950729131698608, 0.18051069974899292, 0.31259703636169434, -0.07786344736814499, -0.0869620069861412, -0.1889156699180603, -0.11773217469453812, -0.002113264985382557, -0.3941954970359802, 0.011692834086716175, -0.7774729132652283, -0.8135461211204529, 0.38238057494163513, -0.0735052078962326, 0.5151339173316956, 0.2725604772567749, 0.4131031334400177, -0.013807766139507294, -0.19405782222747803, -0.13189230859279633, 0.1569421887397766, -0.4523232579231262, -0.18397097289562225, -0.23127968609333038, -0.05232766643166542, 0.056111034005880356, 0.21268638968467712, 0.5605170130729675, 0.5978405475616455, 0.26819926500320435, -0.08705929666757584, -0.1268276572227478, -0.19704997539520264, -0.1316208690404892, 0.06325748562812805, 0.08522889763116837, -0.11321581155061722, -0.23491716384887695, -0.40615490078926086, -0.8537932634353638, 0.03403110057115555, 0.3478696048259735, 0.4028226137161255, 0.8815935850143433, 0.008147045969963074, 0.29260918498039246, -0.3611111640930176, -0.016250941902399063, 0.22428017854690552, -0.09766606241464615, 0.366171658039093, 0.24559424817562103, 0.2248404324054718, -0.22526219487190247, -0.052653878927230835, 0.19946758449077606, 0.14250625669956207, 0.02801014482975006, 0.07353025674819946, -0.10091013461351395, 0.15267981588840485, 0.11546239256858826, 0.036289896816015244, 0.48245930671691895, 0.35401538014411926, 0.014726626686751842, -0.605835497379303, -0.5010694265365601, -0.17187105119228363, 0.4813518226146698, -0.032774895429611206, 0.7433777451515198, -0.10649487376213074, 0.46143412590026855, 0.20738759636878967, 0.11256807297468185, 0.02904602512717247, 0.13636896014213562, 0.1101616844534874, 0.013460434973239899, -0.33739176392555237, -0.9751866459846497, -1.0669372081756592, -0.15843287110328674, 0.2599834203720093, 0.2774377763271332, 0.05103589966893196, 0.09271079301834106, 0.003134344471618533, -0.1565195769071579, -0.01991930603981018, -0.019703082740306854, 0.345906138420105, -0.24626226723194122, -0.3579731583595276, -0.29932957887649536, 0.2988497018814087, -0.28120535612106323, -0.3532739579677582, 0.8218073844909668, 0.5397517085075378, 0.46406981348991394, 0.33636966347694397, 0.3926655650138855, 0.3077121376991272, 0.28254234790802, 0.12225619703531265, 0.010382345877587795, -0.341289222240448, -0.902769923210144, -0.6200932860374451, -0.1963024139404297, -0.12559032440185547, -0.1093255802989006, 0.05354280397295952, 0.08634469658136368, 0.1676270067691803, 0.24678806960582733, 0.12687277793884277, 0.2792567014694214, 0.5556516051292419, 0.03860880061984062, -0.07431334257125854, 0.13898107409477234, 0.022200042381882668, -0.5020148158073425, -0.3649093806743622, 0.5317686200141907, 0.6495789885520935, 0.5316045880317688, 0.34272459149360657, 0.2763659954071045, 0.21225589513778687, 0.2749865651130676, 0.5309037566184998, 0.2562260031700134, -0.2301153987646103, -0.9151877164840698, -0.6420588493347168, -0.4676004648208618, -0.10680998116731644, -0.126162588596344, 0.19665759801864624, 0.20721814036369324, 0.6308456659317017, 0.3859573006629944, 0.719203531742096, 0.6416669487953186, 0.6014952659606934, 0.29315832257270813, -0.2610272169113159, 0.38466426730155945, 0.3633498251438141, 0.15226130187511444, -0.41814476251602173, -0.9560867547988892, 0.25691962242126465, -0.05655650794506073, 0.19459299743175507, 0.1469355821609497, 0.22443260252475739, 0.3797212243080139, 0.3600144684314728, 0.03351893648505211, -0.11024085432291031, -0.23827634751796722, -0.47596415877342224, -0.40127140283584595, 0.14894942939281464, 0.184225931763649, 0.2872656285762787, 0.45517435669898987, 0.3406582772731781, 0.5720031261444092, 0.5206727981567383, 0.907185971736908, 0.45322003960609436, 0.02589726448059082, 0.21841470897197723, 0.3584555387496948, -0.10446774214506149, 0.5092909932136536, 0.40422236919403076, -0.4597837030887604, -0.5936654806137085, 0.3944399952888489, 0.14687713980674744, 0.4743257761001587, 0.0999901294708252, -0.04369669035077095, 0.11722086369991302, 0.0550692081451416, -0.2593504786491394, -0.10860009491443634, -0.026285210624337196, 0.009470541030168533, 0.22465437650680542, 0.42409271001815796, 0.1648034155368805, 0.2933628559112549, 0.3498067855834961, 0.4118632972240448, 0.7933520078659058, 0.3653731346130371, 0.2454514056444168, -0.011164243333041668, -0.34831559658050537, -0.1435340791940689, 0.24521446228027344, 0.009147636592388153, 0.4274469316005707, -0.3893072307109833, -0.4285425543785095, -0.13310924172401428, 0.1731240451335907, -0.13845977187156677, -0.03615035489201546, -0.056696515530347824, -0.15364402532577515, -0.24285095930099487, -0.21998915076255798, -0.015262242406606674, 0.043060220777988434, -0.05422870069742203, 0.23643319308757782, 0.19468571245670319, 0.04958819970488548, 0.30742761492729187, 0.3059364855289459, 0.30288997292518616, 0.29922690987586975, 0.27560585737228394, -0.0010112239979207516, -0.0011853224132210016, 0.5348710417747498, 0.2901175916194916, 0.4604588449001312, 0.500033438205719, -0.017316054552793503, -0.12677925825119019, -0.4393923580646515, -0.6467328071594238, -0.4735327959060669, -0.24675309658050537, -0.28444018959999084, -0.4295293986797333, -0.6449306607246399, 0.12774118781089783, 0.20529522001743317, 0.22081458568572998, 0.17797523736953735, 0.1829543560743332, -0.004646732471883297, -0.15643210709095, -0.14070899784564972, -0.1325192004442215, -0.14214549958705902, 0.002054346725344658, -0.1377018541097641, -0.14255830645561218, -0.4103279411792755, -0.37975603342056274, 0.23729094862937927, 0.07602351158857346, 0.13143067061901093, -0.18023796379566193, 0.5183299779891968, 0.3476698696613312, -0.2801783084869385, -0.0879511907696724, -0.17941249907016754, -0.08086194843053818, -0.022441567853093147, -0.3093999922275543, -0.3283315896987915, 0.14111299812793732, 0.24967515468597412, 0.6477599740028381, 0.5311583280563354, 0.3731764853000641, -0.2991063892841339, -0.40264469385147095, -0.32733649015426636, -0.4637444317340851, -0.403035968542099, -0.32424530386924744, -0.39143815636634827, -0.6186160445213318, -0.5198343396186829, -0.07892826199531555, 0.10929226130247116, 0.02404015138745308, 0.4315730035305023, -0.043650444597005844, -0.39037153124809265, 0.1949957013130188, -0.28889933228492737, -0.7849718928337097, -0.3343147039413452, -0.568808376789093, -0.5878724455833435, -0.6202895045280457, -0.2895679473876953, -0.32608726620674133, 0.2863342761993408, 0.358731746673584, 0.47446802258491516, 0.37329018115997314, -0.33497175574302673, -0.5047532916069031, -0.8438635468482971, -0.5660640001296997, -0.7482509613037109, -0.961195170879364, -0.9783540368080139, -0.7895965576171875, -0.242478609085083, 0.4694705307483673, 0.05646026134490967, -0.20539884269237518, 0.1229141429066658, -0.20592732727527618, 0.04714985191822052, -0.09689534455537796, -0.41914477944374084, 0.17624416947364807, -0.17384909093379974, -0.7022867202758789, -1.0591719150543213, -0.7880744338035583, -0.6454175114631653, -0.45786115527153015, -0.4624316096305847, -0.15217216312885284, -0.002407964551821351, -0.15000614523887634, -0.32337087392807007, -0.41367629170417786, -0.6218797564506531, -0.6980291604995728, -0.5589617490768433, -1.01560640335083, -1.1798174381256104, -1.2441824674606323, -0.7120665907859802, 0.5389655232429504, 0.11263587325811386, -0.6683282256126404, -0.008838286623358727, -0.12419240176677704, -0.057633038610219955, -0.09100168943405151, -0.24409952759742737, 0.22317999601364136, -0.4981014132499695, -0.7064982056617737, -0.7922095060348511, -0.4252321720123291, -0.14332841336727142, -0.4638442099094391, -0.5823798775672913, -0.1206216961145401, -0.19426818192005157, -0.134887233376503, -0.0821656659245491, -0.18535292148590088, -0.13685020804405212, -0.3146619200706482, -0.4929670989513397, -0.7270355224609375, -1.2388890981674194, -0.9845904111862183, -1.1561998128890991, -0.18137013912200928, -0.22628283500671387, -0.5200246572494507, -0.017072325572371483, -0.08358275890350342, -0.04412834346294403, -0.5383533239364624, -0.2351478636264801, -0.45866626501083374, -0.4734104871749878, -0.04821065440773964, -0.1222156435251236, -0.8095031380653381, -0.16140428185462952, -0.41643479466438293, -0.5477573275566101, -0.6499051451683044, -0.21600869297981262, -0.34496328234672546, -0.3071136176586151, -0.11915996670722961, -0.2755173146724701, -0.013859476894140244, -0.5149117708206177, -0.7432700395584106, -0.8502712845802307, -0.09465916454792023, -0.2821410000324249, -0.008761616423726082, -0.6258895993232727, -0.3469116687774658, 0.07645169645547867, -0.048763927072286606, 0.017313629388809204, 0.2860199809074402, 0.45750659704208374, 0.2076636105775833, -0.09765814989805222, 0.12316392362117767, 0.012498680502176285, -0.18415428698062897, -0.4845418930053711, -0.4301174283027649, -0.8272939920425415, -0.8081862926483154, -0.44537290930747986, -0.5324205756187439, -0.18524578213691711, -0.48698753118515015, -0.11084748804569244, -0.12087790668010712, 0.08073320984840393, -0.34806767106056213, -0.12738196551799774, -0.25812357664108276, -0.42873311042785645, -0.8168718814849854, 0.4046270549297333, 0.43142005801200867, -0.02118249237537384, -0.022727705538272858, 0.02080725133419037, -0.2221672236919403, 1.0766750574111938, 0.16897828876972198, 0.20691825449466705, -0.26041603088378906, -0.022581787779927254, 0.15694335103034973, 0.1883126050233841, -0.08347517997026443, -0.3852584660053253, -0.12241271138191223, 0.021192222833633423, 0.11806759238243103, -0.24296440184116364, -0.20637542009353638, -0.3565806746482849, -0.016684046015143394, 0.3418634533882141, 0.3764524459838867, 0.337961345911026, 0.21658644080162048, -0.025236399844288826, 0.046439360827207565, 0.47160133719444275, 0.10337477922439575, -0.06558109819889069, 0.07513546198606491, 0.015840984880924225, -0.0353732630610466, 0.2976718246936798, -0.2316214144229889, 0.7730291485786438, 1.05146062374115, 0.6441298723220825, 0.7993628978729248, 0.9069036245346069, 0.31280872225761414, -0.006385770160704851, -0.060634810477495193, 0.5538000464439392, 0.8881200551986694, 0.5285030007362366, -0.18034543097019196, -0.3106437623500824, 0.5871083736419678, 0.6999250054359436, 0.14575812220573425, 0.2606971859931946, 0.1103685200214386, 0.45465898513793945, -0.40062466263771057, 0.11171839386224747, 0.06814122945070267, 0.07610056549310684, -0.05768026411533356, 0.07547471672296524, 0.03034282475709915, -0.07740536332130432, 0.22322995960712433, 0.380309134721756, 0.019194507971405983, 0.1968725174665451, 0.4205380976200104, 0.7679333090782166, 0.816989004611969, 0.10970523953437805, 0.22317327558994293, 0.9809684753417969, 1.5745891332626343, 0.4491367042064667, 0.37981951236724854, 0.8897377252578735, 0.39638495445251465, 0.9508402347564697, 0.14945794641971588, 0.0857863575220108, 0.1632082164287567, 0.5304290056228638, 0.03369027376174927, -0.05170731246471405, 0.08582476526498795, 0.028347350656986237], [-0.025333430618047714, 0.07759701460599899, 0.043262384831905365, 0.08062178641557693, -0.06640169024467468, 0.06278004497289658, -0.07571705430746078, -0.04640207439661026, 0.03666739910840988, 0.014547422528266907, -0.06602892279624939, 0.06405024975538254, 0.0263067577034235, -0.2443457543849945, -0.16767603158950806, 0.04507838934659958, 0.003787890076637268, -0.05974326282739639, 0.028370872139930725, -0.03054594248533249, 0.011419832706451416, -0.05844329670071602, -0.08552255481481552, -0.044487740844488144, -0.04372004047036171, -0.06232233718037605, -0.0796428844332695, -0.05065883323550224, -0.0080985426902771, -0.01337473839521408, -0.04613875597715378, -0.06414191424846649, -0.11375678330659866, -0.09957169741392136, -0.5765327215194702, -0.6227284073829651, -0.5646989941596985, -0.5482269525527954, -0.5450678467750549, 0.005708937533199787, -0.0223014485090971, 0.2854277491569519, 0.5497342348098755, 0.31172066926956177, 0.047166917473077774, -0.47808486223220825, -0.965678870677948, -0.9519419074058533, -0.6372084021568298, -0.45785415172576904, -0.311857670545578, -0.07661232352256775, 0.06445810943841934, -0.04071229696273804, 0.023829340934753418, 0.058097757399082184, -0.04811623692512512, 0.0012782290577888489, -0.24877507984638214, -0.53436678647995, -0.40316253900527954, -0.40400436520576477, 0.25526314973831177, -0.743144154548645, -1.2129534482955933, -1.8126509189605713, -1.3067293167114258, -0.5490618348121643, -0.723180890083313, -0.4234645366668701, -0.5013399720191956, -0.3390195965766907, -0.20442689955234528, -0.007105008698999882, 0.23016174137592316, 0.3045389950275421, -0.06379832327365875, -1.5149712562561035, -0.1744360774755478, -0.3148467540740967, -0.8267542719841003, -0.2234354019165039, 0.03877813369035721, 0.085260771214962, -0.06718599051237106, -0.018021441996097565, -0.0943935289978981, -0.6973486542701721, -0.28053349256515503, 0.15296734869480133, -0.07544993609189987, -0.061314959079027176, -0.03279469534754753, -0.18980327248573303, 0.21589936316013336, -0.25242558121681213, 0.0232801903039217, 0.28633832931518555, 0.9018679261207581, 0.8573100566864014, 0.3317122161388397, 0.21146798133850098, -0.453543484210968, -0.0014974449295550585, 0.5633351802825928, 0.4437936842441559, -0.15918254852294922, -0.1733214408159256, 0.4006180763244629, 0.1455390453338623, 0.381425142288208, -0.028720282018184662, -0.0028277933597564697, 0.0769670158624649, 0.3889874517917633, 0.10415537655353546, 0.06687706708908081, 0.44138431549072266, -0.03812301903963089, -0.060814861208200455, 0.27853184938430786, -0.008945656009018421, -0.2588266134262085, 0.022541776299476624, 0.4372822046279907, 0.2309952676296234, 0.331473708152771, 0.31912627816200256, -0.023592105135321617, 0.030557706952095032, -0.11299613863229752, -0.5863776206970215, -0.4568582773208618, -0.509023129940033, -0.22412441670894623, -0.33564430475234985, 0.3544868230819702, 0.1054229885339737, 0.6929231882095337, -0.32367396354675293, -0.033631060272455215, -0.02011892944574356, -0.5477142930030823, 0.4029858708381653, 0.1292429119348526, 0.8599550127983093, 0.6535634398460388, 0.808655858039856, 0.6758406758308411, 0.5332847833633423, 0.13811098039150238, 0.36106082797050476, 0.40021875500679016, 0.35347461700439453, -0.0640384629368782, 0.009408335201442242, 0.12191267311573029, 0.2551964819431305, -0.279753178358078, -0.3092089593410492, -0.25502869486808777, -0.36341148614883423, -0.1895168274641037, -0.72832190990448, -0.6158584356307983, 0.08086001127958298, 0.579952597618103, -0.029106417670845985, 0.06422979384660721, -0.1732623428106308, -0.04279040917754173, -0.032377250492572784, 0.059545453637838364, 0.32231172919273376, 0.29103896021842957, 0.5215373635292053, 0.7489292025566101, 0.7812880277633667, 0.7303125858306885, 0.34403252601623535, 0.10425024479627609, 0.23065927624702454, 0.26120585203170776, 0.41896188259124756, 0.6169803142547607, 0.8347530961036682, 0.3588913381099701, 0.18897320330142975, 0.30527108907699585, 0.2400774508714676, 0.04886113479733467, 0.08118624985218048, -0.2572861611843109, -0.13016386330127716, 0.6858559846878052, 0.12585394084453583, 0.07705254852771759, 0.32721835374832153, -0.4480936825275421, 0.01535941194742918, -0.19085189700126648, 0.4656258821487427, 0.21747153997421265, 0.5430406928062439, 0.6120620965957642, 0.3328001797199249, 0.13352930545806885, -0.23295040428638458, 0.3813399374485016, 0.4296998679637909, 0.5156410336494446, 0.6952255964279175, 0.972665548324585, 1.0151818990707397, 0.5812605619430542, 0.38029393553733826, 0.5298122763633728, 0.2405557781457901, -0.1330733299255371, 0.24940724670886993, -0.5386133790016174, 0.16491380333900452, 0.1984957605600357, 0.09231969714164734, -0.32673487067222595, -0.21977879106998444, 0.27011704444885254, -0.012844999320805073, 0.4736277163028717, 0.26107072830200195, -0.1097191572189331, 0.18517915904521942, 0.39788803458213806, 0.19248411059379578, -0.0021457327529788017, 0.04502656310796738, 0.29370254278182983, 0.2041608989238739, 0.5610687136650085, 0.835442066192627, 1.0101239681243896, 0.480424165725708, 0.5725390911102295, 0.3889515995979309, 0.25702714920043945, 0.17176508903503418, 0.28925493359565735, -0.18459315598011017, 0.19076605141162872, 0.06849538534879684, 0.49807825684547424, 0.49408167600631714, 0.4219524562358856, 0.9915021657943726, 0.06178552284836769, 0.07899355888366699, -0.4014134109020233, 0.11630415916442871, 0.4754142761230469, 0.24035130441188812, 0.6242356300354004, 0.5955022573471069, 0.26258429884910583, 0.09195201098918915, -0.057579752057790756, 0.09088300168514252, 0.23257920145988464, 0.3260510265827179, -0.31487250328063965, -0.11122015863656998, 0.10722962766885757, 0.1809910088777542, 0.04250660166144371, 0.15289095044136047, 0.4464234411716461, -0.3116297721862793, -0.2921980619430542, 0.38600608706474304, 0.4782344400882721, 0.23773431777954102, 0.4268989562988281, 0.6368008255958557, 0.08415751904249191, 0.6140428185462952, -0.2374054491519928, 0.22127482295036316, 0.49425292015075684, 0.6945458650588989, 0.7158296704292297, 0.24748463928699493, -0.0015139535535126925, -0.39173218607902527, -0.4437885880470276, -0.40433692932128906, -0.2807967960834503, -0.3405291438102722, -0.6685792803764343, -0.5782290101051331, -0.21080392599105835, -0.04234893620014191, -0.10502029210329056, 0.1548585742712021, -0.11759401857852936, 0.059654150158166885, -0.1350938379764557, 0.48399797081947327, -0.36555755138397217, -0.015816111117601395, 0.3419662117958069, -0.2960990071296692, 0.31004878878593445, 0.4546021819114685, 0.4571239650249481, 0.8161413669586182, 0.4361916482448578, 0.028884457424283028, -0.1842944324016571, -0.44995179772377014, -0.39171549677848816, -0.5776152610778809, -0.6255172491073608, -0.10390185564756393, 0.16741159558296204, -0.2207494080066681, -0.47804367542266846, -0.14593909680843353, -0.0333300419151783, 0.0801740288734436, 0.08911620825529099, 0.12231677770614624, 0.24149657785892487, -0.3844943642616272, -0.10518146306276321, 0.22548764944076538, -0.13400697708129883, -0.22843040525913239, 0.12278692424297333, 0.6638250946998596, 0.49552908539772034, -0.24536868929862976, 0.08578737080097198, -0.06798060983419418, -0.22215740382671356, -0.08003037422895432, -0.8232867121696472, -0.4686780869960785, -0.39541807770729065, -0.6162568926811218, -0.6286193132400513, 0.18784387409687042, 0.4464249908924103, -0.14251889288425446, -0.04331309348344803, 0.024687429890036583, 0.133380725979805, 0.3237204849720001, 0.028889764100313187, 0.07188422232866287, -0.40094107389450073, -0.14525273442268372, -0.4040471017360687, -0.3797070384025574, -0.02889769896864891, 0.429463654756546, -0.2545609772205353, 0.2140490561723709, -0.10645916312932968, -0.5480504631996155, -0.4042235016822815, -0.408300518989563, -0.622177243232727, 0.25172483921051025, -0.5443466305732727, -0.2616746127605438, -0.39492931962013245, -0.4147208333015442, -0.301942378282547, 0.09400154650211334, 0.22412073612213135, -0.056504517793655396, 0.16785669326782227, 0.09895773231983185, 0.20049089193344116, 0.12520958483219147, 0.07524888962507248, -0.0446656309068203, -0.0634545385837555, -0.37821781635284424, -0.32725849747657776, 0.2333347648382187, 0.38513198494911194, -0.007704403717070818, -0.3946067690849304, 0.5369327664375305, 0.49398353695869446, -0.8953936696052551, -0.4826143682003021, -0.5253380537033081, -0.6537061929702759, 0.029310790821909904, -0.33537814021110535, 0.1848161816596985, 0.15707720816135406, -0.12065678834915161, -0.4588930606842041, -0.18614138662815094, 0.07380361109972, 0.015682123601436615, -0.10084518790245056, -0.034151699393987656, -0.2857673466205597, 0.3699941635131836, 0.4494425058364868, 0.2714746296405792, -0.49057403206825256, 0.306987464427948, -0.24162450432777405, -0.13918234407901764, 0.058720752596855164, -0.5548730492591858, -0.13910512626171112, 0.6452407836914062, 0.033146001398563385, -0.6813435554504395, -0.3161371648311615, -0.37688860297203064, -0.2928638160228729, 0.06955638527870178, 0.14005900919437408, 0.11225000023841858, 0.08764411509037018, -0.22015564143657684, -0.37062203884124756, -0.5637670159339905, -0.49655038118362427, -0.079828642308712, -0.6701081991195679, -0.1874481588602066, 0.1653604954481125, 0.07721112668514252, 0.27505961060523987, 0.030322648584842682, -0.21728315949440002, 0.04218805581331253, -0.3123262822628021, 0.5025034546852112, 0.48720887303352356, -0.5797746181488037, 0.5284448862075806, -0.07096275687217712, 0.10870557278394699, -0.23764759302139282, 0.17968466877937317, -0.18198858201503754, -0.14669878780841827, 0.24099889397621155, 0.23231521248817444, -0.034329552203416824, -0.19343718886375427, -0.4910527765750885, -0.1390445977449417, -0.5626448392868042, -0.6162702441215515, -0.6753782629966736, -0.3776759207248688, -0.1495579332113266, 0.23858249187469482, 0.19085827469825745, 0.2612001597881317, 0.37116822600364685, -0.395365834236145, -0.4651739299297333, -0.7708899974822998, -0.23731306195259094, -0.37644025683403015, -0.07761292904615402, -0.055723682045936584, 0.08632107824087143, 0.06775572150945663, 0.6121387481689453, 0.28337469696998596, -0.13874706625938416, -0.008768049068748951, 0.21026289463043213, 0.037277866154909134, 0.054492127150297165, -0.1258980631828308, -0.6142851710319519, -0.07696470618247986, -0.4200056493282318, -0.8734796047210693, -0.7054515480995178, -0.2909950017929077, 0.2460888922214508, 0.2843070328235626, 0.2597798705101013, -0.1947617083787918, -0.15962566435337067, -0.1679370105266571, -0.295049250125885, -0.005347223021090031, 0.14316897094249725, 0.2981407344341278, 0.09877115488052368, 0.7747100591659546, 0.3470476269721985, 0.4762665927410126, 0.4089222252368927, -0.10308698564767838, 0.14135922491550446, 0.35656771063804626, 0.21870698034763336, -0.14023958146572113, 0.09103405475616455, -0.008560326881706715, -0.15218760073184967, -0.22298984229564667, -0.6399323344230652, -0.5759498476982117, -0.33099499344825745, -0.22999615967273712, 0.14743608236312866, -0.01056681852787733, 0.30936646461486816, -0.1581018716096878, 0.13077080249786377, 0.026308059692382812, -0.5518870949745178, -0.3904717266559601, 0.20714084804058075, 0.45878922939300537, -0.7038885354995728, -0.3374382555484772, -0.014629874378442764, 0.9724134206771851, 0.1811113953590393, -0.059929829090833664, 0.3744683563709259, 0.1711071878671646, -0.11699603497982025, -0.22514338791370392, -0.40564051270484924, -0.40796956419944763, -0.36073994636535645, -0.011530808173120022, -0.6886121034622192, -0.13072741031646729, -0.09871672838926315, 0.2245836853981018, 0.17932359874248505, 0.48036831617355347, 0.06635526567697525, -0.11371280252933502, -0.005493802949786186, -0.27013954520225525, -0.22035841643810272, 0.23487086594104767, -0.12443599104881287, -0.9982486367225647, -0.36123383045196533, -0.05971202626824379, 0.02825280651450157, 0.5027090311050415, -0.44224077463150024, -0.2177819460630417, 0.22494277358055115, -0.01748594269156456, -0.13927322626113892, -0.30717843770980835, -0.5652393698692322, -0.5512139201164246, -0.45495447516441345, -0.5688828825950623, -0.27596282958984375, -0.3171791136264801, 0.07183972001075745, 0.23458348214626312, 0.32479918003082275, 0.05223436653614044, 0.22486843168735504, -0.24140943586826324, 0.06752734631299973, -0.1498062163591385, -0.3803887665271759, 0.03703218325972557, -0.2895328998565674, -0.7805099487304688, -0.2488037347793579, -0.09913165867328644, -0.3510757386684418, 0.004480213392525911, -0.09863396733999252, 0.2399625927209854, -0.24514316022396088, 0.11378921568393707, 0.18340957164764404, 0.059233102947473526, -0.06987868994474411, -0.14648525416851044, -0.43028804659843445, -0.3840175271034241, -0.6545997858047485, -0.20847266912460327, -0.02009078487753868, 0.11283914744853973, 0.03743737190961838, 0.08627386391162872, 0.03565266728401184, -0.07313140481710434, -0.18684634566307068, -0.2686574161052704, -0.3437039256095886, 0.07467282563447952, -0.11027763038873672, -0.03851178660988808, 0.36618930101394653, -0.1439465433359146, -0.10498469322919846, -0.5471049547195435, 0.05546922609210014, -0.15771521627902985, 0.03682028129696846, 0.14437299966812134, -0.16147078573703766, 0.035165052860975266, -0.1401662677526474, 0.19548192620277405, -0.07856796681880951, -0.16450077295303345, 0.022708285599946976, 0.23855245113372803, -0.0562063567340374, -0.029159879311919212, 0.2092244029045105, 0.2560477554798126, -0.08277121931314468, 0.05783236771821976, -0.27530577778816223, -0.3630370497703552, -0.0697958767414093, 0.03877820819616318, 0.35664102435112, 0.3253058195114136, 0.40339207649230957, 0.06224841624498367, 0.024733327329158783, 0.06974835693836212, -0.01909184269607067, 0.08166727423667908, 0.29851090908050537, 0.43722084164619446, 0.027710802853107452, -0.20333066582679749, -0.1373879313468933, 0.2778778672218323, 0.6683531403541565, 0.4455910623073578, 0.2695601284503937, -0.07254956662654877, -0.1144750788807869, -0.2426174134016037, 0.05273721367120743, 0.3703867793083191, 0.37447452545166016, 0.08001260459423065, 0.3883991837501526, 0.02988121472299099, 0.7517309188842773, 0.3636311888694763, 0.18260955810546875, 0.23015287518501282, 0.06764542311429977, -0.044288042932748795, -0.07696296274662018, -0.3697880506515503, -0.282094806432724, 0.8942303657531738, 0.7832276821136475, 1.5379706621170044, 1.1421312093734741, 0.577934205532074, 0.5235065817832947, 0.9211189150810242, 1.0852843523025513, 1.1621280908584595, 1.092551827430725, 0.502838671207428, 0.6225993037223816, 0.3749185800552368, 0.48639699816703796, 0.45570245385169983, 0.5799236297607422, 0.36862149834632874, 0.3243211507797241, 0.4917551875114441, 0.7551072239875793, 0.3439256250858307, -0.41075751185417175, -0.4787154197692871, 0.07230498641729355, -0.015781313180923462, -0.06374327838420868, 0.2488088458776474, 0.7610194087028503, 1.5751761198043823, 1.4310754537582397, 1.1128441095352173, 1.4120781421661377, 1.3657492399215698, 1.8319746255874634, 1.477637529373169, 1.4963282346725464, 1.5985867977142334, 0.9647831916809082, 0.7099208831787109, 0.5073828101158142, 1.3910168409347534, 1.0381441116333008, 0.7717440128326416, 1.1240761280059814, 1.182370901107788, 1.3493835926055908, 0.8445538282394409, 0.3646102845668793, 0.07981687039136887, -0.49521616101264954, -0.4720662236213684, 0.0079985111951828, 0.012356162071228027, 0.005984164774417877, 0.0773729756474495, 0.1998976469039917, 0.9897398352622986, 0.890683650970459, 1.4674519300460815, 1.7845875024795532, 1.578859806060791, 1.9553335905075073, 1.433882474899292, 1.4396753311157227, 1.2774766683578491, 1.5017683506011963, 1.9802329540252686, 1.377781867980957, 1.663910150527954, 1.3298704624176025, 1.5202723741531372, 1.2402774095535278, 1.1798009872436523, 1.4225963354110718, 0.5703385472297668, 0.3685673177242279, -0.35265693068504333, 0.2417011708021164, 0.0158294215798378, -0.06942197680473328, -0.045078590512275696, -0.008293412625789642, -0.07223106920719147, 0.026971444487571716, 0.3938547670841217, 0.035112690180540085, 0.7025679349899292, 0.9602493047714233, 0.9337921142578125, 0.9051989912986755, 0.5645010471343994, 0.596609890460968, 0.5619378089904785, 0.5746228694915771, 1.1954816579818726, 0.8863136768341064, 0.6449036598205566, 0.7648685574531555, 0.6425535082817078, 0.40459901094436646, -0.05725276470184326, -0.4129377603530884, -0.4597727358341217, -0.20513015985488892, 0.06360258907079697, -0.04486607760190964, 0.02460506558418274, -0.03134545311331749], [0.04455355554819107, -0.02925146371126175, 0.038211315870285034, 0.014370471239089966, 0.06272668391466141, -0.038560256361961365, -0.045699115842580795, -0.07226234674453735, 0.01743388921022415, 0.034596435725688934, -0.040095556527376175, -0.024668075144290924, -0.19924604892730713, -0.14048872888088226, 0.043461889028549194, -0.05939970165491104, 0.025571465492248535, 0.0462837889790535, 0.002695806324481964, 0.0024068430066108704, 0.02059834450483322, 0.03242281824350357, 0.06309818476438522, -0.08249641209840775, 0.04663027077913284, 0.011729232966899872, -0.024618905037641525, 0.009640209376811981, -0.05613304674625397, -0.07781121134757996, -0.02863464131951332, -0.013252638280391693, 0.048131201416254044, -0.14608484506607056, -0.3793691098690033, -0.6541309356689453, 0.07740506529808044, -0.5955653786659241, -1.1113967895507812, -0.8662605881690979, -1.256105899810791, -0.994845449924469, -0.5364372730255127, -0.1769430935382843, -0.18942613899707794, -0.2560558319091797, -0.5275907516479492, -0.48962393403053284, -0.7124046087265015, -0.621898889541626, -0.2900620698928833, -0.24619141221046448, 0.005002520978450775, 0.0010328814387321472, -0.004070468246936798, -0.07836821675300598, -0.020881779491901398, -0.03704959899187088, 0.08601029962301254, 0.06489402800798416, 0.17402425408363342, -0.3493039906024933, -0.4366939067840576, -0.5803885459899902, 0.3452359735965729, 0.41094115376472473, 0.05619591102004051, 0.11364798992872238, 0.29090753197669983, 0.24193811416625977, 0.28662386536598206, 0.10524028539657593, 0.07663578540086746, 0.06541676819324493, 0.14908401668071747, -0.1446390002965927, 0.37599048018455505, 0.2902909517288208, -0.11580812931060791, -0.05826593562960625, 0.4931512773036957, 0.430426687002182, -0.027483444660902023, 0.08066966384649277, 0.0759003534913063, 0.08521442860364914, 0.32447952032089233, 0.11555925011634827, 0.09878461807966232, 0.3859286308288574, -0.2167252153158188, -0.25996583700180054, 0.038928065448999405, 0.18065249919891357, -0.03167109191417694, 0.37983211874961853, 0.7046676874160767, 0.6021454334259033, 0.3056793212890625, 0.3611120879650116, 0.1010669395327568, -0.032633453607559204, -0.3062194883823395, -0.5940321087837219, 0.009716799482703209, -0.24362817406654358, -0.36716464161872864, -0.5036954283714294, -0.12650102376937866, -0.2731384336948395, -0.11418384313583374, 0.028539784252643585, 0.06481871753931046, 0.05103261396288872, 0.3517952263355255, 0.39549317955970764, 0.7093991041183472, 0.0941687673330307, 0.4232528507709503, 0.1053113341331482, 0.533820629119873, 0.20519080758094788, 0.2514294385910034, 0.1801486611366272, 0.007592976558953524, -0.017421478405594826, -0.07675134390592575, 0.17298506200313568, 0.2186906933784485, 0.028605453670024872, 0.0993519276380539, -0.1905401647090912, -0.1663573682308197, -0.3322080075740814, 0.2704285979270935, -0.7461365461349487, -0.6296067833900452, -0.5865070223808289, -0.3768356442451477, -0.2662472426891327, -0.027390718460083008, -0.026440143585205078, 0.5192470550537109, 0.26703253388404846, 0.46572089195251465, -0.2738589942455292, 0.32481735944747925, -0.3294253647327423, 0.013350310735404491, 0.020278263837099075, 0.1386825144290924, 0.07757891714572906, -0.04973061382770538, -0.14249584078788757, -0.192881777882576, 0.032283686101436615, 0.09614501148462296, 0.1968250572681427, 0.12116698920726776, -0.11575969308614731, 0.06565584987401962, -0.0656694695353508, -0.22044016420841217, -0.04139237478375435, -0.4605780839920044, -0.5552319884300232, -0.18032565712928772, -0.36809825897216797, -0.030640695244073868, 0.4344872534275055, 0.5951052308082581, 0.19775818288326263, -0.26528650522232056, -0.24965247511863708, 0.2191970944404602, -0.13891349732875824, -0.11200116574764252, -0.005923477932810783, 0.43177273869514465, 0.1586674004793167, 0.13726384937763214, 0.22682027518749237, 0.2875392436981201, 0.0068270438350737095, 0.01204998604953289, -0.17829832434654236, 0.10228370875120163, 0.07889091968536377, -0.1646120548248291, -0.22934749722480774, -0.24795784056186676, -0.37439945340156555, -0.33891329169273376, -0.5615870952606201, 0.10611475259065628, 0.18806172907352448, 0.021786943078041077, 0.7356888651847839, 0.35528746247291565, 0.2467970848083496, 0.5793547630310059, 0.17580614984035492, 0.21165752410888672, 0.1671953797340393, 0.2885638475418091, 0.2508814036846161, 0.2500770390033722, 0.26549339294433594, 0.4643387198448181, 0.38647645711898804, 0.7244142889976501, 0.05885271728038788, 0.15349192917346954, 0.04643978178501129, 0.042417604476213455, 0.12493395805358887, 0.04309706762433052, -0.1409687101840973, -0.17038984596729279, 0.022387312725186348, -0.6985454559326172, -0.6714953184127808, 0.4900127649307251, 0.23604558408260345, 0.2527705430984497, 0.21399274468421936, -0.2913713753223419, 0.21977373957633972, 0.05492642894387245, 0.4487450420856476, 0.16602224111557007, -0.02807536907494068, 0.5361809730529785, 0.21443164348602295, 0.5459611415863037, 0.37457990646362305, 0.5001417398452759, 0.21955516934394836, -0.060568176209926605, 0.16853618621826172, 0.018149487674236298, -0.006957900710403919, 0.1675059050321579, -0.0854850634932518, -0.21052375435829163, -0.19149313867092133, -0.04610096290707588, -0.24156466126441956, -0.5197475552558899, -0.7813985347747803, -0.4320203959941864, 0.12024525552988052, 0.0688939169049263, 0.32700419425964355, 0.08291095495223999, 0.10715636610984802, 0.5272167325019836, 0.45625177025794983, 0.4497646689414978, 0.3828200399875641, 0.5106151700019836, 0.2070435881614685, -0.21305884420871735, -0.5192256569862366, -1.2127617597579956, -1.2677419185638428, -0.9569008350372314, -0.21179956197738647, 0.15424951910972595, 0.16743309795856476, 0.12168388068675995, -0.06331931799650192, -0.1027081087231636, -0.15135864913463593, 0.02417948469519615, -0.1278209388256073, -1.0770089626312256, -0.008926240727305412, -0.20148153603076935, 0.1637139767408371, 0.07357422262430191, -0.17012575268745422, 0.24144268035888672, 0.30260348320007324, -0.06506858021020889, 0.1658828854560852, 0.2719164192676544, -0.34031593799591064, -0.4359099268913269, -1.6528606414794922, -2.178872585296631, -2.6525039672851562, -2.2846083641052246, -1.5644453763961792, -0.9435161352157593, -0.3834174573421478, 0.2066367268562317, 0.3088603615760803, 0.24106420576572418, 0.06233927607536316, -0.01287372037768364, 0.037951622158288956, 0.05727825686335564, -0.7036176323890686, -0.39629918336868286, 0.623379647731781, -0.2787664830684662, 0.22692136466503143, -0.0069480957463383675, 0.030470462515950203, -0.36348938941955566, -0.20369955897331238, -0.8066883087158203, -1.1523661613464355, -1.3860396146774292, -2.6241860389709473, -3.457035779953003, -3.267855644226074, -2.154663324356079, -1.1471012830734253, -0.29380786418914795, -0.28159862756729126, -0.3216794729232788, -0.07930342853069305, -0.015356382355093956, 0.33184903860092163, 0.04330896586179733, 0.09290160238742828, -0.06788522005081177, -0.0011166769545525312, -0.6658143997192383, -0.5230640769004822, -0.17988282442092896, 0.15707753598690033, -0.5185185074806213, -0.1273927241563797, -0.08237799257040024, -0.48054495453834534, -0.613127589225769, -0.8950984477996826, -1.5045852661132812, -2.2322967052459717, -2.842811107635498, -2.3889808654785156, -1.3161801099777222, -0.9027648568153381, 0.04551315680146217, 0.1924075335264206, 0.33534008264541626, 0.06221024692058563, 0.07981753349304199, -0.09694624692201614, -0.017920201644301414, 0.022152317687869072, 0.20589730143547058, -0.03655572980642319, -0.2021418809890747, -0.08220618963241577, -0.6850959062576294, -0.3027043044567108, 0.25077250599861145, 0.7445389032363892, 0.3023243248462677, -0.670077919960022, -0.2504661977291107, -0.5720008015632629, -0.13350336253643036, -0.8352313041687012, -1.8110932111740112, -2.1171250343322754, -0.6877503395080566, -0.12339691817760468, 0.2764717936515808, 0.27402883768081665, 0.4167499840259552, 0.3656247556209564, 0.1792072057723999, 0.37479209899902344, 0.037321776151657104, -0.137846902012825, -0.005966599099338055, 0.17983905971050262, 0.20183081924915314, 0.2008190155029297, -0.032338473945856094, 0.27114564180374146, 0.06522315740585327, -0.11644095182418823, 0.21278394758701324, 0.41118037700653076, 0.3901625871658325, -0.6794381737709045, 0.018716134130954742, -0.31018972396850586, -0.2785669267177582, -0.5240810513496399, -0.16233086585998535, -0.22229766845703125, 0.5208284258842468, 0.31197574734687805, 0.4579457640647888, 0.38635092973709106, 0.20034103095531464, 0.35477930307388306, 0.18863600492477417, -0.012975509278476238, 0.07280438393354416, -0.0036037019453942776, -0.03470354154706001, 0.20336493849754333, -0.021840713918209076, -0.1143798977136612, -0.059646718204021454, 0.38748717308044434, -0.10095203667879105, -0.24711371958255768, 0.13145528733730316, 0.2513631284236908, 0.011491549201309681, -0.33751606941223145, -0.017885597422719002, 0.3387089967727661, -0.15041477978229523, -0.2799079418182373, -0.07014622539281845, 0.581011176109314, 0.8673549890518188, 0.2222122699022293, 0.08588703721761703, -0.028706029057502747, -0.16810980439186096, -0.05046052858233452, -0.20864900946617126, 0.1644825041294098, -0.034862928092479706, -0.0026469335425645113, 0.05817469209432602, 0.1269126981496811, -0.10877811163663864, -0.10334241390228271, 0.17989015579223633, 0.33113357424736023, -0.17132188379764557, 0.12985382974147797, 0.11048198491334915, 0.6783260107040405, 1.0048125982284546, 0.3961770534515381, 0.03128277137875557, 0.6942480802536011, 0.026852402836084366, 0.13278374075889587, -0.026131384074687958, 0.2999109923839569, 0.36011824011802673, -0.12042205780744553, -0.14368779957294464, -0.014290831051766872, -0.2742805778980255, -0.25195077061653137, -0.006068381480872631, 0.10600963234901428, -0.029390696436166763, 0.015012765303254128, 0.11810991168022156, 0.12727902829647064, 0.1275283545255661, 0.18531346321105957, 0.15760433673858643, -0.04369794577360153, -0.060149818658828735, -0.018309151753783226, 0.6905196309089661, 0.7831772565841675, 1.0949946641921997, 0.1409478485584259, -0.04730530455708504, 0.8170250654220581, 0.06204577535390854, -0.1846257746219635, -0.13294096291065216, 0.22891835868358612, 0.14007356762886047, -0.19902242720127106, -0.06952724605798721, 0.054033443331718445, -0.1364893764257431, -0.10911756753921509, -0.173007532954216, -0.12091656774282455, -0.28123652935028076, 0.07476630061864853, 0.2452095001935959, 0.14370834827423096, 0.13746483623981476, 0.06856759637594223, -0.12604276835918427, -0.1869594305753708, 0.29846635460853577, -0.23174020648002625, -0.10552710294723511, 0.09502434730529785, 0.44813913106918335, -0.025524331256747246, -0.28917840123176575, 0.6243877410888672, 0.09139331430196762, 0.7396952509880066, 0.2114853858947754, 0.16959266364574432, 0.04907504841685295, -0.20088037848472595, 0.12451542168855667, 0.2983052432537079, 0.03127557784318924, -0.33620813488960266, -0.27436402440071106, -0.18340887129306793, -0.21626169979572296, 0.03885214775800705, 0.24226954579353333, 0.2618630826473236, -0.04332564026117325, 0.04920542240142822, -0.16102461516857147, 0.08147039264440536, 0.05334339663386345, -0.5711228847503662, -0.24120959639549255, 0.004311337601393461, -0.04442707821726799, 0.6040164828300476, 0.27242201566696167, 0.22232140600681305, -0.09960634261369705, 0.688665509223938, 0.18338482081890106, 0.10680875182151794, -0.02704704739153385, 0.00607333006337285, -0.21742412447929382, -0.18256764113903046, -0.2730218768119812, -0.37127453088760376, -0.5318914651870728, -0.04862041771411896, -0.02654205821454525, 0.22528459131717682, 0.1685771644115448, 0.16614359617233276, 0.33432382345199585, 0.2771654725074768, -0.07208429276943207, 0.21098017692565918, 0.04833068698644638, -0.38841697573661804, -0.04773928225040436, -0.2727489173412323, 0.636039137840271, 0.30623915791511536, -0.04974088817834854, -0.12490728497505188, -0.2578255534172058, 0.37249305844306946, 0.3033921420574188, 0.026233891025185585, 0.06470435857772827, -0.04315582290291786, -0.020518239587545395, -0.09715992957353592, -0.1547064185142517, -0.11702203005552292, -0.13123588263988495, -0.07870642095804214, 0.19035659730434418, 0.09685948491096497, -0.24739481508731842, -0.23313555121421814, 0.3422733545303345, 0.16131682693958282, 0.38316377997398376, 0.22879986464977264, 0.11602189391851425, -0.3299536406993866, 0.084148108959198, -0.2934638559818268, 0.8782152533531189, 0.11786232888698578, 0.16604404151439667, 0.317887544631958, 0.9815173745155334, 0.3885728120803833, 0.24479170143604279, 0.023526770994067192, 0.0952342078089714, 0.10647030174732208, 0.17532534897327423, 0.1090243011713028, -0.02730110101401806, -0.284734308719635, -0.22963108122348785, -0.036937959492206573, -0.07294943183660507, -0.20459505915641785, -0.3238397538661957, -0.13586656749248505, 0.08728083968162537, -0.06611474603414536, 0.33365151286125183, -0.18343563377857208, -0.47860613465309143, 0.23583504557609558, 0.5792236328125, -0.028442731127142906, 0.0637371689081192, -0.3174648582935333, 0.027499960735440254, 0.11457925289869308, 1.0470026731491089, 0.1330975443124771, 0.0023713393602520227, 0.034229718148708344, 0.18093976378440857, -0.09918049722909927, -0.1271139681339264, 0.018911730498075485, -0.09791946411132812, -0.17805705964565277, -0.18453533947467804, -0.15528123080730438, 0.08146968483924866, 0.10919938236474991, 0.10262124985456467, -0.0695279985666275, -0.5743030309677124, -0.08145354688167572, -0.039060015231370926, 0.07103508710861206, 0.12546804547309875, 0.691754937171936, 0.5022023320198059, 0.07620566338300705, -0.18757696449756622, -0.28506016731262207, 0.07006078213453293, 0.032797299325466156, 0.8582504391670227, 0.3229791820049286, 0.18859608471393585, 0.35759681463241577, 0.12300682812929153, 0.3307076692581177, -0.02124379202723503, -0.1422177106142044, -0.1325819492340088, 0.03019273653626442, -0.0912642776966095, 0.05284171551465988, 0.1042536124587059, 0.14205563068389893, 0.09316572546958923, -0.16411375999450684, -0.1333412528038025, 0.08669104427099228, -0.2693851888179779, -0.023821288719773293, 0.1980983465909958, 0.3613852560520172, -0.4252379536628723, 0.2246803492307663, -0.011721857823431492, 0.04363437741994858, 0.015671521425247192, 0.027998924255371094, -0.13317231833934784, 0.9628365635871887, 0.05717719718813896, -0.03346645087003708, 0.10926216840744019, 0.4668938219547272, 0.24273496866226196, 0.11843807995319366, -0.2527264952659607, -0.20391571521759033, -0.19790507853031158, -0.3005434274673462, -0.2403659224510193, -0.325226366519928, 0.11238852143287659, 0.1440780907869339, 0.03850838914513588, -0.09786907583475113, -0.30667924880981445, -0.3030637800693512, 0.057313427329063416, 0.006239275448024273, 0.15157876908779144, 0.04453025758266449, -0.11423605680465698, -0.06451179832220078, -0.0026540756225585938, -0.006177932024002075, -0.23967470228672028, -0.673593282699585, 1.1078438758850098, 0.25793954730033875, 0.3030802309513092, 0.1510951966047287, -0.2865948975086212, 0.42665937542915344, 0.13923686742782593, 0.31005433201789856, 0.676798403263092, 0.16008540987968445, 0.09218311309814453, -0.03447513282299042, 0.01625324971973896, 0.19341157376766205, 0.29951512813568115, -0.13094782829284668, -0.0578172542154789, -0.6514990925788879, -0.0470842681825161, 0.3621799945831299, 0.2725854218006134, -0.06804830580949783, 0.4147108495235443, 0.0811082050204277, -0.08038422465324402, 0.04611722379922867, -0.030567537993192673, -0.31166815757751465, -0.17640075087547302, -0.1206701323390007, -0.3712318539619446, -0.16252464056015015, 0.40938082337379456, 0.23781168460845947, 0.3073219656944275, 0.18207764625549316, 0.04059824347496033, -0.2552717924118042, -0.03475993499159813, 0.597497284412384, 0.9503624439239502, 0.9704851508140564, 0.28874000906944275, -0.0019397455034777522, -0.19393806159496307, -0.3932892382144928, 0.2028181552886963, 0.1394079476594925, 0.1941787600517273, 0.034437622874975204, 0.06240234524011612, 0.05518832057714462, 0.07990262657403946, 0.006577633321285248, 0.048094190657138824, -0.08149955421686172, -0.015894979238510132, -0.014620945788919926, -0.22894828021526337, -0.06255622208118439, -0.29723936319351196, -0.6318867802619934, -0.6839162111282349, -0.6150970458984375, -1.292229175567627, -0.8796009421348572, -0.8439221978187561, -0.7592237591743469, -0.5324817299842834, -0.10754617303609848, -0.23819497227668762, -0.4006231725215912, -0.3080684244632721, -0.43716099858283997, -0.5971320271492004, 0.13874520361423492, -0.005238369107246399, -0.031023982912302017, 0.07475187629461288, -0.0018566101789474487], [-0.04238983988761902, -0.031474534422159195, 0.06968265026807785, -0.03871455416083336, 0.06566943973302841, -0.054952338337898254, 0.0789322480559349, -0.04840409755706787, 0.08102171868085861, 0.06420991569757462, 0.06646165996789932, 0.056893132627010345, -0.023240262642502785, -0.2397398203611374, -0.09816724061965942, -0.053170133382081985, -0.05855938047170639, 0.031806401908397675, -0.035964395850896835, -0.060403972864151, 0.04234922677278519, 0.0576753243803978, 0.06352045387029648, -0.07050984352827072, 0.07452014833688736, 0.040552638471126556, 0.02125663310289383, -0.02536783739924431, 0.024628855288028717, 