{"sizes": [784, 30, 20, 10, 10], "weights": [[[0.001986956864686631, 0.0020671283593660245, 0.00010488010080399662, -0.009611791008124128, -0.005687797551935882, -0.0013550247434063335, 0.00461699845829368, 0.0029933472670899894, -0.0004385373429362811, 0.009790004878958182, -0.006851296458340438, 0.006723349821967559, -0.003461676517621448, -0.004839164019305803, 0.009839477990045972, 0.016681439516529853, 0.013292980661994871, -0.01124707931928903, 0.013869160661557457, 0.009391753312863464, -0.011951039924920331, -0.0011413589619125198, -4.468840256142056e-06, -0.005023433687156515, 0.0026488668769365465, 0.0020677843736319292, 0.013090658082800124, -0.012077771330216303, -0.006820887197077136, 0.007586661072745478, 0.008173910672312015, -0.010542192235013272, -0.004299650250156707, 0.00329269667873215, 0.00717633274985338, 0.0075955176690862825, -0.0031408145122639596, 0.0006313483172323802, 0.01033869759794695, 0.03292858791431137, 0.05857778311028889, 0.02164365169793133, -0.01542351156570935, -0.020471911552671068, 0.028872964341976764, 0.02385716791831681, 0.016855108480909722, -0.009619918307575645, 0.0015043841235718833, 0.011137834649242047, 0.0017397726045703425, 0.004257804169089449, -0.008099786599349176, 0.0017020118615949946, 0.00795449218059328, -0.00425730883426451, 0.0005650058790870812, 0.008544731927161247, -0.0006010776739791905, 0.003714253720265661, 0.007269315873242748, -0.010662482138643063, 0.0035335513190933635, 0.009989946720180184, 0.01356602839972669, -0.010337455768796085, -0.0030676537197830353, 0.023239556481936204, -0.011104177418688103, -0.18264575569911892, -0.17577390136507595, -0.16152228923738715, 0.00637656940386472, 0.05610715719157277, 0.03167039489470652, -0.007943290519152312, 0.016940539047308006, 0.0031367018823800132, 0.013353680098886383, -0.0031627731864777185, -0.0010635890155004139, -0.003597582200322312, 0.0049494495182873305, -0.0009416849750543601, -0.00027457692676612734, 0.003677176536320229, 0.0020994760239469758, 0.0011755789819916792, 0.00496073400853802, -0.004308758846577161, -0.010119804314017093, 0.04464353800959656, 0.13097133333973004, 0.09833871849483573, 0.04330905404873048, 0.07235445311870643, -0.0078226362540189, -0.11161153425225462, -0.17477343197164308, -0.15561435370839954, -0.1656053187333252, 0.01995310632214357, 0.09572202851943844, 0.23656260974850657, 0.1442283223797242, -0.02104848747494651, -0.036719147940377894, 0.02114063877161654, 0.029954379996693006, 0.004820999242214121, -0.00792976698047593, 0.00046642317791543005, 0.015402035815491674, -0.006610685691873898, -0.012215040150456883, 0.003907040386135274, 0.019942451800498105, 0.005867372009595041, 0.029823560583496465, 0.06337510462327664, -0.13705556708836605, -0.08016761937173399, -0.022408442357567886, 0.15774701491423052, 0.21933600221927269, -0.19670254432116277, -0.3774625614600038, 0.01704533387716478, 0.17738667318627285, 0.2409119197120443, 0.26788516841155585, 0.27492210884659773, 0.3320552053780855, 0.10810338770753385, 0.08313148250409325, 0.10028162141040435, 0.1123549079696324, -0.0025587781294378353, 0.004814156523644101, 0.001329809048671204, 0.006137876813192138, -0.0035118793788466236, -0.0033952500630325616, -0.0017134865928012796, -0.03844811254787678, -0.08243664169496298, 0.010628961412705305, -0.013151414852009415, -0.14800454111310993, 0.08320978962726232, 0.04894784455749461, 0.40209886960339597, 0.23125227878844767, -0.13568065813749952, 0.25934034355891866, -0.27588667660787475, 0.22160933861684565, 0.5282325010215269, 0.6642048512831354, 0.4178808571767765, 0.2511575674667109, 0.157291584142293, 0.23809490793126709, 0.14916325905586614, 0.12013532234415358, 0.01631038496816666, 0.004575591157770014, 0.023665115723164497, -0.004214641476254191, 0.008588818906642325, 0.011912310503389855, 0.013705216465078206, -0.08422648785333758, 0.014034134452039779, 0.07854926251664504, 0.2898407569346141, 0.32961195734042287, 0.3072866266654528, 0.08028378900180329, 0.06520255724254177, -0.2281221153708445, 0.04334528362742527, 0.1624417719095084, -0.04613601135632679, -0.0966812660971686, 0.04478354741654846, 0.31883526826957553, 0.662775133283807, 0.3173694681462593, 0.0032937084011961104, 0.4001927016601564, 0.2932768432806438, 0.13697442949239927, 0.05321918216534288, 0.03455172932751695, 0.016154076777033066, -0.007504569090352327, 0.0007035748478788707, -0.022509623974382942, -0.049051940836185366, -0.1495583347163752, 0.2279203495838905, 0.02418518874739439, 0.1875406724965808, 0.35716665989275426, 0.2269806927135815, 0.030955661958991867, 0.13904841701296816, 0.01820292377044593, 0.34359650084881493, -0.09327251260584667, -0.5999814432463461, 0.1211235498951079, 0.3145503764372805, 0.39093127532788785, 0.4644192531947053, 0.07338589794161464, 0.013754462847200916, 0.11198787412715538, 0.16496793599314374, 0.12989872679915618, 0.016383903545812806, 0.05043601483969686, -0.0011939742094118995, -0.006606188088590921, -0.025471634328304953, -0.014527964717263427, 0.04689857718105701, -0.06832001517054276, 0.1102485348705968, -0.02741788169145045, 0.09639092236417997, -0.20338508575302508, -0.1710589804219242, -0.04298015432551173, 0.13041810680319718, 0.04117479769550965, -0.051481582072767644, -0.3992033380908186, -0.16296958064523998, 0.6637707047262766, 0.3185210431875867, 0.3251283622061363, 0.3718184218701558, -0.028338287424457632, -0.3432102668355363, 0.20566638446563518, 0.26707140394225076, 0.3357313725266511, 0.22817523865088787, 0.018940244765403395, 0.023721163095683402, -0.0073265243938783215, -0.022831760303845306, 0.03817591425332342, 0.08086260244113569, -0.1434696830714682, -0.07665462854168179, -0.004702376164105314, 0.07213759092571492, 0.03558946306707635, 0.2106970364755345, -0.01147798003397545, 0.07964700073025678, -0.04342534607751314, -0.3215838536213019, -0.2678665359608064, 0.5265265477576323, 0.8280479153245688, 0.19529306320512388, 0.18221919424887148, 0.005979861108281111, 0.1870443298110547, -0.05948460545860206, 0.06373836777873694, 0.20275654597651935, 0.3146195893031105, 0.17133072491137483, 0.007464953800410515, 0.0006407174273703627, 0.003545998960451611, -0.009824301242813067, 0.030939427305569873, 0.12119214585370612, 0.031222970068184853, 0.06046120703907617, 0.011183025875017218, -0.09093493480564448, 0.01003703119370406, 0.1125398302140309, 0.22424632218764254, -0.15212256710643127, 0.17610037909626877, -0.21464256217142694, -0.01167167488685831, 0.2914619154089924, 0.40660402970178144, 0.24271510772920288, 0.35730358090154424, -0.15827257074874312, 0.13240174695339102, 0.011941327626918729, 0.041573524274660684, 0.29371803521151474, 0.36611242623344303, 0.20207002182952977, 0.04604211406121279, -0.00045616138823533484, -0.0007531569896676315, -0.008390401513652584, -0.04060010282332542, 0.054629864793263344, -0.06276228162059305, -0.02664242250765411, -0.02968378770872019, -0.41566599609134647, -0.008802824703935206, -0.19079354878701707, -0.04411925986301448, -0.14807392924598084, 0.24567865938965938, -0.3165097490084622, -0.3051265147939168, 0.21070303353146855, 0.24849192642778983, 0.22955246764392204, 0.3921111481703072, -0.15480623814823763, -0.2832333289216026, -0.1240690887091458, -0.09908872550321658, 0.23951400839347392, 0.5200968376969807, 0.29784255993638, 0.04749665032551063, -0.00021264439968714114, -0.01275445974988808, -0.0055190253165482645, -0.036119230571187794, 0.020982731774211293, -0.17344265396047004, 0.1379437918623224, 0.10251167918663673, -0.02988858612989648, -0.22678470727352976, -0.08990672692090808, -0.0019424906784007807, -0.15453668919209718, -0.27849864611540714, -0.042157508848850216, 0.08161662189811449, -0.1338613858253553, -0.23344965006520457, -0.10472083555514186, -0.13421329933444928, -0.08251537420441618, 0.11197675168278115, -0.007853139601481663, 0.09094395128915386, 0.2575281108851865, 0.22795963274247397, 0.06869469817093377, -0.00462487397302645, -0.022815311830978936, -0.01078404667221434, -0.01639014763479115, -0.05507691907673575, -0.04420779521586143, -0.22810788987716354, -0.05627063974430503, 0.03323513400495496, -0.22440290732671392, -0.12085216806388757, -0.10466683893290718, -0.05339739955809467, 0.11149973059608521, -0.22663577273546934, 0.2009095988707199, 0.013006310438352263, 0.22228777927668023, -0.3177519911804624, -0.3494402223220602, -0.03273635724971322, -0.07985516756831115, -0.24718457740866948, -0.05312253187090035, 0.006531380356083046, 0.25313184157348234, 0.2723554793953264, 0.07588034861843619, -0.01964254525660915, -0.007475112242393922, -0.009161178094791793, -0.009055757286301763, -0.0449153415730596, -0.11361839401199096, -0.05090407975917858, -0.021947775874165413, 0.05250372620093831, 0.09995792311977707, -0.3220254264249771, -0.15588698995861014, -0.2033287895843638, 0.1311634311089784, -0.1765372378660989, 0.3780119632830174, 0.32860065906580116, 0.2145836049762495, -0.14884933971922418, 0.14715715492550094, 0.15215440247945353, -0.18888525627020988, -0.127637218396423, -0.10815364124687453, -0.1402170101214817, -0.009345899876462385, 0.3688606977881967, 0.04297136205234322, -0.013262957651812774, -0.01691928379924408, -0.0054615961447227555, -0.004863715044663106, -0.015015886985502522, -0.11153772845083235, -0.015166880974982271, 0.19996796748271492, -0.05217646634336678, 0.12180573122546817, -0.0001706036812751694, -0.08755310029791549, -0.12420126041412759, 0.02740517147344072, 0.45123901782883025, 0.2708714844145168, 0.03015578310280581, -0.11722406537561915, -0.3068686719875775, -0.18536505482608565, 0.012464393546909907, -0.23835008543164674, -0.16280505029065004, -0.14738918321143074, -0.23342018715735263, 0.10915205177339878, 0.21603669723547933, 0.01992130059138142, 0.021833751167563028, -0.007954902956688756, 0.0006655483613827427, 0.00239499868421518, 0.0001408024213413765, 0.012896202528202743, -0.0984139201681375, 0.17334518388508108, -0.43533991066742106, -0.5658752578266953, -0.25127871423965814, 0.10740946562763712, -0.30238239575138703, -0.14649811755758896, 0.4084381695012105, 0.33664955173463523, -0.19042342106176235, 0.033389011367316396, -0.2579955926696814, -0.249908346413156, -0.06848533289703433, -0.08737754131948451, -0.3067235879618602, -0.14393341538084975, -0.10373163951066157, -0.030282325778458012, 0.06090615650631143, 0.01147902285944772, 0.007658310601228277, 0.018121945650538623, 0.003467234899043651, -0.005872822554460341, -0.0017963926558706889, 0.0971422405091845, -0.14560563828742767, 0.046009045988023904, -0.22056753926882733, -0.301226535634487, 0.06595307605591347, 0.25329388416181264, -0.12818036063527033, 0.23736833439603122, 0.5727626120008613, 0.2628504162716138, -0.4770316502582747, -0.35889239810254375, -0.38880768610142813, -0.2428317142521215, -0.24731566257940835, -0.2632220061482098, 0.08411135913020286, 0.08394062351182772, -0.19925617855264488, -0.07985413630212397, 0.10164569473458504, 0.01703036006941003, 0.004454340065060867, 0.029316376008713892, 0.006691179227824365, -0.004509721273498111, -0.0075205758906333, 0.015330487001564084, -0.19762370741195026, -0.04157763892392055, 0.004877198676311709, -0.30163418562597893, 0.14455446426561727, 0.22033369652106932, 0.25799539433647073, 0.47955141918568384, 0.7343869999879166, 0.04930594115646808, -0.7245986239664461, -0.4939134987455086, -0.038907009927295046, -0.03460450649128229, 0.25516768803071943, 0.06214524447508644, 0.071968552303454, -0.017119332141416903, 0.10975466962144478, 0.0864112109732322, 0.09326149772229861, -0.02388809999733072, -0.013170544512023968, -0.05070039481303037, -0.005030613182045764, -0.005595162647070957, 0.011466721020139445, -0.015593884829068327, -0.15274884143683423, -0.13248099059446383, 0.08919738972830164, -0.07345360169523509, 0.063763212262467, 0.6085507287698342, 0.8332679879500294, 0.4242568834852092, 0.4730245436650214, -0.091342884843979, -0.6666568571337599, -0.4962042488619596, 0.11295194574251341, -0.0024305454001130647, 0.20245191405690996, -0.3675197588988262, 0.17298969828259933, 0.16579115196998065, 0.3250719539061995, -0.13491205916256047, -0.08925427872825178, -0.05520032559349017, -0.021646319396630073, -0.0323337658015888, 0.007854852347744945, -0.012076862628553859, 0.033006165015158635, 0.04921023234124637, 0.019994698109332184, 0.16496955330269297, 0.3068079530732287, 0.22190723326756842, 0.386905384579413, 0.6986187503824628, 1.031933073269316, 0.5089370705553894, 0.14803016368006555, -0.1994301500931696, -0.9360801087898577, -0.2124171303059023, -0.047490458331986875, -0.36783366285280916, -0.2122441277658701, -0.20411671930129888, 0.3061114567958664, 0.2291430463834863, 0.21051417510882947, -0.120243585750594, -0.2143663059077851, -0.03473480372959402, -0.008006658264992306, -0.002441692092527929, -0.002164655222158151, -0.004107448750909069, 0.009201677142702102, 0.026387212251362185, 0.04240751234481335, 0.18062143854977075, 0.3822324772434377, 0.5424950467901287, 0.13429845151759476, 0.41357042455505727, 0.39068123076086414, 0.14849859735765272, -0.37376140445833206, -0.45773327294347804, -0.5144410162241627, -0.22912765957883824, -0.29724411783902344, 0.02585579314861156, 0.020431798858199738, 0.05700745544073933, 0.11469402277539573, 0.18392423245021938, 0.1719674773821165, 0.009321847034832837, -0.1731916144268047, -0.0696967504711371, 0.0074707208567953215, 0.0149771903743216, 0.001211314376405189, 0.003387621253708933, 0.006627222509479323, 0.016622269748837397, -0.0023414682977658885, 0.1087455975303162, 0.2465188395123669, 0.43264655431931714, 0.004707001834361075, 0.013747125159184128, 0.29009754720001246, 0.07191600979869926, 0.054869314830878105, -0.18626374662358974, -0.23760995885510947, -0.3738690307105991, -0.20183032227668826, -0.12875142764229894, -0.1414022388839908, -0.05013592882279245, -0.10023399232829143, 0.16707082035745385, 0.09020870181837881, 0.03355885864401458, -0.0963508717683086, -0.02508068777355394, 0.002595782197527084, 0.003082185890554546, -0.005980433449451202, -0.006542988026288115, 0.008346957258470863, 0.01174987010750967, 0.024463750839284183, 0.08033094103627864, 0.24579494281435907, 0.32982109863723985, 0.515444739170087, 0.34557406684772635, 0.3797219762231406, 0.4945279787589038, -0.003984264446825849, -0.03526779134406693, 0.006194512509408692, 0.013962900675472952, 0.13093339107661428, -0.009288718764234639, -0.11438881877073762, -0.2915069487266011, 0.14922141197347638, 0.02353754319124772, 0.008673067568906808, 0.043104377052023364, 0.09534418066728999, 0.019522456470868185, 0.013340853146309504, -0.012403479631281758, -0.0006713655985195123, 0.001295314389244258, -0.004836530024601415, -0.010013419036804702, 0.009201580456452642, 0.1208208850497413, 0.36690038791591034, 0.3001502138967487, 0.20473423950566247, 0.25023521037416796, 0.1379097381871301, -0.10961228544336934, 0.33157838012165597, 0.049945037477642375, 0.0632830732140303, -0.08766430332775305, -0.11908389205308281, -0.23958562767511138, -0.14950944935418486, -0.06415881495668263, -0.07532866398368057, -0.1084223733184126, -0.054889281683840205, 0.06960918877300643, 0.05807391920156683, 0.000781820836833358, -0.005424142900328644, 0.009502957405500676, 0.010011045262449586, 0.0057511174587973665, 0.0154519701756648, 0.007354737203201524, 0.03183383386471725, 0.15860306457774967, 0.3877388024601419, 0.372633127301489, 0.2211131768322344, 0.22839166280865725, 0.2828117132479658, 0.19189930659916632, 0.24741892043601368, 0.14568076969932814, -0.13576019508157458, -0.06858986642380512, -0.0728327297227835, -0.049407285240362434, -0.18846648054157122, -0.24811824344240632, -0.18820799038349706, -0.17489748199959548, -0.11299445775396541, 0.05738006820349932, 0.05339734862017558, 0.017751529431272967, 0.0001464986619226898, -0.003653166087603486, 0.005137920942479207, -0.009228724527125334, -0.004673873650809198, 0.002378929294735292, -0.007429031304554108, 0.09424268153873354, 0.10110202479089501, -0.028741604035597848, -0.13355089327719916, -0.16936447197566465, -0.03149510700556164, 0.1113747861130561, 0.08781645576910546, 0.02234197380020317, -0.26470756026493586, -0.06563579865130634, 0.004620197077497194, -0.09098314827554045, -0.09566596683476421, 0.01741726289707047, -0.018017644924825084, -0.10869732257362368, -0.0953264287121535, -0.012253931673977373, 0.005530875237865349, 0.004682232797459003, 0.0011171600647868767, 0.005884888312133486, 0.005220828293989147, 0.0010152538551936646, 0.000449727820347273, -0.003544533743281042, 0.0055266510768866, -0.001480234210973179, 0.004766646912186883, -0.056063537577374194, -0.06267929171187352, -0.01629710058052802, -0.045059027243698306, -0.024003615259415474, 0.00503334531976515, -0.011439850320409077, -0.025398409867737615, -0.012279303338872206, -0.035968024952106194, -0.057791424998372566, -0.05454643567270122, -0.04923908084509953, -0.005046353332856979, -0.06827768068569219, -0.088880924020693, -0.007004404712449145, 0.00915182628088898, 0.000358693708167222, 0.006180318099805122, -0.0024986756553798724], [-0.012609131711429016, 0.004183008618117674, -0.0013082079455300226, 0.008408719844734288, -0.009254842871014399, 0.006842465764582556, -0.004342118723680694, 0.009054744549844692, 0.004188565822956005, -0.0038027916804923155, -0.0034360475189690164, 0.003057135996704805, 0.007430035434849604, -0.0023697439949799436, -0.0043266830405211745, -0.0032270344786543064, -0.003233868571492536, 0.00043397494962162174, 0.0045799512222351535, 0.013179492121141664, 0.0013503264245522037, 0.018287081011087027, -0.010993373685428721, -0.008740013976716827, 0.0018904512219741168, 0.0017014104315472567, -0.004036649577676422, -0.009485034073258352, 0.003911265449486041, 0.007653440800641535, -0.004682191472429203, -0.0022727209940088373, 0.011998957079392346, -0.005644028111821603, -0.008455259007388043, -0.019330900481387404, -0.012886439756784203, 0.00981846753466455, 5.4135063649168675e-05, 0.0070953543688423645, 0.00020523307653969982, -0.019622801242232885, -0.000270946387558342, -0.022886663610076494, 0.019514149009581615, -0.0019762000460770905, -0.0013457456931770943, -0.026719591657064997, -0.013319479659578354, -0.0026890383660179997, 0.0035026523797246694, 0.002846119733728347, 0.004921522515990209, -0.005435501203079203, -0.00829730720432054, -0.01208784406686718, 0.00029260671854159997, 0.0009865470341131112, 0.008290853325756867, 0.017771670752552343, -0.0023920004383099773, 0.00564087179930028, 0.014426656832527257, -0.006297322532943635, -0.012625036537162588, 0.004526866960052817, 0.03468175280349808, 0.05253271391782362, 0.032662267960147484, -0.05451730324392679, -0.07984248815304333, -0.001667139615079632, -0.011129877375388788, -0.09373239771644101, -0.10302418792170824, -0.11316387472213685, -0.07143983361649171, -0.07817890827858057, -0.020389598835978733, 0.012259780583864701, 0.042817027146792794, 0.04512120924712109, -0.0014461297773800772, -0.008986595307227055, 0.011456747874858557, 0.002355393767560655, 0.0059021862440144296, -0.005492968814910097, -0.006170114571672854, 0.0009486154396121531, -0.013236327563607366, 0.017020542030107288, 0.05367976488723064, 0.08136539660050603, -0.008261499091184355, -0.006817716180523122, 0.021648531363025608, -0.021159018694115, -0.049119891484978195, -0.003948984365099769, -0.09726161515801224, -0.288269209162247, -0.10781107327719602, -0.027401057919962876, 0.006376727262051793, -0.05425821252427838, -0.04362257193324335, -0.0358716857434772, 0.05709154841354756, 0.050671468124929814, 0.008595848360842751, -0.00963751977085961, -0.006818986425382241, 0.003679481903734888, -0.012659072687434913, 0.006743531581831381, -0.002054924488824241, 0.04526493296621955, 0.01408553589954644, 0.08405816731136807, 0.13035728555726525, -0.1791792986672058, -0.027107438129145855, 0.10921656895753826, 0.012976577613029526, -0.20710972185055695, -0.46493057329919535, -0.19916119418832862, -0.13241784517822186, -0.3119119376701408, -0.20530398100656627, -0.18231701346246676, -0.055847696392462676, 0.02198038237994506, 0.0029942658149024713, -0.015222852364165715, 0.026637125227279155, 0.05067998423863464, 0.0076139640354442205, -0.007331001102110943, 0.0043562855404812905, 0.007698768574446668, 0.0005214635606913355, 0.0003119080551831391, 0.026196170406607152, 0.09840175553419186, -0.004121413399330819, 0.13504256763794192, -0.07669254871317244, -0.3500755085619901, -0.39874771180240903, -0.3778420075342966, -0.5032507264289741, -0.21515022280819812, -0.4095180277751961, -0.2001004060923432, 0.04558502397868369, 0.003689487193334843, 0.01247450159594255, 0.11018672782920223, -0.0015146538141030807, -0.18763925392415648, -0.2500116309454744, -0.09990108551734433, -0.057093540551967054, -0.011609256182220643, -0.0037258419821917604, 0.006737555123361645, 0.0071590499729713855, 0.0070698472118980666, -0.008144497528190077, 0.03163411468528352, 0.07750959251907973, 0.0443760803120604, 0.1894242898827963, 0.07489519254713008, -0.07730007051330269, 0.24136306997603973, 0.13694689099173418, -0.45638686525996974, -0.5683176484543533, -0.4169572392019138, -0.15276077544677866, 0.10927575839040837, 0.2827752925872564, 0.13580485746556734, -0.16141332074319992, 0.054517745638870095, -0.07806193747939873, 0.006951667073950314, -0.06469519094893456, -0.2551385914731632, -0.135193516650414, -0.10755448855016246, -0.025161119798445826, 0.004992963363241595, -0.0031454625654627907, 0.020363816243780832, 0.017976809921638696, 0.07625763196862402, 0.12534577291332544, -0.04383344788954177, 0.43071920350557924, 0.32092323990840876, -0.03199724119100926, 0.18009348937789676, -0.023481332799432826, -0.2590133951923195, -0.07023324485624827, 0.3241895399714898, 0.18902920690130878, -0.23317723832568335, -0.2476775779654562, -0.08643458265539275, -0.27896917322138265, -0.15350091694737153, -0.04287550777963682, -0.19468644388545372, -0.2874412641133669, -0.17001979286358146, -0.17254109181146257, -0.2385904870912802, -0.08656208727238852, -0.002203688799969447, -0.002372060238533814, -0.004001814266433265, 0.03303712829948312, 0.03129577057550805, 0.15543627343849017, -0.027509267712101847, -0.02189425232758907, -0.006546676003828498, -0.13121811270332115, 0.04581317083886745, 0.5959226234640854, 0.7204421785134478, 0.6667449624557418, 0.6089052173561177, 0.555715003559266, -0.006566901738890851, -0.25494071620408937, -0.15169093814650716, -0.022319869441789684, 0.010715891350334114, -0.15719682519999884, -0.23330490710921678, -0.12796639237156773, -0.08696806329801533, -0.3329458985283965, -0.19531655189551997, -0.0061714087250356485, 0.018112485046975556, 0.009987318885844709, 0.007302955301511174, -0.00041206196798287216, 0.010945028408946421, 0.2501851438088182, 0.21725691808117814, 0.3874051367105362, 0.3753668475829707, 0.26354457153370453, 0.41119444834072294, 0.8513666472629323, 0.6193006237960722, 0.6985225713221511, 0.21722641093426936, 0.3212559340086159, -0.044853094896400644, -0.06490402345929798, -0.010028898455010865, -0.10434075494310148, 0.01747308101504103, 0.054404159346020664, -0.38448271007608975, -0.01930877542030997, -0.11656304915336291, -0.274223660972784, -0.05035023342262039, 0.03043971941744293, 0.04922836521640193, -0.007007042181434807, 0.009704441031526819, -0.07119799258112608, -0.007876478202041657, 0.2158784587753972, 0.5370324223490908, 0.6128650724047423, 0.5587771066120546, 0.6813109601996841, 0.38560161846175456, 0.27968855763047845, 0.5084741191193267, 0.11227731406179481, -0.09236354936824352, -0.3241213713966157, -0.21693284052537862, -0.20748624289939674, -0.20995519121204775, -0.07671517211504751, 0.19881224730618582, 0.12649981809495336, 0.02155402565499314, 0.0029060535576477834, -0.2270843730353493, -0.21889304050281033, 0.020256917507534264, 0.041862675688426935, 0.008895194663852092, -0.003388647585370614, 0.00796687307198108, -0.10293447544050795, 0.031830780322315816, 0.1820210764467443, 0.46270883913343247, 0.08367728166699095, -0.11792536175850617, 0.11115429889729053, -0.06912781194784347, -0.11316295810942881, 0.1259961319460572, -0.8704288168553566, -0.5296613081822884, -0.5401754453740989, 0.050939074923909505, -0.1985422860263128, -0.042280941732203196, -0.04825270249621728, -0.019755716595955777, 0.20225903969675701, 0.05274282631144839, -0.1513219883688732, -0.39130779377684294, -0.1899922921851841, 0.029024305821422507, -0.07929350249570312, -0.010376651007581663, -0.0065727476548833215, 0.0012620018347621418, -0.07168128407954748, -0.009421728046339416, -0.0010532548718108267, -0.04230602942725799, -0.30555102013462915, -0.516769086646958, -0.5871440601690548, -0.6988162680629648, -1.0281148964582145, -1.2004237803450215, -0.9841137610923802, -0.13117411140434793, 0.09402515438462576, 0.5213581580716738, 0.2163104403496049, 0.1306408852287948, -0.08822018745720102, -0.07785544880038787, 0.027192518359293, -0.02478226889231892, -0.3079479148843289, -0.44204622437621355, -0.18056977420968942, 0.2068328855241624, -0.023402347818085298, 0.00110621090939195, -0.0013192708875717116, -0.02243561570835518, 0.004508274116917165, 0.019210874852661826, -0.365053494964572, -0.5074160627526499, -0.5475756198965084, -0.7205016460044066, -0.9306358691143988, -0.8511375351551396, -0.6798285183346, -0.09054194649854164, -0.2042280717729569, 0.13535092006364957, 0.007721085255805193, -0.42014018235023354, 0.09619821800681491, 0.10866966529340988, -0.026758944378292977, -0.42540815688798345, -0.1374927292964246, -0.11480207108002186, -0.2332054485741189, -0.05811838256604188, 0.2224855234224461, 0.23201177864146, 0.016826830051503268, 0.0012805313105804519, -0.0115806823560141, 0.008415397619647763, 0.026532938711842147, 0.06873393979822921, -0.46074437825237946, -0.9352697028845489, -0.7400735921099599, -0.7231830405123353, -0.48034861138191914, -0.16076076322994218, 0.09392433451700956, 0.16780780491531397, 0.27089878018222, -0.028266031209178706, -0.07638802031255087, 0.10575481233774098, 0.30064356501223716, 0.27909687848494624, 0.1419998971686382, 0.1680132784250128, -0.19024190066605734, -0.21156770615699863, -0.018473534459413948, 0.07821199750039692, 0.08130208563074803, 0.21462176856044876, 0.1625940023908037, -0.0005560694449838026, -0.010600060574606348, 0.0028468899902663247, 0.0036010843526894857, -0.003038077135394175, -0.39169497000556514, -0.7264337592218746, -0.3748052968717972, -0.2582183101878715, 0.3440809307833313, 0.18672576789293074, -0.29796774934809217, -0.10932502442601108, 0.1872671816937817, 0.056857851633684266, 0.03705399453787517, 0.14196057920094893, 0.021175630191735965, 0.4518961823109139, 0.09706525852136609, 0.057129894497124835, 0.14183506583109404, 0.22637272720876667, 0.12903699577239122, 0.04966265985928845, 0.20753150743232085, 0.006852097507849913, 0.05054636531946573, 0.008250057809144902, -0.005893955264264332, 0.006010903681774433, 0.05079755525489756, 0.055607031798168984, -0.22410927371155118, -0.4359098145799159, -0.0259916754445997, 0.03844245800637397, -0.11794062517571412, 0.19127504425678227, -0.09312663516530029, -0.020568910767462423, -0.15848387128357655, 0.17396050547797753, 0.2856834331684947, 0.2420880450020441, -0.020563601958668316, 0.05869152409786798, 0.19955935039342995, 0.11644241850451671, 0.09031259594552872, -0.012775418301328306, -0.017913805402180388, 0.0076402981432025325, 0.07550649886025357, 0.10623828288107429, 0.14720849497897182, 0.025196480391802077, -0.017048989394093186, -0.004300543759710125, 0.05338148060376583, 0.1785944333408275, 0.10944605544867614, 0.014752915651980005, -0.08826803198098333, 0.24130788353714397, 0.10756701369665295, -0.212988382467666, -0.3110222579030515, 0.03586381165092196, 0.25154547646624903, 0.04041176679478754, 0.3597748868296874, 0.1347880209098423, -0.11651078308350318, -0.20546711187978633, 0.018584131921973893, 0.19840106769067561, 0.14109606075806616, 0.22795521943651945, -0.025419223103719437, -0.18464748695943148, -0.06416830764257878, 0.1651126598577911, 0.035147073216055966, 0.018139154005679586, 0.0012111550565505206, 0.0013508701688852917, 0.017274167397528854, 0.2113989871673933, 0.3787470091730846, 0.09875730405860321, 0.007289205027947084, -0.04064863761126456, 0.32700853347175346, 0.04241475274161097, 0.06499864412193988, -0.05094394702227591, -0.34485574273933844, -0.12107704824907084, 0.04574710832047937, -0.08639341504946373, -0.21318426951619165, 0.08035489376529423, 0.035632266011442086, 0.06401331490848373, -0.35471635839459564, -0.10604498683101082, -0.06901942085312572, 0.02558156335021375, 0.03175996574635418, 0.06663807885816657, 0.012476128186687816, 0.0005412615596881221, 0.002283940538842899, 0.010869149162940937, 0.017677794537507355, 0.15334404222983308, 0.2591014026187029, 0.09349712297563631, -0.003592726997912199, -0.04526228999026759, 0.06858197947837456, 0.023492906353779118, 0.1811935980999477, 0.06454015844290907, -0.08451237161150064, -0.17247842338488814, -0.043192475304561, 0.0963780477732999, 0.08141916433659911, -0.20092197781913612, 0.15329016936599218, -0.2786660342768207, -0.1772101857731037, -0.11884495505836365, 0.0030699544440774005, 0.06171654796133198, 0.10654452926637613, 0.058776243174143816, 0.026408402722745212, 0.004534988388077794, 0.0030141252103492323, 0.008249224994549052, 0.0495169758687905, 0.2880712288733959, 0.21495588279722247, 0.09223191304700624, 0.04240030348647976, 0.21602887145492533, 0.2667789112912138, -0.04666261593291259, 0.019236436096665744, 0.15707678958895407, -0.2945977184203333, -0.34617685253224856, -0.09838882334506706, 0.010028010530978184, -0.17513846879257564, -0.21584459068579118, -0.25686538458015845, -0.09688143782517576, 0.009351733155541785, -0.036621298328545576, -0.012444775053850218, 0.21079767792251636, 0.14752062292247067, -0.02261664791180793, 0.005626686258055247, -0.0026023761134816906, 0.007024679117783624, -0.0009572286650797546, 0.10067363758677857, 0.26114409569832064, 0.18786226434201167, 0.05171400448172796, -0.12375186241769827, 0.05162797610280137, -0.014467384015277175, -0.1941989482964284, -0.16289182308032266, -0.10407110122233745, 0.07284612614187715, -0.04332458500938961, -0.030412494070043847, -0.09574791096742474, 0.032838112138704904, -0.23567926603712203, -0.03190643555694775, 0.07580797142262831, 0.039679949864793375, 0.027166839675492056, 0.03358548098200319, 0.20859602747016998, 0.182705565938692, -0.0037882468519356955, -0.011870865928710467, -0.006836089102904501, -0.008195854097600666, -0.0008372144559509846, 0.02068204992424176, 0.027275326076695663, 0.15068258921452735, 0.2671669445494304, -0.09987333822186806, -0.1013992131474679, -0.02237857005987336, -0.10110735013261024, -0.2249390571014241, -0.33899336616183, -0.06297239064509763, -0.1979542385941137, -0.4172391846946486, -0.11174759140023884, -0.02557212946036107, 0.26550664060050055, 0.16563352279730828, 0.3392226606275595, 0.20870829519797796, -0.084683383514663, 0.010537666474759679, 0.0569111422336747, 0.13095294985607925, 0.06321360419548099, -0.003654544749667659, -0.011477555059778322, 0.011159372917526942, 0.003641659170125052, -0.004648618267729212, 0.007596485599055595, 0.0620502664222916, 0.1213432124454656, 0.2598254287741429, 0.07118540898221942, -0.2683447050667453, 0.039596204687909295, -0.09062068832686239, -0.051247764717048346, -0.2792673115043453, 0.0016783589701257304, -0.22515185676727556, 0.0035332721164599793, -0.04703637980967995, -0.005739252165813393, -0.10853877560967384, 0.059609438088719914, 0.04384873426613118, -0.058064493252398396, -0.02088401906514316, -0.1304473625175697, -0.0037593290517994983, -0.0029582419547864, -0.009065203074080886, -0.002003781252264363, -0.010738505163292606, 0.0027649019126244163, -0.0011408290538610173, 0.020664603633879862, 0.18543927322230197, 0.13354015000908215, 0.10911512624946303, -0.11990267659898694, -0.2600894498622983, 0.04288140313715801, -0.18743630356140484, -0.1583169714117965, -0.22259679573124674, -0.36574357074234787, -0.09749833884020102, 0.07284830177400689, -0.16112951286900787, -0.2243738541276074, -0.3958579447517585, 0.03732060649877699, 0.06349269319289574, 0.035315336400995836, 0.018704882017800115, -0.1533724016568255, -0.06844399151972455, 0.011472833900902204, -0.002643543803782979, -0.0013725115060404223, 0.007851293107821884, -0.0052865392298220085, -0.009225155461585892, 0.015521556722299322, 0.09590454830801746, 0.14747322890269976, -0.002656066324574626, -0.08679186737596334, -0.07516693656141468, -0.0131857077796518, -0.25223627704846424, -0.27384768480918165, 0.05019708212590759, -0.07853708610176334, -0.22326410860861723, 0.07110477862700224, 0.1793390039789571, 0.04902337341130364, 0.13002628424212437, 0.3042118686213414, 0.11234863056089338, 0.034984682325910926, 0.09870327300015452, -0.012331757617370976, -0.013557628895046739, -0.010495680834336824, 0.011302238394875734, -0.005180413214013444, 0.00017731470565929237, 0.0024413582601980955, 0.009839367573997606, 0.004774814713647416, 0.007646809649318092, -0.06433248591193148, -0.04336987699702632, 0.058389218979990096, 0.03189585782428585, -0.03180396163179067, -0.09357192581396283, -0.004937148017752253, -0.06900391668848195, -0.12947909022317597, -0.08292405696957396, -0.13642125026197663, 0.03262625689777124, -0.019528578084354892, 0.11958769921195833, 0.23926777858684725, 0.18382496865318987, 0.09487372668852283, 0.06271784529201749, 0.017371830617290845, -0.007843094989107652, 0.000962271902229405, -0.0006365486692504355, -0.0025494706203506084, -0.0006592037967603934, -0.009851454348309944, 0.002136593191276844, 0.017476773679315348, -0.0028280859117760073, 0.011146046626409247, -0.0019157675758761134, 0.0009263934828409794, 0.00834921349321259, -0.0006875942236387161, -0.0024070876051123158, -0.014998348017542197, -0.024146848085722372, -0.010332710476201388, -0.01357962872770504, -0.016469502601902077, -0.010948826149348605, 0.020122358644083547, 0.008716296689846331, 0.031986479373043754, 0.011708934906076636, 0.015072856585882399, 0.004428224042620036, 0.012792816514082494, -0.005903356910291113, 0.0031231856046092196, 0.004213526196810788, 0.0026335249116406743], [0.004149030577278768, -0.009353696521223719, -0.01921894919142245, -0.00862541048038515, 0.006071291169692602, -0.006033789531141554, -0.007558486497607878, 0.005291276714543528, -0.008836657124311045, 0.019736651946840378, 0.0037804249267280646, 0.01718191813879315, -0.01353679552557564, 0.007714084263134784, 0.005483150648570914, 0.00023144888302031023, -0.012382630754075185, 0.01132396760293702, -0.007833974363314901, 0.009874291204853523, 0.006114179774929349, -0.0030277749111221877, 0.0006992071299465874, 0.003794186951394426, 0.009199815198721316, -0.0010005171522832908, -0.004630705970451406, 0.012787960229807068, -0.007739538368139683, -0.018199477079115282, -0.0007884089224466579, -0.0021901472438951852, 0.0029927637193424813, -0.009974312223775494, -0.00024236489331541953, -0.000863526549481029, 0.0012036538254027128, -0.0071177235750398095, -0.0008684554324929053, -0.014692822061356232, -0.0011887021051323382, -0.011618368065404247, 0.0012199802361326304, -0.0008339210051141499, -0.0020550369437711243, 0.006928276016794059, 0.0008006180981875186, -0.013819853745236133, -0.006428750701767777, -0.007929844769930344, -0.011632381762586502, -0.002894512472797536, 0.00791132371839634, -0.009870809221060237, -0.0014314153116526645, 0.0017588022471233138, -0.00974115167580718, -0.007496349219121321, 0.0049773885973925045, 0.0024349089262729693, -0.005700762147818432, -0.0012041500604612738, 0.0005447550328756631, 0.01411238847931502, -0.001913651831813029, -0.007772839901004712, 0.00793327414841139, 0.008701861351420257, -0.00560566839625639, -0.03529795359391412, -0.048679770852271154, -0.08041093977761465, -0.029766817370215828, 0.02624590495432751, -0.0003123457255029351, -0.02509278474353057, -0.014634290566791193, -0.03757699908379666, -0.006413830695558296, 0.0028301284002739684, 0.003941738721480769, -0.007250622775265722, -0.004641165139532224, -0.0020960848131351267, 0.003982932378465696, -0.0161350542902533, -0.01194240901390353, 0.012952811001913552, -0.0009612067172357888, -0.012538226363791689, -0.004898406818331752, -0.02623622252506354, -0.059516560312049875, -0.0002967966897798121, -0.07685229678000716, -0.050388429213991684, 0.006017305434384116, -0.018069887349519875, -0.04575472547940576, 0.006006878251984869, -0.018422598010687487, -0.03264485136147624, -0.045309729331345555, -0.07988122902560016, -0.08850725908548653, -0.1471988891479256, -0.12173035379095166, -0.0647078211845962, -0.056897114452044706, 0.012671511853575236, -0.006536672181231611, -0.010537013018639406, 0.00463735205648947, -0.022446262803415343, 0.00033192662992979514, -0.009846473831033176, -0.004823444373360552, -0.008942028185107677, -0.012447461399339145, -0.03858194550066297, -0.021710725456322733, -0.08272855156339148, -0.16059402554714855, -0.1348657819460876, 0.02121758465279558, 0.15342858905882995, 0.05838619558501654, 0.10225509354627406, 0.00939524657366074, -0.14232185906988976, -0.09054457478516223, -0.1439569851370035, -0.050957745385522925, -0.06625296500589356, -0.0940187231023045, -0.065396348397504, -0.03932385531551115, 0.01244767866599879, -0.005096694375189807, -0.007933123053001203, 0.008738015353690865, 0.0021869968137183796, 0.0032123264079618402, 0.0015437393495868004, -0.02335350830080295, 0.03351880809450423, -0.00015062487339119744, -0.0007520215756133395, 0.09921451779878662, 0.01348261780182772, -0.32382852586395333, -0.26882461293910886, -0.13236159643236553, -0.10145119985430863, 0.09970795729289052, 0.16877223203239558, 0.0975582868847673, -0.290018421376478, -0.17697909334034784, -0.3089655176611122, -0.24867514358502646, -0.014516810689050558, -0.1358214732417598, -0.0576281247718203, -0.026534248746206184, -0.05456912815030209, -0.03237862705694572, -0.019449913558119408, 0.003302651371645602, 0.004325940473954377, -0.011822351534580456, -0.004521618623673037, 0.015083178654924536, 0.1728754341397761, 0.16636783711549955, -0.04651227000269496, 0.01592311781923352, 0.17675849012871914, 0.04785264084317435, -0.05280256813145987, 0.16226386101892296, -0.13706621939682412, -0.13609677033849082, -0.18340392076530207, 0.010944785542606543, 0.17787371395975937, -0.080681819057344, 0.04496012014961985, 0.03981411158271928, 0.1587910203457559, -0.17604375195345745, -0.08007258035273464, 0.11658060889939723, 0.054006775929387976, 0.12220889840657108, 0.03649919392436491, 0.0034161226678632345, 0.022129605271640502, 0.01556790993070639, 0.07471527025564767, 0.13262323985922056, -0.0031777133678413806, 0.08225829507974568, 0.010957380974947362, 0.14010495489800523, 0.07280030776607233, -0.06301354093750225, -0.13101567014714582, 0.009580132947530658, -0.13255533090192223, -0.1602730920392173, -0.3017801597253682, 0.20494034826506452, 0.28102549526197806, 0.19340713842783647, 0.033607387329982495, 0.11826266933325601, 0.2785674994645965, 0.26015044975043344, 0.14854368301801366, 0.10148687566755271, 0.10189586157008751, 0.10466979418268285, 0.017263453242563592, -0.024373600817698172, 0.01748724186578735, 0.02565137638096139, 0.058263962578702755, 0.17502353011119254, -0.07729484180888709, 0.20903528260497145, 0.28173709389407053, 0.34501597208056484, 0.05992357126114634, 0.0898752928977543, -0.20889741288786715, 0.13846444317601017, 0.00467303364820364, 0.0319831183473891, 0.17105997003286402, -0.12958184188375377, 0.02157673774033112, -0.0715318992974296, 0.05454505300595717, 0.4231106557971796, 0.05176272245478497, 0.40793372803611033, 0.2088386189908865, 0.10705914266821057, 0.13487092697034428, 0.053701490123713724, 0.031841932619542816, 0.010810765516665993, 0.007802857973100381, 0.035186832674559486, 0.014159795594346635, 0.23125357683319217, 0.33058771672221804, 0.2828960118598007, 0.26317095788053957, 0.10610442163575111, 0.10081320797709684, -0.0715305032293231, -0.24322669381538992, -0.1244201738611844, 0.12916909432506388, 0.2359415237385073, 0.02987614414923195, 0.030848974407855227, 0.10004074029696382, 0.17167188423046187, 0.02112791784801588, -0.1276686217703095, -0.04948380882488065, 0.1715293069599492, 0.007365638405112679, 0.15503346955479044, 0.11419393057978038, -0.01082919713444446, 0.010532181341092083, 0.0022701947556061104, -0.0013825611258913657, 0.056373321696891875, 0.002153580588613499, 0.10575408237258827, 0.33495343853607057, 0.1290179398849575, -0.1483550818615182, -0.0010857502397588483, 0.03154884329058409, 0.2799042905216106, -0.2321503167071659, 0.05604457777591456, 0.7135105274230655, 0.33987746290892484, 0.3297909425636291, 0.2729436556001539, 0.20294188895334425, 0.11691525848261977, 0.2904361364469052, -0.03775647572755605, 0.1870196011602562, -0.03266013414171678, -0.1758412499170721, 0.06911912336203169, 0.0818188056707471, 0.04312123727587099, 0.01020236254417035, 0.006991628115853466, 0.010160119401439469, 0.024819649706050842, 0.041640186794645324, 0.09069376973429188, 0.1740117285368624, 0.10193685357523916, 0.2279773131171473, -0.07973921274358164, 0.22069057362997366, 0.2158117833012299, -0.08426708492866963, -0.2121677490185022, -0.29297875338604695, -0.31166026990523144, 0.16576504166332368, 0.2244240713073755, 0.1891484645467602, -0.011861567912423276, 0.02540233431736923, 0.21845968183036757, 0.02970068574230016, -0.36702462055329244, -0.28230975864725466, -0.10227841094860962, 0.024613673137962755, 0.027585373101774155, 0.00688692746471882, 0.00021867012966578366, 0.013703317002900627, 0.004865624308919681, 0.0017431319255679562, 0.0354802649200313, -0.0005701623192994094, 0.08523375725063066, 0.36478941404980075, 0.31959443165255913, 0.2167112400812034, -0.047288585125776446, -0.27433178163752625, -0.3551159472809487, -0.9292913914549026, -0.365217500596831, 0.13330137457972513, -0.2190789507605452, -0.10928871942582123, -0.16295328913278004, -0.0573190611772865, -0.30176375759531016, -0.3201046753503396, -0.44198378850272874, -0.49837152158096387, -0.12840797180415808, 0.031644526997836424, 0.00258600987257191, -0.0018362230966341004, -0.005516775229541218, 0.012730696129688406, 0.04193284277198762, 0.04337108913594582, -0.18679841120223614, -0.02808975829013698, 0.030514160317605437, -0.1328744466684715, -0.07167275009245962, -0.05381991374785732, -0.1506321166511422, -0.14951154603807837, -1.0439237104950347, -0.8631915048490892, 0.2143219487226782, -0.29284205185886686, -0.22047791638398123, -0.09054557899145636, -0.3514316461924666, -0.392464627498963, -0.46313941577181356, -0.34670898687487384, -0.2816854015028718, -0.30581102152039935, -0.022668194399931677, -0.02677238019533204, 0.020985337589543518, 0.0034871450723194123, -0.00587420869971534, 0.002724699888724836, 0.07118433012387923, 0.05314622161892256, -0.12367830254727129, -0.29990009595121964, -0.4453025989782804, -0.4481723840554531, -0.5609030854338367, -0.5677749667896089, -0.5551781006318909, -0.8626947845367166, -0.8319031124345372, -0.26491685470405646, 0.23722262045334294, -0.4019006456101463, -0.10024240753085512, -0.11244328679170659, 0.011716216789999687, 0.05027628573384701, -0.3374670773076943, -0.2628278390529855, -0.03612866975312797, -0.09731716604565187, -0.15447590509356468, -0.014269204976435208, 0.024629753580620653, -0.00862184450303231, -0.0032689091407564846, -0.007183894801806799, 0.05265919890821957, 0.10210362234060481, -0.1366483846757712, -0.5758751831260771, -0.6234207975393206, -0.8400779785506813, -1.2474578009859223, -0.8665302664082369, -1.0176867536855232, -0.34169698515327285, 0.1822504360425116, 0.3500028390299887, 0.14757715979796043, -0.20712516020509034, -0.333268280819296, -0.04200391450702919, -0.010514594023275035, -0.021974614651171297, -0.050039736441710635, 0.013374426187967893, 0.0020448378855819553, -0.1374871662200633, -0.14539466248904998, -0.04965402215634942, 0.011395569328724459, 0.019525185743708807, 0.012535568752554403, 0.0027206412250301345, 0.05070184593214148, 0.07787748706288776, -0.41196847059106756, -0.8488687314995085, -0.6356075873687315, -0.5864661432499452, -0.6154607102509628, -0.20339460110332783, -0.30041262182855977, 0.005503360029996629, 0.20063280635449582, 0.47025340280611005, 0.12182960745577753, 0.08680440421436145, 0.13523543978760882, -0.035051539475600746, 0.2137303133132863, 0.19513506858151305, -0.0985818821869567, -0.024597187136273464, -0.22482791743926034, -0.057357264201284834, -0.017449422124722735, -0.05753947059658919, -0.003148421713033987, 0.0038059764099881385, -0.002892564264960569, 0.008334894019133636, 0.017930024039805627, 0.0622520026922341, -0.3310323214810256, -0.5300741829192132, -0.33849107342426776, -0.2835834394556208, -0.09629713522340141, 0.0737062919017612, 0.10695762315702659, 0.24894507323513992, 0.06359644268471037, 0.22034772064425087, 0.3026085638547271, 0.10331092244297807, -0.03284276433472401, 0.2468804987432151, 0.26402127900694794, 0.23256360150292277, 0.19018265188075256, 0.15115670557391617, -0.046349587282954574, 0.1381443223922164, 0.12047048839542279, 0.1192240768476782, 0.05323088994801353, 0.005213420511532231, 0.012600898843534948, -0.0061431314283139325, 0.019307232349098872, 0.12541613260776666, -0.17942804012413063, -0.2143463890816777, -0.030541969738414432, 0.20254327519018056, 0.17734227983126544, -0.051138071898209826, 0.06649305559378309, 0.061959046744062884, 0.12375776726480298, 0.3621138219827186, 0.276780070559657, 0.32742885125229026, -0.14081115338898312, 0.07904407748251127, 0.04618987149747781, -0.008037824214419155, -0.1441978368337237, -0.20746701151220404, -0.315827325671812, -0.00942467419865844, 0.03995390117208261, 0.08769276237012438, 0.04450641066109987, -0.00498416731907381, -0.004391338194964118, -0.0037293639267752445, -0.014254644911889894, 0.08392612781380744, -0.02360204749885994, -0.10321891309142144, 0.20171680920853355, 0.0709645012501177, 0.117558073448708, 0.02650853015358161, 0.02661733630685092, 0.16245467835193986, 0.22961857685496403, 0.5916682757423694, 0.22415498247120239, 0.2905628182954793, 0.08230853502218566, -0.2189919189848793, -0.20392647168147152, -0.2118603037396713, -0.14966545146842833, -0.2770073266533741, -0.24500692431063892, -0.11929762281816632, -0.016638482717475638, 0.016439288627281792, 0.0149325341568605, 0.004596156680517084, 0.013059359577353838, -0.002154948101377566, -0.008609647195969636, 0.10428201270405844, 0.017187780365251006, -0.033116508827314456, -0.0019740604240832795, 0.19134570549970176, 0.1863329995857825, -0.061601119573216435, 0.05241618187441569, 0.20343459922248316, 0.3647824096493087, 0.18950294819720528, -0.0048198100197092714, 0.35630187009134995, 0.055184264585961956, -0.05083772606626538, -0.25572122356415855, -0.19302100278422124, -0.10135754856301218, 0.012999911687873492, -0.06506753667538649, 0.0015865709732313677, -0.04763295877136286, -0.048660607906667756, 0.01373097557721661, 0.0056406038706997425, 0.014884335243129198, -0.0018256501574332026, 0.0204606317224142, 0.10665389759311468, 0.08818312488033019, 0.07623843117620988, -0.11406609191299268, 0.18355311868136204, 0.26756417600326726, 0.311382458724868, 0.08087704313536273, 0.04428406160629286, 0.04271203751026677, 0.0721771880665731, -0.0014614157680144448, 0.0531829283247212, 0.153018159773935, 0.08346822846715297, 0.012705472762843591, 0.071577372867023, 0.023531296194416216, 0.17924330218327766, 0.014920894325414606, 0.03480222235599928, 0.03052993869646218, 0.029188057189613374, -0.011252902051963639, 0.0066322699326052045, -0.003380948503520845, -0.00886403549268976, 0.020260390739056243, 0.02723438537530292, 0.16361763103917876, 0.18563133440725962, 0.20045074186142928, 0.31560655415328026, 0.3418034270135845, 0.4870752215483846, 0.1475791870785245, 0.10888283629347383, 0.28244498571961607, -0.18948291835406172, -0.050444172510285046, 0.31863341054578814, 0.06415609444933015, 0.34828249669545297, -0.03830987419783481, 0.06747082069614363, 0.14234708904605314, 0.07610189834238508, -0.020000048629584967, -0.048115582250116196, 0.024159615314150288, 0.019409670416892358, -0.007820761578567155, -0.021340763297902507, 6.133548259823729e-05, 0.009385848567123748, -0.008091894557179612, -0.03943069369357685, 0.022918358245220878, 0.17344184384822184, 0.20908798075692744, -0.1276820489366702, -0.2577913504526049, 0.2635804764659331, 0.02846513478183722, 0.19416681057384438, 0.15987896884955594, -0.13367619061176667, -0.026640076928906426, 0.13033217915369327, -0.0028140040229496163, 0.026022372753510728, -0.09541040807146507, -0.058381974527845576, -0.039279480420921484, -0.11139571584729642, -0.054720787575626886, -0.04974116649783287, -0.004993332973824386, 0.023096246314470138, -0.0010304551929408987, -0.012410719358362124, -0.015260558063101186, -0.0023757996591983127, 0.008998584371030072, -0.021758479198137236, 0.007458305921207701, 0.192340429651457, 0.12111763601527817, -0.19382802644178382, -0.11893710644593172, -0.12749515350371415, -0.04979734018393329, -0.02961163467340805, -0.09635586475611822, 0.09807950653923711, 0.20270444145640157, 0.04017660263898814, -0.22532747359389296, 0.3127468802048672, -0.101930846775115, -0.043269192695577115, -0.03223956536107462, -0.04219434747536286, -0.13500541688504852, -0.10074763803000716, 0.012930616295430821, 0.006192434830531175, 0.0036801017771624232, -0.0035537722222367856, -0.0020056754353530042, -0.0014233733048758163, 0.011983722975907937, 0.012438664339831308, 0.1130539795457447, 0.028380421654659115, -0.11152685105449026, -0.2817680448318392, -0.1113633201094704, -0.0875995319646511, -0.2020196839445412, -0.14967378503520376, 0.1983415804173189, 0.1366700855641578, 0.05376819136951211, 0.06016357128749596, -0.06617332552285994, 0.05228516911144064, 0.12287975992314873, -0.0145249295546379, -0.07315260352928775, -0.0323168466978338, 0.010084125593886944, -0.04831473582351267, -0.0014366627604173107, -0.019190202416547442, -0.0006717562724677387, -1.0393627899504208e-05, -0.0037643490823010685, -0.004194433654572291, -0.0012973601864435442, 0.0007691275413483703, -0.10484160618642205, -0.11096429081848223, -0.1363741890057488, -0.10664785572788404, -0.04750782802917838, -0.06564282435984273, -0.07516077818792279, 0.22849499734874174, -0.041185107923148744, -0.0952134017412205, -0.12187189748161546, -0.022885341216084095, -0.18478546922820993, -0.15790372323056495, -0.05008982158024506, 0.06339395623219755, -0.00010392316706646848, -0.008165467630372032, -0.004428539407249697, -0.02743478438645397, 0.0074861498493606835, 0.009647211200965646, -0.0012513735692170566, -0.004131911765822254, -0.004797808354529872, -0.004275532706478544, -0.0028326840414926056, 0.010843787533235123, -0.003318177511595641, -0.0037601960293983856, -0.0038508328324108622, 0.026779984140532103, 0.012255266525409078, 0.01971352560130727, 0.06710751231903896, -0.00723908923906175, -0.060923042947271, 0.024974078024121018, -0.007823728319070416, -0.10866968144023417, -0.027922132453508105, -0.0009946956327539175, -0.07382326680768671, 0.01906893817112713, -0.003266514810383897, 0.0023529965106240096, -0.012976039299731443, -0.011751661226181218, 0.00045196053806053076, 0.0052748167057307515, 0.0001638565407490418, -0.002990758931230366], [-0.005074606866145342, -0.006224934001022566, -0.0052579208407563, 0.020584909792329468, -0.01016342259719758, -0.005231250504880655, 0.0020713708382144487, -0.007325710061034941, 0.001089825335366464, 0.005779242589791874, -0.008994701992050554, -0.011173087757955766, -0.0031522179918860023, -0.0005142962806758999, -0.001910307826431215, 0.016139696235759334, 0.013778577971825018, 0.004494224043035907, -0.017689251631496095, 0.007497505230722058, -0.0064601515312511975, 0.018114842295276684, 0.007355322067960708, 0.0024102697639620052, -0.013347859390958654, -0.0034763378428846014, 0.003063909849418962, -0.006416200988274261, -0.0008016821470685972, -0.0001975245948878745, 0.005200558160719649, 0.0037773004983256346, -0.009473132313877952, -0.002304235588803901, -0.020032922293730798, -0.030597516937341147, -0.03363305286907417, -0.00585983926394974, -0.005619416867991786, -0.01520987001016141, -0.02846453585042686, -0.022822018461826854, -0.010493821578977993, -0.002447108892191756, -0.01377456940444313, -0.01171796640601887, 0.013327771613256392, -0.0260195552896284, -0.01631244607902643, 0.015553114199477256, 0.0034024898975524537, 0.007615901424975215, -0.0005650327282830865, -0.006264747521713703, -0.008835828548514418, -0.01007206117806294, 0.010592858276662925, -0.005694564610785903, -0.006922003222126151, 0.005291972663096926, 0.010594581876708014, 0.0071637033058172695, -0.011762153222570687, -0.052606983825763586, -0.06895836621018014, -0.05546008702012983, -0.10528425638776462, -0.1312934412367555, -0.12073410572662706, -0.12038447818295812, -0.11341860104471443, -0.094921902731396, -0.19355975999400657, -0.2633240451249456, -0.1810540748762287, -0.12984273571917573, -0.10905542078978363, -0.13491319849304567, -0.03701951262193721, -0.02036902930891635, 0.000505558773708015, -0.0021508894103995694, 0.008491650950008492, 0.006426370163338772, -0.001953258526496722, -0.005927109810868839, 0.012000169493541456, -0.0046681518545759115, -0.0023208583043468588, -0.03370758832566301, -0.10571008914983167, -0.17105907590122862, -0.18684541125088688, -0.1776061806296756, -0.2179193023183365, -0.17899039977858278, -0.1482131291560451, -0.27094559219668174, -0.29810421105915236, -0.3329789609479846, -0.460898470801696, -0.3288578239980046, -0.4006686634862676, -0.4718741229481261, -0.3013167159313087, -0.16972466648682552, -0.10009826972540825, -0.07058596261801255, -0.04588905789344884, 0.10626680704154873, 0.03940480751433709, -0.010737622756507246, -0.01081831317577015, 0.0064095645531203945, 0.00731885563207108, 0.0010786915600275258, 0.01734165939790094, -0.058059538044725786, -0.11873497991002555, -0.22545871173093768, -0.2699323581903252, -0.25311502185512974, -0.3019271438800824, -0.3130467079086177, -0.2822032969811865, -0.16673431410341902, -0.07349875688595621, 0.1483258690729671, -0.16624819768891597, -0.31061269421687004, -0.15267918734179375, -0.2031210373977549, -0.10628848461821136, -0.05084871638835278, -0.10229430725409976, -0.06100879413497477, 0.0600121219411875, 0.01876348227842412, -0.021374500997200268, -0.005906156812059713, 0.001257000253468665, -0.0036858982658725466, -0.020529947582255504, -0.008293218044702896, 0.003486645169777976, -0.019422183121611848, -0.12792900386178072, -0.3402979470975548, -0.18115927215165625, -0.012998285156931725, -0.20084421348123088, -0.2696947150513076, -0.1834794647806201, -0.07619001986550976, -0.005557977885435516, -0.3741998294405387, -0.7891498322284988, -0.6841600609053238, -0.29974207573774025, -0.3523835585077259, -0.24801802176054447, -0.10999521473048002, -0.1029905852479694, -0.19035721222316462, -0.06153884589767124, -0.10815013767416742, -0.03256186898683019, -0.02613072555550493, -0.004860975305044452, -0.0012308494920491146, -0.0102249091397315, 0.013879793764856372, 0.04021650406848125, 0.016981766747318865, -0.018599065660292083, 0.09622159439824088, 0.11720623110785008, 0.12103566640419493, 0.14276803654864828, 0.22555165896862123, 0.22616356338151006, 0.08885474172547564, -0.05720927460844707, -0.0036028976195206426, 0.289242796091011, 0.1360427605190389, 0.011007801766429138, 0.11911937717453115, -0.3670906755331202, 0.07527812406537311, 0.002747690731707679, -0.2662061380792282, -0.03382957671828018, -0.08143196519428161, 0.056053935940797155, 0.02667539083112207, -0.007792289288269738, -0.012521297035974044, 0.022775980570573142, 0.04774172962895444, -0.07659800519610124, -0.3198342185460714, 0.09574182640450818, 0.11416505982979167, 0.1932706493619615, 0.22384124365899216, 0.09207743605194957, 0.052839508773236295, 0.4640802252185934, 0.7539425890372721, 0.352476556197277, 0.4108846380994057, 0.6934277186957183, 0.5058303600458793, 0.17656933422089816, 0.28537929017830493, 0.34693920714341986, 0.11127402790999982, 0.036252316802796315, -0.05261192222621621, -0.22150373418733665, -0.022369839630712953, 0.026240638555912275, 0.00600241041651565, -0.011774428068572956, 0.0163293127725467, 0.014219906066431713, -0.018393210669787868, -0.16974293538612262, -0.3153942866865612, -0.04101905990837094, 0.08199739112162942, 0.1331366997669675, 0.054596194053087375, -0.19575696329330372, 0.16683443143490054, 0.2570791608801211, 0.11951596469600052, 0.30572183757447513, 0.2810242818750818, 0.19648496805916835, -0.03529905207885737, -0.09320519988590095, -0.1569210954675352, 0.08237074165752124, 0.11845005454988031, 0.07428662427412555, -0.11238850193178875, -0.05613108283644171, 0.04735756181770682, -0.02048696962815918, 0.028826654543893146, 0.012970586342373398, 0.028350024731636756, 0.03068704806457532, 0.01441374725382194, 0.11125651862130927, -0.09698077900556751, 0.14201830063685078, -0.03758620513882246, -0.05173899913046834, -0.05989064159202903, -0.006786041991920344, 0.3720836769715579, 0.018921282706576392, 0.11942555486790819, -0.00947483198670784, -0.09617635412618605, -0.07225634654327905, 0.035543349766774236, 0.055680541504750714, 0.047219798485861185, -0.04922609444663592, -0.0604435143692855, -0.12014868760278422, -0.3224937229384243, -0.08547778582404707, 0.1604873711142226, 0.03713341661136299, 0.15127541693216887, 0.010772199682654752, 0.020757396957949998, 0.05055569101108152, 0.026954802803864582, 0.019745420362253397, 0.007727223738185471, 0.30381204553407043, -0.3748421924419536, -0.2352228979090824, 0.002849290711426672, 0.014644950594247037, -0.06099206781216942, -0.4150829157250473, 0.4335899832192348, 0.27773432164661827, 0.2070824794950198, 0.506610788429337, 0.09978808158617986, 0.31814437449900734, 0.3440360242009871, 0.26560148768027464, 0.11556649859628353, 0.22498328008561197, -0.13006737054861914, 0.015116782434301142, 0.3725666282778573, 0.12358344078706777, 0.07118735869576606, -0.002044164538089001, 0.017812292024677198, 0.12492026320086973, 0.07545726647661401, 0.08142862703070831, -0.06370870009448264, 0.11288348685725735, -0.1677400146480923, 0.2076691760915468, -0.017723270907645944, -0.11641773893249725, 0.3270412775410916, -0.061514049907105545, 0.14516441953389744, 0.49996822619568887, 0.5084385882796129, 0.24700076548364513, 0.3635565403163258, 0.4946806242937777, 0.007482892465371869, 0.12605535389593428, 0.10439672216847923, 0.04412656108948844, -0.07242722288719504, -0.19422666601660496, 0.08028401863256901, 0.0019364680951928764, 0.009314057436862451, 0.009135423741683758, 0.01636134433817208, 0.05393322548051359, 0.07518847607043103, 0.1233751797664082, -0.05118347527986302, -0.057547372892415835, 0.021188048985421603, 0.32810742920151054, 0.18728740713531647, -0.29074393932257864, -0.05189109620097666, -0.0023268145942573057, 0.22239923377292495, 0.014619786605987832, 0.527924183329917, 0.35564663045987766, 0.03929114421674471, 0.2944204328341937, 0.17028386439777501, 0.09005666804394097, -0.1785817768901853, -0.13559790336683455, -0.26796957001167415, -0.2946866210875443, 0.04925423572787275, 0.08522098358764457, 0.04580577985797476, 1.531568799403162e-05, 0.0024828495498955853, 0.024121308320815528, 0.0688567672387743, 0.175790613456676, 0.05991198148456644, -0.0017168791438268527, -0.04508998131300104, -0.021711454394974714, 0.07270742786977018, 0.16823246868487693, -0.31059330787047373, -0.01311953097233481, -0.24750178191840874, -0.01465004399773118, -0.07761987528278184, 0.07315057911234542, 0.2534306934385843, 0.07689077102790774, -0.20278734885809155, -0.25898597279145663, -0.005802180111515646, -0.09465069911437789, -0.2492698136703784, -0.056252434926880965, 0.04987457311820614, -0.00800834894490378, -0.01045568410115456, 0.0010439998329844578, -0.003319186281724793, 0.028111737763353458, 0.007715523016824448, 0.16295703960143587, 0.22764756730991895, 0.01203145866034724, -0.01741718576770611, 0.04572951940580316, -0.03627046221760763, 0.07793639117379943, -0.43430590276359304, -0.41623698313422747, -0.611556742986631, -0.5649839719896403, -0.21711627819344495, -0.08165915815456953, 0.40786035211716815, 0.40083788720475577, 0.1211116957983978, 0.22397191557125312, 0.16937189384784576, 0.1887260767158357, 0.21715904560065036, 0.04718430304005175, -0.059359182952830256, -0.005077367636690266, 0.0016339145750366142, 0.00010743619823987537, 0.0012603621746768662, -0.005146181248018271, 0.0025915692464847737, 0.17298182289299946, 0.3792829636585564, 0.45710522391171204, 0.16827284301672335, -0.0797003201853377, -0.12697849223904506, -0.3185987193589282, -0.04090331121931442, -0.21745193981783478, -0.7780158160693116, -0.5314787339432073, -0.12135225082366226, -0.017248837677070736, 0.34502317048778686, 0.19344562876167531, 0.019874892551783315, -0.036916802199217134, 0.16375309748901637, 0.049531373313341266, 0.2823749122470942, 0.10836884028322796, -0.1286629569031785, -0.03073162624300075, 0.004260422051847536, -0.006003298803646656, 0.01349955691918381, -0.011235037508376006, -0.031914419911501235, 0.20982000352782537, 0.30079088529176834, 0.3271830116796808, 0.3025399430224968, 0.5495407694688417, 0.180071755757694, 0.31440106228852577, -0.0828197937629596, -0.1356944394314761, -0.5836806130567642, -0.5074113710405233, -0.3131008858761609, -0.03670198634282345, 0.17017340184655252, -0.10867118158799638, -0.16098936002345612, -0.1366613606202504, -0.16927933229423267, -0.07081433184033185, -0.05390016604350698, -0.1322039349452775, -0.20121625399286805, -0.05165294708376242, -0.00854830508219784, 0.003974527039498744, 0.015437502117704224, -0.012411536179757059, -0.06873531646533602, 0.11122526142343744, 0.3609797369841381, 0.191512226852455, 0.13557057750449406, 0.44648003781550566, 0.7158034761505503, 0.6359488186456314, 0.5007944396535756, 0.4233065077067006, -0.09651353724457053, 0.09835769294764682, 0.13125208101104396, 0.3529903827219182, 0.4628683892747869, 0.0022787614209063265, -0.26763092844661257, 0.04885983379834051, -0.17790317266856165, -0.0984103953322514, 0.07188281499618165, 0.13898362186597144, 0.03998457709972882, 0.007740467932610625, -0.006182273207105387, -0.005622555541894784, -0.003822615238638758, -0.012780420279664619, -0.1048799207433827, 0.14272020422933113, 0.33679295413012433, -0.024829677264332148, 0.12689572774814942, 0.05223047458220114, 0.004547849779501544, 0.49769119757513214, 0.6510029001356789, 0.7164722919753793, 0.3919936080513257, 0.07073160590721578, 0.2952537699801242, 0.04633192532049334, -0.11664527296646135, -0.21487742706234386, -0.29035016783763085, 0.2500594319159349, -0.16149627807779393, -0.11511665970769876, -0.059510814226642894, -0.004814020553312157, 0.016571562751506213, 0.05030197189010506, 0.00799484978805244, -0.020884270403986566, 0.008043526677066844, -0.015457424285281504, -0.15415587292552876, 0.07854038448311683, -0.03268430927807039, -0.18526038938777917, -0.16561916801554222, -0.1357088874685014, -0.4391146123748926, -0.5413426858116286, -0.06378172352752012, 0.3051889747121224, 0.24706519704720176, 0.14789305855409413, -0.18249165693257277, -0.5768054682600448, -0.5053652403654741, -0.34850434239776096, -0.057990411582533236, 0.0693685802836362, -0.17250570203289636, -0.25260692641326765, -0.19833444605562903, 0.00716271864718502, -0.018903630836621055, -0.007478602995430711, 0.0004642005484207374, -0.007305464726242712, -0.011995012174635306, -0.03969691074173958, -0.18483756358789874, -0.048657521092469735, -0.10349808095420993, -0.37597908713708944, -0.662063218691949, -0.19927507185136506, -0.1044737923430097, -0.3187193794868247, -0.506735969175191, -0.37951178425922527, -0.12948136447927946, -0.3367649630406547, -0.40172491784716374, -0.32712642792329166, -0.1446659438553393, -0.5428529182512938, -0.10166148557897917, -0.16192368149702774, -0.37638361551673555, -0.4228347060128226, -0.1361694145869634, 0.09301289828610451, 0.0046570039362751545, 0.003603432484736217, -0.006718253286387857, -0.0012722910726925434, 0.021626804336786893, -0.05080423015392478, -0.19022701824498553, -0.021958694283066498, -0.028494887879002995, -0.4220503001371029, -0.6725182543498304, -0.4813123159377768, -0.3117027599222884, -0.2830912923046502, -0.562673661204245, -0.1877863233728797, -0.4627537870184161, -0.7460520047219221, -0.3974396378921641, -0.12776858425398185, -0.4151964816632086, -0.31886918155333827, -0.08920047616049567, -0.10868906333244832, -0.3095888466005801, -0.1724813959304355, -0.007064670561972261, 0.0019044188053243722, -0.00527462151975425, 0.007908678652732835, -0.0071790330592186495, 0.016082035744618046, 0.012622422710984623, -0.037913378186529866, -0.1233143691968946, 0.05850593762054035, -0.17481308920558714, -0.16943854584164267, -0.31748951596066194, -0.39801224722015766, -0.22166342247548843, -0.1937907206506161, -0.15207915285324985, 0.2528206876579482, -0.3582503277626778, -0.17956918774415942, -0.17328982677431223, -0.1655301837561902, -0.3282755883570955, -0.36275811009284287, -0.10173027155678475, -0.14268899790635575, -0.06728362998804002, 0.09607540048123517, 0.06705340473387465, -0.005886948142247668, -0.019206111652737706, -0.008196316906364133, 0.014459133883278151, 0.0006647134549327361, 0.021035957906803942, -0.021405853454395198, -0.08442511241877308, 0.028311010483024757, 0.05566882052889983, 0.10837474839480687, 0.07690397713167847, -0.14640797821647988, -0.34548983271864037, -0.10965203013889284, -0.17078778118926122, -0.38796296776506306, -0.5615664457610978, -0.20503269030649007, -0.3139096440962929, -0.23356524043337232, -0.36415338601890623, -0.4096265803927451, -0.11190253530520529, -0.14286167678423975, 0.03625963700179792, 0.00858341384907736, -0.018176494943736948, -0.041045488508759345, -0.037733788579865736, -0.002072326069299257, -0.002802863051139858, 0.0019226617750002244, 0.0012002565219438326, -0.002394107819304201, -0.01817581803997811, 0.05766792951386141, 0.2410455942166103, 0.0866930076418646, -0.11774656575342078, -0.2479195615594757, -0.48131540244480786, -0.39771855695035596, -0.18068354612290655, -0.6545587469970172, -0.4419765758242103, -0.20416766921301707, -0.046497333828869454, -0.30332201312985446, 0.01620327272897115, -0.01646012682389881, 0.09616555674543514, 0.2345512078443708, 0.1714162098046879, 0.10625008437936473, 0.058404149316108385, -0.01631539495693287, -0.011524468237211725, -0.009971097111658086, 0.004545179542525316, -0.015412889610968651, -0.004324301587003382, -0.004463811481482349, 0.0023809106509292376, 0.11957698304883586, 0.14866033760165767, 0.006182154071204562, 0.013243130827742871, -0.07713614331747425, -0.12794074107540188, 0.08185759879451573, 0.11169948458249149, -0.14854239454882293, -0.1125586610785639, 0.06716992315012475, 0.2890855154998428, 0.38709397209402746, 0.11201601712685082, 0.1327136966404917, 0.19928395719315598, 0.1508123398598748, 0.125699744430063, 0.052282895104257786, -0.006067139626764475, 0.003926514986417624, 0.008496600545813205, -0.005757758747202012, 0.018365953814153464, 0.010433317371817399, -0.0005022339571518643, 0.0026758317651398448, 0.004180248848425797, -0.04425049981351307, -0.027754176333161545, 0.017066835535426143, 0.10116945564656006, 0.1331892566820758, 0.17595547759894453, 0.11597200879946648, 0.15035627043889024, 0.38089139953225926, 0.41847308383947424, 0.49284203520360925, 0.23624862949907952, 0.19217566844866565, 0.1242143473239021, 0.022352001986789674, 0.12209381580333611, 0.09244272351266888, 0.06676002600972948, 0.026158077191408804, 0.030180546613860597, 0.008274247362257226, 0.007551669788450256, 0.0013247143092402856, 0.010921165868938073, -0.0007013426933247972, 0.015551553192973234, 0.0023023274799768697, 0.004422792711212188, 0.0068480286700352555, -0.013062905111168182, 0.004540009492652168, 0.02595812144886654, -0.0004327476269583965, -0.007469152539125007, 0.0992065583763426, 0.023435298172220318, -0.03696636016764999, -0.01010182994013759, 0.026755612079338333, -0.004496247210460434, 0.01191461803863056, -0.0028912676175727177, 0.0007403473237613591, 0.032075564611968914, 0.0030804303891460165, 0.0013836467218625082, 0.008138289297661649, 0.00810801635307094, 0.006641529813969807, -0.014241641189382556, 0.010656884336952001, 0.0042470811131971155], [0.008336111163168427, -0.006353311592103482, -0.008427966134990307, -0.00800024915722751, 0.0005823959191833466, 0.0025170674103308544, 0.0059701793546473704, 0.00013344712918681408, 0.000694168478881706, 0.00461481788772941, 0.00435899631596993, -0.003046933160663077, 0.0020466229462313217, -0.0029219410960209867, -0.0005088341782548359, -0.0025371094891341534, -0.005272774502418097, -0.005420419895106257, 0.009600559343509027, -0.0016068612161043313, 0.005903286748531089, 0.004244765929146094, 0.006413170257817151, 0.0010292346893598116, 0.004667162198529308, 0.005689055440462892, 0.0037222652196628775, -0.02396884720989837, -0.008904913422568701, -0.002827194988515639, 0.007510097110144419, -0.000522367139351911, -0.020912858574308957, -0.0027683623878835724, 0.00927980625091015, 0.03816853642359294, 0.032971793370977005, 0.008229216896478698, 0.008390491340862505, 0.03957381817669597, 0.040350765568571714, 0.037288804928453094, 0.00546692704883391, 0.020665714075599195, 0.0661500508633642, 0.03857745056509884, 0.008559440891038694, 0.08141746165488158, 0.07082986648273804, 0.028615051427558866, 0.005517745417628228, 0.012236005188820422, -0.0046448676045096875, 0.01025547608545814, 0.012484254365186215, -0.005738335115112561, -0.0014442337670228843, -0.003394808270667592, -0.011923614254459872, -0.011312137552240342, 0.0024798027701605036, -0.0062541232550621705, 0.03602398366245396, 0.0713430163195827, 0.09662377136346656, 0.03540891956165777, 0.09041571423440797, 0.18478925308455893, 0.25359428131929523, 0.16199904647781202, 0.27102913210337654, 0.12485753629145585, 0.09298378135406339, 0.2432275076874485, 0.17208499508569794, 0.14891880471855753, 0.09453337156331652, 0.15106469875733727, 0.07281838653220625, 0.04835164648911723, 0.008929679617360646, -0.007129770732328111, 0.0007485787232691998, -0.0017500534386688702, 0.0024345464522881203, 0.0039283329605061855, 0.009380568411696974, 9.713514133047214e-05, 0.006793198971166132, 0.002374396638386053, 0.10722172560655518, 0.15392373948419852, 0.04823114053871788, 0.014457413141666018, 0.06531721032891019, 0.2643017824223764, 0.18937945705635634, 0.3293768221131497, 0.3012272933385305, 0.02943041536020205, 0.14350490932527138, 0.28146476162066003, 0.12681435872277178, 0.3721106078481174, 0.4313452290490338, 0.3178418027250589, 0.07668570020196065, -0.02069363032696934, -0.06760279320989424, -0.022806681863807094, 0.009689970069432677, 0.0005569416744521837, -0.008497183853345552, 0.01658420190593554, 0.001720081729926586, 0.010028597861258934, 0.019807321023083396, -0.057693749857967304, 0.027295546763558824, 0.01447365497743192, -0.2178945560452069, -0.194082288149777, -0.09697648462596113, -0.21604115782786878, -0.24220436984386412, 0.02630390102774286, 0.10241074667132609, -0.1030949212708868, 0.2564352688744754, 0.052625900833604355, 0.002063660536301247, 0.43698219116832154, 0.2192043561402334, 0.05446792140510775, -0.15188334850341131, -0.12122646891485729, -0.09459225263730636, -0.0194197725941927, 0.008580957893237571, 0.00015166701750392577, -0.012144126893999243, 0.004843086209186198, 0.004114042923025013, -0.022458628003205156, 0.0928001489325622, -0.09740480005330403, -0.08283569527427126, -0.21708460475930952, -0.19263523048450756, -0.08514078994490082, -0.17853424210539048, -0.3925435824853344, -0.23200830359671454, -0.22380941598885856, -0.2530973980371631, -0.1600550731057418, 0.26861936145598553, 0.04125976435965752, 0.007459281617587737, 0.07671871596636602, -0.08358011739535409, -0.1513191341880125, -0.23056699542016523, -0.19692681527472775, -0.23236516061342413, -0.08326274012062569, -0.00741159773498994, 0.003012435324516138, -0.010637753059700569, 0.005866076372080972, -0.011546117314313016, -0.06557303419641367, 0.11494110982335676, -0.0240025817482717, -0.1447098842227078, -0.3729246407510551, -0.2578171803850105, -0.16261366586142065, -0.26271744557701693, 0.4274158701442524, 0.028121220336649794, 0.39487647602888365, 0.07768399508156024, -0.016450238229605032, -0.07009559171190667, -0.41882183853741667, -0.416133069274469, -0.22782435286938785, -0.36825201773930627, -0.43224725297140243, -0.30303723765176216, -0.2877185825574868, -0.18484461357134246, -0.0686653563302907, 0.014723324818297615, -0.005450434702515592, -0.006419525536686325, 0.01364458330504888, 0.009303718744299532, -0.1280903555418691, 0.15069208889463656, 0.005496497748954584, -0.1415268765014852, -0.18893401246758548, -0.20663905726025975, -0.13698476596555775, 0.12900294871996945, -0.04279379227225939, -0.19822628343289941, 0.08333545589150393, 0.14451145776443675, -0.14150532077106323, -0.39732248135270143, -0.4252968285066892, -0.21765890034975635, -0.5779991565968381, -0.7059504576749068, -0.6102297623916814, -0.529255173793453, -0.3442140782616101, -0.08613922716385931, -0.05604646303695631, -0.016024792584482195, 0.010276148883399325, -0.008350723464335168, 0.03139372960975207, 0.03223475658473217, -0.04364698581470894, 0.31573027211065263, 0.018064148535219107, -0.07864929157741582, -0.10807928341056329, -0.2993538549693437, -0.24465228440287745, -0.1971767492429892, -0.5676541309799154, -0.11062589693847436, -0.17515269684364315, -0.4075614347693813, -0.3798087839997868, -0.6564774546092976, -0.3192502783947366, -0.6068344865929799, -0.39883017445041047, -0.23786463579945416, -0.41175974844083235, -0.4543181322527794, -0.36131981211100944, -0.16191946698496618, -0.2107895691903301, -0.13934178115648108, -0.03966951609888495, -0.019358400294436855, 0.05086289273067228, 0.062116442804706615, 0.03481781913011091, 0.3035628457283926, -0.034198015450270534, -0.15094327364750784, -0.16436135585116435, -0.1563669207483446, -0.2785902027704136, -0.3450030734247459, 0.015302809840850234, 0.1803834922534416, -0.11304580373300506, -0.09280004975762068, -0.3425915531837035, -0.5631903803216828, -0.4679886884007169, -0.41857105551141094, -0.2145780991097096, -0.15865037056631992, -0.14272714484847732, -0.24498016746138745, -0.11697504819833629, -0.11067447976655038, -0.21606423580730627, -0.06812663558069504, 0.04868773774356185, 0.0028010827810386963, 0.04310143191951697, 0.06905063366093013, 0.09773277834268845, 0.11015383457330431, 0.1425288060860909, -0.14103870082453834, -0.23335105497350728, -0.1774332889412732, 0.018891223642303025, -0.14851253012503263, -0.12513102225754566, -0.01990235849733892, 0.2681695390505218, 0.13804670775519012, -0.26424490381133486, -0.30871611198602933, -0.06339094540798329, -0.21723567723103798, -0.08586580671202157, -0.3726860542959715, 0.07235274706847314, 0.3473911822654437, 0.026032311166069005, 0.030551590762330362, -0.13335377777319612, -0.08158005903350848, -0.021196039529321326, -0.004745730862963292, 0.01883872952379961, 0.16970295330017432, 0.06934424386113733, 0.16849519544951277, 0.253992057439359, -0.18021599622381038, -0.37391809297715384, -0.23582540293338985, -0.0050760488414855216, -0.0868372503990105, -0.013083267895734836, 0.3125433469408724, 0.6658642341944612, 0.2314399282030709, -0.2240205861160567, 0.3848188013523094, 0.18264653465870956, 0.3940139204457012, 0.5103042116378176, -0.14592762366223072, 0.33334152805471834, 0.30486285589859474, 0.1028896846906975, -0.0641801134677576, -0.25449437325051577, -0.1825140242291657, -0.021688803611942923, 0.0010465977288784932, -0.0043608032471479765, 0.1086894525762698, 0.0843518622506827, -0.07894707619757085, 0.006099984157028451, -0.17319315494577145, 0.19572910693846862, 0.36122003920855805, 0.21782840289463606, 0.3443114541493079, 0.6237012285557081, 0.5223354026315882, 0.20420188826404193, 0.19794202748020318, 0.036274941437284665, 0.3483090845209289, 0.060706031292377866, 0.6171112775655209, 0.4700700795046598, 0.36651454419251206, 0.36981340646546856, 0.24536850634710167, 0.0038678358305413506, 0.09210281771429205, -0.16862026990329662, -0.06584108581938183, 0.0008945584833072067, 0.003204630038766708, 0.007227119539444086, 0.03324679969755188, 0.07225831931666299, 0.009172298122766433, 0.2768522039475967, 0.2175735332500685, 0.10095422900420101, 0.030890064636836186, 0.23746114938903726, 0.44681304714441406, 0.2753931101052387, -0.1864405643904166, -0.31114700184785826, -0.044464667000038, -0.016267866914862435, -0.08434578770833176, 0.0982363508669321, 0.15127604910053796, 0.3910626859484539, 0.25045198359409643, 0.18897455424475387, 0.01513219977957464, 0.1810785839651901, 0.1702468420696276, -0.09864275884213586, -0.03191428424303601, 0.001067781682863222, -0.02036109956858265, -0.006013602836016927, 0.03919734452024286, 0.08124713406214533, -0.05494587502875999, -0.00191489012367977, -0.019669556193094795, -0.28357144664644807, 0.07419126453370681, -0.09178601196821809, 0.11192373378976207, 0.027104680412050004, -0.08416994491074918, -0.12229199562234598, 0.0964442167971041, 0.10534889992766118, -0.0649502532965992, 0.06984673459806234, 0.3385688030536306, -0.04320592060204729, 0.24389772879000335, 0.334251884809894, 0.4367118112026747, 0.278703433148703, -1.7329553132193046e-05, 0.02427605365984553, -0.1327565191841789, 0.01101010343502023, -0.006974978328082534, -0.006081178909906251, 0.0026409900299797125, 0.02708711023363515, -0.11900330327110013, -0.06945670699705218, 0.04005936259831676, 0.16820091247775304, -0.007410697796769506, -0.34620422197110523, 0.002124077556885175, 0.01904622732368517, -0.24488420601653027, -0.4160102074000929, 0.04907453664130937, 0.02175174521850802, -0.2979434105269169, 0.20939389737911895, 0.31604111258333495, 0.06494169700902774, 0.09616768201950357, 0.2365474582317372, 0.4094764648335527, -0.038188835820344345, -0.11653616745787562, 0.059419994398146964, -0.2304473920037009, -0.0034235938805747134, 0.0010275977791979675, 0.0017176298880352164, 0.003561166920367358, 0.0024709150401676467, 0.003523149296662077, 0.03560505646556952, -0.0456811677922181, 0.03495303394344771, -0.08061638940717812, -0.04200993165621377, 0.18990837548861342, 0.18554727930024587, -0.3160521495376712, 0.03363560201658469, -0.11755160228182056, -0.21045559348799045, -0.032234419210315376, 0.08715378847283782, -0.007117667759379885, 0.11555670193534705, -0.16673901147492892, 0.36553218585130653, 0.09845460219937861, -0.2042304222100915, -0.054769376598019344, -0.04838813378154186, -0.17884640584009154, -0.020145150107588102, 0.0026122866156201656, -0.005130124666867499, -0.014292114088399654, -0.036179743961065415, 0.010825926948372876, -0.06512998788701227, 0.017163012416963747, -0.22234644421509667, -0.19581550686395582, -0.13006136207838603, -0.04512138304935168, -0.010691763941331487, -0.16825735078447993, -0.1379763462951018, -0.13999669871783188, -0.7196455715997341, -0.28742366733691466, 0.009984805428579687, 0.3334849596598717, 0.6327247906191807, 0.40990198603023353, 0.3670779867021511, 0.03327996482038055, -0.07251500086360038, -0.024055829370027645, -0.03236743963357887, -0.021358872784626875, -0.01568516282097394, -0.01640181769844828, -0.010765483801148697, -0.002895000969185888, -0.1322843793826686, -0.06039316521742774, -0.0018362083931902323, -0.17605829946975557, -0.17517680370168817, 0.07876610121273014, -0.25461312351079796, -0.2181039045475769, -0.13472148385644991, 0.6834422646989681, 0.5952493818386729, 0.18528795311764149, -0.12293090079823607, -0.11183189083730093, 0.0803477591737976, 0.263391842926991, 0.37731727375510243, -0.23602558141314386, -0.2553896585319814, -0.3228260420164794, -0.008615100146812271, -0.019713622005706647, 0.016922373581262362, 0.044621916485355455, -0.004866853249596358, 0.0015344423909202502, -0.003685168383540885, 0.011061601807407529, -0.10468495096241016, -0.11712313681065245, -0.0622047307203924, -0.20264166008277296, -0.03220934396426232, 0.021309618892236107, -0.09860775755589057, 0.02784598919153746, 0.4606708067572001, 0.13786570357139588, 0.28424812186870246, -0.052921234810154025, -0.08097104978722608, -0.21397847354908472, -0.10685813713423668, -0.1496825462413354, -0.06070071737596307, -0.05231618678627934, -0.39248665284636214, -0.47622241907674384, -0.19329328237046312, -0.14526115305456544, -0.09631880496862899, 0.0007102583307928173, 0.009661027494107449, 0.011804783178450943, 0.0008857275310947123, 0.00016957631458334324, -0.004164710694576241, -0.11345910264621929, -0.11450408108053245, -0.19652389647051757, -0.06858694390115644, -0.15238116771041763, -0.15275710906489004, -0.18568047035449634, 0.38450439264974645, 0.27760767495908995, -0.012865271199090016, 0.4347495264343281, -0.017739630908463967, -0.34532978385145413, -0.15193132022904587, 0.09039488553712499, -0.08943141350366916, -0.08202572330836237, -0.25163600624791543, -0.3495010801760614, -0.24808031195504465, -0.21020834511683917, -0.14289056554619403, 0.011224977663748054, 0.0035426799149586787, -0.006023873047968326, 0.00468563483635263, -0.024834771200995382, -0.009767095608298235, -0.08541571788728691, -0.1391603603186058, -0.2592900807937972, -0.3354511594246622, -0.36555023337643533, -0.2904163109901057, -0.01643545087922983, -0.10357482027351671, -0.014212285214986131, 0.03646037856022132, 0.12110957004830321, -0.29561353587009676, -0.03507552595163086, 0.07459613784732912, 0.13770315672369868, -0.1710652342572587, -0.2773015148328645, -0.24763982512955765, -0.003915306620817621, -0.08564481263289889, -0.17592407847495864, -0.060176300273176817, 0.0004567881958255698, -0.0014608191955967028, -0.0017430185122020508, -0.00666562345609064, -0.0009553473719713415, -0.03303352657914118, -0.060152264422439386, -0.07439714902875245, -0.1950545493341493, -0.22721079287969667, -0.2913117622829012, 0.02130748945962413, 0.12606429386701984, -0.2878471750245925, -0.16385876948939748, -0.3479259330687198, -0.08653104235168255, 0.014281574303918968, 0.06374957844108867, 0.0942656249568344, -0.2273225877490508, -0.16366073895516228, -0.33129815940851576, -0.22589311773782103, 0.014864540238794079, -0.08325564504700171, -0.06789311044882848, -0.013475117337932406, 0.0008098395444424339, 0.009443720606452847, -0.012128379185598193, -0.00353115949862291, -0.007768821453446771, -0.0156311152660364, -0.03582478387447484, -0.05197805808080386, -0.04639015300029891, -0.07982684302334976, -0.08179730018787174, 0.1929456072880585, 0.24692864553393162, -0.10392096117970485, -0.05524744849303716, -0.017702420203406923, 0.2221205218995234, 0.08739456013645895, -0.08504423065684916, -0.2930982298563707, -0.4291029477050948, -0.12797739264010508, -0.13024702477646127, 0.018380088708881553, 0.03795192618156275, -0.02388787192411704, -0.04281247752123602, -0.0020090945134597386, 0.0022898993904577948, 0.022864723455949903, -0.009940977944904403, -0.009128600788583782, 0.015469868594647298, 0.0035887648781896637, -0.008074294006501951, -0.0037601325566488, 0.020500586032296535, -0.061901369408707614, -0.04897745444629616, 0.07391328801812849, -0.014281626790263615, -0.15224801043460434, 0.1209275832353281, 0.020295433496843738, 0.1787216033941368, 0.03749833070932587, -0.06721200657853417, -0.1790106023353266, -0.2367499940020773, -0.05188645338057331, -0.15850828778624584, 0.049999440103850226, 0.13330767064012056, 0.0034862042694881923, 0.0021245077189073545, 0.024169597316911106, 0.0073186993228066734, -0.009864771478849375, -0.00414671103201199, -0.01591901582587686, -0.00012220172493411082, -0.0022700294347744636, -0.024490602645109046, -0.020498266301234705, 0.03652496939887835, -0.0495475216152989, -0.16262033444112906, -0.001315985890927994, 0.24106896565288538, 0.21769635371799306, 0.2658036249663793, 0.20752997958132646, 0.035911645506154034, 0.24175682981181776, 0.05262085849713377, -0.24213484763624452, -0.13909245924733193, 0.009155828699206106, -0.03304673937269275, 0.06570295638936399, 0.12867133195810915, 0.026250810014910718, 0.014392332932606357, -0.002477106385519296, 0.0010017590815890613, -0.014763354387022939, -0.0003943589708164276, -0.001027862588144351, 0.00397084751182386, -0.0030488866310054894, -0.02234668712780766, -0.02326353008324284, -0.01877708273210795, -0.08921708337798204, -0.07274157462194922, -0.050078622228380706, -0.05164406439404499, 0.12496461055727741, 0.07989020358154755, 0.13371190085633536, -0.14597656908498602, -0.07939054033670474, 0.04005525708427415, -0.17022407647416293, -0.08803092878006388, 0.10878275511491833, 0.015310992378249084, 0.005814447673350164, -0.026017660655509697, -0.01983223488563502, 0.0011441767017333776, -0.006078462840283894, 0.0002215313332330638, -0.007390399521597736, -0.007455120682957103, 0.004881151073766331, -0.00856190458787545, -0.0005747430787454539, 0.01959100695527575, 0.0010670663059065342, -0.005637706002668848, -0.0010886731073604552, -0.027326475243061723, -0.0008392237906750403, 0.07265386857034978, -0.006380229089557258, -0.01706062453935839, -0.027152049179057735, -0.02228206613289291, -0.039229116471164546, 0.05719948660049637, 0.02098537979051896, 0.002758031665983223, 0.017390563961972083, 0.02606406198894457, 0.009573286334170894, 0.02034286496728517, 0.0026101482914442876, 0.0012066854000898602, 0.004610267717191018, 0.00015894221433629245, 0.0031250356608748656], [-0.007702859492221384, -0.003258853364726208, 0.003929350988379627, 0.0016465594492140242, 0.009286249800699156, -0.0030294849626917937, 0.0008154664168356657, -0.010469414639367864, -0.01606229246498553, -0.0033172345559225936, -0.0006367187616038459, -0.0031675442553914003, 0.0071901466015338875, -0.0004837523412055872, 0.010428442550246119, 0.007863829330362691, -0.006406293729509443, -0.0071956363518504195, -0.004748467524886946, -0.004342598430292675, -0.006410019554052573, -0.003906363329779925, -0.006595067190282542, 0.0018766900704027675, -0.0023740929862530098, -0.0051642693393907915, 0.001473367118783935, 0.009476584681896404, -0.004251111267939158, 0.027195281105589594, -0.007797654440607144, -0.00934939222492649, 0.008899867750147939, -0.011784818705295122, 0.002300473341220609, 0.010264817507346494, 0.00413451586377518, 0.0005307618362907429, 0.004338724976210295, -0.004039814043302051, -0.00965385911426451, -0.010249824827496049, -0.0019901208789442344, 0.005672257731480231, 0.012960253803307247, -0.002701922107131519, -0.0009851704106124556, -0.0032314287106553364, -0.005821786018836199, 0.00743371657202397, 0.003991385292349207, -0.0016283247287744464, 0.00326721889061465, 0.0055253992061356895, 0.005287160158319106, 0.006008178019881529, -0.007555031213197444, -0.004580600842630093, -0.008456711295093816, -0.0030244566365378155, 0.005711575749702203, -0.0012260240739812688, 0.0048593300294057905, -0.006294022839734275, -0.022262609615795313, -0.0014776471056823814, 0.013799300636420453, -0.02871182042166926, -0.019231811324994626, -0.024787787601615412, -0.03956354978339687, -0.005908322327541487, 0.01600440878548765, -0.008799247770367743, 0.04519507371999316, 0.009144361130234762, 0.014887057640900722, 0.004714876803413358, -0.018087033339607393, -0.023181434882425543, -0.011893558117773203, 0.001265684552545509, -0.007314748378682434, -5.832549360607169e-05, -0.006261993459032986, 0.0022098901154171424, -0.01685320007015749, 0.0007983886183461477, 0.004394853630530084, -0.003155204525005614, -0.02558838415242596, -0.04220097168511942, -0.07004197180261425, -0.05823303544373543, -0.08610132765952382, -0.1434814527571613, -0.05413799687217854, -0.05662074272897755, 0.020522622285573833, 0.16533810605065194, 0.09138728226634127, 0.07003868061807506, 0.07479955631558705, 0.02638487672860297, -0.0018486756533443493, -0.04078370749846856, -0.04398603453889716, -0.037595456237347294, -0.009600765104906631, -0.012015408309820555, -0.0052338551097611385, 0.005224913076856566, -0.0038658456555960537, 0.007298188276569343, -0.0015323670078117916, 0.0026173762173954574, 0.0049945849083098985, 0.07540175348928417, -0.0059148077896802155, -0.12621958986897822, -0.08998852227207098, -0.2088569045105101, -0.12695725031768262, -0.13670704123214805, -0.1919427505730687, -0.1164161716846124, 0.0027077485754183252, -0.07469767157169196, -0.20430624944665074, -0.25391439056351345, -0.23538704988475387, -0.21259809695824244, -0.19128659007871004, -0.10831809247705629, -0.06114896733955394, -0.07842408914798704, 0.04308884216757756, 0.011447966535690792, -0.0025187463298165, 0.0009057538182386703, 0.009232167675695985, 0.005681944077350154, -0.004902448389826615, 0.007571299935563293, -0.0416228597155584, 0.16289435209759012, 0.01665928837450084, -0.1308514751266303, -0.2371623459252328, -0.29174231592454813, -0.3150828731656664, -0.13789935881372045, 0.06597802062619629, 0.6621857017461129, 0.5967057435304951, 0.3913365155866552, -0.028588581770497137, -0.5086519148456328, -0.5137075997439164, -0.3364019953241745, 0.08600656229090849, -0.039272526104346686, -0.06229783834616185, -0.19292198909734912, -0.06673801714944583, -0.06161201567623788, -0.014295176434109515, -0.009953675498075154, -0.0032420694091092176, -0.005629596487896961, -0.012495995897237466, -0.02116437056902373, -0.15167410990579058, -0.07377847935895841, -0.1465214942934144, -0.37059765161866143, -0.5415071232240319, -0.4249378954095852, -0.06169228445790475, 0.20925637166022795, 0.38520524393596867, 0.9174391248471775, 1.2908018130874073, 0.508953978720082, -0.12112710555153136, -0.2830411430415693, -0.43147727371965094, -0.20526557650161606, -0.02187668644126974, -0.1362614456904382, -0.17952938055360326, -0.29252931357628337, -0.16271102372588467, -0.1339565115490466, -0.09300027580456198, -0.01849032882380714, 0.012795541507712874, -0.0009134725983996813, 0.008193583908912611, -0.025878779737513524, -0.14490142187471414, -0.22311847451838215, -0.22157729751786187, -0.281927848334142, -0.35379869798999836, -0.7144915732400935, -0.16809307578655744, -0.14811812668879726, 0.08656420784098959, 1.0283652000556576, 1.3777939256217158, 0.28846074883783757, -0.20362181047812367, -0.1664578440360213, 0.027553027254312985, -0.20999590506567178, -0.12300976300902287, 0.0853900575649114, -0.03639097238489045, -0.18316178122730567, -0.25528298335061, -0.09660523748801585, -0.054071906904721564, 0.007021495905089983, 0.0012487368147381449, -0.013518248998182077, -0.0701902227190961, -0.08344316853188082, -0.161615272585769, -0.1040714469810408, -0.19047322738588285, -0.13100227283857854, -0.2913646562224427, -0.16851456577480423, -0.623692724357513, -0.4835524282873082, 0.2189171258621584, 0.5516719904534431, 0.9694176484526666, 0.1366309646982883, 0.01901082336798275, -0.20166275204359926, -0.1410176859249048, 0.16891597134294753, 0.10543269144302717, 0.11626006574530523, 0.11017014562122387, -0.01428860170129073, -0.04251952640621877, -0.03899684615699487, 0.051491976976151974, 0.0486211344412199, 0.0003778542743481617, 0.010694923997949867, -0.04432125059963125, -0.06167557854081548, -0.10564544471298436, -0.10531408426212738, -0.14768834274827297, 0.08813820247469988, -0.19101195799655957, -0.16386923031842837, -0.5532314053715175, -0.387060934704317, 0.02557903657847854, 1.0142922345908871, 0.8327483585395948, -0.07772447463558718, -0.5271044785146438, 0.08330838948540066, 0.12320196541269246, 0.1857547739773533, 0.005765966769453037, -0.1397192400773966, 0.24186070451829544, 0.2883428445918642, 0.047557981335933606, -0.005526141588101867, 0.027968746358991714, -0.003210272949519687, 0.0005891548154109522, 0.004120209722451023, -0.058272924195779015, -0.06993713640495304, -0.12964164075014697, -0.14553862813179597, 0.29832712703177416, 0.30532726536948174, -0.1131469425192741, -0.233692824976724, -0.7310817562819304, -0.6591684638261991, 0.19391601024645963, 1.279293573928304, 0.5803075525108973, -0.339933753684546, 0.031767770626249046, -0.23309975684689208, 0.17480096740441028, 0.2229942106311891, 0.19227487557406028, 0.10941580262686487, 0.3339492907608196, 0.5576340091501562, 0.12449879074072345, -0.05452419310301918, 0.005681974178186882, 0.0006375183774360282, -0.0016854192709054969, -0.0075860479175901205, -0.06445233109028178, -0.13999468775107232, 0.07850976292429727, 0.05220809675160411, -0.047429064829107755, 0.0732070155840137, -0.3778454216070389, -0.30448981841021167, -0.727949868636155, -0.7664055374065882, 0.21360876644155935, 0.9433885024006726, 0.34053989020206843, 0.06717551345029138, -0.44388319880831084, -0.033513977260576554, 0.09864736107697729, 0.2870862948656246, 0.4946452346106042, 0.25593866626478595, 0.44020219336043886, 0.400186155202604, 0.24203495056606333, -0.026279574727733113, 0.03351959823305734, 0.004202279068351933, -0.0038432214085575467, -0.009579604340894112, -0.07143816246001909, -0.17532843089786893, 0.33723680455929855, 0.03176836937607109, -0.10098430805037747, -0.16808915853015358, -0.18763500173774506, -0.17154416719146987, -0.802047436302778, -0.9508670288651, 0.12394135239653278, 0.7186937130829205, 0.3202048591282642, -0.023937093303617544, -0.40875273130622486, -0.0425256867516766, -0.26780923647150096, 0.060409707296015636, 0.023934530637887644, 0.06152596798002409, 0.17987054666907076, 0.04788247384901354, -0.10227618512795843, -0.05130982778931668, -0.043503001495986016, -0.006067210143096425, 0.007325708105291537, -0.02116881797985319, -0.05516209625483046, -0.05320359424964622, 0.1332689706692911, -0.09572915270232271, -0.3410330672403534, -0.06053861408613519, -0.45970918491553947, 0.05067499450886665, -0.2811613030891436, -0.01462421046991516, 0.6641649735748798, 0.5949823838768539, -0.17068892245229578, -0.07870479704031998, 0.0514580985673735, -0.008021644558835953, 0.007070145424642098, -0.11823598052697515, -0.1306771102155681, 0.012921266499817443, -0.20001672045830857, -0.23956417803363844, -0.25174674045280493, -0.09241855432463268, 0.051173839668348396, 0.016983841711729068, -0.020382759341772947, -0.008423017022246428, -0.025392830527493047, -0.043506381920734465, -0.03700609989390671, -0.5122767343392735, -0.13288923166451921, -0.23494959263374443, -0.15774563540347308, -0.29928609281752333, -0.15363848047476727, 0.05737291761278294, 0.25846014105476156, 0.3041676019216353, 0.2561178650189973, 0.1740525426529761, 0.27592520545669413, -0.10177974803080184, 0.14317513406354415, -0.2270415527651752, -0.22980705429400314, 0.005822960979075846, -0.24579470532329695, -0.5624085065400783, -0.5134127265171059, -0.09312527813173219, 0.0621940585214573, 0.0011182720697429803, 0.002784341917119709, 0.01573025237933699, -0.07004558950060596, -0.14876340560663842, -0.1166192992106088, -0.3440014942078975, -0.06310286089855573, -0.48434811033782066, 0.059549620382747026, 0.08119167675932004, 0.038568798140816374, 0.3078574124866208, 0.2394291050244021, -0.06772407602419435, 0.24018910482033926, 0.3833106437849866, 0.2905570582813193, 0.023762885731493294, 0.38085000289988374, 0.03214868445181952, 0.18072169021990853, 0.05790283707415752, -0.17629762805591476, -0.4458797542543235, -0.1346713316238559, 0.021274041400851033, 0.114564983360029, 0.013935479318470674, -0.004526822054906152, -0.0021080694178060074, -0.023170811596225194, -0.05509972000487317, 0.03355065236093996, -0.18422934569072416, -0.30310188526809073, -0.15357177769223504, -0.031565326870485175, -0.10610270906526498, 0.028713564684719514, 0.20675446070957257, 0.2928035707373875, 0.19469997323676547, -0.04868414355852246, 0.23064111087133385, -0.016553744463129696, 0.35032095984936945, -0.038160652161068086, -0.31814086574102773, -0.19751686977855148, -0.39644709803541683, -0.0812204865885585, -0.24461564715041065, -0.21669250443149146, -0.03051388165239959, 0.11123637346165594, -0.00020536713423528765, 0.0029170667642334828, -0.003864487480536564, -0.03424496665450771, 0.05893637119240664, 0.050612525152918204, -0.09985457729441219, 0.02822311570521734, 0.24371481823471533, 0.25970342693172466, 0.21268354201452125, 0.1398679339583558, 0.06841286705382127, 0.4013820275239686, 0.4453723399472508, -0.07314313788962869, 0.26351345838332263, 0.026126482950321148, 0.27911802457288504, -0.008415481002876155, 0.35460996353679414, -0.09070721984065984, 0.015976262977902937, -0.010608103219257795, -0.1779207397470459, -0.1798680790791516, -0.008076243698532243, 0.040785938308512494, 0.0035674352502867717, -0.0005636964285158198, 0.012497332383966268, -0.03398874385003807, 0.025987295108481103, 0.05646602784795263, 0.053543696313286905, 0.3210219383622376, 0.2675889894146131, 0.21764485176652207, -0.2377599295155015, -0.056958267285412874, 0.1537751982190243, 0.28110543320828035, 0.2038230172740407, -0.01328020676953945, 0.347913751656161, 0.3074203558932844, 0.3311815443090886, 0.10344260006782531, 0.18402051976002098, -0.21539118900827817, -0.21172017741204727, -0.05753858825178867, -0.2993358023023118, -0.27232067291970047, 0.0021803818235905663, 0.021780523311506587, 0.0144507070066193, -0.0016358445856042812, 0.014998699276566578, -0.017648229044094178, 0.003730925727395502, -0.0004244609542542908, 0.09452256813147623, 0.09482133708338317, -0.005066736512957933, 0.08909082584649974, -0.07383266491405094, 0.011394487682476185, 0.017357803766167277, 0.28716609111485425, 0.06426683493987533, -0.1306177504515671, 0.20384122123945805, 0.4288482156230489, -0.10397231184521563, 0.039880936537072045, -0.21611676621978484, -0.5007122997016497, -0.3276473199546818, -0.11220553325361367, 0.021791041580740543, -0.07918031220464125, 0.04519592609731246, -0.0013344794612560461, 0.007052056503191581, -0.006481186464652654, -0.019807581413368868, -0.0018478089386281544, 0.00011020867016886338, 0.09007036817642615, 0.23588140212143638, 0.1877623854294411, 0.03201894026128548, 0.0347380720504386, -0.029925350840410606, 0.14806326218404303, 0.1599039547056101, -0.17724818106542753, -0.1807462896979054, 0.04516468673243206, -0.1954061102114823, 0.012878720410153371, -0.004769607407014426, 0.03059848895695743, -0.12600780807078907, -0.1522258579220105, 0.004551932372826758, 0.18041434736643555, 0.3172423084279031, 0.17159503397205453, 0.14310355468629, 0.009001132117797203, -0.004811760066987519, -0.007823462221923734, 0.015145716657844543, -0.007164136856050497, -0.030937263282318755, -0.007078131897979228, 0.10789280680985873, 0.4160245075301386, 0.48496762709531066, 0.24643507316367516, 0.11820262582173255, 0.17095761315344438, -0.22129576379598664, -0.13056795985558953, -0.24836303584596667, -0.20059672099439071, -0.2343592189357795, -0.2097880160895649, -0.39943363765569845, -0.12467717149963328, -0.09760329710714061, -0.20236461299538905, -0.17916800066392416, 0.07598832112416788, 0.29495145985317156, 0.2961108295393931, 0.10283414915565187, -0.01279912902306658, 0.00253610517884545, 0.0066509923340987865, 0.005793290140127852, -0.007334163225470999, -0.01165746812180863, -0.03254568414000603, 0.017159173903356525, 0.18497413561047885, 0.26654592144427985, 0.3364223287095662, 0.40887360792340066, 0.34337821428171195, -0.07110327925148457, 0.17407087292436355, -0.19891696608545006, -0.0020054904125256954, -0.19973991900167434, -0.2715741302115891, -0.19960432643038478, -0.14854065686784448, -0.2620405439418971, -0.11398694293634161, -0.19993060398231835, 0.3266153595828245, 0.34022065971270754, 0.33458793017928024, 0.12423206647985462, -0.016050665157612446, -0.0029676022426389052, 0.016774308967377097, 0.006887326242813456, 0.003430969343730243, -0.0012323725509364913, -0.010652124348170545, -0.030866641995696213, -0.07418705586847878, -0.03075566731022333, 0.13575505903719268, 0.18662805711454192, 0.1357682150168626, 0.3284722964159268, 0.24668560766985234, -0.17000523086631142, 0.09127138600419242, -0.05675882604568414, -0.4709219132800856, -0.19835614246890276, -0.39014162788082685, -0.07397911290662312, 0.010819864954180733, -0.024118719581979267, 0.3761760083740064, 0.42811095389190895, 0.3283820906950831, 0.02501661333087883, -0.011962856524128686, -0.005719437606861262, 0.0023782536002481627, -0.015644341325741853, 0.011948038785077345, -0.0026626031328069876, 