{"sizes": [784, 30, 30, 10, 10], "weights": [[[0.02417388669961747, 0.010381487654693836, 0.032575930188664066, 0.022138933845624893, 0.051640925110904096, -0.006276790808754785, 0.005092277406117234, 0.030924925003155104, -0.008631566891396584, 0.011958040409755814, 0.023382540131090843, -0.0048100700875455685, -0.005515464134042196, 0.010403095526487749, 0.041279696868663805, 0.04891436366181698, -0.029491439348076586, 0.02087834961782909, 0.08782567128379466, 0.01188027288689483, 0.037065267386195935, 0.009517895718906313, 0.021101758847007927, 0.017229984364293773, -0.03238088174178441, 0.014463122243442428, -0.022732667875787715, 0.07847587558812796, 0.008659220818966475, -0.030023169494884903, -0.024429146683140623, 0.030143787460294693, -0.04356042568323023, -0.012041454390660195, -0.03323564712449995, 0.0538129332300516, -0.05201905680088985, 0.025835329929579823, 0.025219496095056988, 0.06462887422962738, 0.0723166226487315, 0.05070074933771435, -0.029721578398646017, 0.003953946284558358, 0.012940280113919306, 0.01600966452943006, 0.0010942760272007323, -0.023442665868462487, -0.012896531329685778, 0.011158924772471665, 0.02011109504562868, 0.021161731239696984, -0.02318068673697384, 0.0038804673563798734, 0.04460805805136326, -0.05340080974986604, -0.0436220645663917, 0.04158695796348943, 0.012009189253245461, -0.04100799583991473, -0.028181839366713243, 0.02719607328391947, -0.02502105714940986, 0.033023234367386675, 0.010804485202070103, -0.0859504920955836, 0.03071020854539503, 0.01311284343953107, 0.08528551280987584, -0.03244846822228684, 0.12073543360036082, 0.0509320473354417, 0.13126916530658503, 0.11192854364858995, 0.13791373331921783, -0.013828217471576757, 0.0662906889426129, 0.04527483569339191, 7.166329714790177e-05, -0.008377248085427651, -0.038977193923497314, 0.05102935789562558, 0.028598498186076505, 0.007504006147915567, -0.05607549914518121, 0.01726343803948158, 0.027854660077249356, 0.00021832095275887772, 0.001604880243326419, -0.05207544627773706, -0.0018873083029673718, 0.04395830056657649, 0.023635427896322156, 0.06164809584405006, 0.12559493606936648, 0.019835699415495435, -0.0003722634206579326, 0.10185505811389535, 0.1464833881303787, 0.27174873571868585, 0.3862956898012918, 0.28964110285657146, 0.22159002309053621, 0.22241815850829616, 0.14129293111434482, 0.054678075302559644, -0.0018501644818818028, 0.04595635736852896, -0.013752152153702993, -0.12170289581179798, -0.007406298504685711, 0.01378653019674929, -0.03577577765074626, -0.04022452005276151, -0.021505777048885115, 0.02695164393349573, 0.0033560215897818434, -0.0758139258141503, -0.0004793883970234344, 0.06732837320775104, -0.11987154537802758, -0.024351016224276063, -0.03864674087561943, -0.11291735878937001, -0.03513629855176267, -0.12509747062037663, 0.1166749039881242, 0.3159742763460533, 0.4520871699421378, 0.42790913516934365, 0.3700669040313664, 0.26198121515230177, 0.07906109933785928, 0.12372634331552518, 0.09040180025109468, -0.018243892060435956, -0.00403044683245429, -0.026555099469496704, -0.00903457085501489, -0.037976687380931684, -0.023964202745288567, 0.023035149100456984, -0.013541911850192193, 0.012118750029272093, -0.11463608742389399, -0.14723837973849108, -0.15520098774986282, -0.22422672036497068, 0.02501753136385886, 0.23237233659663675, 0.134241687358949, -0.06367265272043036, -0.0956912027531878, -0.18220802794734683, 0.1040028715904873, -0.14011187461211275, 0.3285714698305192, 0.4930226787473478, 0.5843697488524333, 0.45420929594994536, 0.25008796675726436, 0.2130752797608529, 0.12114548495754338, 0.06569969205915113, 0.05883458519545947, 0.019748796518470616, 0.07774011047365867, 0.02036167570099489, -0.013266448551100223, -0.0016964208442471374, 0.019570796412233585, -0.04928225707953789, -0.09756514846270942, -0.052332088369113, -0.2094829568476275, 0.014704241457202604, 0.027218701484255873, 0.1383741732007964, 0.1129373562817067, -0.13334198876140455, -0.12263835799996847, 0.04665176584016347, 0.08504265467896058, 0.15690093246867462, -0.09256186514128581, 0.19255442467930461, 0.41620830772545653, 0.5836633982196456, 0.44494602835427494, 0.2973683519718504, 0.2178803474263504, 0.2629626535717292, 0.08043693018846125, 0.046787819115654036, -0.014418884244873047, -0.005755953027278944, -0.024985819524399433, 0.008216451444389348, -0.03421985907821146, -0.039990546257444935, -0.15558965139067613, 0.08376199983795801, -0.20352375788497637, -0.0765567944707639, 0.06306637366398833, 0.09508335633093758, -0.05421905897319936, -0.1529043573930036, -0.14698689616616809, -0.14064539647186042, -0.0807895307746049, -0.012043286561503408, 0.0008255268156437892, -0.049206171912597726, 0.215768767219541, 0.3689670681097894, 0.4353386448996069, 0.37345213438926755, 0.3069223729815769, 0.2089033663588404, 0.2015268344418487, 0.09480593785910386, 0.029338135969941736, 0.045556439288948085, -0.00776010884029776, -0.01325699374503828, -0.00336660519720833, -0.005008760435076171, -0.125169592833668, 0.0716597959449425, 0.1278612079392005, -0.055204749342822455, -0.009762061997371698, -0.14142100102658398, -0.3392056865922954, -0.0953817873821552, -0.17492029451834668, -0.09355080046131206, -0.06494180547512103, -0.011841653476631853, 0.09229331997513358, -0.07072464998670613, 0.22279927758765278, 0.46328103513478447, 0.28763943877451903, 0.29947732682623035, 0.25120970340079546, 0.11721512806334891, 0.16329080905505755, 0.17598837572094556, 0.07393644427830788, -0.08136095675014682, 0.015717592018618335, 0.0005722296733436897, -0.04826775244293775, -0.10449674164039227, -0.20332747835739104, -0.02747366858119624, 0.14153268164057434, 0.03902054801871766, 0.27602619731855643, -0.04484940905030641, -0.008664765237578026, -0.13820117147181088, -0.16692525449527515, -0.2594543774575823, -0.568403191424892, 0.09182304091470672, 0.22407821430376723, 0.30220245455394107, 0.21315283773938343, 0.1684571421333567, 0.137382742590024, 0.13382014364078904, 0.0594018415022944, 0.13419236663232853, 0.2140588352701667, 0.1742004400904398, 0.10613611610566193, 0.03892872694636514, -0.008752090075782478, 0.0017473169608991483, -0.06024815965731068, -0.10451480141391302, -0.13729276235473228, -0.11996001296420195, -0.021059396890089826, 0.06913963351224216, 0.19081744083060842, 0.32147806893325737, -0.19599622492536897, -0.17331134314814411, 0.003733124602979328, -0.38489654583524896, -0.3171644485741763, 0.3228540449113207, 0.1565276983899161, 0.10274237747260305, 0.09855974009718844, 0.06363378251084895, 0.18176813106752915, 0.21485982464751224, -0.016496085686131968, -0.07349755393199722, 0.27458214740473386, 0.1452214440497604, -0.0008456056579377593, 0.008903144819550292, 0.05248882053968387, -0.02843729968102646, -0.14634999223965908, -0.21689178206321946, -0.05680622618907807, -0.1100718755810046, 0.11930851991240805, -0.009564787134911224, 0.22364869646537436, 0.29240013662314807, -0.08089547710973388, -0.24783605336699402, -0.14365240761957482, -0.32883219595425855, -0.4310896479369835, 0.47568258676282593, 0.37602716698061406, -0.12201765536567505, -0.007309969004704557, 0.0054662125282468055, 0.17021258611906576, 0.1378662958854094, -0.11008217876615296, -0.12460415749843562, 0.08846145846887747, 0.19806700368893088, 0.009099246650039063, 0.049535382382672515, -0.007507216152748564, -0.024774686247120724, -0.1381774036981792, -0.19298406778672597, -0.052418870326349606, -0.23266533282172375, 0.08977662000708327, -0.08142768239773568, -0.10173160599085211, -0.03801528280076934, 0.3459843085410442, -0.07689993667575663, -0.1750266185364485, -0.3445740254420428, -0.3021638547354643, 0.2883129539367977, 0.10633268143035064, -0.031106538591344025, 0.002709580695962677, 0.14128366323613184, 0.1949321046672388, 0.23686483023976018, 0.013761984636107522, 0.0447360886127906, -0.03878828628215034, -0.012137515852258906, -0.04525056181586463, -0.02096903885396225, 0.030717868686687484, -0.008925775201459698, -0.09123586754710442, -0.009800649259714975, -0.0012267309149496671, -0.08883260965487395, -0.21027656709076953, -0.13103301372065385, -0.001891271215373775, -0.060108691249013795, -0.181754452233079, 0.010681142954235116, -0.2310241785455205, -0.06741546299702537, 0.060520953117097966, 0.3595870803004743, 0.11081745588845325, 0.060973287731033506, 0.1186823628600417, 0.30795617031029254, -0.0871697070764306, -0.09355094276364667, -0.04898288500624506, 0.1724563270757052, -0.0933370303530188, -0.08456165425600826, -0.08231300742021894, -0.005362442699505827, -0.02132389497579946, -0.008776124197233975, -0.061797977979674866, -0.03290737740458489, 0.09614622175427709, 0.0904236748797309, 0.03029486443896801, 0.28684593913186657, 0.14482745577345088, -0.28235620453009336, -0.28919712241352524, 0.08182333318149485, 0.10321095605188249, 0.04763661816249986, 0.16367655708084658, 0.4946546123214213, 0.38024301288232265, 0.17692382111003932, 0.1111308841108478, 0.008438494596378422, -0.05319753911343491, -0.0829136783979163, -0.021080350087914472, -0.14196795918474395, -0.1552737123142211, -0.1736031330183202, -0.15570175071464148, -0.03357193792112346, -0.02562835501845244, -0.006881650212532879, 0.009545296669560263, -0.06372470775403433, 0.02235250260295988, 0.15243881919887745, -0.021874011940799947, 0.12622887780735967, 0.11453471309790075, -0.06897300806923003, -0.030007812344771085, 0.5073438120126798, 0.3651891241777764, -0.023933029864588052, -0.008409178169002055, 0.5144030314105069, 0.23944528568490128, -0.3817707924328769, 0.05108920927747524, -0.12837281201385867, -0.32287717799152965, -0.018896722261223926, -0.055523555689945686, -0.007848292987519979, -0.14379519329966775, -0.14123267124248665, -0.08327326910806217, 0.053985720492847035, 0.023982402340837476, 0.0028528945687290607, -0.0683030466179332, -0.024638923107574297, -0.1849347384651495, 0.026873712430720186, -0.08395088654771243, -0.472173846633747, -0.23472473004110023, -0.025452716570134967, -0.06318070565375819, 0.13007198908842418, 0.3286185744368294, 0.173953444147425, 0.015318801500337771, 0.4047194239747974, 0.0444076425462368, -0.13786741689962353, 0.06137959303427932, -0.06313496586517758, -0.2620145036758523, -0.13266375419132612, -0.14833562995955762, -0.09325695998661729, -0.1411220662659997, -0.05533217384944035, -0.07926615722546644, 0.01945331901805808, 0.021566556949992367, 0.03550738639800658, 0.02108954711098156, 0.06779095356199834, -0.1454471849301819, -0.016150205038215053, 0.10129315535898113, -0.008648083310030351, -0.015434085195349712, 0.054823011786373096, 0.3617575721544492, 0.6362220874669, 0.5352801844565451, 0.20113261131495286, -0.04149726150499464, 0.014056158755564745, 0.04127657828300461, -0.08815979559769156, -0.12684101284768798, 0.06782735176264511, 0.043461333732699704, 0.0078967295024518, -0.13069920994769843, -0.052074244327885356, 0.09406604541057541, -0.04800049568587919, -0.10113631783845474, 0.03033941774861494, -0.05299198020297465, -0.0007562906334550312, 0.021268740710997287, 0.06728040911733452, -0.16126425909282274, 0.004179361863627007, 0.03792976243509021, 0.11307339602564508, 0.0024960240260105517, 0.036936802907459515, 0.29805535376222014, 0.6300175921786643, 0.7517538146170587, 0.3528137910537201, 0.0979676739094934, 0.08232410809559111, 0.08938497242429613, -0.01636640698637101, -0.08304175342745035, 0.03863662466993269, -0.011931897661452976, -0.0771564284561609, 0.07159463888962855, 0.14738528358750536, 0.06788913880294153, -0.13645934615689598, -0.08199444477748456, -0.05596870688155204, -0.01923021918804047, -0.019648465094351066, -0.013950717033958825, 0.13121522112348735, -0.09434138992150955, 0.05095580316617084, 0.24101191162022756, 0.2242743140428326, 0.1841317087659515, 0.32358813924201324, 0.417952459392674, 0.31119591454275153, 0.2217358180355239, 0.12239705641298841, -0.1776465423995657, -0.10635808329489255, -0.0747616305759295, -0.10336148774944263, -0.2021772391427384, -0.2586605608134626, -0.058443201670924066, 0.235257501014223, 0.19898858758688068, 0.1528206897655787, 0.09250806588535786, -0.062011258340570405, -0.04441413836814818, -0.026089815085404873, 0.027837555553306546, 0.027788982047861177, -0.009383798566533822, 0.1015706438390943, 0.09017299971761152, 0.10807966558976334, 0.2182488029274695, 0.188608210305052, 0.20192704185504814, 0.147723577699297, 0.17194690958845776, 0.20035722690876537, -0.06425565858828926, -0.06908058632181605, -0.08181217856532894, -0.03549588942598099, 0.027986801293602537, -0.25039616365842626, 0.06572858908881792, 0.14408350695536745, 0.06405594352097708, 0.08933591721585525, 0.22799209525231276, 0.17538406982725369, 0.12069847529264781, 0.016319025608721564, 0.02518817579888255, 0.02257200390548356, -0.017495771365912956, -0.05254757255189458, 0.01231281091762805, 0.013069121620508854, 0.061484256904242425, 0.16860676667646202, 0.3583651876200741, 0.33041818111587756, 0.10036416666619444, -0.09915085368470883, 0.06357184180132824, 0.057061604697862284, -0.2177378908030457, 0.02543789880511488, 0.21267837486761235, -0.19436365952685297, -0.18806015909633098, -0.0364366109106549, 0.1821524872113844, -0.16091715962814576, -0.30902977735288434, -0.02084858163499999, 0.18696358831822793, 0.09780690378901391, -0.024104977654085445, -0.044606658294301514, -0.022174595684057736, 0.010560948580523854, -0.009117391210805651, 0.015961858998657902, 0.01484462843232245, 0.03555785533392754, 0.04053607982338756, 0.07672677536745813, 0.24843531851706616, 0.20895335589279332, 0.1557939255326086, -0.001276573366907967, 0.1662547011084459, 0.17670231585461912, 0.07407076104201916, -0.04381442437394996, -0.027065800093788256, -0.12192409515630029, -0.05562025192542833, -0.07741607501813237, -0.26565942851392776, -0.15036236835009778, -0.20506754944800518, 0.11447313656703145, 0.12958815477445373, 0.039430193646609595, -0.0418249285543439, -0.03438268314431906, -0.01211855445162478, -0.019188308050887545, 0.02398422778346319, 0.06932675223783284, -0.029779651534718284, 0.05548742743618025, -0.0031334817144959425, 0.004166479179425476, 0.10559946064763036, 0.06299707405817126, 0.19538322881512818, 0.06950393182060323, 0.2508258169499592, 0.30874825222766106, -0.014110725935337413, -0.07925881346989604, -0.14749635823773297, -0.19132236453404283, 0.08167725527701415, -0.15948315315764544, -0.28196479456118756, -0.12853713915718273, 0.09480615241474914, 0.05378874719918359, 0.17612876580780296, 0.1350687735487399, -0.022235026930432972, -0.014127145040256613, 0.008239332109799173, -0.006341714959860798, -0.02427853118358152, -0.026700324857528605, -0.03463372286661273, -0.004864657101652199, -0.0034837873245565074, 0.01728382747013065, 0.07341391438834008, 0.06887301444789974, 0.014140769096025555, 0.13500685849311955, 0.23545816998930544, 0.2994502311210423, 0.21417824870941468, 0.14554812031832148, 0.2903424174264069, 0.2547277078789712, 0.12652851653057404, -0.07279114665984683, -0.10714267294423759, 0.04601030320407188, 0.052566477769801966, 0.012879986750825167, 0.13031010203561236, 0.0844580815506566, 0.006057337741965157, -0.05898379347410752, 0.009376489405386875, 0.01981506038932051, 0.014577174864376107, -0.004813771185949154, -0.006655198575894475, 0.005320208364813995, 0.02316510428555076, -0.027288429647289385, -0.055477467034078624, -0.041596900498904195, -0.015993639429069038, 0.007002490680057436, 0.16127502089909443, 0.043662559502953606, -0.16641131671073967, 0.1422563908242014, 0.10456290883274567, 0.19521014159614927, -0.20050620865484747, 0.012836519396292195, -0.015372899843443005, -0.012785850076392645, 0.055370334499489596, -0.0006614592579226887, -0.029106267361559843, -0.006790347911528868, 0.016317600820900457, -0.0326213256586371, 0.050446857137888344, -0.041739193283043215, -0.0035182252718686906, 0.07523704226425278, 0.006727885358609232, 0.030939596563906272, 0.006580222313629456, 0.0268203884188972, -0.03049439201189304, -0.03945445683498191, -0.08328487589153814, -0.02979789030597736, -0.059354106110397646, -0.08063430925763004, -0.04222723060971953, 0.04452629554050104, 0.0717515897634229, 0.015322540536197918, -0.1226467346916864, -0.17059740591215486, -0.22561514585697853, -0.05979570241565861, 0.08482686206467141, 0.02918031265312836, -0.030832638840830883, 0.04189636323737106, -0.010593874514812675, -0.014254671656333774, -0.016435500607408688, -0.028585556571966167, 0.00906031218668742, 0.01978680321513647, 0.02512968523978368, -0.007266122015169432, 0.0005990812517582997, 0.017021800462065306, -0.009085090482783628, -0.030528995440853055, -0.0044503529667652775, -0.05749978290015099, -0.02037955340581845, -0.04065221446746921, -0.0004931413226013582, 0.0034007068392209734, -0.06642966984832098, -0.01446880526187559, -0.011718673041762077, -0.030013150213724814, 0.005270662599342085, -0.04424036919603656, 0.028008197150926877, -0.061842064753356414, -0.07851078648668473, 0.046557646464864544, -0.02592596672608977, -0.04846044949216677, 0.031428434426170465, 0.03593707829597234], [0.045645827607225214, -0.005443282865625336, 0.010913513541178163, -0.02276699945843081, -0.030723597003797665, 0.024108954941780402, -0.03240479605067222, 0.004976897894552424, 0.004276382520966869, -0.013227279696464174, -0.057729385876836806, -0.017288671734646516, -0.014660191121727341, -0.01931328727089639, -0.011567992707991153, -0.009761473302255142, -0.0007696416937525594, 0.018103726961245018, 0.03554045697343954, -0.02187771658849535, -0.004655231840836022, -0.010573498778486923, 0.0365799056445201, 0.005260122352753674, -0.05341760678108531, 0.024132391777555592, 0.06107301853302792, -0.04224952084668987, 0.03636278644719774, -0.024312871219795168, -0.02335538619520757, 0.004587901489248852, -0.0006842899089192842, -0.02503241682387356, -0.0316836686471034, 0.01034733582106149, 0.0014809026746006374, -0.018366934333151057, 0.014289037692341305, -0.0445676218798079, -0.08562138185284472, -0.03975254240756777, 0.007113521090181077, 0.03412311164240735, 0.045377679891593074, -0.029589589882241512, 0.0035737530740465712, -0.03555838443515557, 0.0109537824672271, -0.010367029154835722, 0.01423164134916865, 0.04320106049765392, -0.016719440712149983, -0.017654771776368018, 0.04733502927434142, 0.00439420438127077, 0.03995462835523227, -0.03251367174099581, -0.04546115324610975, -0.013633446306034164, -0.0057225221999952875, 0.022320371346944687, 0.0032096559405916233, 0.01825070799033153, 0.021962452378057114, -0.0017807060087093776, -0.049816427538989246, -0.06682884258890752, -0.11338509643223497, -0.12130270414343204, -0.09703374804500546, -0.10414538486756032, -0.1674118337414056, -0.14258480856953895, -0.17863619544098516, -0.19465015896635865, -0.06977663070586825, -0.08076170518544772, -0.02598766939582249, 0.0012051683887884137, 0.00010159509085759455, -0.023687744237148384, 0.04717852397737584, 0.026821165559871372, 0.029798957636324754, 0.035312371635779494, -0.01836322151868068, 0.036966695867423675, 0.0013639146268500004, -0.007524987881620782, -0.013126290304541653, -0.06339358504704244, 0.11028648580505881, -0.01619601486120244, 0.005656510153827495, 0.03100357723887684, 0.09907355579267564, -0.02165146278852539, -0.133380506389782, -0.18692349730326688, -0.09596850240561915, -0.03553764862600971, -0.2741849516851781, -0.4719390869075083, -0.265611188429915, -0.15123296212317525, -0.1797469277397041, -0.08676527496681945, -0.09009423523979777, -0.09609962268308689, 0.025689364465071432, 0.014723069913683287, -0.028588267700217454, 0.03412778610021417, 0.028321557231352407, -0.041152198537098984, -0.028287162926585, -0.008485522944824098, 0.0008752390026540254, 0.008647395700715963, 0.13660046384748245, 0.19835855919615478, 0.38461007925096113, 0.41729519084737265, 0.41689495801133886, 0.23489670681597802, 0.36971423154181754, 0.41462772111131485, 0.2511384444057931, 0.0644563042854604, -0.05580774207969086, -0.379340044043618, -0.1169749094978033, -0.17024818263607114, -0.06003881732586629, -0.14295285924070136, -0.04657275785395002, -0.01889954097039047, 0.025544658999411562, 0.006332411389453954, 0.01670712759680637, -0.06403723260926598, -0.022603755950925362, -0.005352112854268093, -0.02491914844268819, -0.0052400603587577695, 0.07138892779629141, 0.11649234462859455, 0.06488381048712726, 0.18332114365614316, 0.2072927610912138, 0.517250473395497, 0.21184139176273564, 0.5001603343654262, 0.18959155656939022, 0.18741039586388655, 0.09977731143014812, 0.09824283456965953, 0.19149438816285522, 0.18881504785661646, 0.16562920402251569, 0.013537839455862968, -0.11336213656252696, -0.20694816288271636, -0.10892811751940644, -0.0758575558127411, -0.04643566631944751, -0.017155801482807032, -0.015466701271127366, 0.02032468388665158, 0.030210941595835615, -0.025222217498334545, -0.02324029007942031, -0.036943350460025205, -0.07717843991966408, 0.018990827414510632, -0.02225764190389273, 0.26164915313971976, 0.5086919818067531, 0.7585346627454117, 0.5350411351499083, 0.44128520070590804, 0.21361431733058983, 0.13702295449325325, 0.30655371248104185, 0.4380731965015567, 0.5404205315347144, 0.32721232653088045, 0.3878573763718619, 0.35244153142148443, -0.010666018607444951, -0.2508496084674245, -0.23621884206837046, 0.015394962733002447, 0.013167113593711288, -0.038991210313023564, 0.017820414486690608, 0.033008119220129216, 0.025690726948855235, 0.03727344615890938, -0.09010518458713235, -0.20866737739906133, 0.01608534064059958, -0.038492603380494456, 0.1807447384578729, 0.005957141342071781, 0.24348969048476246, 0.24641696908292565, 0.28014650713649014, 0.21769078412284554, 0.3206789204702142, 0.38355824738230543, 0.7023384050415356, 0.18955455163367568, 0.3913448705232496, 0.3201183116096556, 0.22983883134143035, 0.28729229243122706, 0.10463519467500493, 0.0460110267179921, -0.25806212696248565, -0.093953879092237, -0.012995910477926047, 0.012275753769843252, 0.016490417038061544, -0.02245271837934509, -0.05771186207497078, 0.002513390800651083, 0.05465990865739273, -0.01768315419130098, 0.07984164346611973, -0.061863506748734746, 0.2757488344296263, 0.026452832788764983, 0.041080520679538254, 0.14050894905721023, 0.296445234412231, 0.15657136894450793, 0.45942368009448037, 0.3113719676927796, 0.6283137122808169, 0.2501154565163152, 0.2755110351218589, 0.24804429685162013, -0.02577313367060398, 0.05583252027498625, 0.27743212647029386, 0.010296427943877771, -0.1833984009054428, -0.08144455524964297, 0.04964475497001762, -0.00568520544767658, -0.009119461220956365, 0.003377341217068623, -0.029186110735964024, 0.08054836286790559, 0.16046610749273965, 0.20055166642994401, 0.2449625084669801, 0.15890710738015157, 0.21355708736768778, 0.2917621747711594, 0.37702292600999654, 0.3791859431917344, 0.4716413777853989, 0.31877612789768134, 0.3008905069596389, 0.2333838528074378, 0.11301943188083585, 0.10189844351110232, 0.09187095945068036, -0.0182361249824918, -0.17407747975213458, -0.25401330444514153, 0.04308447628468208, 0.054219239668003696, -0.0263348412797282, -0.04583182829330206, 0.030587962846265956, 0.010638648301758154, 0.04588483145622198, 0.012992795746588204, -0.015767060681809972, 0.05041425863687071, 0.08976750162535664, 0.036260035565348826, 0.19725122182376187, -0.09427706468036237, 0.07374691519204898, 0.16622781054576186, 0.25134729371004977, 0.08526507647679059, 0.12376712331733532, 0.173524849274236, 0.17558509214758963, -0.526499025822259, -0.2015771132109806, -0.45794584478177447, -0.24528843885807056, -0.2840609002124837, -0.25271914637517034, -0.15094287498014664, -0.20566473164371618, 0.16048178385033396, 0.03282935980458966, -0.035884333527349016, 0.015245684632518634, 0.016319445134992887, 0.020369690058469097, 0.00043813810999388474, 0.035460642962385915, -0.026335823838477174, -0.04349925137831182, -0.018582461007332223, 0.10669637303059162, -0.022129625304828617, -0.20263872155394783, -0.5085652740725334, -0.25332863407694006, -0.14455832660160867, -0.25798117884313637, 0.37059943290645553, 0.2626234147524544, -0.2089324419863887, -0.1996657655548109, 0.09932663637510207, 0.06700817125169685, -0.020744004468579543, 0.09544649607561631, 0.07133287954295991, 0.10197292327802648, 0.03323902699101027, 0.18247652216966948, 0.1083605257536645, 0.025165852284359098, -0.013782673910416864, 0.084700081826806, -0.008752654887444701, -0.020887157643445557, -0.13286275488651034, 0.08125613296699542, -0.11225049435576487, -0.036027112693098294, -0.143324443753822, -0.36056543560571885, -0.23773578806952486, -0.4758660619612726, -0.596894365864531, -0.4408226652646533, -0.3055105131589941, -0.00705295974467151, -0.2414301316640847, -0.14155204461259452, 0.1502577326623821, 0.20723676607116315, 0.19829991496527866, 0.15461929500184698, 0.12188527269625105, -0.2357222770683549, -0.23761046576575828, -0.1833933865255478, 0.044843734394466, 0.05342962790953751, -0.008904321710843304, -0.00995625758091162, 0.0018834195411080946, 0.011413210073418596, -0.044615595619936575, -0.030077692967606845, -0.38338923325807966, -0.39379354662018806, -0.1938277040186436, -0.23375957396107397, -0.34809667880724177, -0.09432626960781548, -0.27004137808477485, -0.38026899315562585, 0.04127395769008469, 0.23219625894661036, -0.17717052355982263, -0.15644030751168556, -0.2868182022849692, -0.04358453215976278, -0.04867891327901328, 0.04919600289142058, -0.07427855130811734, -0.34695326658951825, -0.37425940592232115, -0.1570042536726278, 0.025406701249021082, -0.017236052139847094, 0.05014857940991947, -0.029436488360083838, -0.04915638727611857, -0.0018600555810586385, -0.02732835740317382, -0.10940428446023864, -0.4266216671940263, -0.21486194695542676, -0.3372422301169127, -0.3437584671704353, -0.3595214660509977, 0.11506016124408681, -0.20676851961436596, -0.3748605727782007, 0.20289787948055676, -0.0004391474373617052, 0.0918760830375187, 0.16208148918473703, -0.2311040369934214, 0.005711770029608723, -0.20155588156185625, -0.12605850605012583, -0.23546558234413362, -0.35583264235240925, -0.14992048139333064, 0.026018383303695766, 0.095634246137354, 0.04789043980280062, -0.02481341477751066, -0.0214321862896029, 0.01971742572138705, -0.00990936512564145, -0.10602271950143675, 0.01820530149124947, -0.13811384895311646, -0.227803958627186, -0.1782364690633578, 0.004145236937181855, -0.02685537726734844, 0.1971371668952539, -0.06315222271113208, -0.4244948090608243, -0.050220895059966644, -0.24697321941553804, -0.1525387176520832, -0.14209418062896312, 0.051277730882527066, -0.07915175484939048, -0.3278860244485775, -0.06807450556585769, -0.09366414019292912, -0.243022619688291, -0.22575475134897643, -0.08721134962544512, -0.04059687793226736, -0.02890496946808496, -0.05676565739860983, -0.029859045580931092, 0.031688593589347676, -0.007201223672789756, -0.01777488584618523, 0.1381874563864532, -0.010296535930206456, -0.26267446115567034, -0.15739494141651802, 0.06966766392961773, 0.09945207141850781, 0.06989483490212928, -0.16822906128793458, -0.17998265271107342, -0.1096733568632389, -0.19042232484737792, -0.20498657566019238, -0.017184156536067186, -0.19440912986392261, -0.3627779775665906, -0.39274311517625526, -0.3543957350460816, -0.2985924985766961, -0.3152195623075437, -0.3093968818802912, -0.08950328438893018, -0.12545060712101774, -0.0064205273829188595, 0.010586762412649404, 0.014019314190558668, -0.04040536222610314, -0.014063612254266122, -0.04070815666669391, 0.12970357494149354, 0.005078560262729131, 0.015541398023243374, -0.0937807421970971, 0.03560792855908348, 0.0057468435864256, 0.037305303818879476, -0.1669964704310084, 0.23172113125428087, -0.019169586770853727, -0.025728686046538555, 0.025983947938048996, -0.002712711537726082, -0.22686765467291628, -0.26829293391379416, 0.027403872703846047, -0.05201615401768721, -0.06820002047447823, 0.11719813424570343, 0.08436527883727685, 0.06881604844380697, 0.08012694466604554, -0.03489207938394519, -0.04389464883449235, -0.003581344294933818, -0.009605674780613074, -0.0026163017743600346, -0.0701068960061128, 0.019846210120791165, 0.09925745498205563, 0.12076849785194858, 0.23840774146122168, 0.2724277517056282, 0.1648023089883721, 0.1537066736365926, 0.07582996477677181, -0.22593128410051347, 0.038289072350936496, 0.05627080541705954, -0.044410837638624315, -0.14048831616207155, 0.07948616166527188, 0.18205811644231623, 0.25165163605997104, 0.29721285341988024, 0.3850991033771382, 0.5534480733844274, 0.3103748251195645, 0.10178295043345645, 0.1593417102880388, 0.05651696663150541, 0.06320528358844886, 0.00409143651829432, 0.02644855292779151, -0.012366528819672958, -0.008595240116298187, 0.22866802913270307, 0.40625596417756377, 0.33482478641451385, 0.16836747496893917, 0.29237930949607066, 0.07815955324398027, -0.04219720365261848, -0.3314451181624922, -0.12633073702423306, -0.2247551398054662, -0.1335373522508462, -0.18633091963860923, 0.0661201658493004, 0.05364508985832806, -0.04246161687010962, 0.107165848510764, 0.17666283290965923, 0.38667196140720894, 0.5086490736116727, 0.283385235490016, 0.16279594913528525, 0.13282737715407059, 0.03446247055057773, -0.0056753212829147295, -0.06932051726482882, -0.0016546927400448502, -0.02636604116978047, 0.0018041836599269863, 0.3272333833263098, 0.41617807177233473, 0.5069269481764658, 0.3108237441705239, 0.2745958321152906, -0.22287150579111661, -0.3081995236528912, -0.23738705288820655, -0.3093907364121702, -0.18345508336409014, -0.08827074444940762, 0.005880361134285057, 0.1703265102569389, -0.050234571834243805, -0.14811261476455048, 0.27613356843217246, 0.4081500940090023, 0.5300199420996141, 0.5627872387738115, 0.4536574248105058, 0.15839457508249638, 0.12378646659664119, -0.014933920418469514, -0.008619044790804593, 0.011345261412621096, 0.027821020165918725, -0.05289500495327107, -0.0867451141937907, 0.1763835816691137, 0.49826118385187235, 0.49300634578040176, 0.3213748029073311, 0.14918030814736905, 0.18614322225296226, 0.10348122703741452, 0.018946633318054462, -0.10158103012983175, -0.04576117939236717, 0.01119343802392538, 0.07320453370223068, -0.06128761039057024, -0.04998563520003704, -0.11644193978917947, 0.3065907046089339, 0.4238495052983808, 0.39716296298201964, 0.3664273365005061, 0.3758887820603296, 0.24539306083331877, 0.08124832086602041, -0.01862108991021736, 0.056874342866335845, -0.021770026382799384, -0.04146369591813977, -0.058090305960170695, 0.026589725164378807, 0.06755123081508596, 0.2185963646702739, 0.2632373266292731, 0.26011662697752097, 0.3538440820045955, 0.138204227672886, 0.057667337849480346, 0.19374759135850106, 0.1982854194518274, -0.016329567247887308, 0.18492539099502053, -0.004696414975490314, 0.010659574159353664, 0.15199332420393832, 0.06801472649714968, -0.09374080121822885, 0.2552086655433597, 0.12365247553345789, 0.2076467063826648, 0.291164130077467, 0.10743595257387245, 0.08951643314462283, 0.00586596306998198, 0.04421414102214928, -0.02493408595622006, -0.018735268543351724, -0.02100572739479954, 0.022723610206984737, -0.01974206520429323, 0.13403671881816737, 0.04286054696577572, 0.16555433235298372, 0.06534057290454087, 0.20504279544085668, 0.29497746806926606, 0.32055472096232673, 0.218413031965699, 0.3375080268988225, 0.12815245039885306, 0.28352214351833854, 0.16831765557397813, 0.28866934918192844, 0.03459461729141779, 0.08914646599994372, -0.040581144505622106, -0.028878903572404725, 0.1480088406809521, 0.21812651764285074, 0.07090210515920975, 0.013316080881033482, 0.025578643162194666, 0.015741748573594252, 0.032606239296160654, 0.011837396672661576, -0.01391161450424623, 0.027665936731442946, 0.026610233502953756, 0.05444756621437305, 0.1203705056848617, 0.19845928237821767, 0.37123212671755695, 0.2937699802525105, 0.11877281428561971, 0.055315882288083484, 0.028820083825990727, 0.20035552687085725, 0.021672700643160188, -0.005467907015193769, -0.09740476507458015, 0.05835652160387262, 0.11614245929095482, -0.050252811846156445, 0.14788569101448323, 0.10440602701688109, 0.04010280361810288, -0.0026081331368120538, 0.03615455318405929, 0.011545477946545467, 0.01698139161945879, 0.01828193957135821, -0.03147103698145035, 0.014147356306104667, -0.02608750869850653, -0.020208567736070968, -0.006384690755733958, 0.059616876267124655, 0.20120741545598633, 0.36850961469862986, 0.49750141133402903, 0.431280739081809, 0.231276737922646, 0.19392358722871972, 0.36473142648286555, 0.3558529259342026, 0.3643135589895064, 0.25171292341710383, 0.5482662078908235, 0.4367884648470442, 0.43945096083357305, 0.27485211595663467, 0.19536881040340195, 0.11447272994921463, 0.09851295626649045, -0.022069225710394474, 0.017638721680940415, -0.04203427924932253, -0.035232937474943334, 0.01566733014655444, -0.02250876782944348, -0.026919686630904664, -0.05332546140836191, 0.028938845076383758, -0.027607432759582166, 0.07919981728093638, 0.08478251933320309, 0.2308955318345731, 0.27707402951938687, 0.3750212920646204, 0.464911225098742, 0.3800288060263863, 0.4343901292442769, 0.42569663952550113, 0.6550437980395808, 0.41836852549462156, 0.332434585638125, 0.28829398367803927, 0.29962677807438887, 0.2874499642534501, 0.2378212707568099, 0.12540717530820408, 0.04035618480871846, -0.0003902502364463455, 0.02084742242388858, 0.039779789075043315, 0.035493125076748344, 0.029131784044747554, 0.008854386247816311, 0.034109857404356826, -0.03345529995535961, 0.028934085598025218, 0.03795032880329386, -0.011524918995657368, -0.035520919158220365, 0.031016126690333774, 0.02453800383600925, 0.01317911641704745, 0.07655770214584452, 0.01236491510867759, 0.009290085255656147, 0.0584476477881141, 0.092470292531332, 0.00022242309348849987, -0.018950989760632916, 0.014290097518955202, -0.01440159775317828, 0.1060981506850612, 0.01712836617958566, 0.09442090200137856, 0.025585610320478836, -0.016336955508114766, -0.008135350212564585, 0.051080417217040666, -0.07314811644025962, 0.026229860152695558], [-0.07265987013493781, -0.050041373105836416, 0.014414425661888762, 0.04304246618462894, 0.013893729526139492, 0.005529476358658681, 0.007835912908835493, 0.05040900391229054, 0.04176510081913038, 0.02923373858148922, -0.05918263457753691, -0.00861247780538647, -0.018312909868529754, -0.05455922379132144, -0.018503559787622147, -0.007764153991273037, 0.039422262030784166, -0.001265222277248325, -0.008848573303002047, -0.076513835545307, -0.038901014091817336, -0.006703768051302352, 0.02762958828771487, 0.007587238335602022, 0.039899476828822375, 0.03122254878082807, -0.02416963406270356, 0.013313452106562653, -0.012300382114658346, -0.03159753847931028, 0.0021187341177108954, -0.017629412029507203, 0.04315010269089031, 0.03102649386202275, -0.040438448877567146, -0.08542325691866715, 0.015401445452399907, -0.037967424996470156, -0.0503800327435672, -0.052540696692673215, -0.05981763079281053, -0.008752126774474943, -0.008360700338923017, 0.021675919835021634, -0.06691354071105061, 0.009971534281938926, -0.05543655610954579, -0.034881320516845685, -0.04487774218217613, -0.05650487830265387, -0.005319806882579859, 0.018425994892265506, 0.036529025732744025, 0.037194566111527716, 0.04623930447332106, -0.026151524186112475, 0.002230385092372914, 0.00684017411203964, -0.05386527238458781, -0.03086413891339596, -0.027190493197905504, -0.020306868525310447, 0.019464189485631025, -0.07211596106219043, -0.09960093755466207, -0.04816838749086408, -0.10490459348814447, -0.10786361449928034, -0.16965636863523917, -0.057594846903075, -0.021417725504286497, 0.06952136341422643, -0.1060478863548055, -0.12936456138666896, -0.15287678143729028, -0.10761899318984836, -0.037415602971872304, -0.08001358470770831, -0.10169502938667796, -0.02499977394101862, 0.02069868196205867, 0.00890451864475933, 0.04340058748206341, -0.03933355744825316, -0.049173374615009986, -0.03469520756481221, -0.005828133675305614, -0.04886671904229505, -0.038286961418182906, 0.0039029829863935456, -0.0904265467425476, -0.1487464586236194, -0.11008217930627436, -0.11213882516654805, -0.1556961014805635, -0.07277168808186278, -0.003967428943882482, -0.10823714685608267, 0.06790307708433517, 0.02630679775312878, 0.05240806599867577, 0.14831728914207737, 0.13487455310024019, 0.09010085414710403, 0.09904780047627758, 0.04003672160217152, 0.033710426705781484, 0.050284291963659015, -0.013277420266573622, 0.041410378037101146, -0.030306971754267786, 0.0029578703965097153, -0.014573818130823596, 0.05716480145980479, -0.032218309335333956, 0.03620783646821883, 0.0020740478123487545, 0.037939878233550495, -0.09245288760913907, -0.15563534104379684, -0.0193958535983839, -0.0018274281323186529, -0.09675253976183232, 0.14832363468163512, 0.2119914698791966, 0.20303233618276487, 0.1298454753654755, 0.03851961645374371, -0.018523396319620175, -0.17048121290326868, 0.18155952013769805, 0.17513122993656235, 0.2389480862418781, 0.2546584970268226, 0.2386615543157071, 0.20049108842799357, 0.2220209844495454, 0.15335347881308467, 0.02283255351688898, -0.0019291446402905897, -0.06510623895759222, -0.020951448678819273, 0.0003362140286426475, -0.021153974944653636, 0.022271268014742093, 0.1270508605944354, -0.03622675229210337, -0.061776363654269986, -0.048114992335510476, 0.21279003292303217, 0.05437782247900927, -0.054889885350317386, -0.04797610822289525, -0.26020931503928774, -0.24207604656099702, -0.0869306693660719, 0.0015077467387111178, -0.12970102487294544, -0.22976674685412463, -0.19651728938941623, -0.05721944145026357, 0.08412724549462339, 0.259379766625926, 0.17969582712886276, 0.1272968409078401, 0.08704768126352988, 0.02933912389282487, 0.07359070235992676, 0.030668040834738952, -0.001126989214712981, 0.008755898218976202, 0.06732382470568248, 0.0836141792410391, 0.10735472735356602, -0.0482335188812844, -0.12336750758562787, 0.08441558623131488, 0.257023966807315, 0.14857423105392004, -0.061105816311348524, -0.05579087643074632, -0.034839514855377715, -0.31145198750959624, -0.16128126738750456, -0.1459145590678937, 0.104183975589331, 0.14396640636047608, 0.23484660665330007, 0.14457530678337685, 0.0044893481135684235, 0.17220231007734707, 0.4289411472342693, 0.23843646304236052, 0.22291462834359788, 0.1088866914474105, 0.023614773343172142, 0.01552105411809344, -0.03980502701572599, 0.030968865486211965, 0.018997466003082737, 0.05041269523558255, 0.046222005592618944, -0.055514304138113806, -0.10978149151114736, 0.07875589919986595, 0.03161076347537168, 0.030141292857676208, -0.1884980123555893, 0.043942272939817714, -0.1971718428788799, -0.36033884349100087, -0.08748240809838859, 0.017159766431645115, 0.09532816682045872, 0.04184314141215722, 0.20309427764050184, 0.26387872474984586, 0.13018562449320467, 0.26541797687178087, 0.2668463175830617, 0.20366755111148596, 0.2320268563739033, 0.06959648123204115, -0.03163871540844459, 0.006141891992447032, -0.06235453036422468, 0.032273551021826274, 0.040288225442711025, 0.04548062145485123, 0.014511879549735937, 0.02889235683718912, -0.03823156803143106, 0.06822122350474946, 0.1602074438614212, 0.10074967529557888, 0.14409191821639422, -0.025790437399893562, -0.16431570953814428, -0.06135166390700078, -0.006182414016891298, -0.005338733560713637, 0.09152954188005627, 0.2725399971924134, 0.1823271943851102, 0.0445900522351636, 0.12935741069522533, 0.358273455233209, 0.07166086282864968, 0.24008764038294816, 0.278693112121134, 0.09199255234219572, 0.024007304919848736, 0.021231053370843137, -0.02388779954296663, 0.008070660398247165, 0.13611682807734, 0.14450215833547525, -0.025789732604057945, 0.07763858278712445, -0.018571245853741338, 0.11144427601701905, 0.02871823254785025, -0.010613560792931801, 0.3163742852658735, -0.2613541414230738, -0.1431095482014367, -0.043822950603459934, -0.023534914085242983, -0.14119226675989127, 0.23773200641227957, 0.16139827248401972, 0.13329633587059053, 0.09943112432063926, 0.12099160868104882, 0.20600660066479531, 0.0647344246260021, 0.23988377158412066, 0.3236013466377957, 0.06505715146408608, -0.021722093744063836, -0.03423936085866882, -0.034058178254266616, 0.043701170276606145, 0.07455563232587868, -0.012988581882260871, -0.09254552213340038, 0.1432280769491758, 0.1855145440485779, 0.06993812814529089, 0.002826795748140923, -0.06741456679810434, -0.14962618165507932, -0.1554253986334518, 0.07834826410103414, 0.07965026829443504, 0.03569353484893796, -0.38262216421403067, -0.2072689892523163, -0.09057547632640489, 0.22649658432281375, 0.23384524969064666, 0.08262941804412881, 0.07472637363799423, -0.0019408345346177446, 0.07992648658803132, 0.2690840092087725, 0.09676860503720774, -0.0077608448943191684, 0.00617107075209708, 0.03919113223323953, 0.033569054987926464, 0.025855618145133964, 0.036357353885666466, 0.10002164567122941, 0.16086403458577836, 0.16929978982275312, 0.08593775726455125, -0.0298726242686586, 0.02455486964507668, -0.01783724317962084, 0.23418980309387136, 0.5521233153947172, 0.3946906859765007, 0.035081085011764906, -0.3359417489612903, -0.3217385338868847, -0.1184500033209881, -0.19881546075590795, 0.06600954793816662, -0.16428513215545126, -0.09046676329448718, -0.035301660930277846, 0.04463189250238681, 0.21890439104987647, 0.023868853334600815, 0.041309315681880336, 0.005755001352180609, -0.03268439452488121, 0.031316375330676355, -0.0037783309627754252, 0.06528429274163504, 0.21764051512096136, 0.20532692345939665, 0.17939662554923913, -0.00894616124975354, -0.14959175201077524, 0.15808974854098573, 0.08480718001976625, 0.5071165624174226, 0.8456668227463237, 0.7231181914409143, 0.41394654474091624, 0.18659214481044423, -0.23891202317562882, -0.05819606961479483, 0.03886918406315335, -0.13096436171474796, -0.2810128406956429, -0.16443919803797546, -0.17046960314616302, -0.16859190802203303, 0.09939595125257285, 0.07205734975459252, 0.030463439779573734, -0.00979710004678546, -0.04913773060315586, -0.02035443362390633, -0.04890921182716419, 0.1452394420527758, 0.2533401839886213, 0.32182698563563855, 0.15140439277734613, 0.20540861284407091, 0.22532756133339024, 0.21185532566642246, 0.3712548255473966, 0.6119257224943271, 0.24096357943780383, 0.26942739433396523, 0.37831246722548906, 0.5271613651628146, 0.1830200340756533, 0.1555257671593905, 0.16155372548394925, 0.09724425773745425, -0.16424671828920273, -0.10932793287036296, -0.23800722995438872, -0.1667905619440174, 0.02792096945774, -0.03836142560743954, 0.026086949742438355, -0.05250419068176319, 0.00915602340166814, 0.046287746870748867, 0.015979373483660082, 0.1407761586264272, -0.03803442886844965, 0.07842515440458292, -0.12489871356297347, -0.03452828587296941, 0.04450739009201249, 0.21470414927498832, 0.19941943258112516, 0.323632443389441, 0.09498200599612537, 0.09180794505219836, 0.30645578503670456, 0.37596266614072366, 0.36276099802583867, 0.11065020786707717, 0.3794011995472447, -0.13072925211031378, 0.012230850910504505, -0.0643515908078399, -0.1089882149702982, 0.02680743542929126, 0.016714669396935188, -0.029890691666853476, 0.011171927582551928, -0.003972033429261078, 0.022064629031879265, 0.06605027110964441, 0.04329986684710541, 0.1314428655437768, -0.21471834534836526, -0.11918327645075669, -0.22481665732044867, -0.31106480122439484, -0.22253642077980976, -0.07281177953212915, 0.03516655786911634, 0.184413207519995, 0.2412422776116322, 0.2510918960503454, 0.20516223767775565, 0.18477396143846542, 0.22621369807961325, 0.19977542957785754, 0.13437775129889853, -0.3704115540300633, -0.0008841424265482126, 0.151513022852566, 0.039981531639699225, -0.15606832986447672, -0.138017899566037, -0.011530792401048717, -0.04616627946615678, -0.0022758937672726163, -0.002082648747124898, -0.014727367402020299, 0.06149996281761364, 0.043634772738374066, -0.26354935984877975, -0.08349319909191814, -0.22801876605539992, -0.17224334755596654, -0.2367587590946517, -0.15552066635391337, -0.011357190689704965, 0.26711119634547165, 0.1352834494115056, -0.02224275275675241, 0.3297967473791788, 0.11958064800330814, 0.23522976224101616, 0.14028256636732916, -0.1243486202472266, -0.2847932833264305, -0.13133238766542527, 0.04212954684307903, -0.20241732180114258, -0.179335271383089, -0.22120717762781728, -0.04803790018080309, -0.02959452701783877, -0.08481161477863944, 0.03222907580786503, 0.03821015413625433, 0.027780299422145188, -0.0339952422471859, -0.18951271441184625, -0.01156707308423251, 0.05711513222679588, -0.12475333304699525, -0.05803396263577978, -0.16934019476799483, -0.2155846166049224, -0.008403629187487063, 0.0267715936887351, 0.11954883599429393, 0.19086017306867753, 0.11246070517966086, 0.1649237576403286, 0.21610468807023805, -0.02129600163259417, -0.1469525440968331, 0.11146688792095205, 0.04601067529162217, 0.12927217280547715, 0.10343333128439795, -0.1565187251386285, -0.02107878122410588, -0.07014261642423364, -0.020598298468707598, 0.00859881701228567, -0.026551991979603434, -0.07859879729488077, -0.06964231478249534, -0.12702136984281884, -0.08387356847250539, -0.22934616808203565, -0.06159625295326958, -0.21535859377264, -0.24849025937514146, -0.12322801070490116, -0.017954609596500495, 0.29600894661347715, 0.10655726693777233, 0.141166521424277, -0.022221411204060845, 0.2313794021689415, 0.09438773298248669, 0.1177050768865287, 0.29263178946714685, 0.18685949200730256, 0.19375982334731903, 0.15467223960667906, 0.006254099352238978, -0.09070869064893092, -0.012053332444458734, 0.006597149560381047, 0.013444725693886946, 0.012736486045693413, -0.0731786635082729, -0.012624932401749776, -0.036668465992549096, -0.11829007458067574, -0.20072527444250124, -0.04860578863800393, -0.001907852998564512, -0.10441018606627667, -0.17359359686336776, -0.14743949670581602, 0.1625065036485425, 0.07107969614307076, 0.018533549217335174, 0.02381550987496133, -0.021743650316474288, 0.02052967284597345, 0.12777024158451133, 0.050319983867187335, 0.013166968216740038, -0.20850832574679448, -0.02586123985261853, 0.10462922400027337, 0.05928032730822884, -0.043347426331075, -0.01803911719422058, 0.022745581950393598, 0.009311838160245738, -0.03443312853722241, -0.011667042122863975, -0.09788929691292533, -0.09648089246745505, -0.25285064364207194, -0.22280798112291814, -0.14598260170655591, -0.022458787735902586, -0.25970606417824227, -0.24143380281392687, -0.27508944353749865, -0.2575341998271139, -0.27319150461853225, -0.18350078073035878, 0.00997635921011707, 0.0434006812511757, 0.01369602561737731, -0.1757449297412836, -0.033298438670651555, -0.1073385870182203, -0.36308647734991534, -0.18269676842326757, -0.031596326137143846, 0.1377380807532436, 0.000853120574040843, 0.008552932519960503, -0.005818369672656681, -0.009915100725064267, -0.00048548888445001075, -0.041133943856578266, -0.07251500665780672, -0.03865939488455779, -0.06731920321098835, -0.06778989180618251, 0.04283225545935486, 0.2573214112218707, -0.14482509638512217, -0.22324824815637442, -0.31958869489966957, -0.2756015752227923, -0.4580645696051038, -0.3168167469940337, -0.13085259380915046, 0.07063520065232898, -0.13147697585724358, -0.07982385448584921, -0.04139754691331787, -0.09156344411671627, -0.1941633501090021, -0.0839398790619536, -0.16869289473610374, -0.015818133868229445, -0.0610760877020827, -0.040318176498815035, -0.009646064700837677, -0.0242909378863463, 0.043585542453122905, -0.021330359541174425, -0.08599081201724264, -0.04013301432123934, -0.16835561035386667, -0.03656659806359043, -0.041585322278238794, -0.030921806328364384, -0.22043654373608576, -0.25630215767330766, -0.1366390452408948, -0.21548249128017802, -0.30541657260932925, -0.004555285328860579, -0.2142330621504873, -0.2986714006760998, -0.13816159981418474, -0.03476029222799548, 0.013137563784706313, -0.2802547519502679, -0.043896842023206914, 0.14585248522340064, 0.07184717296677935, 0.03602228938383375, 0.024323722754371856, -0.034724777701630426, 0.05193362725420487, -0.044013454765692885, -0.06008666526594909, -0.019111147717368954, -0.07025459502263862, 0.030026570486038955, -0.03693919104020317, -0.08301505576871675, 0.04485625582259543, -0.1759287965057689, -0.33732330663565924, -0.28126991226796544, -0.2080912134407317, -0.22659840480085153, -0.15139156698235975, -0.1321971263125953, -0.10712139074419312, -0.007387694630133479, 0.009476413323016493, -0.047201881242527687, -0.06192734456175059, -0.28579126910550917, -0.010778330266849535, 0.013906385637970533, 0.05744886889779655, 0.04821811228219147, -0.05724114281419902, 0.002790179639868582, 0.03211598470373091, -0.023597802351106194, -0.006032732517493723, 0.056932856829617955, 0.005811943736098111, 0.01426801464037944, 0.028367214682013683, 0.160114703422679, 0.2761991614147328, 0.25237826255673673, -0.08371628068429494, 0.04196350080851725, 0.18643336399494956, 0.21027397921089402, 0.20119828404375997, 0.22244986534497943, 0.24497420563900943, 0.31042507846427664, 0.28220085345205304, 0.15988481305870766, 0.08643627688068986, 0.07545851988330037, 0.1480646767237956, 0.11629707330485779, 0.11932571976517033, -0.015548380751783669, -0.08628688048896305, -0.055713727640410354, 0.011480971649680058, 0.0026536793675653817, -0.01983347464964391, -0.025448101605944875, 0.03739264554553409, 0.055291341914174015, 0.13141018821919045, 0.11856509090308474, 0.2684606252112824, 0.3670031324951939, 0.5168763870150924, 0.5136196839959248, 0.44374280352551615, 0.49377987824575115, 0.20540901663704902, 0.22675450277073939, 0.3404855146093636, 0.33868315082852335, 0.24786024519750488, 0.18526515890911718, 0.19705758323650752, 0.2290539590429694, 0.08609995593029003, 0.099101652688096, 0.07152345772888148, 0.005940028081407289, -0.02928054575786673, -0.06251581251658116, -0.004800001518783639, 0.02751733120653108, 0.02714210983104601, 0.013594553563274764, 0.07854744220116865, -0.02285236642208465, -0.0531013586835872, 0.08083106680518293, 0.001348244366427581, 0.09965175200711175, 0.1811565626106806, 0.1072811370496666, 0.08238479295637988, 0.10604326787829783, 0.14848532395169214, 0.10423635670772986, 0.1341215437460291, 0.11842417539722047, 0.04043851146720454, 0.14866921279176717, 0.08895010411527743, 0.09178682463271845, 0.08006807976704043, 0.006161259603049161, -0.027303812025165995, -0.01809267461953453, -0.0413430385976821, 0.0224660743743482, 0.0051929855128301575, -0.010540786076481436, -0.07429200908893706, 0.07711469207219442, 0.00839924379427148, 0.04128026400389161, -0.00424156639602665, 0.008018463997296882, -0.025263735019685648, -0.013364660582588188, -0.02931318852510934, 0.039029387216126844, 0.03141527107539188, 0.07706863186809221, -0.03097868869871496, -0.0029777147219511393, 0.004730921563651513, -1.2971314260798475e-05, -0.049319619629993684, 0.059291568181696716, 0.02105889026004042, -0.0022852631851850306, -0.005177903550681789, 0.054235951556052, -0.013235221136567379, 0.03577532135165293, -0.006132072471503065, -0.015401082566117007, 0.0036764043489307834], [-0.02742029401765391, 0.014800872322330266, 0.0016582653327082068, -0.01440235267179865, 0.0037739382227497996, 0.03440490506518397, 0.005206328080633957, -0.0019386576827949108, -0.02368531574792903, -0.007987517210479064, 0.010881303035864204, -0.010805130402954879, 0.027045563432712277, -0.06569358816615486, 0.019410288888860098, -0.006112502100820127, 0.04462893142110589, 0.018248352659279356, -0.041747807451954964, 0.02793335902057119, 0.017011311312010717, -0.009722325020667402, -0.03986451552357913, -0.024500173360835077, 0.033889634860730176, -0.056925927122986046, 0.003693818332181512, -0.02052554420912622, 0.011584564204340193, -0.04849265206518106, 0.029718487572310166, 0.016643302967729055, 0.0012985160986247809, 0.021671295688634542, -0.005630613224915235, 0.040312471233313094, -0.013369707970406354, 0.012772484162060754, -0.0021737018730326584, 0.04060132602300283, 0.007373482247174374, 0.058106577060758724, 0.04298857424337388, 0.02244954250180217, 0.03720521785671424, 0.02817642002784542, -0.0006423206842549179, 0.03919616079836892, 0.033246985838631296, 0.003323471117675439, 0.014516488337570608, 0.016678213994804302, 0.0029167316195593887, -0.04434076818577935, 0.01776320432980119, 0.01482748349591644, 0.04158989350028906, 0.041723184263179426, -0.003059352936342164, -0.0197610248751652, -0.006491693603935339, 0.021861335510982002, -0.04344776252829348, 0.07037238095413009, 0.04003050137858298, 0.036249948006219446, 0.11981133396625387, 0.09519672800753047, 0.07761852259088747, 0.06865297004378416, 0.08585161050773873, 0.07765710608374199, 0.17264827589993167, 0.10953463941718697, 0.08246256305616109, 0.11776698857364604, 0.010754203033739876, 0.03548738553274625, 0.04162036639845682, 0.02254893489441912, 0.04707908600460123, 0.0010672025307947174, 0.021309254806098216, 0.003572037408109439, -0.04228740158734173, 0.046351937403748954, -0.035790513663864945, -0.010186312623528326, 0.03309289575367411, 0.00391403235542461, 0.014396589889545203, 0.051576260635626085, 0.06788825646778057, 0.07767579588598933, 0.055371478186027855, 0.04187038937653299, 0.12834536102923866, 0.07687414578246773, 0.171711719955364, 0.17374102084595186, 0.1438256193066052, 0.06485549254487166, 0.06174596902093402, 0.2790529083955907, 0.16959002045363528, 0.02351962622314906, -0.042530381740666236, -0.072803636645912, 0.031058373723865343, -0.0476162070763784, -0.015268806614894367, -0.01434288150764457, 0.008684196202469522, -0.006315239863310028, -0.029638424161943684, 0.012123068035971154, 0.023720639200564088, -0.006348691358730854, 0.007155436053211383, 0.028967438806202193, 0.01801680688176643, 0.0567471930999988, -0.06332776291317845, 0.010871651666450224, -0.022077052256017995, -0.004862200860927938, -0.04633289224785745, 0.05181211097564762, -0.08123873207267274, -0.17188527439838205, -0.19352282399886012, 0.10417462447451653, -0.028229177021362364, 0.01836673876850762, 0.09998250807227362, 0.0170405440580004, -0.11618966909127645, -0.06423019986909824, -0.023200897689876942, 0.011285986281267356, 0.0036749664515230546, -0.07033548867292241, -0.006715144282413117, -0.08339240993292274, 0.02117753566268209, -0.014316022275048973, -0.005911705567224517, -0.04621155901004899, 0.043369333530233735, 0.04857209194085165, 0.0620422098233055, -0.32282792095060847, -0.20218919525339493, -0.04673568397841704, -0.10995111825465081, 0.013128282129844192, -0.09352847798942736, -0.08135708732661528, 0.10642127192090252, -0.043762626505327376, -0.19174278025842448, -0.04389682365488867, 0.03257857390461991, 0.014809363980229431, -0.057305208393955746, -0.05816515185293759, -0.04773055759111319, -0.04845712932916854, 0.012038195849442641, 0.008276781462447005, 0.03238555222092759, 0.006625708185953974, 0.0027173765214960253, 0.04407624922492933, 0.07283998125401028, 0.021924537073399912, 0.0064400126770730185, -0.03518871098325836, -0.1638302854027397, -0.19701989910771245, 0.004677928988818131, -0.11230051231321656, 0.03775350701711292, -0.1479273928623122, -0.21270286712050426, -0.24658424898207917, -0.19738826696148698, -0.3483759611093566, -0.18259342637424722, 0.05889348332395746, 0.04674982880332053, -0.13403515725085932, -0.15895905830225146, -0.0835400635962209, -0.07250905356378086, -0.0609548741060997, -0.05419585627342794, 0.03270414876259353, -0.0013422988587633486, 0.02564903789978084, 0.05256740689082398, 0.0973072399084148, -0.01936876277414768, 0.02041767092582909, -0.19013636022462202, -0.10213406318949977, -0.36322848239031663, 0.0734600791984794, -0.076931082691318, -0.0035939507937861144, 0.07225891213161391, -0.09324657694700077, -0.2551524182203831, -0.2929704129954335, -0.09525115205765453, -0.2525897857775605, -0.28606509406644465, -0.17783072338296244, 0.0335330301452101, -0.05230789044512659, -0.1326110448028687, -0.12166433270858329, -0.03748392519235835, 0.013948081407847465, 0.042318498993994355, -0.038534879981991316, -0.009373053950533318, -0.004275902738805753, 0.03412431233644345, 0.030694393713559934, -0.08861594647366654, -0.09264588193932317, -0.09932208751731614, -0.28538752889776564, -0.25577798962059706, -0.39594220315236894, -0.03683252153310436, -0.0896882635602994, 0.017140127400795954, -0.016921106503961593, -0.2633134170956685, -0.14158432648383298, -0.39573075082541453, -0.3289827770349304, -0.16560586625600068, -0.23587433295008053, -0.04656013207639603, 0.013726001375955265, -0.13047988151866635, -0.13172530400439006, -0.07388872279501042, -0.057249544920051514, -0.024755983483345786, -0.0007255272099891837, -0.03692911665017023, -0.025920809680933278, 0.09865077340319432, 0.03506805259580705, -0.11856304250383932, -0.05457037943384607, 0.06268072531090281, -0.1110156206230115, -0.15966825587206215, -0.2683093085011045, 0.047282503984473104, 0.09440538917073178, 0.25764138463864067, -0.04502855465036822, -0.1448821559157208, -0.34357007011096796, -0.1024419307892621, -0.07126071980731091, -0.13455604838329435, -0.10535063259712518, -0.034813994643880686, -0.006454041205535818, -0.05096738832347146, -0.10831006884106559, -0.03498400369167579, 0.048289259057968166, -0.05304120441810806, 0.031958369910574505, -0.023442036742465876, -0.010355932419933106, 0.060923026277813076, 0.17756999476267274, 0.03958201705554782, 0.055694512807571574, 0.0902578884254258, -0.010977780947813019, 0.0110754896746594, 0.047121926196868634, 0.1348772258607006, 0.5139373047926461, 0.3746414431983552, 0.12776385835252727, -0.1496972851476185, 0.10664656023105211, 0.17272741967240154, -0.07906510407907312, -0.0018560491207489944, 0.030113111029058285, 0.03978045021995266, -0.005545849726982568, 0.009058733846747448, 0.018686783175434846, -0.03108721324878913, -0.018851071139155084, 0.007164823702542639, -0.07590567298558068, -0.020135799627215716, 0.06635697403142907, 0.05384924958899198, 0.13627957377486868, 0.08431047590133775, 0.2084540351524957, 0.036669729957352966, 0.02810208549911576, 0.2061689556535373, 0.31748409869278243, 0.26066282230557797, 0.5001650533032669, 0.17331047579142234, -0.2518200384913764, -0.36309983907711835, -0.13546629066192276, 0.03141200343939314, 0.10163982588465295, -0.01413204135137581, 0.1448920430958534, -0.07335255616648724, -0.07521252199576436, -0.11087964535036715, -0.13979479777602885, -0.07128637735195774, 0.002503107666024669, 0.0055389702629165495, -0.02737333902542948, 0.058759348184245816, 0.0527337013257353, -0.04980822088082505, 0.07166713238008267, 0.05580052099940694, 0.3435039186183438, 0.4662523999070119, 0.2792817209456874, 0.28088640280929694, 0.407586814956556, 0.3802977151409801, 0.22633484115636562, -0.004421856601067798, -0.30968275749780044, 0.013646241488887403, -0.008205647868857024, 0.08147350320934041, -0.054346701232040426, 0.016141292110289827, -0.02797573989616801, -0.041378751411715264, -0.01029938402446472, 0.02824768115000247, -0.11213110461821779, -0.08687702015346098, 0.03306991989537803, 0.06554639871687243, 0.0011427173727090489, 0.06179631806002488, 0.006182308097933387, 0.005100389206178345, 0.232507138279918, 0.2713560214828934, 0.17836279092469667, 0.22641386526182136, 0.136342877299561, 0.21206720760104789, 0.06253671732194463, 0.002779308076684123, -0.018364718811644847, -0.18341756619088345, -0.2384704984164836, -0.12491477395145961, 0.04159981989201116, -0.08412823096457746, -0.1677093272130395, -0.23609104055670124, -0.00486098715013482, 0.16471228208583885, 0.19697254338612077, 0.0829823504069131, -0.08256873511306516, 0.004216841420694076, 0.03378943413163364, -0.019695201319907863, 0.0007857367245897297, 0.056837721769088204, 0.02814604721732494, -0.09831374011612844, 0.317087644740206, 0.226026120420653, 0.006380051548006249, 0.05081591793821739, 0.015451989389601442, 0.12054984765490087, 0.06545701700225873, -0.11717607023030549, -0.2984646104145971, -0.11630007619601591, 0.016739000990847457, -0.10411296351307804, -0.04885874305436583, -0.06082734589797609, 0.04190582543186094, 0.05420971738952367, 0.1869577065779651, 0.2729039956102348, 0.3692477565952783, 0.11719304562532398, 0.06907618338585397, -0.0032772619109811265, 0.015173965542553831, -0.0004151907088408931, 0.0054567688004546, 0.0663065028473057, -0.03960176308963465, -0.11596118139137533, 0.08101982313044699, 0.1308530295727388, 0.037121584430201575, -0.09577054092697194, -0.046755526691378224, 0.018253040562877812, -0.10676832693303426, -0.18720485316990068, -0.22171448773259642, -0.1860896003048678, -0.13617402453760286, -0.14241436156000048, 0.07455028742926331, 0.07324830097459732, 0.026293805749857572, 0.2735829025748835, 0.22964021442102725, 0.30088469890296937, 0.22048589200776222, 0.04149019106575328, 0.03857261528982407, -0.01082169715993054, 0.039611019648702527, -0.020941612363721673, -0.012812874469544799, 0.07099621006470236, 0.011065135504884825, -0.11807862946828444, -0.03914178416984369, -0.11778847129869371, -0.051966075206705424, -0.07079041411571675, -0.015876892323905465, -0.08963833020210284, -0.10016598517235614, -0.35742239311382157, -0.25490873585964346, -0.1299512122789459, -0.2807040349037301, -0.02056583940468971, 0.10465910692909502, 0.005458511538958631, 0.2037753227955838, 0.09023598177536603, 0.1580701715851177, 0.22288622520155282, 0.10117618640548134, 0.0441509280861118, 0.022690772913689948, 0.010755324618719178, 0.055308053456404674, 0.02282657420756772, -0.01601060164816682, 0.008704931528563773, 0.07622160816726403, -0.027814873234557527, -0.14341788545923703, -0.22716829635933633, -0.16692974863606358, -0.22595386163214926, -0.2376520608711597, 0.06793161040774989, 0.016843014068168006, -0.08205045895473931, -0.11409038300287172, -0.02665300376930055, -0.01262365710675247, -0.0334427309944167, 0.10113336200637765, 0.07557796750216332, -0.13847294244249575, -0.09601762785835165, 0.18460570170754767, 0.22806256092796487, -0.026582622128992494, -0.08164824354633994, -0.0044180340785848725, -0.02915782403004327, 0.04553833669597528, 0.05043502934844041, -0.028514830316296487, 0.04411537287475517, -0.004170437115269561, -0.0164717946517344, -0.0903625025490211, -0.14705076820326068, -0.1837330553742448, -0.05238659275382799, -0.36476728001705006, -0.18152549703860146, -0.1278571994190795, 0.025449748370027527, 0.002919152921383439, 0.11517560805969275, 0.3579718420171525, 0.2661753302879075, 0.22197423600965716, 0.29230118305161684, -0.16553297298276023, -0.18420316420240418, 0.08158037382185475, -0.013139508005771587, -0.12955634472709443, -0.08673160667617988, -0.037637226318107196, 0.01255850183071958, -0.03965481453360826, -0.020374644554918653, 0.030089156457133434, -0.020683489233873725, -0.03856261285413444, 0.034411867167561096, -0.06182349482949972, -0.10155485927872333, -0.13033993380388914, -0.05386012658861483, -0.210002184481667, -0.2183382053697821, 0.008857804316628621, 0.023866945012975718, 0.09265116887975769, 0.2457593622520676, 0.5927441924278787, 0.2256088546898213, 0.15557708275752816, 0.29549160526565643, 0.21338991077814093, 0.09252732540735525, 0.13607353115361906, 0.00211749239745506, -0.16901769339372638, -0.1369081620759161, -0.06522810938160005, 0.06074107716359749, -0.01869235404079764, -0.00040787632798824, -0.0034305825561258096, -0.004209297854248583, -0.1173679197581288, -0.0010336800578900497, 0.04981407790097947, -0.036269192174524664, 0.06019643238582068, 0.11898568031283262, 0.2661554271179082, 0.08216937576896127, 0.07618597103382677, 0.22306696683240734, 0.19315457400472413, 0.42467630303829274, 0.2521646350832236, 0.10916840331696531, 0.19102900513307297, 0.3553021016436213, 0.08476180175852539, -0.017944361813669197, 0.0695596669829391, -0.06871657944827149, -0.10558886180155427, -0.09066925035887514, -0.07486931830104049, 0.007152815249835572, 0.029846871698833308, 0.03081776926558842, -0.03337979933695925, 0.04626935405004514, 0.004295039209986924, 0.04515019034164206, 0.02150377574669447, 0.05096491024844546, 0.11570694168498455, 0.31603116889102734, 0.28187991343481683, 0.29227820356003315, 0.11501881746462057, 0.147906663490206, 0.13290444591260323, 0.07011459280975298, 0.10912078731572297, 0.22943022945411387, 0.11117312885339557, 0.2009786755037249, -0.08822146702999575, -0.1832139111505375, -0.12897882437596403, -0.07656604572307964, -0.06747991288447343, -0.08616510956464085, -0.0036759913297996186, 0.03425696595902153, 0.006519556376710088, -0.022058338875594753, -0.041993232882977766, 0.03303263924589021, 0.039347646519395894, 0.07778583826886003, 0.07414250090686023, 0.1121726863870945, 0.07550803046440151, 0.10724422522177814, 0.22803594436188115, 0.09001650761816606, -0.07219217706617591, 0.07361004311785219, -0.05037192834323124, -0.09852249851937933, 0.13974807838970832, 0.18214814328216786, -0.061001103975870045, -0.15323899155978998, -0.29404291811338334, -0.2821824101573921, -0.15190675505747603, -0.20385455810127986, -0.07380489881820745, -0.07293622943235245, 0.03765854269882024, 0.0016308050339360026, 0.0463832366675458, 0.012368194747544702, 0.0169844043239511, 0.01738766639482201, -0.096400603367452, 0.058295449677425955, 0.06293248405828283, 0.08051609657250747, -0.014298351753049405, -0.0043041430697671156, 0.2783812689542406, 0.1643528943352964, 0.057584645035559726, -0.013487286921131113, 0.04544002904617705, 0.16316028173073893, 0.00807161468422656, -0.049636710746292695, -0.025244269535255746, -0.1630664194681931, -0.35625902145551597, -0.2114960382149045, -0.16652388557042744, -0.23781358625487659, -0.09295529825590056, 0.019286744550993305, 0.012073100731334706, 0.00040045924193188824, -0.01852667902406084, -0.011339137075377941, -0.009085510348597826, 0.022234023411209933, -0.003266914571402983, -0.007464112462784473, -0.0575235785749548, 0.0024862427412817058, -0.03377151839181758, -0.015278864697875367, 0.08376930439300308, -0.18978063371420967, -0.1329649650761622, -0.13115655952840954, -0.13461611895082248, -0.05533121086932448, -0.13339427814418886, -0.21225932882693882, -0.10872385860085258, -0.11342918835509867, -0.0717507095509296, -0.12886520401377993, -0.04213367276690883, -0.016199976165997002, -0.049168837747785084, 0.051616490561409524, 0.028502685036617677, -0.020304100799475023, -0.03390344858755936, -0.019787998445848883, -0.03965303809116262, 0.026746984540673546, 0.006379237487134052, 0.0009373497008551558, -0.014025263951922867, -0.07515058149967949, -0.15640015334485258, -0.21891453842162256, -0.15987305621107098, -0.2775046153169463, -0.1794285101717328, -0.052884035829524834, -0.197207629645125, -0.2629300723713001, -0.13547562927925827, -0.16522464815468857, -0.13551492690581918, -0.016866720201037404, -0.04487845045657106, -0.1343878447100303, -0.03477868487421808, 0.010999536241046774, -0.05143810742971841, -0.00776537784074554, -0.03485014033320802, -0.015257516835599677, -0.04877994841889396, 0.002964999887529341, 0.0035614103446345038, 0.01617448566744482, 0.005521825088892306, -0.050250499900747404, 0.005630703154881171, -0.046254200055342004, -0.042814619212554826, -0.09611976379923413, -0.0960093008156708, -0.03953804134403808, -0.02708114164675907, -0.16988659020399602, -0.13673959593074894, -0.31622212395283644, -0.08304430550848463, -0.056550630764104576, -0.10225283434347372, -0.09602464988822933, -0.010986657091682657, -0.07371195920684416, 0.020653965556107306, 0.011077058834859299, -0.017673806148774514, -0.011226473260953196, -0.03679142584409559, 0.010647765219327287, -0.033504976530307116, -0.04387657778152029, 0.031169452418629024, -0.019768391485076982, -0.023334752313148487, -0.012576050725563366, -0.0014561885098418042, -0.006504910946887852, -0.0675210739910788, 0.05958043709278101, -0.06381864929374094, -0.04692270337822407, -0.0010152704461583863, -0.009049496416042498, -0.05325342259302181, -0.045347901532432226, -0.042564402734304035, 0.03997245817208616, -0.011124760038896545, -0.037697855093758094, 0.010507220804276315, -0.015067030221819658, 0.020356808574157528, 0.04095322434047944, -0.021741888748650177, 0.028749734093828774, -0.04198828719314078, -0.006043455601460013, 0.03544183875001851], [0.035977313643229224, -0.05491470928327451, -0.05512909902621127, 0.01409070734728343, -0.007043628515241068, 0.025648906073623728, -0.005628370335485671, -0.022132544128831633, -0.002341937856286062, -0.004406501059077381, 0.02036103594610554, -0.017117178621712324, -0.035937664630532565, -0.004896646783975067, 0.009233712521507287, 0.020870474778774243, 0.004677979223353105, 0.009945344745501941, -0.0536205927719822, -0.04063269864813634, -0.021100501536678133, 0.03645876925085199, 0.04904394231116477, 0.022177559223245664, -0.05845880479525643, -0.06070720585923325, -0.014507449364979455, -0.01568494239199863, -0.058098364756632596, -0.008860393747491006, 0.03453559966680926, 0.006061041765507958, -0.020717879869575743, -0.037287848348111365, 0.06046759764122827, 0.10910874387073743, 0.07449596061729323, -0.005759942009087795, 0.022684689890057338, 0.055592202830635866, 0.016940894330257823, 0.10037754686130806, 0.03229069217196494, -0.03958459305235229, 0.021321520578677516, 0.055332591655386364, 0.03134882774237447, -0.033225937702706744, -0.0019199132098522336, 0.06871019673938099, 0.06461180022391715, 0.05073517622434518, -0.06978021550385405, -0.0010913039449816121, 0.004517955321717134, -0.02760180197013372, 0.04419144366387993, -0.07000873497737706, -0.032604487328113003, -0.0002173544176760283, -0.02761436575749446, 0.051976385926352606, 0.043857565507288254, 0.1119261759026061, 0.09026372404748241, 0.04955003715919975, 0.1092507778076296, 0.08155327552872985, 0.1504383040382762, 0.1663976306813841, 0.1259561879167803, 0.102158462106098, 0.15171648568631987, 0.09631267194906433, 0.009525980099660134, 0.025629706879527397, 0.03943980515510386, -0.006573384237564601, 0.06350322165241624, 0.00717337954207948, 0.0022697517672044475, -0.05389715883771509, -0.03907685830715018, 0.03057341653867585, -0.018016526992671863, 0.06033265896657623, 0.013433002162978096, -0.015775777973187705, 0.00703736042716504, 0.0224268621065021, 0.12471048431599323, 0.15158066117896687, 0.2608217674229548, 0.33226765573143, 0.28104362099789854, 0.19430203429714543, 0.2843446731466665, 0.4709337903614538, 0.43778206195452735, 0.26892502411115066, 0.20410550160755572, 0.034104454547662734, -0.09897963196761234, 0.0765268233337572, 0.040026447681344245, 0.052217848387048016, 0.013514267016892673, 0.027218088974992616, 0.06057117448440948, -0.04718651598974586, 0.029582273227849575, 0.0017002771073878098, 0.012344810291151706, -0.018314950010024096, -0.04695624001379539, -0.02012037233988976, 0.010886737391687775, 0.001520235446933148, 0.12872882412134404, 0.17408912757396525, 0.1810842435623669, 0.278827718878825, 0.197996583571217, 0.09597411204697229, 0.16268594247568105, 0.30215737032743567, 0.4303499216080053, 0.3925681157389869, 0.3468442405534115, 0.18029593464356253, -0.01806348417019712, 0.17530320728464951, 0.14519015512432829, 0.07764166675358443, 0.07692513672562572, 0.016910923284812595, -0.02485862540382591, 0.01043140246913679, 0.019862669325415413, -0.050005344820797736, -0.029872891273987588, 0.0011741098404620188, -0.0036694865813971743, -0.02546365840476783, 0.01492402158422442, 0.0424084941520932, 0.07507199362478267, 0.1148275323504836, 0.11582490647397957, 0.03571987386679383, 0.03515535598842372, -0.08254794284083238, -0.10439530047036155, 0.13073771901346634, 0.0948429174491112, -0.0051831463031983376, 0.07589131907446589, -0.027290514154722324, 0.06319514483827861, 0.19085816535295486, 0.07909046995517167, 0.3314006895339568, 0.2305816320667914, 0.09076293421721893, 0.14462547384156824, 0.022783921229432413, -0.03308434063529138, 0.014071296953886493, -0.029557177907734388, -0.03587352894655481, -0.046607859639609464, -0.054198089501985264, -0.005215089164630735, -0.05545839593660214, 0.07887212966500806, 0.08215420016207571, 0.001468593344988536, -0.021915333973333142, -0.1375261927092638, -0.28094445618796987, -0.15277849139112076, -0.08004393585105216, -0.35677976849007215, 0.08348797819296806, 0.2070140591656349, -0.06048786311311881, 0.008453736992716343, 0.21367615468422765, 0.17631880633424066, -0.034147735595685104, -0.06618410089724783, -0.1076220728794908, -0.04205968967388463, -0.035001096422034236, -0.04498821192984287, -0.01885244814189932, 0.035140658608211806, 0.04310112645950593, -0.02421304418174392, 0.01689453494797847, -0.053085942438534046, 0.09683257886802543, 0.054889786578879135, 0.11592046379362873, 0.19335717559895607, -0.14412806453140384, -0.24123299853737654, -0.17419910828189428, -0.2076153867582058, -0.25889514411339903, -0.10330288381007241, 0.011133623566606627, -0.030740430588728433, -0.026410836049286984, 0.10270165546005901, 0.0876270745724616, -0.21672459793135632, -0.14764983284690356, -0.04940705234801171, -0.07088799205958024, 0.03192168885771958, -0.005223270380448236, -0.08187901980540127, 0.016093264685317764, 0.004986179947535855, 0.004799136610214526, 0.012664865667525742, -0.0549758662666625, -0.015829792088233492, 0.038160790865719774, -0.02059374074101756, 0.11026438986065022, 0.2520242241355717, 0.058926223640807275, 0.13965712664854762, 0.10579831169747339, 0.3358415573273319, 0.1688472834542551, 0.17569704085526372, 0.07380901302707521, -0.08705515981128577, -0.15606696018117663, 0.010844454816588765, 0.21218786085469488, 0.15521272913477663, 0.17006088070192002, 0.1476330915371814, 0.1492112918849085, -0.05900667080507215, -0.014809031739974613, 0.05080498211105808, -0.00013369698936393622, -0.02165110822041728, -0.06421669496275302, 0.022276011569237156, -0.027591996552611405, 0.037825804141038234, 0.03742373449691393, -0.08580553071662408, -0.03438454688860933, 0.08704552103792829, 0.31245225804317334, 0.16896752541763604, 0.12665498658480995, 0.16766561413416028, 0.0934628301148033, 0.037529849276541835, -0.29701649932339486, 0.021498228103003628, -0.0786477242656693, -0.09040513304787029, 0.18232050589872378, 0.11022150088918517, 0.18543166980920942, 0.2777805697786545, 0.0524533989633789, -0.1718915881555723, -0.008303096046319737, 0.06560315597693452, 0.005391625757820019, 0.007126555799098816, -0.0024163904154746608, 0.03135884652180665, -0.06475378539407577, 0.02877727577541343, 0.04320577389469404, -0.018309013345478305, -0.053947582846082, 0.11393219012294685, 0.07146371654453833, -0.05211497224557912, -0.06936713989909149, 0.061271412698508436, -0.03428417893641816, 0.12450606345572034, -0.2351932141550301, 0.05104625175776985, 0.1842010714249423, 0.1275378034634917, 0.04325753965563327, -0.07973564281584836, 0.044500058284933086, 0.23982143675736797, 0.00828547755408876, -0.11457471858431044, -0.10046474052977239, -0.02925153433750422, 0.020653752095807158, -0.027433558510515668, 0.00762538591084879, 0.020774010960980634, 0.03869508587550743, -0.011013629325212245, -0.012947482458527115, 0.018231997147527327, -0.11643865626786389, -0.1266823200090976, 0.049688372348650145, 0.004544867279049942, -0.0758015354843075, 0.076632492752237, 0.3209169491220527, 0.2601080491030679, 0.06543640135830806, -0.09429462817858439, -0.21604801172219887, -0.0652680990035013, 0.14880099171369077, 0.030718220122174608, -0.05781445170979246, -0.16697312964003944, -0.06935128243615475, -0.009053091420118316, -0.07056826771821151, 0.051803481864905486, 0.016786218380968936, 0.06915546082842583, -0.006705323391334227, 0.045451954478934325, 0.038597465392820184, -0.1385213712663004, 0.07438818312557546, 0.12885193432664002, -0.26354627985919926, -0.10222201084542562, 0.02544295239255369, -0.08684141012556637, 0.04006731370430822, 0.1690582420740071, 0.215338619639478, 0.1391806787389257, -0.10225011736720202, 0.05039260080074748, 0.032105642646261354, 0.045678505356061175, 0.10873073614386347, 0.10560990004098905, 0.06070600665795255, -0.031373592152547626, 0.14056612626699344, 0.2675850846721416, 0.009141589969654442, -0.013986073498275945, -0.01582089471151798, 0.03836417640129656, 0.027306369712846265, 0.02450432507713951, 0.021874221715534305, -0.23434124483208463, -0.21689429199288687, 0.05583871115188341, -0.46789726721090474, -0.1328081571110773, 0.03577522473396359, -0.04256255988392168, -0.09143847411518244, -0.21148002886529865, -0.01899158392879015, -0.013465940997404644, 0.026629394304965723, 0.2896508774398839, 0.07358221387437561, 0.012053867849047979, 0.30035330373180275, 0.06367804205683279, -0.0966244566507496, -0.11606670242828772, -0.09590670357251217, -0.00826516346827714, 0.018471612402691788, 0.03776721082219355, 0.12918988002836385, 0.005844761121822331, -0.012096150198517215, 0.03172915440790972, 0.0190211768233249, -0.2141376413359146, -0.15606874525882355, -0.10317928427851641, -0.3607725199351262, -0.7397105942821964, -0.34206790443491264, -0.3696137582818661, -0.043590426692343115, -0.08687901950762973, -0.04651735427694378, 0.14590359672329398, -0.057017971950226745, 0.09084183090246783, 0.014959532337870996, 0.022503302056654427, 0.0992070031426149, -0.060230087952206045, -0.05209266425801745, -0.1332384902402715, -0.15639672968393606, -0.03180535159795804, 0.11876035116334106, 0.06162466850049284, 0.02160777204142701, 0.010479195552930573, 0.04062409601101096, 0.02782911612654959, 0.02448332338694386, 0.0040535907701234365, -0.1970818056528019, -0.12245720871698029, -0.41999454003886333, -0.37053985144578355, -0.5859834416184488, -0.5902944923600194, -0.7413279768278402, -0.40472847674591833, -0.010962251200901192, -0.12455062739212741, -0.11735885484220554, 0.08420577886782488, -0.20090062876221237, 0.308162253907654, 0.3081406311936161, 0.03652886984271672, -0.10824880357812651, -0.13774896717878599, -0.3195416136212444, 0.08114294448970807, 0.3149066168317039, 0.11203840293028636, 0.03677652879052616, 0.006283349114571871, -0.012010664944716256, -0.029442424955891427, 0.09012942760245019, 0.20988221977832308, 0.04632785991505121, -0.06559621133821071, -0.13997277671178482, -0.4020115462394915, -0.349889771405739, -0.335494787117653, -0.43389152132375863, -0.31179591469344425, -0.23688890724447334, 0.00864326882402339, 0.11997162786011943, -0.008409281442359699, -0.18477877645807006, -0.061224560246811846, 0.29584359442758557, 0.13309350651111124, -0.06979821351859183, -0.10835801759996695, -0.027455636982268328, 0.018688419529226435, 0.3992687648613353, 0.08747163376819496, 0.022598354456818494, -0.044567206641494925, 0.019330609676816185, 0.0033694194716686315, 0.1680553194654111, 0.3295662438437726, 0.16184442133353694, 0.21283903148302102, 0.2753896019522378, -0.057930666497682616, 0.0143123570379808, 0.011125246432327396, -0.16254210064365238, -0.23292530093515418, -0.30551136105000304, 0.008609943619209717, -0.09000189179906255, 0.23648352710520276, 0.29856971192546516, -0.03344578597476713, 0.2580517836270699, 0.1882461577700882, 0.03492805898458554, 0.15012585583410096, 0.02979720104488561, -0.0033778679134971305, 0.21011254479075248, 0.08279250683727586, -0.0014216310000695644, 0.004932730248151114, 0.03233081036189122, 0.006649982273138785, 0.27353798915442923, 0.3671579811513251, 0.22076813690855862, 0.43519302473338606, 0.5451168516476921, 0.6012531981744057, 0.42625893628431605, 0.23066335744499955, -0.1097514131586063, -0.030880320626305108, -0.3255062693502826, -0.11343994787352919, -0.09908953211730215, 0.12868044155295214, 0.35339772624314336, 0.4087980998220024, 0.3746875969064477, 0.14186952894854654, 0.10437996666231689, 0.22584594921422232, -0.03950297218694315, 0.0976310390772653, 0.10013291269469075, 0.027813944503086063, 0.007780173031755952, -0.019212900148235162, -0.024717458467332306, -0.011575594856510302, 0.16068843548275946, 0.2388989741620468, 0.2770717411519619, 0.38860018320701534, 0.3131960001183447, 0.6045326477275909, 0.5452507315131584, 0.5548051876437377, 0.4766244073048747, 0.17155960476826088, 0.08981965217204203, -0.06869559827804768, -0.1368687147226224, -0.07117288098009394, 0.23181278198248945, 0.06744338912659527, 0.17134468449571386, 0.21955554844141387, 0.2425513903206542, 0.28783865839466166, 0.05947978808454052, 0.09598061877014837, 0.0423380514939814, 0.04706386518741559, 0.03454389884886455, -0.02688055621413803, 0.005760240317094548, 0.026947074636907674, 0.07389459591734435, 0.09771430330813549, 0.15657241169085057, 0.18127159783226582, 0.10738337378687249, 0.22658729819096304, 0.06317016357426537, 0.37553326789198177, 0.32367819901424605, 0.33491074608004306, 0.15401071388845974, 0.24311136439288947, 0.026812027588886535, -0.17189943434739158, -0.20056024539752715, -0.04001068323009224, -0.16527491557886392, 0.10456780573102098, 0.11161441292160854, -0.03125575652157587, -0.06176503149989605, -0.08046196732426218, -0.024344762933586832, 0.019913823760082213, -0.05302475547715937, -0.007908906949223136, -0.014749092273706606, 0.0012580335330222203, 0.009958248462534298, -0.028845036846108958, 0.003331559837749373, 0.18486482276597116, -0.1529812742204397, -0.24918103346139306, -0.17508565133876608, -0.07716661265203292, -0.0051493715141969695, 0.003522262287277401, 0.31886364486200247, 0.19294714389359655, -0.00320031810000292, -0.17839770081575917, 0.013602622217436083, 0.1490545377631366, 0.10868413993051254, 0.16201994305182374, 0.02823522912162938, -0.016090245254533456, 0.03703864284158179, -0.020380605210882335, -0.002044215027158702, 0.02095260761919237, -0.03507593459468122, 0.03597128761199041, 0.01413941169037647, 0.06085980002342805, -0.027153196267349484, -0.07505325843069412, 0.0338262346028312, -0.01948068705298109, -0.07018448511080044, -0.2386258033997382, -0.2008897458345957, -0.14714840917027128, -0.014900695519967935, 0.00010554858310344412, -0.025247715487541636, 0.2920147319345517, 0.31189953158479744, 0.1384495032160769, 0.20661558473550945, 0.1776755416586362, 0.03417998476489931, 0.044386810771512186, 0.04465069862586969, 0.03083736253432405, -0.015233664265553386, 0.00264963025845764, 0.016977539014355104, -0.015885918714030514, 0.024029901342593904, -0.03584969603432393, -0.03893924333356995, -0.002097569023427892, -0.0008776271581525447, 0.01728057176216072, -0.08584249382645553, -0.08056884261818305, -0.07577244134847261, -0.27383783918764515, -0.05994167449883609, -0.2528588545958501, -0.20026014694428848, -0.022506241476862796, -0.1031944970002844, 0.0073797939908263055, 0.1270601833413946, 0.0661659089738697, 0.1965154319932012, 0.13636262632696214, 0.10984065378439216, 0.26702130031222165, 0.14064616187284845, 0.04030266289139075, -0.05965436453303976, -0.037934214864081654, 0.06616182384114754, -0.002651507859888371, 0.00807832236291272, 0.027334920185941462, 0.01822110081690795, -0.024060872080795884, 0.039808307438207645, -0.04001469087219382, -0.09953020685571952, -0.06641415482349514, -0.010543022251556391, -0.12200146430353138, 0.08423499906766989, 0.030907546943341902, 0.06828390856059724, 0.06279942936324237, 0.015229861303626423, 0.18190436773156338, 0.07881378650560066, 0.24654690615872046, 0.13497827824857764, 0.13269143846368872, 0.3495895876392221, 0.18283413751061084, 0.08446934367963149, -0.07995012844247051, -0.11115507955937498, 0.07596607852357007, 0.08346059170667419, 0.03595083918948922, 0.0035612302212193344, 0.05771511894469507, 0.07065717908514327, 0.04461718330182307, -0.05504208181936502, -0.05067011221512919, -0.06514829449520677, -0.07041710702100439, -0.07859014265101961, 0.1464599674282175, 0.17941017454605712, 0.2428545719859136, 0.3204509382947652, 0.41781014213346235, 0.1569730204993341, 0.118049901479191, 0.20557921461046896, 0.06959321459240446, 0.14897314340235623, 0.20360774840056606, 0.17095059338877833, 0.03586023189226859, 0.03981938213143388, -0.08905607542881455, -0.04076858431452624, -0.010096064590435282, 0.06262888697567406, 0.010731616027728678, 0.00670572673676488, 0.020258111746544183, 0.004551588208636582, 0.05531387333023121, -0.03495635513309966, 0.012727837338977767, -0.01833696065962914, -0.05742949658904494, -0.09353155034789719, -0.102531555658091, -0.1143444114568082, -0.08839342647986767, -0.005971444529773791, 0.0006770930482368421, -0.09206864729148914, -0.22973512458676806, -0.13300220513924696, -0.020827155615799432, -0.01926030064182173, -0.034345039837973976, -0.06820955257721958, -0.07307325128881112, -0.02871940788348707, 0.04195788842832797, -0.02888874002914357, -0.01905343101759444, -0.0032623616953991615, 0.020073101209026986, -0.020196192062642726, -0.03201337868498387, -0.05459814927211356, -0.009345860515320874, 0.04740694099296217, 0.03634182443734392, 0.0005003062435429258, -0.04049922890494773, 0.06785907937639633, -0.013162023246788501, -0.0171079584605776, -0.05371869139354409, -0.02563575669296975, -0.027232225327682474, -0.0008552846128505042, 0.0048625596904198955, 0.019079118012608132, 0.009483469829340476, 0.014593105861856083, -0.05024484095372813, -0.008437773484441264, -0.014689832419747317, -0.016992049897578517, -0.0010054084032861616, -0.07447812445450788, 0.0012318118635540765, 0.03312413570931696, -0.018198225065144392, 0.009766727222735], [-0.011982560326037457, 0.030851768835388104, -0.03355742637772695, -0.014552949434697373, 0.015146162551330987, 0.003400452712650222, 0.010236624384810069, -0.0027523983103012965, 0.04877097246606553, -0.012744534891978663, -0.016784802713798817, -0.019778499057299666, -0.03475311130171426, -0.007419544098757865, -0.039551213478491234, 0.009890593895235823, -0.02434986237628551, 0.010346890064093927, 0.0021610044552705927, -0.020336494861093898, -0.00014196848125468768, 0.03978573426891084, 0.04441492623369778, -0.02310941381723632, 0.0008722485258022266, -0.01298007395611967, 0.026337367706381568, 0.01411955334830663, 0.021034250854808395, -0.02129677576654397, 0.03330396509100054, -0.01526895060861301, 0.03730550569528163, 0.03261849820270207, -0.016262183141602028, 0.02305039970871299, -0.009763937624716078, -0.025972128405012753, 0.030427212965568416, 0.0104050327274954, -0.05368446220627791, -0.025571959251422378, 0.010692976908185069, 0.020403278083961075, -0.05275143553944139, 0.02894707851293891, -0.03363345159748576, -0.007859588185154143, -0.0029157224190841675, 0.016486833935218832, 0.0018711563749005862, -0.0004242581037154812, 0.0004948625001578018, 0.02062243898586869, 0.011657851407839625, -0.017345105684556137, -0.008438643015685657, 0.05227886196881738, 0.015782447188062727, 0.01801665831616384, -0.01749875174287153, -0.014370045931442565, -0.03762943103984141, 0.0190187845303552, -0.042419190206933625, -0.018642000043992024, 0.029909334134732526, -0.0009879707279317762, -0.03377097336858439, 0.021717810412597235, -0.0005547783267502501, 0.037597683290193105, 0.021975340546129492, -0.008282468529705262, 0.03745728821409717, 0.02685614490482559, 0.053233386711998835, -0.04350878591355861, 0.0401273752768729, -0.023800253405875504, 0.04367699205098371, -0.022504878717998132, -0.012373280391714337, -0.008822485285736, -0.0002674518997020323, 0.0036151291543949126, -0.00030401638724885847, 0.08123638715709365, 0.027411768512843097, -0.004225333342018126, 0.016542173115411812, -0.03506762885621076, -0.03376546880385362, -0.08241848100689839, -0.013094459832393953, -0.04758750457044921, -0.04339831572602132, -0.060472889902699355, -0.07385588222801723, -0.04568583914495704, -0.023692946556806684, -0.09003110267414578, 0.06787213966191143, 0.08948384333968981, 0.05884375986620487, 0.029946769813204138, -0.018068124999499897, -0.022349643766501486, 0.007747249752938652, 0.048604669899384854, 0.039014919742058986, -0.02222291614665454, -0.040950641829215234, -0.027461775098209035, 0.010327988874479442, -0.033476162487838225, 0.04386217230666723, -0.00966220943584247, -0.013350067943104029, 0.009033840546165357, -0.008074149214850269, -0.03804938240452311, 0.08618047818209269, 0.09200339899329452, -0.11410660088999158, -0.1563338819904139, -0.14456088388035235, -0.00940510320085734, -0.008856166510048008, 0.015583248395141561, 0.0984381542492855, 0.029872287066430865, -0.025591832890988347, 0.14182345217978395, 0.13107771388795356, 0.12665752533218416, 0.07517005741107703, 0.08569667039700407, 0.04226151116059507, 0.04244422303245398, -0.03070360874050893, 0.024370794348983617, -0.022393305743841734, 0.006148440255737258, -0.013192739159585814, 0.04714930223259235, 0.05701787499971477, 0.07237128732900468, 0.1048248018827355, 0.029300358565749737, 0.11124457430809852, -0.03816739418448292, -0.08582858171828464, -0.058943388730941036, 0.017744829416770344, -0.1113990036672894, 0.06234986570903819, 0.07545664034562337, 0.13320457900379176, 0.00016220878511383956, 0.08031509535707998, 0.03180199935384364, 0.2211267365895498, 0.161120001440954, 0.10653498666859777, 0.007220630743762623, 0.0025322535453361356, 0.018241701693213975, -0.022358775873780254, 0.02815063886050843, 0.033173429000107835, 0.07515113381804588, 0.13711137213613186, 0.1714440611413252, 0.1270033325868863, 0.20385449480443105, 0.1573869111633464, 0.21154285398235625, 0.2593706197783712, -0.15940175319916117, -0.09977136789527745, -0.0829091110752105, 0.00437586171116934, 0.02693948151466585, -0.032394861291360794, -0.15628122376988599, 0.03265360251772355, 0.10188673971342009, 0.15190775142980623, 0.29011645565001337, 0.14059814243020702, 0.13860243532076102, 0.14796354668491365, 0.08051760403953226, 0.003087405646123985, -0.003203006541119533, 0.017795206276434165, -0.010052419246786192, -0.016752561009455408, 0.020265771963700985, 0.14279672967999077, 0.17287579696862593, 0.06974425272303403, 0.0866901906021975, 0.06147673080273889, 0.17139677246876023, 0.20485843955091107, 0.17734072716689553, 0.23988937285370446, 0.084862480265981, 0.07369766709724436, -0.23983381988743838, -0.015459401775364767, 0.01851755171442939, 0.08851643296351351, 0.019080214321402215, 0.15533003994943717, 0.10844709478842189, 0.07974296685533971, 0.15202495478481995, 0.23347991083011518, 0.15219969114082826, -0.023419186690198778, 0.008501861429617256, 0.0049494662292421145, -0.017744652962455816, 0.02547093646650931, 0.028312183618999325, 0.14983506712639227, 0.07289295018856372, -0.00030363432151152124, 0.015143678245460344, -0.10202153051266061, 0.14262682558878192, 0.14425594325590352, 0.017301646460729774, 0.15862541403931626, 0.15939833005708187, -0.002321571307005345, -0.03747883928305265, 0.13912084445295594, 0.06541486592110028, -0.018211698770432484, -0.058748031841559925, -0.09004985126780908, -0.03756728489544727, 0.13598863916307494, 0.1304675865482181, 0.3814131780779243, 0.2197246573138522, 0.04349375631922871, 0.005928128658006993, -0.0013173977518938509, -0.012545895256391224, -0.015658473221757944, 0.09180266723859773, 0.18213547353085544, -0.01558194914658394, 0.19779454475056318, 0.2196733357345632, 0.027360613899325755, 0.14609351952853147, 0.1368623172238089, 0.0770811926603803, 0.2093395932340429, 0.3882626782220394, 0.20362386060619744, 0.1304769063650793, -0.05808760374700992, -0.02395517566219815, 0.1327973233957232, 0.032424142240561914, -0.19918616412276124, 0.02470197057999957, -0.12283197400724649, -0.06014942176183696, 0.26549529285766693, 0.1393276279996373, -0.00015237030874042616, -0.019351596248363974, -0.06754499661935832, 0.037789738895166486, -0.02231022217460153, 0.14738876746371724, 0.07746898730099076, 0.0792147469023346, 0.04717696950820815, -0.163987888511078, 0.17236451501696745, 0.12657180977434157, 0.16218082947521348, 0.1965393843539542, 0.1732488184606923, 0.3524147656474358, -0.15614100467247682, -0.3388958139494091, -0.15981756176877854, -0.09661747970675054, 0.11901922978101338, -0.2708206470796772, -0.2190595285502165, -0.03463234527905193, -0.06851207846615598, -0.14344486998459688, 0.14493455541182354, 0.09981403102626588, 0.023930554628127428, 0.015520167037839023, 0.007331178946003405, 0.008027243216590901, -0.003887308594377557, 0.0013051824163199221, -0.024137273977359704, -0.18874063389783707, -0.22458472595129148, -0.30655220891873947, -0.03834108896137305, -0.21257832584033218, -0.0856495366046418, -0.01716005030806523, 0.03402997984618888, 0.004525136690519229, -0.41735854845618414, -0.2512344691397256, -0.09161336355604555, -0.2446081145434817, -0.191243966039372, -0.36261382547798116, -0.4587533176750979, -0.4418358048756412, -0.382889556860461, -0.2216307553447002, 0.035673404021045664, 0.007411627155608801, 0.017566162487120656, 0.012391672881004647, -0.030022862044600175, -0.01557929489215803, -0.016884940414974958, -0.08081903991992534, -0.07202746982765758, -0.29812798286769604, -0.1257658487999121, -0.13815497072422428, 0.16065230957646282, 0.08543101157367552, 0.1605822461161611, -0.03487068462306982, -0.12430863885291102, -0.10095265953798957, -0.20164395288228018, -0.1275332697695497, -0.27090995149794994, -0.204246428127408, -0.02180526631500733, -0.1760691821225714, -0.19979318759374268, -0.35721070969988267, -0.3483156336938843, -0.17272203848369114, -0.04979640507103049, -0.03488552199684772, 0.01630382725614982, -0.024518652765920766, -0.0035451240875217804, -0.001022085212768031, 0.008941689117122212, -0.022001885773731054, -0.16830948028794035, -0.17011066342546463, -0.15185255273008982, -0.03768859099030035, 0.05226141689682406, -0.11688958552714919, -0.22808070880815692, -0.07871089267626698, -0.024735544135583355, 0.058867710921894925, 0.01293970049697444, -0.12829867965746383, -0.11338413421272563, -0.37959634051525326, -0.16464906244403835, -0.019645793993723095, -0.22046348766333876, -0.25359582165133504, -0.15919008108617114, 0.032780921820106196, 0.08358902668807017, 0.04630430519706108, -0.006534156945391542, 0.022516528467216634, 0.04979720691204533, -0.005703976670247539, 0.028449089039021176, 0.008495777785566259, -0.10639638308057937, -0.1267756039294578, -0.036746329318648824, 0.10588424642514714, -0.023861790730232053, -0.08568531814925207, -0.13970042415801803, -0.20819769141499284, -0.0581742700652741, -0.039001572836174406, 0.05996670780160271, 0.06769330863186836, -0.1341038138015718, -0.21461558548717158, -0.341204833051378, -0.11409202858205676, -0.22268734808295967, -0.08164476639788901, 0.049272392665106475, 0.34613863512330606, 0.2649727867472542, -0.05522034628911689, -0.15544190858717905, -0.027071394869208763, 0.010365943257318834, 0.06315133888366624, 0.03386053189589786, -0.06068226378084982, -0.174011018154223, 0.0142422673691849, 0.014545571360322652, 0.09614224002110928, 0.06710861523516796, 0.12023050767218699, 0.006691772961862648, 0.06713530057584023, 0.03990159521090928, -0.06363963443639205, -0.11799417421213954, -0.1027423513612203, -0.10689707811606527, -0.3699703476829568, -0.41277568954898863, -0.17739589897813196, -0.040381565939950445, 0.20755671866505848, 0.09320550978087579, 0.4760049563264713, 0.23012186258446785, -0.17223790765001312, -0.09185270288003304, 0.019146935871230335, -0.02153355183982087, -0.009869518468810177, -0.005540261718652353, -0.0006794747103692039, -0.15561957442867458, -0.06018189933619996, -0.008880401738860027, -0.03922826714435608, -0.047456281525398304, 0.34597626153277716, 0.328827379350056, 0.18033018239895277, 0.29104125908807904, 0.2993308665476507, 0.0037697976924919714, -0.2070531338957462, -0.24744187406218898, -0.14551424034226862, -0.3388386090065593, -0.12407413146713143, -0.25035561065670714, 0.28148525446877687, 0.17466307094813913, 0.2500861784325635, 0.14168493248758493, -0.27500338551346315, -0.09664661219447725, 0.032677826827698896, 0.02455028452788755, 0.033040953269449454, 0.017319351570684954, 0.08626877856657243, -0.08561992944762058, -0.11873685350398043, -0.08034844510725553, -0.035668372886730415, -0.28653743720359426, -0.24377457079223147, -0.0533547822000913, -0.08456329869771986, -0.029295134308111478, 0.14002596034020362, -0.005948023497240036, -0.13788843701883133, -0.35688200621316113, -0.13740713267212779, -0.15906312586758853, 0.07123613783680167, -0.0015122611135673914, 0.23458048620339525, 0.20505541286812648, 0.13805471679071932, -0.022140899056467996, -0.1811208464183022, -0.1199229837811067, -0.0018882282017909896, 0.03074697286395917, -0.02421197510319657, 0.02658043626967755, 0.09856115019859124, -0.018854257011977016, -0.30062577409769053, -0.27031897921142484, -0.20436178874566574, -0.5251961410284727, -0.7911231747207412, -0.7301221439123989, -0.7227259218769808, -0.6809331974884825, -0.6433049684370139, -0.5628143022276434, -0.37196499116960763, -0.0708236154139526, -0.12185090996380797, -0.013735980495203793, 0.19247731271093288, 0.26089013006675066, 0.19713156167192625, 0.25641653121454316, 0.07770442872328627, -0.06698021995811042, -0.08483719968503384, -0.07924914880809038, 0.002157469117795138, -0.029629922968323605, 0.045952625378853945, 0.061081417369654036, 0.12007555750218016, 0.01075978793758444, -0.20726325184012523, -0.2848196269462161, -0.1068184784918799, -0.2633611729776604, -0.5732551341225585, -0.49841188515514734, -0.5419508252192123, -0.565882253122354, -0.8829612400422646, -0.7141653030767787, -0.5503138289788231, -0.04146580962628843, 0.06650473466902089, 0.06539273170978778, 0.13271612056377774, 0.2702713838669657, 0.16357618882531993, 0.34030023893651945, 0.16460127721170872, -0.06380588203326383, -0.11588571251552804, -0.03523522836348351, -0.05073507015650959, -0.005355298686907376, 0.054288060654468645, 0.04799892476343301, 0.12345123513351153, 0.13513738240930553, -0.08137146495620716, -0.20809163783117535, -0.10369314705206889, -0.046887507343651505, -0.04514802494741441, -0.2631499314738867, -0.11739407711288187, -0.36228817365646765, -0.1513606377821622, -0.09184219598083858, 0.04981632704340611, 0.09173589417108508, 0.14262490775775868, 0.09665877953944257, 0.1760397522062184, 0.20611634899061376, 0.12137394815546952, 0.23528672139405854, 0.17151679338360576, 0.027688989184926596, -0.023848225533227366, 0.0058148144956032995, 0.007639358713277966, -0.052816260405640414, -0.005403370292497788, 0.03764100506120496, 0.09461611152793613, 0.11408919862543841, -0.025749875021364593, -0.11263152444579261, -0.09968973670357704, -0.12496872716078192, -0.373600202157687, -0.130042613596288, 0.053011206463424956, 0.12536059381619175, 0.29271911069083006, 0.3997592558813576, 0.3756645428041494, -0.06517880211601167, -0.3149314340070904, 0.14066200680806037, 0.07413329772282075, 0.18625024628103296, 0.09565332058588578, 0.015503788539828275, 0.20448258508926348, 0.02944737104570918, -0.054402467807635045, 0.006114389305919476, -0.00012080654721485219, -0.035173624096757075, -0.047821783582576056, 0.030598552023552862, 0.12427965192333425, 0.1232416374487919, 0.09659375234396855, 0.15878256494520548, -0.10478307033529406, -0.16606183184736056, -0.13330538924542443, -0.17347659037623941, -0.03667289260574679, 0.12212699343152078, 0.033628684380158425, 0.1552427486604631, 0.20489514396401715, 0.015428867798223729, -0.21378516513713944, 0.10310872905824939, 0.06534985561284241, 0.11203920993806982, -0.04823410629524357, 0.000635348550171462, 0.21498164198458045, -0.023485990512910778, 0.01770204512123968, -0.05133351672529672, 0.01953237073125962, -0.04785915094799332, -0.058055261782271814, 0.03078418777438548, 0.06737849509875006, 0.29473710831564265, 0.23834850049658593, 0.347201233833977, 0.11871908443257444, 0.07927275465570724, 0.1810985860107865, 0.07084708824023606, 0.23987868586103314, 0.030259921980790843, 0.20619664077103209, 0.21370352686875702, 0.10658920665026869, 0.11048794532756241, 0.07195512426721352, -0.10946465348545295, -0.2555217587948285, -0.025569824959543516, -0.10775098923482938, 0.033567372454092435, 0.10932223806642719, 0.047316265797347795, -0.03676603139762009, 0.02548521542402041, 0.006616788213862187, 0.03531436666702954, -0.002579764655753432, -0.01816360263099792, 0.025789527425178108, 0.14897697751618544, 0.15684784830636472, 0.3199753773430461, 0.43191680539625454, 0.3048045551802717, 0.4918547158789191, 0.44208700269308177, 0.3896371540669245, 0.23636280364067708, 0.004998565048678751, 0.10756792892409169, 0.000268970975977665, 0.0572815838291936, 0.17593670015981766, -0.09734546757242929, -0.21602647542162126, 0.033828054933926044, 0.04070180817496322, 0.15082914717672363, 0.04544941989829371, 0.04815060617644186, 0.015599352580913635, 0.01098112554321114, -0.02566204916437141, 0.06302229770399498, 0.001230186808925739, 0.008264633748291617, 0.012522202067959806, 0.0781733280482482, 