{"sizes": [784, 30, 30, 10, 10], "weights": [[[-0.0009128150796836085, 0.00032790590238877614, 0.00012474740172065403, 0.0003258266709237497, 0.00046206686309711707, 6.3751185862550506e-06, 0.0003062319011485284, 0.0003575969439993298, 0.0003648803349826075, -0.0006339950471774907, 0.00011601974389058782, 0.000591924068107813, -0.0002749152139933002, 0.00024055569235842267, 0.0004889575120403046, -0.0005416932183031968, 3.683375022030153e-05, 0.000477819449557801, -8.674885844811684e-05, 0.0006009838066797293, 0.00010462121871180957, 0.0012558900151345262, 0.0009375384859416972, 0.0005431608618952379, 7.861899699762867e-05, 0.0002575009065781908, 0.0001937733058106705, 0.0008240918839281306, 0.0007569877942575329, 0.00011396608390622795, 0.00010658747195934377, 0.0002740888700727171, 0.00019256897913296284, 0.00014403860315301883, -0.00782830338140905, -0.01352169897945098, -0.007093424912610278, -0.0032486608127914743, -0.00539020006815657, -0.005760473354135623, -0.007299301089931985, -0.006269730643829198, -0.022077118655901035, -0.07276305638027702, -0.011604613458145204, -0.018797766475211752, -0.013807157192291442, -0.008553132999357584, -0.002526253086182538, -0.007696934861031528, -0.0066165672142000165, -6.807544940271631e-06, -0.0005544283666879193, 0.000294565300520103, -0.0003386825454169085, 0.0007807279741170489, 0.00036114833053897476, 0.00015622460464710704, 0.000641275653257199, -0.00044772461256748516, 0.0002054949295806314, -0.0006472083837720862, -0.008525257333318579, -0.043213714837419995, -0.024393183268289494, 0.02582750768856237, 0.028627381389794076, -0.0571161990217969, -0.03292175971187095, -0.1577020316527194, -0.07657024389646326, -0.2258011140850525, -0.12168476360185009, -0.043586514469057404, 0.048332096631508725, -0.1848901153970236, 0.013405907742020912, -0.05775697235223977, -0.02091289808928545, 0.002324376068772627, 0.038963594201541794, 0.02492546515121875, 0.0005718073137934398, -0.0006506309082047713, -0.00034429222749161046, 0.00012253961999090664, -0.000519350477937677, -0.00018028559811687292, -0.00317063833517785, 0.003160053198837816, -0.00152877638150526, -0.02309479875815382, 0.08055677096195817, -0.0417277925086077, -0.24342231107980564, 0.04340517538389941, 0.06750173654856154, -0.05210588681244853, 0.014443347936442242, -0.10603426524976114, 0.029215866071372044, 0.16489533797216227, 0.07910422721980187, -0.12585433200957832, -0.1709105489888442, -0.11327514564254178, -0.036005831510239485, -0.012220318453871431, 0.024142117469657828, 0.03611830609001975, 0.024538006385922007, -0.0008276540602047491, -7.725005667234636e-06, 0.0002819059081793212, 0.014290518916244931, 0.002625896069148607, -0.02199459967326451, -0.012147158868979603, -0.012477810170244246, -0.019494917495772618, -0.0330073706897346, -0.05792265517270439, -0.10143856571789275, 0.038946198941881026, -0.023888618768281494, -0.02348881509036588, -0.22349558407968162, -0.07631881974408261, 0.0012941118171742195, -0.42846775454550806, -0.055321162147523445, -0.04751295672735254, 0.3441360454107961, -0.0561485408112047, -0.12706487806078334, -0.147951561761561, -0.0864696324005738, 0.10210153624802823, -0.03704722107638563, -0.03568193562414414, -0.0005183352796824392, -0.0011051726260900827, 0.005245524394022717, 0.012424641388840828, 0.005387083842987658, -0.011698801042328582, -0.1419054385396087, -0.008528339973195654, 0.09110550953903822, -0.36260267119894163, -0.203714081826321, 0.3331194961734862, 0.0375707126343671, 0.3090102078748675, -0.4622865347609822, -0.15265961860816812, 0.35624509897771267, 0.07614329820785826, -0.03553643231360429, 0.1404925961129985, -0.1929004262891177, 0.22734860545346552, 0.04437410727707063, 0.1349758029512308, -0.21770193865706758, -0.1323504601949528, -0.1308389492018014, -0.0512740912267609, 0.0008810405710314302, 0.0002324067678675086, 0.00930963754894139, 0.004875304667008184, -0.00032029195459102065, 0.14036940765248002, 0.06017728989807188, 0.007214987187713897, -0.18327752078889054, -0.019646636547573513, 0.2851438555660018, -0.4950216625626805, -0.07078908777350768, -0.036531222533936245, 0.23943772446860664, 0.10566906828452359, 0.14011435078019704, 0.031063116923965853, -0.14740214526353845, -0.16423179223956488, 0.10018128369753403, -0.3432069082119089, -0.2007918927579047, -0.31004241588841913, -0.033392226735005706, -0.19202449290595722, 0.04607800666455736, 0.03437607116689133, 5.030486106619016e-05, 0.00305238151570214, 0.019543036114033553, 0.07524985817786439, -0.22752529500155314, -0.1850441965720498, 0.2010208923000231, -0.06564597396145053, 0.0830864065441858, 0.151281875882378, 0.05116085007886445, -0.16395867316732235, -0.26397677283800985, -0.0757027884236463, -0.11248092456868342, -0.1540449055620736, -0.17126143405094904, 0.20400876605441895, -0.36761432379427084, 0.1584062652693391, 0.3842567462292274, -0.06398670036587717, 0.21120410211520907, -0.2853025412094098, -0.22894961509478337, -0.3411654449398708, 0.021211638527867036, 0.020897345960292305, -0.0004435498042435014, 0.0035253490335334773, 0.07474015078601569, 0.06038631284846506, -0.005853813295326382, -0.1708246559537109, -0.12102899535225237, 0.31976956006797314, 0.009988279314511845, -0.05984394168822803, 0.12565802629798906, 0.48144924051007065, -0.21620551668260304, 0.04686856122591005, 0.5601089040930438, 0.22821384315788207, -0.35918021440349934, 0.07238532351336305, -0.15459706003735807, 0.13921898231530014, -0.13724254031864128, -0.22368570120193623, 0.07365147997602732, -0.06461841488062138, -0.8670076401733913, -0.24616611551714862, -0.04693982523461215, -0.011268641068927995, -0.00037995055762790207, 0.004992840250152857, 0.05868109679809383, 0.3480255902928106, 0.22620115341859906, 0.4857013588068841, 0.10565412026814812, -0.09182137059167124, 0.03466060850895309, 0.18045420084919753, 0.1774261928018014, 0.10005114311780612, 0.44623239566387446, 0.07083462208061228, 0.11267226057448365, -0.005629082309539364, 0.2040235706215368, -0.10991121023685274, -0.16046294232903494, -0.1567099558677018, -0.3039175060905663, 0.05567932961530879, -0.14147806614136943, 0.007133986905054548, -0.4562180421895661, -0.13790006158702872, 0.09696798462094536, 0.2078424055369217, -0.0004348537476700354, 0.005795865148495365, -0.0368342523179167, 0.06124023702241866, 0.18068523943098178, 0.3584179099398454, 0.1605325981912777, 0.2323502772302074, 0.31307562889866686, 0.10048862625336534, -0.019326351789284883, -0.18350812664660138, -0.2888050521531224, -0.4399264720576989, -0.19745429095570527, 0.008673581635759299, -0.07008500623137923, -0.012889407988461537, 0.023556809649304403, 0.1147389526432551, -0.3971604637801772, -0.14224089876777923, -0.0701313646350697, -0.14578141339632084, -0.1104021328001433, 0.12890196039938678, 0.1621941567245921, 0.07053130782606447, 0.0006426341346252782, 0.004563613276595911, -0.10169061836186194, -0.07445552874288339, -0.1999306846190248, 0.0543536668265515, 0.31857600409652526, 0.08443339368204895, 0.4212140009787147, -0.07436755284515702, 0.06060128314613928, 0.08465846794905588, -0.6858932479552019, -0.217756691769841, 0.2173887454774276, -0.24643936291168367, -0.0324531031597354, 0.19454564869473498, -0.1004915863802034, 0.07819741347462797, 0.09200573622251823, 0.0006102736071740103, 0.0287570453827323, -0.23210085281079107, -0.3148472736852141, 0.11635478474659218, -0.10929455598024744, 0.008465689318361405, -0.00011290297252081987, -0.0036251694716196874, -0.07542757063341403, -0.2166588641394622, -0.34156550429313426, -0.2427224552223701, -0.3941728229088594, -0.3233105385271063, -0.2475583737065614, -1.0185391662099763, -1.4984385548517323, -1.1446420512707345, -0.8970393988480385, -0.5327736967073834, 0.09393928719957734, -0.009245223051126775, -0.06795047943388692, -0.06304445991083558, 0.2040166349934791, -0.2500510055960065, 0.06988979221889433, 0.2821827301574239, -0.3253251456922227, -0.6535491635903221, -0.41002020196685957, 0.24122351014945087, 0.004537856691265122, 0.007926934986871302, 0.00030425801373391517, -0.0057408502536328235, 0.03875249590565131, -0.3018623703874399, -0.40370686124066957, -0.6049950946319663, -0.9800998063279773, -1.5203818270180378, -1.3008505059176854, -1.0337699916778054, -0.4876595188224312, 0.02959829905682333, 0.23144266890642276, 0.46482872501456635, -0.1536588399669426, 0.02629214881968421, -0.09453107519686882, -0.02891425398829985, -0.43685334835972195, -0.2489496743124333, 0.09948395461953911, 0.07783275166829082, 0.08700681198622244, -0.037925412485124, 0.2189330106591348, 0.3168979867111425, 0.08446406564803273, 0.002909628346742077, 0.0003288522975527996, 0.0024605291187765974, 0.04453460344485343, -0.3949938089083345, -0.44108271095689766, -0.5414983992564322, -1.0039672252985916, -0.6265966453423956, -0.48555489474408176, 0.1412707933792827, 0.14014737080813086, 0.09082502514895746, 0.3559023206417378, 0.12020185993930625, 0.4162757100744178, -0.1466477035521748, 0.10829844712144539, 0.17350812887544562, 0.0780909032698541, 0.39649211206126905, -0.27508402144813565, -0.057538493894149535, 0.1865079830483019, 0.018198914654214565, 0.1780475355428538, 0.009451584658525861, 0.021336399590814653, 0.001306752089212173, 0.0007367211711326009, 0.000714596271535539, 0.006616183567156482, -0.22424585766379632, -0.5053470946057501, -0.25129836029698227, -0.038177023575314765, 0.19177217813520958, 0.2855365118942944, 0.03399323337343379, 0.06899349768540465, 0.10969209985726981, 0.4814790556152579, 0.2524993730009954, 0.002943956993601681, 0.15839649608610418, -0.09337158047129829, 0.03473077355493345, -0.06478521386403498, -0.46989417208598927, -0.016303852719144127, 0.4607407636400103, 0.34398864192407713, 0.235874186386254, 0.04115948819896005, 0.17217005504322813, 0.1423061881216919, 0.0011467957206160904, -0.0001629746231164997, 0.0005575086650997477, 0.10452732941908507, 0.1613064073001774, -0.26198900550348087, -0.24483785895579108, 0.25157591272408325, 0.32483002932821126, -0.3383085831424453, 0.024942538968671542, 0.1396740974750459, -0.04403626515611164, 0.12001627859355489, 0.4408672853704269, -0.2688565999092671, -0.10207503686638632, -0.025873136211944297, 0.013510594943219963, 0.04752869652433674, 0.40447535294431586, 0.37272338685335293, -0.028227107539887355, 0.3166156571964976, 0.18359969525473094, 0.0460937488730494, 0.4161972181904574, 0.279927344467993, 0.0020148697095840043, -0.0017759238705907128, 3.485867160441587e-05, 0.17440500900499073, 0.12596289634506716, 0.23298956733925272, -0.11082402913266565, 0.033784298531259395, 0.2050792421770664, 0.08468570762241515, -0.14926013294150006, 0.4231688280425477, -0.09372065223326895, 0.27658130376017737, 0.20561700764501492, 0.03157171134508364, 0.18301133639791664, 0.16766027413188256, 0.06553950563761465, -0.2502528164795956, -0.07062633591366883, -0.15056165518287817, -0.1978078261153724, 0.009089999343807602, -0.09677235002212645, -0.02177439511590718, 0.18576315002919153, 0.057695653237143533, 0.019159045697546832, 0.0006164697951725187, -0.0005992334946406969, 0.08059408772995107, 0.4319910503601093, 0.11486618804835373, -0.13382510832672698, -0.015460860685750916, 0.3773123057856419, 0.23035088775513493, 0.02140416845777117, -0.1099800236096557, 0.014709518739441048, 0.4069970287120677, -0.11432774459883958, 0.12682642887668732, -0.07821924723480139, -0.016107166812278337, 0.22224843466906155, -0.08749709981613255, 0.20228558364585972, -0.5411451342358911, -0.1820559866178328, -0.3299743760674532, -0.24319264782456373, 0.01573525185149472, 0.18930903722352943, 0.05233950674375149, 0.030934517325803067, -7.202366306400762e-05, -0.0009417094794075075, -0.029303119121792665, 0.2250801498083295, 0.10158014376052636, 0.21003370906912808, 0.20739705575289138, -0.007745038947495804, -0.10956812894533888, 0.08873223204552522, -0.06814045999176585, 0.1994606694426745, -0.14957844364443004, 0.5010228292512575, 0.2233933946731636, 0.34177715699385963, -0.011952064635329822, -0.1728482289142726, -0.16250630900872587, -0.1146859729269087, -0.29277657836536136, -0.009840606176061079, -0.038667739127333116, -0.09439595321246975, 0.1396344968133472, 0.056871856188833905, 0.01714322890886566, 0.010416429044378086, -0.00033131499552764435, -0.005372635450075706, -0.006563607207861951, 0.27993912771563745, 0.2510610935342034, 0.13156830475139497, -0.07533235148656997, -0.11877657845913385, 0.11512216099168164, 0.0014472924797526733, -0.023408026560636418, 0.025320478494938355, -0.4055901047717073, -0.05248933922580087, -0.03451999610423995, -0.08905088281649554, 0.276519077221631, -0.0925451137344944, 0.03613190782668301, -0.05018370039485751, 0.30633676495830836, -0.10721064072650087, 0.05254275151282972, 0.1263511008447618, 0.07380904699629791, 0.0014616907131635459, 0.01149362866464959, -0.0004336862147321254, -2.273328832902549e-06, 0.0009232052008351707, 0.07292879873534856, 0.2840628631823666, -0.13535753054018337, 0.26532131663133723, 0.06161299147166238, 0.07272782845468795, -0.007078271310913027, 0.09511317162966913, 0.3582734233407304, -0.3662824553528828, 0.2986971617061849, -0.13957323259176913, 0.18647894224859127, 0.00726673500271137, -0.0851463710704474, 0.13045194841938398, 0.17928292818552705, -0.03306098916215847, -0.3451188047757039, 0.008210019735263753, 0.1515858092194285, 0.36684674918822874, 0.05098255876451855, 0.08981547385490582, 0.006195496055994845, -0.0007214548322998327, -0.0010106417514547824, 0.0006541426648385066, 0.042321582956615846, 0.12093148257006098, -0.016031913073240464, 0.6964692356770432, -0.28491415107838636, -0.2722518093288341, 0.09434105392116542, -0.34810137478267145, 0.22919721496815912, -0.12798740486462076, -0.2832611166439976, 0.018947204400842632, -0.08069243195848044, -0.21524354540461463, 0.04719673039460933, 0.09306979754736648, 0.10743568866819254, 0.3425249388204981, -0.07940794402230356, 0.060126300574980876, 0.25530249972907443, 0.25667668435166296, 0.03513285786350143, 0.03344922744966121, 0.0007373579410627221, 0.00011447292267198593, 0.00019008576602463814, -0.0009854159710151324, 0.0014752167966459449, 0.0817345719913902, -0.052045877769851215, -0.10009054918679516, 0.18886306260800476, 0.2310219653566787, -0.11530952809506921, 0.1548058262488473, 0.04527196072601108, 0.0432409194234766, -0.17370001179805034, 0.23362723826753026, -0.11103958698531861, -0.09128225578059772, -0.011589906411110788, -0.13056197336093484, 0.3922565715574665, 0.1181033420094118, 0.08381362784114195, 0.2753194378537526, 0.016493521328025944, 0.012353846264605941, 0.030551626807573656, 0.04005321089795025, 0.0019012586004311305, 1.0125927146554878e-05, -0.0005995645733282824, -0.00039017156682896465, -0.0010627520942518036, 0.08944370558659388, 0.22744051382865205, -0.06891601427918012, -0.25895316638015997, -0.19193590257523746, -0.14202850254133692, 0.03967065860316356, -0.1934477800421356, 0.04488096486217162, 0.12021322707523673, -0.0472961133803923, 0.053857281382989036, -0.196211785328088, -0.08314985081655679, -0.11502929867180967, -0.18723950516169865, -0.06099305389012895, -0.057196978716299446, 0.24152286330393982, -0.05110580356702602, -0.1498986925920938, 0.0162648145970514, 0.029959045557730896, 0.0001710620286186112, -0.0010485139463928934, -6.849799278147349e-06, -4.177482356605472e-05, -0.0005703233644017544, 0.005965597197449759, 0.04139506897276111, -0.07264772715550558, -0.04896025412938515, 0.0021397502845897022, 0.22316455191106158, 0.27082132894016847, -0.04307365192460919, -0.4071942115128556, 0.08083591090791278, -0.403428575885638, -0.31002654620469994, 0.18808334210130534, 0.21689754984145546, -0.3464433805274218, -0.28096909969931616, -0.141788132628535, -0.13023120819299464, -0.15999775002612038, -0.14601065975018707, -0.08875700955955801, -0.06031910153183035, 0.0009839922394630695, 0.001119492014387535, 0.0009616209276992387, 8.109333850556469e-05, -0.0001654243054691507, 0.00025029458264502167, -0.0008901348187882033, -0.019130589264792327, -0.3676808446033149, -0.30343412285259413, 0.06548630396487756, -0.01789158680903799, -0.12490067636525726, -0.14485740541913814, 0.05391506584966781, 0.0280200671760359, -0.08104274532952406, -0.06726253549796599, 0.03787233604815677, -0.24222764286429257, -0.1478345531497985, -0.15260336460763613, -0.12733518671146404, -0.08772200064745979, -0.16671741077870836, -0.10071277395233354, -0.003120351086340871, 0.000558769446472717, -1.818701617994882e-05, 0.00012528171780758015, -0.0005952483729149009, -0.00029066446732202845, 0.0003821223849916801, 4.11358442818633e-05, -0.0009947900055449284, 3.534319785242806e-05, 0.0016669878293799575, 0.0028814506647827933, 0.004293691193230504, 0.005984532898937578, 0.012004627242243684, 0.04500823637781263, 0.015220228635004742, 0.008523804221384549, 0.01552581607569106, -0.003249144533483662, 0.02639803123235818, 0.01769715570810074, 0.0076124264114668, -0.048737920920855805, -0.026464830772717496, -0.0194944527495845, -0.01711787751031854, -0.10475514355585876, 0.0007592131380113408, 0.000205481976581922, 1.4680186943670947e-05, 0.00024539123655494156, 0.00023871074371140715], [-0.0011636043418185645, 3.0783453044670555e-06, -0.0003097142461528643, -0.0003156868160900621, -0.0010752201163366749, -0.0004862666151760523, 7.979668832807347e-06, 0.0002816395859096347, -5.187481207057502e-05, -0.000424930062291789, 4.986156914878776e-05, -0.0006492512933658869, 0.001243322323480222, 0.0016356541255252279, 0.0008064391524777321, 0.0006379646299204044, -0.00010387500249059541, 0.000418680111217161, 0.0006186432239415114, -0.00021449222760268504, 0.00039811195875107466, -0.0011475762343494936, -5.3491522233980195e-05, 0.0001525306616472377, 0.0004554156618337148, 0.00032854830986140873, -0.0005269782570638674, -0.0005111186545246298, -0.00014107414624106013, 0.001179697870104945, 0.0007294731485307319, 0.0023520381219759045, 0.0008612545828128235, 0.00038796479201690993, 0.047160511899041656, 0.07153769067656168, 0.022638058190248667, 0.013903522699789098, 0.014192952235645673, 0.02893838423629924, 0.04632715782342998, 0.029442656886840203, -0.04220077783933177, -0.07819918393421116, -0.059904243490826736, -0.022092044109257983, 0.012349087028145876, 0.021165844936318564, 0.01389965865436059, 0.0058893916604742386, 0.006994906649068681, 0.0008565781765976436, -0.0009555984564610371, -0.00028963055033976256, -0.0004313444687271431, 0.0003732023257680613, -0.00037052536052022323, 4.814685130923441e-05, -0.0005903540660206905, 0.0057389603360003, 0.009636953184328887, 0.00530204181729079, 0.04880818700594023, 0.1381000821406597, 0.10075127283179543, 0.05106539485273653, 0.041051119314384515, 0.17475849431955318, 0.29055056638241034, 0.21863949882305755, 0.24935796281546696, 0.15468074822520614, 0.18342491262283356, 0.2934562629787549, 0.11866664865016194, 0.08736894350612642, 0.024866609290099345, 0.014884641589296536, 0.013394959578182555, 0.0023619267337411606, -0.03016799097989851, -0.019896621434305616, 0.00017171127520935423, 8.747252664725935e-05, -0.00030736215481429565, 0.0007228191195554636, 0.0001876348163344296, 0.016249904454692692, 0.009778154770805014, 0.00476060947054376, 0.1594968581026406, 0.21877209503770537, 0.05343288384514998, 0.21708419643313723, 0.3400441561414981, 0.3733908346553341, 0.17101870193768154, 0.3257352769436173, 0.4872286418547519, 0.42391498348155177, 0.471615529625068, 0.5432386679341271, 0.42471404729883566, 0.26217530024518304, 0.09196824165348934, 0.08474732577328235, 0.05322074716329582, -0.0025651788654426117, -0.05720554087235962, -0.03390027948865612, -0.0007954708606920705, 8.842594791399667e-05, -0.0007393557396806467, -0.0007739333626470893, -0.0002654383797539442, -0.004578886541506468, -0.01990574527965045, -0.10242969317895881, 0.052362545091312336, 0.03154711241474986, -0.09565805473585066, 0.14125233697431624, 0.03979240259237823, 0.07651831451727338, 0.015312558248642475, 0.008210505810407245, 0.2244686698251794, 0.3117189145140975, 0.40351991299393214, 0.3346975213745181, 0.1272917417531389, 0.508433958717009, 0.5440804662036083, 0.2148470097093813, 0.09212520355131937, 0.02897865201635154, 0.012800327173218646, -0.004097577141583187, -0.003367157688061472, 0.0004925359608222721, -0.0010261994964023734, 0.00018743451137867928, -0.0005755648087129003, -0.003233195923273159, -0.0903295659630423, -0.4091554382469442, -0.06458965254708765, -0.2395681690525946, -0.15537658006705599, 0.2449972178382598, 0.10690507993329942, -0.1893580728531547, -0.13719628971054176, 0.08607105841914489, 0.2567551462736945, 0.5832899349992401, 0.701508087766551, 0.6018799734686702, 0.5432090084013319, 0.10510693661866666, 0.416074800296891, 0.27602524639372705, 0.20883006896280196, 0.1685080205495181, 0.060948108820917474, -0.007509344862245464, -0.006500290807361533, -0.0003119301745672161, 0.0005331610510035417, 0.00010713474882950408, -0.011935851013081596, -0.04486690847189794, -0.1867650756313574, 0.06419878806272845, 0.06838689515532448, -0.17116735286531506, -0.1725797012386001, -0.24605883912800022, -0.11342418108548269, -0.04314139254585455, -0.0920408514532486, 0.1551087558945343, 0.1720296450913904, 0.330944622722123, -0.3379170651943821, 0.13279413532321346, 0.0973704654172666, 0.22604108797656836, 0.18997139359132859, 0.08396511903160976, 0.5843021392366522, 0.4211181994809764, 0.30282465837542694, -0.048598666629232845, 0.004533560993326817, 0.0010129886729182518, -0.0007199209354033771, -0.0005607494708131366, -0.024063523947029486, -0.12445316949921865, -0.1446747408560626, 0.19449317498955346, -0.24272956632704534, 0.026733292076788828, -0.1934364371211673, -0.18487497766650254, 0.14072517775903898, -0.021395199705243402, 0.34579128892297445, -0.016978059774991852, -0.5976290433079529, -0.5263082272325132, -0.11761053693404828, 0.1895050779363391, 0.20369392370123002, 0.2312269665984518, 0.21265391899624123, 0.3136139505038692, 0.4862771662149981, 0.5655100343123285, 0.2896604533786827, -0.31644859070113013, -0.021984112897520034, -0.00015570286667072075, 5.2604821099889226e-05, -0.0010947101417697056, -0.05368432991422611, -0.06330460834687891, -0.25146383987556503, 0.11970067226698862, 0.2969140973649595, 0.12634655885514345, -0.05036698802488068, -0.11976889132840852, -0.02325307376346287, 0.25603837134240554, -0.18641581619403033, -0.13435833783713752, -0.6743966500181562, -0.3836943796752548, 0.399123697329347, 0.18013819637880582, 0.3344963147400965, 0.3506244772531151, 0.45610286580178133, 0.3263055180001314, 0.2715015550475564, -0.016577621316172794, 0.014103948664315314, -0.004362010982630104, -0.05397690374780391, -0.04917041699684335, 0.0005268763090891193, -0.0021902005231944463, -0.02678501083493413, -0.15906940109078113, -0.20364729773386014, -0.05367628939927315, 0.20882437704331894, 0.06444455354107848, 0.4469484625001692, 0.13708321602161638, -0.11537899572318773, -0.5849276113025732, -0.27740393850106676, -0.581159214678832, -0.44343006829899756, 0.1268924993275065, 0.566159075899331, 0.01808525832201829, 0.3055103409982396, 0.29407586264241775, 0.5423846298859394, 0.17830499000320216, 0.1087598651497271, 0.22282111454899775, 0.1539355132648459, 0.2811241839270443, 0.07700931443315169, 0.003995109192457358, -0.00036356125816658326, -0.00020032821787740614, -0.04713105511450454, -0.2611732837398498, -0.11719457764754505, 0.05004180226913497, -0.23919832850485467, -0.33642801236495545, -0.08455861105319437, -0.08506236421422143, -0.044181920098344055, -0.16581017685748325, -0.038654886280363523, -0.07806599775152939, -0.19480404711717572, 0.08340840241441476, 0.1583719278896045, 0.2386962809614579, -0.13381577577274054, 0.131123346151121, -0.07985743816554593, 0.09445031066898439, 0.1767397718108796, 0.05411102755737794, 0.22566909793685555, 0.37616913944147456, 0.10009772814446978, -0.020621204572109607, -0.001010681932648795, 9.446826630454147e-05, -0.12725381351767068, -0.2767107032050888, -0.035399783582525664, -0.08175156005929268, -0.005835314162406679, -0.3547622390112433, -0.30794222142650796, -0.38880639390564947, 0.22645015776934205, -0.2315947957618067, -0.08544887502120377, 0.06978350045742056, -0.5033436605171521, 0.04481513808850562, 0.20569882260140254, 0.30968447214615147, 0.21476044366172206, -0.011906121120237709, -0.08760786108451724, -0.14501174541799175, 0.060073910951938515, 0.11219772890578722, 0.3548975581802066, 0.18832943762409524, -0.03384198588588671, 0.0014831031083271952, -0.0005837155210434472, 0.006249702598551936, -0.030851958962354434, -0.05385427230407165, -0.08240693899670724, -0.2695092461413505, -0.07980167414852642, -0.10902442905456894, -0.11425891852714165, -0.2833198470809278, 0.12372344063032248, 0.0009832174881787214, 0.22412456672106493, 0.05656755025798161, -0.5078362687832245, 0.11720632899393069, 0.0065845788378728395, 0.0033579228369199385, -0.17224756441012393, -0.17229288501384482, 0.03236511820509537, 0.24020491413633163, -0.0023998464277907566, 0.13236131785007643, 0.364765549029458, 0.005450868382940643, -0.06825616553952656, -0.006439813789056913, 0.0005045097457482596, 0.0286350335423687, -0.025928926327926313, 0.09370382762057157, -0.11874920317890965, -0.06600781618037546, -0.06620557622811117, -0.27334059124546056, -0.012041595381154149, -0.18784007393990654, 0.07216128699702189, 0.21735651982620316, -0.1858722351662705, 0.21968556250171314, -0.13582270988306122, -0.10914099488550306, 0.1712820131126929, 0.0018230926286255966, -0.12538984695651825, 0.006506143158300104, 0.15622629865006551, -0.12314505358419271, -0.004123017141703943, 0.057807985869717554, 0.1728748264575464, 0.07520907820974915, -0.10257043365331533, -0.00951254866278807, 0.004030834409027712, -0.00020241948465751124, -0.018223775831639713, 0.022390074922707958, 0.131211338531893, 0.19475490642117219, -0.30495989099192017, 0.11822199179411959, 0.3758183394762704, -0.06732144744979941, 0.44057584928228305, 0.10287140980761458, 0.07490859344370933, 0.0946491188407183, 0.21573418809013492, -0.05443359676701274, 0.3409970780406635, 0.0012471772740013877, -0.07813595958835598, 0.45545944749560036, -0.004072400843307419, 0.06140686055203752, 0.2693076369142726, -0.1386755164000801, 0.08916835004384371, -0.06325665741964892, 0.012829543421447548, 0.003944034488635769, 0.0013559804876920312, 6.0988063767092693e-05, -0.009174982169328227, 0.037727314524985116, 0.2709664389780055, 0.012746675372613963, 0.10541643721274796, 0.2843524854365454, 0.19805361848053307, 0.157097065167853, -0.15812872093143146, 0.10864792151075969, -0.01369930261140279, -0.14320221481882145, -0.2602032947678499, -0.25195065087603524, -0.23291326358234823, -0.3300871756969308, 0.23127897343894577, -0.1350455533892342, -0.19195171208805642, 0.19403272218463083, 0.06084729239960467, 0.01687597074211699, -0.0821621270085667, -0.0072950380648995, -0.04906621740547622, 0.008380558269937093, 0.00038230600507235503, 0.00047083432842400696, -0.011261981793499186, 0.058551669297912695, -0.01873713355993872, -0.04752153026296303, -0.16656954430919801, -0.25689165827952437, -0.28754865404837143, 0.4541271865917351, -0.21794725006124385, -0.2179554470689255, 0.10149501851287643, 0.1338224229626321, -0.28107432247355457, 0.48537376906041757, 0.1293346689685372, 0.3511995947169634, -0.3201931205448798, 0.004389351923499197, -0.15673779977297247, 0.049183260718293, 0.06019165082457457, -0.022841128090593497, -0.08637061302382489, -0.05089393639187985, -0.14231380018585943, -0.005075213645069507, 0.00047523936126268944, -8.965501543163987e-05, -0.009841719130538431, 0.07373169186491912, 0.06633175678635266, -0.057931748088462215, -0.03573388041062163, -0.23819759263290294, -0.2328212303593989, 0.004387207364688363, -0.023146494062110657, 0.11757471662254318, -0.25265229853363497, -0.01063262139373315, -0.2121207620579292, 0.3241615179158452, -0.12632744708918803, -0.1273325873025755, -0.11000907726768311, -0.07975810266069538, -0.03933281592666501, -0.31391665565011906, 0.11261332531623436, -0.020550296967048687, -0.021026904904958926, -0.056182435481432806, 0.0013303747702703027, -0.05639132881974564, -0.0020990400115068765, -0.0013881530881119872, -0.024331891429042518, 0.06920470920055974, 0.08986721917999536, 0.2540270763911905, 0.1282617903495353, -0.0471530520069163, 0.06608769384790669, 0.18637072699065346, -0.07164673115309152, -0.1924393778274594, 0.17715268767895334, -0.08661836434250997, 0.22452377008512764, -0.031521052655595364, 0.17453810957750032, -0.15247955320531542, 0.03678739294757798, 0.4326594696256146, 0.28909544720359637, 0.16428178158630605, -0.003951129540389729, 0.10666804676290054, -0.004051075071335352, 0.04527660138934935, 0.0023512261569784668, -0.006423471359554089, -0.0005129341154109556, -0.0007400765292130118, -0.006639217419337957, 0.035918772046789574, -0.06127130934312333, 0.14866227235173068, 0.43127374646744904, 0.2765450981869435, 0.01827515327533994, 0.38985754714605475, 0.17097179327522896, 0.293310395941097, -0.03973757740872985, 0.19238032300910846, -0.18659300950628083, -0.12745036378966504, 0.15322369819827633, 0.31541899139725643, -0.13774880646187443, -0.07044798707424428, -0.3406274143202747, 0.25543280258205864, 0.027955682795396383, 0.23853064469071975, 0.14762454500885913, 0.13174160482361205, 0.019401702178427405, 0.0011484143615765172, -0.0004482102814255627, -0.00020583143890474218, 0.005659723548994159, -0.05081949185687506, -0.13786289517363723, 0.021728614062603017, 0.20777599712004208, -0.300318327971708, -0.11839524718290938, 0.09796397479258166, 0.10413967364152855, 0.22990520879673268, -0.023875220080700147, -0.2208584101979905, -0.19972125143015318, -0.16332252364144606, 0.12038258052322008, 0.0019585817551474416, -0.020011938862467247, 0.24142522206646286, -0.16723134257634473, 0.11736255352242474, -0.08638437187348925, -0.09982370578076974, 0.059719913579819504, 0.09891616433234865, 0.011099442838300133, 0.0009401941091325624, 0.0006618168327875604, -9.654226132674254e-06, -0.008380865976261012, -0.0375193268174166, -0.1713136110426582, -0.05952087761365737, 0.030976154109778713, -0.3085095284025909, 0.15067695051015242, 0.046482365029384486, 0.19605328987420273, 0.14421520638282032, -0.35776363509462666, 0.1658158220437222, -0.09028587817609567, 0.01739057588936144, -0.20530642799431292, 0.04744482535001324, 0.3343818761567502, -0.05645906820249918, 0.27913318337732496, 0.014686401519422077, 0.12386254037101084, 0.10949748659952079, 0.08508426929696632, 0.11063710150609186, 0.032598549850357546, 0.0009210962577962813, -0.0004014723892723874, 0.00020170180824267956, -0.0011834119090374858, -0.011442444531658253, -0.13603998075111295, -0.1366734216717738, 0.1011187373116057, 0.44520973648234086, 0.5509705334289332, 0.09226967896722758, 0.37893192925556046, -0.05344123095994354, -0.1342079780323142, 0.13495253132876445, 0.1858907788620534, 0.21360242451465267, 0.1065664757909573, 0.1762861956651746, 0.031045694948203577, 0.13054494099226022, 0.03781239739155614, 0.1704371719768543, 0.20459411471285663, 0.13548608544639362, 0.11406689239555577, -0.006606126954246253, 0.005067117038172569, -0.0005371749067930286, 0.0007002585660302962, 0.0004333907699420074, 0.00043053626892402516, -0.006219318595894351, -0.07404028877976397, -0.1269376465487306, -0.031013821171156607, 0.34565105745479435, 0.4846476823289736, 0.33224096830566524, -0.1527322862921641, 0.0422467558201591, 0.14192497996701367, -0.22401142800918156, -0.2027377937079854, -0.05904658722801333, 0.24776802236358195, -0.18364238013123907, 0.1624300824744467, 0.3338615266574074, 0.0798695118679203, 0.19625969536429613, 0.37218607324941333, 0.16003297229999017, -0.06918667723890366, 0.044955796697768675, 0.00147173607452958, 0.000733740883519884, -0.00014065080422903274, 0.00031219001022713257, -0.0006223669930256968, -0.003907970812303057, -0.05131992198155529, -0.04115751468610236, -0.07067440175293876, 0.17428762510524037, 0.0708547960435643, -0.14629131805443776, 0.14606435722881936, -0.6078443683844093, 0.411685155714532, 0.06956539942431032, 0.3082792703908865, 0.057246222096639585, 0.3602789174392111, 0.11381608135502122, 0.054903981350157255, -0.03303160546795817, -0.24168000548532947, 0.06253705588717348, 0.14804995801927937, 0.17345247223058566, 0.11450174724687123, 0.0006872861506645252, 0.005889248411026964, 0.0008013845109450576, 0.00017694491819110082, 0.00020454107590529128, -0.0003624449540966788, -0.0009586490558442097, -0.04076320478134148, -0.05556452798182466, 0.020574350486120684, -0.2414585269838482, -0.10502060981533198, -0.026559671961985668, 0.2642761290818771, -0.09386558527812723, -0.4545798633491833, -0.18155454813770505, -0.05754499962400284, -0.3721345321488725, -0.3076170419174951, -0.015803005459855215, -0.013015311998377296, -0.21010314210681283, -0.14268771346409426, 0.01733366072846685, 0.11545557282254727, 0.3232371405023536, 0.18614314199989745, -0.001643133843359735, 0.006261478196492831, -0.0003799245793769377, 0.0008182030548117324, -0.0004835272481526492, 0.0004040535365149823, -0.0003112007492714482, -0.0021622533117629066, -0.0017931476242324799, -0.053934189496488795, -0.0829149656130143, -0.11203247612776657, -0.20078986067918628, -0.08816482520297182, 0.12915595075866382, 0.11612733854721351, -0.19281977967127997, -0.7672354170126463, -0.44246448720650056, -0.2864542142641034, -0.26687538338881756, -0.035110556020271556, 0.08107672755748387, -0.04477097303502101, -0.12158098627399454, -0.0445215929340548, 0.00012069583416927808, 0.00022445593020039106, 0.0007410796147694143, 0.00041432178867225846, -3.8730996221152274e-05, -0.00011625480118057098, 0.0006668058220970541, -0.00022506187230042068, -0.0005011856932131211, -0.0001896601280946319, -0.0002891363396712172, -0.004140264540098171, -0.02713065070153562, -0.025797492414628337, -0.00036186488749162884, -0.08067239529586746, -0.05441603348694232, -0.03705646226422863, -0.048663422451085556, -0.08372653464551057, -0.04079061551980798, -0.03134962641297879, -0.0345787905208122, -0.029449488807649287, -0.020424873555665513, -0.03841523893379148, -0.037891653418210616, -0.023079784328339813, -0.003972307726718387, -0.0002560583581182488, -0.0003926572470972739, 0.0008631752338172931, -0.00046853513130029633], [-0.0005215093377417436, -0.0001526291806317832, 0.0002513581063500768, 0.0002160915796342277, -0.00017283436041837073, -0.0011070400152070135, -5.259514790670872e-05, 0.0005095415435207487, -0.0004914786448740518, 0.000781738325617653, 0.00029910147785987734, 0.0004139190162283195, 0.00025706667222904665, 0.0011928609610506616, 0.0011809835889534592, -0.0007767964381565407, -7.11708815827186e-05, -0.0005058910042048975, -0.0011513019194862278, 5.1047983202638026e-05, 0.0004940111658085051, 0.000167172644788881, -0.00032236935992303216, -0.0005471271197725929, -0.00012989009800441537, -8.060020113351179e-05, 0.0003675391768114194, 0.0006343731959062707, 0.00036137493474272433, -0.000183400454875679, -0.0007118615787694835, -0.001074818518936838, -0.0007130912997187697, 0.0008612323341462908, 0.0016725579724413922, 0.0032759475224536476, -0.0017558639198344567, -0.009844297917352838, -0.006437336472130296, 0.025495054000600575, 0.05097342408197437, 0.026015210544344997, 0.014381352173936102, 0.026327282274887082, 0.03967850912001912, 0.010387498251325908, 0.00200224167154262, 0.004507347724603465, 0.0029563112943502387, -0.0015048734385252728, -0.0003108348451524689, -0.0001331774831080108, 2.5579867916985246e-05, 0.00011901787855340016, -0.00094530096652665, 0.0010374644178134161, 0.0008169122747277766, -0.000635033111114852, 0.0006421478405763169, 0.00048468166207106647, -0.00822076094907123, -0.0011046363716734446, 0.004169915997760273, 0.005449252526783416, 0.005613836708574625, 0.009994998437829597, 0.047320587561957936, 0.12962682963706174, 0.17193466572646912, 0.15610294795742888, 0.02131373033925334, 0.06585590204951912, 0.3060952969259324, 0.24773545441305, 0.15804000311883254, 0.0001633623131715628, 0.005815921109681774, -0.0015333169105703566, -0.0013602431151437343, 0.001907327438638593, 0.0009299523482875082, -0.00015252461956498725, 0.0003945083939378351, 0.0009184530379651427, -0.00041881484790827267, 0.000462316311495445, 0.0008145573662924588, 0.0011432343599535742, -0.0035472812859331506, -0.006178246361421803, 0.07138326733020767, 0.033444048675513816, 0.026739439165344426, 0.03031248274726808, -0.11012223889655903, -0.33726487760108975, -0.18770355393826754, 0.082706141564983, 0.10762681539430942, 0.242723866990907, -0.06107085912737854, -0.06565385728625324, 0.3186496473556027, 0.24853654162577257, 0.05130018146109149, -0.0356276550019765, -0.025558253944574155, 0.02251026528171897, -0.0031441204454814215, -0.002206525084981821, -0.0010871295321588875, 0.0001864271436919446, -7.879308589880207e-05, -0.0001324366418618663, 0.0003718193847509509, 0.0015654424989887923, 0.023219589374545362, 0.030368739545456044, 0.1691929860778141, 0.14678084916966805, 0.09312427153393539, -0.1499660876990671, -0.08213202779098006, -0.24025711064390476, -0.11386061397958179, 0.08813132793369773, 0.18988436688338312, 0.4081177522519872, 0.0383107278511259, 0.0941068544018012, -0.06750511408159754, 0.032318098621940454, 0.010806926912442325, 0.013098346629424587, -0.12056380923138162, -0.23428337866309304, -0.11823779031572527, 0.049150560000871486, 0.06298325692301826, 0.004644544671270263, 0.00010851384023447208, -0.0008463128462804331, 0.0015287855511210403, 0.0037638251409215177, 0.00022962295155555046, -0.11937944886400113, -0.13458046827041512, 0.24161353641230982, -0.03842248524177096, -0.07197749907592256, -0.16963663683680863, -0.4252126992844933, 0.0471869657807879, 0.3056670818802278, -0.08648089364459978, -0.08578866029824658, -0.217680041227015, 0.20494170722449323, 0.18973847565766067, -0.06658172821770995, 0.10761367645125326, 0.43176850392920907, 0.2376747836184575, -0.3011267558304586, -0.1694320457818454, 0.12979401851380704, 0.10238162703108925, -0.006306354139438906, 0.00011648097637829836, -0.0003035475754738853, -0.019694011392876017, -0.003986174455342387, -0.029515836427954956, -0.3655926890936026, -0.14361964310693398, 0.07234465188471473, -0.03101668884841881, -0.08642486400513275, 0.1593190897421252, -0.5110822336654274, -0.06779537506410625, -0.1516881314681584, 0.12949274788091514, 0.10046434556876388, -0.09421555939186749, 0.17368058952256385, 0.15645485585442895, -0.2524278273723308, 0.4061524951995625, 0.1632435051263281, -0.3999814908941573, 0.15088172944201506, 0.3191274398134616, 0.29010639281561057, 0.011152563217929285, -0.03334204396131883, -0.0002163503506742888, -0.012640641926190079, -0.13821012189048537, -0.26869795615292313, -0.07058143109240622, -0.03457733672045872, -0.5540216323568218, -0.07087864863655999, 0.24605929433818652, 0.1591116501169914, -0.24324427570130466, -0.05249725740465645, -0.17214957839231612, -0.5419436744869096, -0.10121462127915314, 0.5013006797870123, 0.1994936783592368, -0.07277142828159795, 0.14755680424787437, -0.27408317098893636, 0.07873404898804012, 0.2573481898056828, -0.035443781317032644, -0.528264824343717, -0.10628544230392772, 0.19349333362245213, 0.07507439565491099, -0.014709941416191415, 0.00036238029500680423, -0.014533435358577795, -0.22854005614079068, -0.3473508322758214, -0.052724008054138426, -0.08729360822491256, -0.09744354590699696, 0.12973158892686285, 0.041446475872910164, -0.13310329695715034, -0.29585788968387655, -0.17919853457384521, 0.046267958626259355, -0.20582967577322694, -0.13220196816635207, 0.08266043158125214, 0.06506405761038236, 0.05006140487139411, -0.11411780869740057, -0.2860339489712112, 0.5168721407656213, 0.18207148343539678, -0.10629272432844578, 0.14040024360928108, -0.07418384437523003, 0.1567505593074497, 0.15446153577457303, 0.028972274726012652, -0.0004465710809072226, -0.019157881050455842, -0.16410969916659257, -0.19494522224962524, 0.07263419305504193, -0.06316335606123236, -0.2580784892892373, 0.2404911608219784, -0.14594630755139487, -0.36965324769156, -0.010029658470011738, -0.2480974905434382, 0.17574534415067328, -0.028287509678774095, 0.09713609074839544, 0.3130996498901022, 0.1777284035837007, -0.1698181104613621, -0.029733308183597384, -0.3644259205706268, -0.5617678812219047, -0.32869070681255436, 0.05857163504072429, 0.18807749026924644, 0.24603255544371647, 0.4039063934240923, 0.3054980638970077, 0.009617589812701874, -0.00018799951501946805, -0.008023973726615053, -0.10880618249146022, -0.1052339274163337, 0.02747241243384617, -0.08382172453691454, -0.2048144624910662, -0.2292156998911626, -0.07227592214157384, 0.47354060533483683, -0.12145347120369697, -0.4355144855964122, 0.014186012107382753, 0.02709937861280723, 0.5647361074728747, -0.2518019773299048, -0.2669380252558617, -0.5092335041007214, -0.2958070303365201, -0.5979372055581529, -0.19068895680957437, -0.21420436036443224, -0.16803266286716081, 0.13842270115958544, 0.3751374514228787, 0.23347429948418102, 0.07889466032172605, 0.048287000792448916, 0.0005429349596718957, -0.0033346903266858363, -0.07292230991311795, -0.23031892502321677, 0.18208980629822305, -0.17340345417796216, -0.15083288432226058, 0.009343926133859533, 0.20307223391911552, 0.05534876567040421, -0.32934780317617895, 0.017876117414485557, -0.09662294871794379, 0.25923073893308485, 0.041808377532529147, 0.2979308345152615, -0.5178337442013572, -0.24496721997977985, 0.00023653193327638624, -0.0343070418562417, -0.5081773220463625, -0.5010524766464501, -0.2567769994777268, -0.16011169550504853, 0.3683760082573519, 0.2512572205181694, 0.07831006348083216, 0.0303548255917412, 0.00038544219983078137, -0.007566945810374779, -0.07664799801330346, -0.16068888233851794, 0.1384295349231413, -0.30502873793514834, -0.2273519963570734, 0.24343389632118956, -0.28146734824373865, 0.054683971668159415, -0.1966439783396073, -0.2047346420500865, 0.10431889971489888, 0.3254534932101408, 0.6012738990321299, -0.23806922125886473, -0.6959739263422222, 0.297169002875112, -0.17641884725462956, 0.04256961644474159, 0.1343343747430369, -0.36982500996569045, -0.2127879634797208, -0.20657319170641705, 0.006183000445985806, 0.20097065065222489, 0.011941017880681172, -0.01669897805237223, 0.0009512523677782602, -0.006127911407905839, -0.0633910900317468, -0.06747198358609062, -0.19870007648175705, -0.24793371610790194, 0.038104396363789976, -0.43962933086100026, -0.4046565810214765, -0.2643435179862447, 0.05654746182343787, -0.1688478139437896, 0.5701649514910204, 0.051139830308761285, 0.07477646407935819, 0.2025640785244476, 0.040506039038222724, 0.0542502587230475, 0.04301088515949673, 0.037863782003361664, 0.13943373684316845, -0.24506895470789927, -0.5107210987731194, 0.121087535225857, 0.21638852130067196, 0.026289892613407504, 0.02998163490588937, 0.027258146991121127, -0.00090080163771423, -0.010061781270105303, -0.05064337368567353, 0.03936516954515315, 0.13184534848738497, 0.0035661891164372097, -0.01680254637821218, -0.14889719249859718, -0.03480844465200524, -0.09587995943603606, -0.15180385349986547, 0.13823885656636076, 0.49196196935998177, -0.1076957635140196, 0.09648331418349639, 0.1029091138758523, 0.020775777832187363, 0.19078008016789597, -0.29749980096296463, -0.1561496157816434, 0.017144897131808296, -0.06255326444044582, -0.04049668558889924, -0.0037195730167531057, 0.3419513353973725, 0.05722482427016469, 0.015126467630546214, 0.00039010279767353484, -0.0005940970092644273, -0.0012441304515252338, -0.006538887085373331, 0.07731266545861938, 0.1617018088648239, -0.06672839510395369, -0.08855513498058679, -0.11698806787304483, -0.005585112217998743, -0.04380830278336479, 0.24301540454875656, 0.45965422602437156, -0.04424073318105019, 0.4425150783877498, -0.12788717672893885, -0.22985611562036962, 0.47259468715256, -0.35871005405468875, 0.23606868770157624, 0.2411689775472105, 0.19176829772748724, -0.49369349389771133, -0.050309008865740884, 0.18786016210656845, 0.4284727355387577, 0.23442984473703762, 0.11152209773322819, 0.006874182733180811, -0.0005572360066167132, -0.0003462707952167784, 0.03952087007098604, 0.25129123164283473, 0.11660824886410787, -0.32130305165227585, -0.08066775265581412, -0.09677443367489617, -0.45630060989049187, 0.022989909443106693, 0.16215079411101957, 0.7523683695036391, 0.16936277565230062, -0.11002460507810427, -0.3624882172370881, 0.20121415680798735, 0.3369728418115549, 0.5446941531084524, 0.12626893834170158, 0.2578773133745633, 0.07182437630751354, 0.04472616818082079, 0.504164441465343, 0.17842257848843288, 0.26920563572092954, 0.18853865442840517, 0.1504664074043261, -0.0031841182249822617, -1.8538427359870522e-05, 0.0005079096970233165, 0.09563749698438112, 0.3413182590886991, 0.11657505476594894, -0.20572928897238507, 0.05292963597569069, 0.11353188456018141, -0.30468947799574186, -0.08862787767052209, -0.020677370921169065, 0.24438560617280525, 0.07180119457847534, 0.388174619673901, 0.07009692240923687, 0.17668813693915342, 0.21873754080319643, 0.06358723836240858, -0.33350987886852385, 0.021564894722697812, 0.051520387447319974, 0.3434759932635528, 0.12851504748672513, 0.08426584695416867, 0.4604881619009312, 0.023552056501470072, 0.025621286852631226, -0.022214370602575424, 0.0012416248552845524, -0.0007868315559616724, 0.05885029357475295, 0.3071128790364443, 0.06995159522575617, 0.1289130317826797, 0.22914005664984596, -0.06738505399036274, -0.37751176692147176, -0.15083930120036554, 0.14210280075879345, 0.03880330728412389, 0.13746942554493805, 0.13285502903934865, -0.04948771597693838, 0.00951660699012516, 0.08354851692018567, 0.10334001690063736, 0.037986332412780696, -0.2096339852246104, 0.08866339446649814, 0.1487301843265264, 0.004850666676644571, 0.45195730059570377, 0.35539597821550273, 0.12276304303251838, 0.0174342662984659, 0.010799498414766065, -0.0004787950894553437, -0.0007506600798432693, 0.003965680280315869, 0.23810547301917478, 0.06412594623558694, -0.07413388282073924, -0.24988475888875414, -0.04951892221938503, 0.37968647452948995, -0.11896802889197854, -0.3460810330111439, 0.23659245687920383, -0.004865969394334336, 0.6011134464938349, -0.3159432765350304, 0.06944909012970309, 0.7196311332332056, -0.06128736448681951, -0.15906710457348058, 0.25783124921159745, 0.16528064516901472, -0.009560022212779573, 0.04035487864511007, 0.4317004661145775, 0.026773107477097335, 0.09769233074177787, 0.03113878931106362, -9.938636791823991e-05, 0.0006554171279683236, -0.0004433486852885654, 0.018199606758153845, 0.24356187115533845, 0.3407022681668134, 0.005536082097581217, -0.2950471548956385, -0.13702109403834425, 0.3392178209330356, -0.15395231269689352, 0.1431449772692291, -0.36917021883913786, -0.20233855435261724, -0.09606087885107452, 0.2436737009291923, 0.22033144362337043, 0.4482561305912857, -0.011452578876052904, 0.09815951457442698, -0.0843556607985966, 0.36509335514999475, -0.1838509469450964, 0.05321790045627766, 0.10161309105493106, 0.02785172027588454, 0.11418174813531569, 0.017600527637457536, 0.0003176886791250636, -0.00039299474749428346, 0.0001377110294903994, 0.0469263551536548, 0.15241751596512398, 0.08370103641836857, -0.014470652235236957, 0.2968107316642867, 0.3804223620127123, 0.3830691837988056, -0.17029886315785847, 0.42524456586025344, -0.11958774410500256, -0.24803265571225364, -0.047564293927881376, 0.226750690287956, 0.647048225856321, 0.34502763999533337, 0.3336462154511868, 0.007289832785990623, 0.07951029916671537, 0.21671156636074315, -0.03984457913550759, 0.10256349337566757, 0.0736288586362959, 0.19338564742696182, 0.037085027163965695, -0.003293913611573583, -0.0006446454086694023, -0.000619001342566495, -0.0005815561736945021, 0.03132533957905992, 0.04483127785675065, 0.043313329419125, 0.1947238879326345, -0.1970930936558013, 0.08225863844591394, -0.04131880421643833, 0.4759539056637763, 0.0916080444804245, 0.22869092598977434, -0.08145499662540329, -0.44657859064824496, -0.036875453349157004, 0.3550880114993496, 0.26019047286031133, 0.009181984569656545, -0.0645312226403989, 0.19193141174849399, 0.15157697279120672, 0.04859195598954821, -0.004238460484675921, 0.12747635042524336, 0.24236438083801595, 0.05298439726552904, -0.00398369466893882, -0.0003540660560956791, -0.00034282793377339344, 0.0005621242057217422, 0.011829403359801226, 0.020928752905278635, 0.1298498593368331, 0.24753361187470413, -0.22981872462437927, -0.2249379693088926, 0.21243893661011873, -0.07236687061229836, 0.22906813959254302, 0.006411803743501833, 0.361989537500483, 0.22535293678699125, -0.19347544503758546, 0.6878805868985275, 0.5640560037112152, 0.03515510566094195, 0.2406442236057469, 0.24378417057394636, -0.1920916071556227, 0.014728875081811267, 0.22226254084169997, 0.2499535626606215, 0.09626488571062494, 0.051161194537486514, -0.004696889582423279, -0.000976641515689112, -0.0009688094271285353, 0.0001245488758961778, -0.006769777315877585, -0.03138241587191294, -0.01572224038589058, -0.10161117964109138, -0.12134192059996422, -0.11168446196346335, -0.04896284443857368, -0.08984356224345798, -0.02169521380636323, -0.10679956312187149, -0.2521518711028566, 0.020355848602822836, 0.08724356122955537, 0.5272542607646676, 0.16728567989440157, 0.2597087296587774, 0.4446559221321139, 0.07444189312733289, -0.02112952456051538, 0.11479791786236129, 0.10299718689796077, 0.09471625138948371, 0.11426756204498258, 0.020824806583872073, 0.0018804913453003556, -0.0005573498868846669, 1.4868098903080777e-05, 0.0007154730757005706, -3.892966199513153e-05, -0.07876702145547908, -0.2131068776555537, -0.19691555183861958, 0.03197006988353152, 0.022214536911876862, 0.4393795103953585, -0.0019335035054457435, 0.07804815486614691, -0.18430495858633628, -0.018712612924334304, -0.27009839588026197, -0.42254405983819743, 0.008916232693865855, 0.018863975681596458, 0.37076696456991515, 0.31890623124799117, 0.2515057917491773, 0.06743128107100849, -0.05485989857509821, -0.03788680183185711, -0.051057109935646744, 0.022569811108159952, -6.067735674447962e-07, 0.0018341836610728155, -4.2853237592373216e-05, 0.00042852149512820006, 0.00031442413054549347, -0.00018665682132722997, 0.0004391545107100462, 0.011387725245872029, 0.010320502807876625, -0.06465339066103085, -0.0626560020347364, -0.12976773410510423, -0.07704546004212899, 0.20145472265782371, 0.09789335752843473, -0.12314147212380386, 0.11649292474748972, 0.019414101427934462, -0.0037248397203753355, -0.052973979130636686, 0.01872062128945555, -0.042107069586437826, -0.03498889150336762, 0.07366822054501357, 0.10731369144500275, -0.00011082872918119876, 0.0005959142606379624, -0.0006612392769512466, 0.0006532626830004782, 0.000417066113293528, -1.6879189107721326e-05, 0.00012369697581775046, -0.000837045699248133, 0.0005623029546536007, -0.0002360443180784559, -4.463139230616028e-06, -0.0006877422300389335, 0.004078052095563547, 0.025663010958932808, 0.02133969834182791, -0.013120831088629692, -0.02895664168809313, -0.048618779345717816, -0.017542430373850688, -0.012728079225237705, 0.008837202877806581, -0.021430195423327025, -0.02723500676629955, -0.024636179031338835, -0.08558524964242412, -0.06351615007084556, -0.007223198584035147, 0.008396357312755596, 0.003988076416079219, 0.0002768013378764269, -6.415931157930947e-05, -0.00015472696141174904, 7.860170274097101e-05, -0.00022433903907112684], [0.0005532651362900891, -0.0002696094214484791, 7.784773847489745e-05, 6.39727562912091e-05, 0.0004771540979437159, -5.770641123060948e-05, 0.0003082624626211316, 0.0014970901274918495, -0.0015780983515929577, 0.0006102643277335251, 9.17726370472791e-05, 0.0006457128308507735, -0.0002555755567970158, -0.002998757673819336, -0.001222725454921561, -0.0001997369002991371, -0.0007157464759051208, 0.0010589974223489805, -0.0004814115216052152, -0.0005532628115698938, 0.00010807204700988308, -2.3641742806549535e-05, -0.0003425022569871464, -0.0006126221139266612, -0.00031846807024090275, -0.0003833683468498535, -0.0008811822703292727, 0.0005411696004157872, -0.0002685057952861534, 0.0004049578288432549, -0.00126596988270928, 0.0003330036862228765, 0.0005891460800461581, 9.029667156394363e-05, -0.02121103799560315, -0.031216137306225182, -0.00433637537465805, 0.0001901747275510232, 0.00019579247293245315, -0.007501191385905874, -0.01516599879180225, -0.008217186437054207, -0.010944477828170717, -0.011381753277483714, -0.02383676120056106, -0.003331754093090927, 0.0030468995888007166, -0.004373324879774904, -0.002377638478022003, -0.00362270479136405, 0.0002953475711188438, -9.249119152773075e-05, 0.000739862820672734, 7.466702272850698e-05, 0.0002301552995331956, -0.000713251472587742, 0.0011334319164391204, -0.0011492966493664679, -0.0004901563409207625, -0.0008929359219115315, -0.0018142173209010745, -0.0010977046496721127, -0.013605659931201754, -0.04059307295182138, -0.01332289609852008, 0.005316700565245212, -0.014595461876286507, 0.018691283342358322, 0.19153185427433378, 0.2289674732872994, 0.13996517597424013, 0.05516408519416397, -0.05819043012474419, -0.06094522427727333, -0.20759785487665763, 0.030086679421852974, -0.020800248307881245, -0.013281731507039811, -0.006267083280956578, -0.010304811257014879, -0.01472426456678086, -0.007604373082369846, 0.0010589735973199636, 0.0003260982917964406, -0.00086694833987715, -0.0001453609448488858, 0.00012047407670804307, -0.003400140129201676, -0.000286743741816849, -0.004281074708642198, -0.03276525758076583, -0.06602252491900273, -0.013348046832583747, 0.030249400679108366, -0.11129018014087082, 0.20357643938248254, 0.26538422539861617, -0.10648584167491747, 0.2577174592328993, -0.044529855823444285, 0.242585124157444, 0.08913578642059955, -0.3673234136567369, -0.07159029445266991, 0.09898590761526638, 0.07681932409286496, 0.08548315512161578, -0.05590451066854333, 0.0008811139294053928, -0.03261793148642376, 0.020093184174436438, 0.0010133661399551411, 0.0003562468959141408, -0.00031048913072747523, -0.00020438852760124374, -0.001098830149831137, -0.004885475212006385, -0.009567162402358368, 0.010432341149247357, -0.07556737841925189, -0.19376702857835304, -0.11784415310733652, -0.2209065656044413, -0.4158694805284762, -0.178950076018081, -0.055212196373650504, -0.0670140417030191, -0.23791881071838755, -0.06056976097336886, -0.11146288547190937, -0.21451459847871732, 0.45798327694111607, 0.1399571982616386, 0.21336045403229872, -0.1402673481458537, -0.07242365617906801, -0.08302539342340541, -0.024472959355561073, -0.0035637446784860627, 0.045914750244882147, -0.00012001102034142359, 0.00041817060308993426, -0.0005417112551215471, -0.002064114112791913, -0.04085492610957034, -0.24996966868873513, -0.23000810317094544, -0.12973719376333795, -0.01859050630443937, -0.032206163810418735, 0.054924652534034724, -0.4054662218414677, 0.16039870686689725, -0.3675644971378078, -0.1268402635801647, 0.0638516564802854, -0.6219505171220582, -0.38174626833005926, 0.12371570629090055, -0.2548751176089346, 0.03919039554742891, -0.36159481451186687, -0.4171184440196299, 0.11990515834453436, 0.23300365321519295, 0.10361325878339497, 0.14324561237914699, 0.0732379638848092, 0.0002631182109439708, -0.0001857174663126612, 0.009417806363748765, 0.02161532817794477, 0.11960262155867508, 0.19884194036892427, -0.04480242285939206, -0.0032272742723580884, 0.16115039818795585, -0.10093406477560518, -0.2344668400207415, -0.08716213829993803, -0.22839992272692697, 0.1677762445348801, -0.21157840932759936, -0.3298246316712757, 0.004070953403449003, 0.28421884642896544, -0.1154136542182885, -0.1420737256610861, -0.16453180532622574, -0.13205423008661743, 0.19820031858293147, -0.17406443578004835, -0.03749652445287477, -0.24550145764084735, 0.11209664829696867, 0.11160157627491006, 0.0005062145032045063, 0.008378284945176976, 0.027006874541600542, 0.05455400097606424, 0.058103053762499204, -0.08111547937345859, -0.07629705916102804, -0.09773149390459653, -0.00200163470639367, -0.10648281743748657, -0.13802556153199516, 0.11798022169985618, -0.1627114035727333, -0.17758127189103717, -0.12683878447475883, 0.36617779277831464, 0.07698730819208573, 0.020201041815648642, -0.11242450543753224, -0.02194145854672267, 0.10765246638177325, 0.26335325696012957, 0.2392249588115973, -0.27079846626317844, 0.10302814566360852, -0.08056469780418903, 0.041179720556732996, 0.06429851973634507, 0.0006965989974007121, 0.01610271519854764, 0.038164466106312106, 0.03652931001946873, -0.12170162102038165, -0.10899835109067982, 0.22274699178511653, 0.22945174894337456, 0.12443955695756086, -0.26377275277335216, 0.06918572133206019, -0.054958122127486984, 0.0917244244290768, -0.13253933180610314, 0.05894598524849624, -0.3787294837886192, -0.165000984001481, 0.3151222816961441, 0.3022072809076791, -0.5117361872409251, -0.06606144770710473, -0.24137432263855574, -0.10098725482063918, -0.671551076865029, -0.16832637341109297, 0.04366686505576351, 0.03093831615348169, -0.06146636278624312, -5.13663341503857e-05, 0.024444904658789478, 0.09247341125429064, -0.1634025430889619, -0.0025577708724767536, 0.06403312241523283, 0.070295348650189, -0.051500386834696994, -0.15840696732785403, 0.06649888296769758, 0.33821754121710174, -0.033662675873651036, 0.33064780439020547, -0.05666196357236799, 0.1958025788826457, -0.14055203122860416, -0.2591589821363332, -0.10450520342930561, 0.14025545698078704, 0.04494215395567724, -0.18997596781241502, -0.38078613660636174, 0.001977254184809328, -0.21167480816332288, -0.17836506376738523, -0.17381963205974024, 0.033911690268869324, 0.10768522262854098, 0.0013373995122475633, 0.014656149971225498, 0.10026423771871709, -0.05333467568252609, 0.10298222195188388, -0.01945295616832682, -0.3359073191986362, 0.17074925718770403, 0.04355341667878015, 0.015568786071782754, -0.3165030104760027, -0.1184699920676831, -0.17607617831604233, 0.3691975512981478, -0.3600733313130018, 0.014241372459427432, 0.07809593480857126, -0.6566721060278888, 0.02858681477477246, -0.10527276188058697, -0.06961651293994935, -0.4858536011200541, -0.008090990911759305, -0.3208479474685672, -0.040956672556520024, 0.23159239513064442, -0.03538137381855954, -0.027428898311872174, 0.003644839779498454, 0.010835635617555822, 0.028274828821599603, 0.09583534045060946, 0.015595137468948084, -0.14225862814828788, -0.28324946294502173, 0.21445739016448803, -0.09098334532330905, 0.04663753123013597, 0.052591497140770736, 0.1815976634852561, 0.5821278878522793, 0.14803487540905147, -0.04649612407517532, 0.3896508781460742, 0.0564804574873399, 0.5501852827719637, -0.06831828155914853, 0.3358718241049672, -0.06524326729438411, -0.3674540856162808, -0.2049840900861232, -0.3979574631023142, -0.42278527314810094, -0.23169503644292944, -0.24205702267650456, -0.039301444917592535, 0.002496946345209054, 0.008077555144864131, 0.02894846838299894, 0.17563471128595995, -0.12414510076584256, -0.19048454548449015, -0.3064641272156378, -0.0559100292748971, -0.11332160101690722, 0.2096146325117279, 0.07917392568162054, 0.12639702381550336, 0.2573258694944947, 0.19402086330778684, -0.10400905333862584, 0.4075672534754955, 0.08996457016091598, -0.007381613617126654, 0.08536274156336507, 0.3514481705092853, 0.6254015016365263, -0.24182883514573364, -0.34340448182038996, -0.3588745847841098, -0.3662273642043009, -0.27477702472901566, -0.009484953186019001, 0.03738236945902647, -0.00018020141654981364, 0.0063736454565139775, 0.03674207608978936, 0.1731067547446917, 0.12311863868879946, 0.10732098113461631, -0.05430009898144446, 0.41045942446917233, -0.17891642692047474, -0.030885019003710705, 0.22784741755163754, 0.06603070733794927, 0.44667020987805917, -0.12473380282497776, -0.0608840353229631, -0.10213520637391961, 0.253750676414355, 0.3052488325129034, 0.2056593276571429, 0.04912631442055344, 0.2255057853199914, -0.4964534249661875, -0.1857237887130821, 0.016810468421529032, -0.07097455748701924, -0.11654089576895262, -0.08045773320338694, -0.0584701991554102, 0.0005494160451072919, 0.003619248332100487, 0.035667937540258626, 0.06826649529147033, 0.17759788318415226, 0.28248657548661227, -0.1497786762219476, 0.311343469781324, -0.04208927775492819, -0.1122433382964396, 0.19335186698479956, 0.2445782419254193, 0.19382461287590255, 0.10510300005412626, -0.11190677797417647, 0.05861011834242571, 0.07457797818760348, -0.033680325526230556, 0.11167221684953563, 0.5350703545319736, 0.18086827456143784, -0.17498460704925223, 0.09449063359737635, 0.18401866459269042, -0.023796624002053433, -0.10631659815673378, -0.08021199241958371, -0.001527627827717509, 0.0012522511924793693, -9.962820984048185e-05, 0.014422796065508546, 0.12887990836938318, 0.2957146091581195, 0.0997841124808571, -0.2763930541318474, 0.07880106509245001, -0.1955093817929568, -0.10957226797410906, 0.5496866674148597, 0.1170852854288763, 0.4030120288969964, 0.10543856509706097, -0.15365102821239446, 0.012582447062227518, 0.20081568663234595, 0.3515274602144759, 0.5087999218065005, 0.408158462478792, 0.12816277768981332, 0.0006967952751528127, 0.08797453119643366, 0.11280950508290474, -0.23051283947900458, -0.339999232893438, -0.2340872577585952, -0.03673534831270518, 0.0014516251703529679, 0.0010240757638076733, -0.007996938688262801, 0.09160147136154695, 0.23380363958064151, -0.14237076046286348, -0.34514522317271673, -0.11677437477110238, -0.04204909501427065, -0.18882295352809791, 0.4418070904246789, 0.4289270281653375, -0.19352036654532362, -0.39337060884854574, -0.020987026269731996, 0.05389688671366359, 0.3520965204486484, 0.31079452486177733, 0.030575247302322032, 0.28983819011809653, 0.14073094225406868, -0.23884820873089815, -0.28934743072777636, -0.002043208112593795, -0.3263686867580587, -0.34697249779027334, -0.2655909828190715, 7.4016665328271285e-06, 9.154903373632638e-05, 0.0002861352819165234, -0.012089827350249275, 0.000203045723052174, 0.062094127206237554, -0.24491290241143296, -0.38100636561916723, -0.12484464997541572, -0.15616611013043985, 0.40646679427678545, 0.521438881431909, -0.04950380912512011, -0.3921548290080441, 0.10653822595724903, 0.27658174511803685, 0.04704905371783243, 0.022747440040773434, 0.15699762365999517, 0.1281846987090731, -0.10321858250248758, -0.35326566587117975, -0.4671240290103692, -0.406750292398684, -0.20267682077778512, -0.4111993197762984, -0.22685170435917842, -0.09145085000623843, -0.0006027204115359158, -0.0021195886871086668, -0.0004764229534225703, -0.0027544073162258766, -0.09198878766540583, 0.0036253369797264773, -0.18533728779288478, -0.31470445441251826, -0.399514699076366, -0.0868172709823834, -0.3221003100734034, -0.31692798916382586, 0.3242428103626866, -0.12683652564224931, 0.17944549745739738, 0.016914992243642304, -0.09203369751511947, -0.17683776428680686, 0.04300135456980568, -0.36645433008370976, -0.2818825883412481, -0.8215173085358936, -0.4629761662304008, -0.5733762535393221, -0.33193821818381636, -0.19865806562226462, -0.10399035123724541, 0.009559874945802935, -0.003379274453696123, 0.00022413224548634684, 0.0006712096096514182, 0.0018679886631574548, -0.10594720856324916, -0.03886621708074291, -0.0897608467265939, 0.022275768927012097, -0.20460437563894737, 0.1351026307030311, -0.2837225910939986, -0.37859051186823117, -0.03601985900539745, 0.035232632719735556, -0.32213376251403447, -0.24108380301216545, -0.11667380996080097, -0.2118102655659303, -0.46212449369989556, -0.5813086841740738, 0.15106699882837907, -0.3853443683045026, -0.5411056000756863, -0.512338313884586, -0.32356385314625946, -0.17659660710162425, -0.06532582519146732, -0.0041963783987264015, -0.00037289373804357787, 0.0007854651020772099, -0.0002122476596713899, -0.046816164109899104, -0.13330001367043978, -0.28437939852570937, -0.20487369604237685, -0.38235010807251885, -0.2848825304364575, -0.4211831946557047, -0.2664961545295821, 0.18391410508613154, -0.06713372139660889, -0.3341552190062591, -0.19353540451748738, 0.4838725117516042, -0.01062498397887837, 0.19282421689507004, -0.1633287946690055, -0.1877297845544248, -0.18481901265549291, -0.2616406361955529, -0.4021921643427418, -0.3625668151618769, -0.4439945171314845, -0.1478105717349627, -0.05402692009927606, -0.002061068440898454, -0.0013055265496182504, 0.0009401050005742816, 0.0010439743478570052, -0.0397105158419671, -0.14959807408443804, -0.2572843435921807, -0.04347545983207305, -0.34062396556197483, -0.16573079257627718, -0.07591401977194359, -0.006467271827302628, 0.08562467044178303, -0.018739828962384245, 0.06180202090943263, -0.08655027517013751, -0.23432553409417692, -0.2804164647216265, -0.3713864735260771, 0.16135430604363382, 0.17531522673251712, -0.13642821300281943, 0.01717489100402285, -0.19155241314158444, -0.15930110420079946, -0.18245079096401084, -0.14456534303682786, 0.029297115753175042, 0.05264513043901991, -0.00017059166600221756, -0.0007283477760164277, -0.0005963402030172455, -0.003671671750279165, -0.03399890666921561, -0.1738530758976204, -0.22860619376849697, -0.013564976296560427, 0.08740919670639945, 0.0635152947144771, -0.3355762837911844, -0.16982790301147968, -0.42694106612280713, -0.21934844841559953, -0.5138370283289919, -0.016410007925810502, 0.16699734690863774, 0.24007560704469266, -0.1754561912046965, -0.2786872056786476, -0.050785479143278946, -0.1167706125023645, 0.26960867376416064, -0.07929492072063252, -0.040872712510551065, -0.03349198399321616, 0.05157570010064436, 0.007467940085390696, 0.0002102348555395525, 0.00018673093208386663, -0.0008158095320716634, -0.011720010926623448, -0.0031514394713481526, -0.11749033069927005, -0.2576647709159434, 0.04267843689448243, 0.05825922349608709, -0.2377772387367877, -0.013671201922894333, -0.3734741511392626, 0.23541455556750773, -0.1853724161241916, 0.0047365009503322775, -0.15154078472033408, -0.15448962584928166, -0.15303961422638013, -0.4500944679392094, 0.3331947075624404, -0.0721485684751061, -0.3313975311351878, 0.2175790957902441, -0.07939779824022815, 0.007373725939930907, 0.043567648450401515, 0.028937323069243983, 0.0017278196388303944, -0.00023163346164698214, -0.0010774413837383323, -0.001510546272017659, -0.0009169317061784797, -0.033723803499117196, 0.027685600482675286, 0.12273163195024846, -0.024092465241013338, -0.06328159267232919, 0.02194182497233655, -0.2697812042681289, -0.4389500719237789, -0.1581286954786501, -0.26382498887079275, -0.15397839288792667, -0.3788559147853659, -0.2251054907763436, 0.17935034764001404, 0.35165969702548194, 0.0009169767607316216, -0.16475288314747946, 0.1112101753069382, -0.046968326735360756, -0.10181456076122276, -0.00819433598112152, -0.004621635255559749, 0.006576370193542262, 0.0030189316237828247, 0.0003226290777948314, -9.13226829852865e-05, -0.0007280033994903704, 0.002862143628298416, 0.005833080568350532, 0.061224195375997555, 0.11138575112066666, 0.13345814691752428, 0.12388493283256405, 0.20091293289758957, -0.17270459629068333, -0.2984781200379199, -0.07679570652429767, -0.3928376152458481, 0.3641895419448792, 0.10234328180637085, -0.06343031365362127, 0.05261167879489132, 0.28137335611161307, 0.23807088328690057, -0.3491571628787626, 0.020557285421769003, -0.021413137537288966, -0.12711451937780813, 0.04013289082738862, -0.04075413648149542, 0.00119820431775792, 0.00275172910482953, -0.00013714997101335768, 0.00035657889354872966, -9.946320568787432e-05, -0.000722553043486345, -0.00021533293475450827, 0.013305145455958768, 0.0022958906358987773, 0.025361633958890586, 0.036844327876340524, 0.10671625056028244, 0.10052521827254866, -0.02010266116480646, -0.14007733553186905, 0.11025629300355898, 0.06028630156128002, 0.027561495373081554, 0.09874083083233945, 0.2708795209986413, 0.06757361411319605, -0.04960865191048026, -0.10494222934076645, -0.11181247507984354, -0.09822926040314893, -0.026872692373930255, 0.0017737068771513955, -0.00027473518322363615, 0.00013168304746673853, -0.0012104419992907188, 0.0004412577411704644, -0.0005067089482196065, 0.0012328302856266838, -0.0004015765908392025, 0.0001078838172114976, -4.4578106393881944e-05, 0.0005924490009470432, 0.0012658772779795577, -0.0031136443083448987, -0.0022414031255367116, 0.015239468270491479, 0.017984093046840198, 0.029966443255100655, 0.046500448699835537, 0.030584077759376296, 0.015997277413750337, 0.03853392591531294, 0.05030255222669929, 0.04400726379199623, 0.12476274386482801, 0.07646901104693324, 0.02024828625912401, -0.003676373144217306, 0.004579864525094615, -0.0010059572326441468, 0.00016964837573303353, 0.0006186638392670469, -0.0005462219313137373, -0.00018406643233097843], [0.00046448181094760447, -0.00013792699312466242, 0.0005078392570381207, 4.6247904224058374e-05, 0.00029193907958494927, -0.0007271176051567288, 0.0012187621168177716, -0.0001944612317605972, 0.00017809641379548218, 0.0005230507895563057, 3.683319286542672e-05, 0.0006546177310439909, -0.000419480990009906, -0.00028366612058373404, 0.0007826621000889634, -0.000593396746568212, 0.0008001061651484471, 0.00012907708068926176, -0.00010505662474528082, 0.0012641035108966756, -0.00011800027899030684, -0.0002934194768503429, 0.00017992732281081185, 0.0002514518885142798, 0.0006780978944019503, 0.00012186617303792828, -0.00033788784606393645, -0.00040202554625430717, 0.0010949681178638018, 0.00035752167367968915, 0.0006253597543996007, -0.0013433068854515969, 0.001695036585844176, 0.0004906889223209775, 0.00019784189316510213, -0.0005851559439196858, -0.0013763820132441898, -0.0011286435862394918, -0.001133837696345748, -0.001750519763026568, -0.004061718661596387, -0.004970352877424529, -0.004975176287657348, 0.0009718571110337285, -0.012746280094114165, -0.002396102328456443, -0.0002004358900345403, -4.387641544114177e-05, -0.0009340336952220572, -0.00016538800060305502, -5.253018135384423e-05, 0.0008161145101722639, 0.00045538273131990275, -0.0010563152036270384, -0.00026784687032743406, 0.0006850895451973618, 0.00024388542593531924, 0.0005984423822216824, 0.000696932843568532, -0.0017856629229352045, -0.0004292433744619029, 0.00027941807976094495, -6.83013406804845e-05, -0.0018124003843974462, -0.010967232276501896, -0.028195645559330802, -0.018198996133348595, -0.0091185783301106, 0.08107878606602058, 0.16396164476849015, -0.0063436486152610525, 0.09010492751294122, 0.018911420428605472, 0.06768223543687453, -0.001281685784715733, 0.12066423262077931, 0.011214483442908521, -0.00627366544864118, -0.000585732011683445, -0.015250566894509045, -0.030118212851637436, -0.017684121004395703, 2.2647372791864336e-05, -0.0008519313317187266, 0.0011922539631093862, 0.0009502366093401274, 0.0003790453206220246, -0.006250513439912854, -0.003917014476976879, -0.035564635367263814, -0.03000826177282546, -0.01842249074488778, 0.014954142215009503, 0.08457590361087218, 0.09193384647265818, 0.061855698045739774, -0.05716577462664129, -0.0009096212972522237, 0.07508065583617515, 0.3956928765067538, 0.24789099294381048, -0.01635862233280694, -0.17829005351666763, -0.04923405997572242, 0.009453710159161667, -0.015757859936384646, -0.053428336661025, -0.06536697522591856, -0.06416513954655917, -0.04634663455991893, -0.015575211852077117, -0.0006091288002323457, 0.00034707350148065154, 0.0001432075907621169, 0.00037036914827729686, -0.0026956742806692074, -0.017126010434556988, -0.055538205182036476, -0.02022084235275278, -0.12637110434126642, 0.007473735139005163, 0.06762549852290484, 0.03416364068370122, -0.39210297002331945, -0.20503946255731437, 0.0053983045090154995, 0.2538389453003529, 0.17373154231313997, 0.13271752918527632, 0.26777479209971516, 0.2325654780431136, 0.29653562165016073, 0.038566499880259064, -0.069706026636126, 0.0699499667252714, -0.10707445346235558, -0.05952476099324557, -0.14088303184987497, -0.10872443184206915, -0.026346221731266797, -0.00022101765802315425, -0.0011039503081183698, -0.0012629762297594225, -0.003697872788051193, 0.0024982559237448835, 0.06946164788310792, 0.02746415473798844, -0.12733284662978167, 0.10499733007224112, 0.25169591784821804, -0.13361150789011741, -0.44147343551524265, 0.09439399109018298, -0.06470830929195842, -0.3887183061993072, -0.2570629818395757, -0.31058573860734057, 0.004105322127768188, 0.1295329730078266, 0.08324902648498854, 0.20134110934982125, 0.08879718649757626, 0.14249954305359053, -0.006517289467623614, 0.08977455103257427, -0.06114404509135595, -0.10653580580188186, -0.03910981119969821, 0.0005481782848719862, -0.0009615292048351435, 0.01463192665280204, 0.008335907435131943, 0.05383094395502112, -0.08833219083512797, -0.09279233289768135, -0.13168351558796748, 0.04376948865409106, 0.0542213674264066, -0.16280780455342822, 0.022737705142109665, -0.05682679866813339, -0.2002788142594469, 0.24921815617438128, 0.13335524816133046, 0.1399453153140571, 0.15590746335261935, -0.12145570863044476, -0.12405188300914467, 0.07261093875303921, 0.054738591960237344, 0.16622547401692106, -0.14101015224608895, -0.03976934756705771, 0.04613657324630844, -0.03485625377088732, -0.04499822017430172, -0.0023940064493355724, -0.0022108165341293965, 0.06738079546389263, 0.07251090972062108, 0.060624506966552985, -0.10540530297746456, -0.06676142047152768, -0.21406081258801332, -0.18619066078187865, -0.2488948327741452, -0.07341191839931248, -0.18653879033195297, 0.027011170715995805, -0.3610206582506855, 0.03564669370580663, -0.14778245285109995, -0.18105222398394286, -0.36613181782744386, -0.2711490662247597, 0.34754954170465574, -0.16567765989796598, -0.27857845643722173, 0.22442124004100877, 0.29685645944253863, -0.05856594985369376, -0.10314888334894512, -0.09828934316877314, -0.025564361925593602, -0.0006024706842062751, -0.00017326491321359962, 0.008493320071077311, -0.032409921467618015, -0.1417050764653893, 0.08463850665026157, 0.14981081523090292, 0.258825765356888, 0.14674692174784468, 0.12394826346076798, 0.05477733831138504, -0.16859673932315097, 0.18025552160720987, -0.3648552196131107, -0.13965458043028497, 0.04567982010054869, -0.04755184213172458, -0.5098614028967697, -0.26566765858826297, -0.0667271387640342, -0.20334957963112832, -0.08305321437231707, 0.043345746073675966, 0.08732265477100236, 0.06843908194571463, 0.11735535253763961, 0.10401593169210203, 0.015475935403841236, -0.00047583310783200553, 0.001858206281216546, -0.03014451810449776, -0.0395985186798154, 0.13374649730285657, 0.10089967632566914, 0.22874059474107458, 0.14907673651510292, 0.03489678668129148, -0.09139391126967192, 0.029572302144836096, -0.13886558049796094, 0.010778072961967094, -0.045300200373067694, -0.12393254341291599, -0.3135761090774779, 0.0306392633785735, -0.2773382689508529, 0.21243020336079793, 0.05016341635623468, -0.13960605162599568, -0.10027055443456795, -0.16636640518788168, -0.01660147782304477, -0.16406840457651808, -0.360915362043801, -0.13857595406337989, -0.14233199953462508, -0.00048272925032587086, 0.0020800905653737224, -0.01728611614148001, -0.002667257994905641, 0.1501508308718453, -0.02390515387503068, 0.060847389319272124, 0.29525479682633077, 0.013443414535301795, 0.1067025396328777, 0.02728059773470596, -0.06686392852490199, 0.44659933677461877, 0.4702097477622848, 0.23336465531183997, -0.1612497651534089, -0.027560995526012662, -0.06296490607486904, -0.5206440665961204, -0.2586994451179294, -0.18741199462720579, -0.33600448962445906, -0.3084950037238134, -0.26886099105469713, -0.29400009812723527, -0.1532885065553742, -0.13562012749084318, -0.005243652710522251, 0.0037568617345795758, 0.008137460394848419, 0.006910371314055184, -0.005514659064706025, -0.07338282116017589, 0.09211516433315318, 0.1679289197293206, 0.47113394952256576, 0.010226585710520347, 0.1542496721600771, 0.1793177251291307, 0.03582310759779706, -0.04700136784280853, 0.13938197142314626, 0.48155091687825474, 0.44627750058754556, -0.16455471261053906, -0.24592054138555972, -0.33495393124818607, -0.506554299869746, -0.2879669861098273, -0.15035035799828875, -0.19787977651821334, -0.13300810646590425, -0.10549633835837678, -0.026415896738075713, 0.013877380635202425, 0.0013993235076432441, 0.0033320197246483104, 0.0002916411255163443, 0.04508844030644254, 0.02048727804461228, 0.0891613595624162, 0.21378783050654512, -0.13326880165624097, -0.22559340997662136, 0.0373256102923235, -0.13740127727081144, -0.053842415368179825, -0.24258276338503776, 0.13457479353024246, 0.021636418993570074, 0.29009179871883845, 0.6343192875440273, 0.6282045639898204, 0.6974906920409969, 0.1439909811473538, -0.015875459787337762, 0.08160276437273313, -0.23903836455885955, 0.07240716921759087, 0.5197420343817737, 0.1347227488101585, 0.008491591297126112, -0.011937088582552558, -0.00031748152803968846, 0.0011620029298273075, -0.002008628413413726, 0.015065995234724247, 0.03133251098020027, 0.208181917144823, -0.0653161206433584, 0.014825280080666452, 0.02161589210569386, 0.04247595284149634, -0.2736782654070336, 0.07752699837149803, -0.09370776032607026, 0.10202679806551934, -0.29114139202350847, -0.2671463047970535, 0.43546318362830727, 0.6968855427717549, 1.0588421113763542, 0.4484583581502367, 0.45661020735133573, 0.25701292804708586, 0.18059234968917498, 0.14221276025711282, 0.5845160468047825, 0.19921299785454724, 0.021285732784104932, 0.0014243386832198128, 0.011259580700425586, -0.0002208292625759446, 0.0001616252825586253, 0.03387096894469049, 0.07448712656277363, -0.2618841161636389, -0.24243137513125462, 0.04321676468984061, 0.04988015144675783, 0.09483423101415349, 0.09016847023372893, 0.28308225743532467, -0.19490558136267264, -0.28107562878824677, -0.3925047264300046, 0.018844711261413287, -0.040685035415144385, 0.260413994502797, -0.17930903021000175, 0.4057060989405894, 1.0790792160651403, 0.5425651877990763, 0.19048201134978543, 0.21400591707043862, 0.22465878825082233, 0.2540292183587837, 0.11494210498123024, 0.04017939758873865, 0.008115514432850798, -0.000897478898767604, -0.0013076914285015428, 0.03256981979610148, 0.11131192106499836, -0.18985525559914238, -0.16890852318411945, 0.024577065064563204, -0.13954129050395017, 0.08939892160558753, -0.06985839993022352, 0.011596192621276608, -0.16861754199325987, -0.25067847078922595, -0.09293348179301801, 0.047274602261202, -0.14225059905845663, -0.25542982870129105, 0.011324594121127917, -0.06421578353432689, 0.29273232464235505, 0.4076699717045307, 0.3831698292340051, 0.3061384223154046, -0.16837268897987143, -0.01218769870587573, 0.18517830837308677, -0.018662494039129156, -0.010716505719310387, -0.0014736360564936825, -0.0019212753095642807, 0.0428417260539859, 0.1113252763204969, -0.10947694441140951, 0.10136556173303869, 0.46626494786258155, -0.00966899752978638, -0.09653998012077299, -0.24351349823598709, -0.054308423827064495, 0.023401360480347373, -0.5008381347862134, -0.17087805988047972, 0.12282434097288804, 0.06067116305055402, -0.01736456861249423, 0.38466964187691627, 0.35351479717615036, -0.08735572725729801, 0.08412342014940323, 0.19630173934986567, 0.18379605391222703, 0.04670473533446548, -0.005270229033724957, -0.038559993444753145, -0.1206873720497533, -0.0016217703113992298, -0.0006175161019933637, 0.00026045690815991034, 0.07517726949445995, 0.07697961351120697, -0.03190565667794497, 0.08145613841510684, 0.39748706519729426, 0.04867953659091412, 0.032472421416902895, -0.16263158823682763, 0.05479646057340787, -0.012285834382345994, -0.3687804198214281, -0.4180936915839411, -0.13589255408127993, -0.09239890583082798, -0.10109148995409652, 0.07204782236104512, 0.4056996048373936, 0.19832079577638034, 0.14525724705586748, 0.028230933478602165, 0.14743545118299306, 0.093671356249572, 0.29520886590303186, 0.10741675158630773, 0.001446569137232651, -0.0035142588498808403, -0.0010211263189495662, -0.00036947105082163907, 0.04590334035816189, 0.11984722499520727, 0.09432436691412453, 0.1375590504687654, -0.02998204557134624, -0.2764361573337987, 0.17894897893990144, 0.27277455108924725, 0.3587616868355212, 0.10534372562177421, -0.40635339452369196, -0.015014636073259969, 0.2643079766019726, 0.1176607875079072, -0.0374579513921468, 0.07052093798712683, -0.026517170534033425, -0.11596648073561554, -0.22089759155647085, -0.15103173456977084, -0.06492571208839519, -0.013662591552352369, 0.07071431558347288, -0.09822848605719342, 0.00244711771533833, 0.039384845182006314, -0.0005135618675090208, 0.0006778908882956565, 0.021126631369072765, -0.007266310645432532, -0.029576090596828104, 0.09744103071082097, -0.1038692327863111, -0.08242162148675365, 0.1906637055288864, 0.407293227111623, 0.08769671577742466, -0.2829453728455049, 0.16082452910648581, 0.435087880407382, 0.20787624970630483, 0.12139551628777157, -0.12175087058803159, -0.26771592186744586, -0.08455619242031526, -0.39797546511542337, -0.26534676446171085, -0.15561297628124757, -0.30351460231655475, -0.042594633065360515, -0.12905359426752927, 0.09645459722680157, -0.002854957104589395, 0.018127722989275688, -0.0002658737924516669, 0.0008629464499690683, 0.019532333900161375, -0.013041183429548233, -0.30833256764368105, -0.12278931198965476, -0.0014938853389567593, -0.07230288413114687, -0.18081583457158182, 0.13746324024782458, 0.1553104040364256, -0.19439949012257238, 0.18349550263720582, 0.1720259982491406, -0.009544494655609753, -0.047535060342997856, -0.027024285328844516, 0.4184986355453272, 0.01817588639326994, -0.4264037070675735, -0.31254068997645257, -0.2536507282995572, -0.12733606777541043, -0.091642545056481, -0.09804116452267612, 0.058434165456438765, -0.006820027224329281, 3.357262235551399e-05, 0.00036172612576923784, -0.00027400624552269796, -0.00704419215009773, 0.01762604767356068, -0.07065237870597561, 0.08328615988160402, -0.059389151607565256, -0.04904682076856539, 0.3346422814684208, 0.40554905737088914, 0.23423247969012406, -0.1648393206753261, 0.09233106596382798, -0.10173821070403113, -0.18904135960737514, -0.3665004527086668, -0.022338119546273648, -0.19776962824284341, -0.22117901982979415, -0.2508115320485944, -0.060474303408865226, -0.20554079761493055, -0.38493816664492647, -0.32429127916767564, -0.15344003248741678, -0.0222367499745796, -0.00424166922001586, 0.00029212195864001454, 3.375103475030148e-05, -0.0007163314813648671, -0.01020651907691823, -0.01639188372606636, 0.19150916507031512, 0.28099200061087026, 0.05275514353743695, -0.1574783203074062, -0.005577952463147671, 0.4681507640008609, 0.18800923816078352, 0.001274065700513818, -0.26169938484777255, 0.12057920384424826, -0.05697901148288097, -0.003077344116412068, 0.16291653500204092, -0.24813222268202254, 0.09484011005377697, -0.06660533749475013, 0.07199939366570884, -0.28050976127943794, -0.1568382761578626, -0.23770880708693523, -0.13456124175396106, -0.020838431564584235, 0.0008786676976120937, 0.00023386771859000896, 0.00039202899166495165, 0.0010534344581516007, -0.002734791410204633, -0.05384677554492415, 0.0203522990932236, -0.059629390922227514, -0.04952214964929063, -0.029005759983232536, -0.20466890654239078, 0.09576164526118454, -0.05063504266230869, -0.2919830523555971, -0.07254087705910489, -0.023131283686100235, -0.12225711077852573, -0.01807412279068835, -0.12995377319744802, -0.26509082939651163, 0.010141758850361013, 0.19334808213574617, -0.10557478594894854, 0.11010559810792434, -0.002098718800665479, -0.021793417685541595, -0.01833892091646251, -0.016232414146096608, 0.00010756841411586131, -0.0019133610626800247, 0.00028463732583188547, 0.0002174677191177326, 0.004101007181816046, -0.04210707520919308, -0.03864750278383455, -0.15425902637789865, -0.09020337855354602, -0.18478844931629523, 0.030998307488953034, -0.05359210731091038, -0.04078635736267414, 0.10015977686311635, -0.1687557091285143, -0.272952648202239, -0.17250679481485984, -0.3540568148927046, -0.18806101485783805, -0.3683684492274105, 0.014133802576734347, -0.10436510444949518, 0.02614197475285855, -0.008108985684504381, 0.059591521565706074, 0.0927543138025978, -0.025789967275800105, 0.0019740922466718737, -0.001007419444731034, -0.0006486619913371008, 0.0010320418484892362, -1.0871589422145418e-05, 0.0010958227114873642, 0.051110232882018804, -0.02596829444181006, -0.06461680867732209, 0.17048495150684034, 0.13399938305524925, -0.27346121218502406, -0.007017200427475336, -0.12892189320682892, 0.08417738372213189, 0.19716008632716256, -0.1465523118055583, -0.18072932297914956, -0.22159812230544992, 0.07070389466594261, 0.0635263487018151, -0.3451164913356783, -0.500998892892104, -0.1763277703055202, -0.03719815394827902, 0.017807559126512666, -0.006412715976014162, -0.03054799176390329, 0.0032668589255306717, -0.002362525456200653, 0.00041978418500413243, -0.00039029566232793065, 4.277192444500387e-05, -4.025686885998155e-05, 0.0005996332849913772, 0.05660500420253252, 0.12411057277007666, 0.08196903495861546, 0.03090342713424009, -0.03804651831072231, 0.08508918973366869, -0.060817231277624825, 0.07027544524073567, 0.019059892129534208, -0.08063705728621166, 0.06315892481872849, 0.05689038585434935, 0.0643719818438536, -0.061155706636945376, -0.18920471609680176, -0.12274542255896242, -0.039163814173169546, -0.047961349881198226, -0.015062950405013625, 0.0010385482582549994, 0.0005895509268205622, 0.000377100600906353, 0.0004604399012594815, -0.00023184734161732826, -0.0007034761129992653, 0.00025562425065403527, -0.00012789747464992445, 0.0010420801717202005, -0.00016168252051313866, 0.00021224705831078696, 0.00013197984643881076, 0.0006446165434908014, 0.0017195876344168024, 0.021003992364385316, 0.04358905828765771, 0.03576724384887336, 0.03587078175333525, 0.022778542258980735, 0.05648392721539793, 0.006900045885030269, -0.01186156494839637, 0.005467651869807388, 0.06774845616582745, 0.022815155980618458, 0.0052468474474331546, 0.003105603151107741, 0.004313321486347897, -0.0012299193100067654, 0.0007559821052242231, -0.0007542405628056857, 0.0007608342379474037, -0.0004216363596522541], [-0.0005950894324309045, 0.0006830598494023616, 0.00025669361403452803, 0.0005508861268812448, 0.0003650762950835362, 0.0005628241991818086, -0.00020631754338094205, 0.0004320724915930103, 0.000524222286456093, -0.0005163493623531885, -0.0005210670283171434, -0.0007144160326731262, 0.00042776407897927957, 0.001236082047516745, -3.539192627529066e-05, -0.0009157354227680414, 0.0015860691818494167, -8.374097919178168e-05, 1.8295871488930225e-05, -0.0005278628323804785, 0.00026539990271318245, 9.623810788510483e-05, 0.00035750651448240845, 0.0010277177039114344, 0.0006373048394773458, -0.00031302921737054635, 0.0012151518574109823, 8.144737827000075e-05, 0.0006730461301309337, 0.0006079718394623623, 6.236075147875309e-05, 0.0005224420682668752, 0.00017874620683473911, -9.470011828022631e-05, 0.0021814789281994905, 0.0026930859524935745, 0.002818159220912831, 0.0026171802102775087, 0.002997048839106143, 0.02331400633275664, 0.03714306108414153, 0.01603570558723157, -0.06779375483635341, -0.1449828805416243, -0.004727658362398632, 0.004773767163902422, 0.0026994566225862866, 0.0037231673002057664, 0.016809458855898067, 0.05148994994079861, 0.006529895151859319, 0.0009413577880780328, 0.000753856834024493, 0.0008401652583612316, 0.00041716537627962947, -0.0008218366390199119, -0.0002833165782889164, -0.00013458025522177278, 0.0006933908995760329, 0.007993043633814822, 0.004490522504074929, -0.000597167582881375, 0.0018738205266762048, 0.0037427082588684392, 0.005615195299953215, 0.028137573757260732, -0.03244448679549482, -0.07948139429550503, 0.017003320414082784, 0.04873119652887658, -0.05580156077563268, -0.12886073312608207, 0.1412517682965755, 0.17644902727787162, 0.07043417943043406, 0.058593729362567674, 0.04551706417748876, 0.09080805750546017, 0.04384441931650419, 0.0033838265544599375, 0.0014290714981737124, -0.0004281764870944121, 0.0005415897507463455, 0.00024153778180301791, -9.44501717437219e-06, -0.0006141383322060077, -0.0004912534644081203, 0.023658624096077295, 0.00679587746982729, -5.3925107186557235e-06, 0.0003557740230608458, -0.12200733564632595, -0.16116518791564444, 0.03322711114423887, 0.06336175064205159, 0.029290949421321464, 0.036518980900864154, 0.10182090537425512, 0.016225067803642423, -0.0220896839109624, 0.34862140545934484, 0.1157412124008076, -0.12827898825154832, -0.15498234905793778, -0.04993745337273009, 0.3387924482104439, 0.049424349179342304, 0.01939138118634905, 0.0018720605633248916, 0.010939469629409159, 0.026140185968166342, -0.00013417786321588782, 0.0002664321738812973, 0.0009166393536401501, -0.0017258407307689646, -0.006517647795564807, -0.022063983217289404, -0.002794131238130941, -0.09508443341645119, -0.12155965365217539, -0.029601062507173165, 0.10190926948700607, 0.3696180003510216, 0.4133218503850498, 0.2585193529536909, 0.028682739257229778, -0.06571639090667708, 0.09335617213187156, 0.21898003819389777, -0.27749521931599647, 0.003588118228251423, -0.2825972772309417, -0.3429823586790896, 0.03803986663318779, -0.16186445659522897, 0.025586854803950336, 0.08352251428429275, 0.06924352095312063, 0.07009215526069673, 0.05882563219556169, -0.0004148362733748128, -6.396366899416636e-05, -0.0007587658887571075, -0.004103716962960267, -0.06438427616690127, -0.10338344304697028, -0.13856535423499602, -0.1482733204750702, 0.14969967637939768, -0.08357173744814166, 0.013652847615457564, 0.39609225323392955, 0.30208333320339686, 0.09599468652515328, -0.011765139014858194, 0.14931289652913748, 0.019016863991162272, 0.2769076692507572, 0.23277420084539543, -0.18513258108928507, 0.02631751280999341, -0.2328028559372483, -0.14768127561643105, 0.1900581279939891, 0.04820854866394885, 0.16626666357897138, 0.20947022788664496, 0.08596724218463257, -0.0011585957572512445, 0.00033107043763849265, 0.018918644295396466, 0.019629797502202326, -0.03065363818138348, 0.017036861985825012, 0.14974137780491062, 0.25610580098708774, 0.27020158750243534, -0.10602000115184051, -0.400964595724902, 0.35900054859296976, 0.0951103834340386, -0.03193500231354888, 0.08009723469672235, 0.23633719325631805, 0.2686261503255302, 0.1094292634093687, 0.1286584644432215, -0.10696586952010458, -0.2890842040251801, -0.0003592676508655097, 0.052601269386040594, -0.09895231179002235, -0.10333862416987655, 0.027548580852159298, 0.005935868131743259, 0.033375378379363524, -6.631690529787493e-05, -0.0037661092660365453, 0.013855598676410426, 0.007427585494754301, 0.020588795783633318, 0.18368801924532993, 0.14109376779799307, 0.061648170600867046, 0.06566717914707873, -0.026306655255976103, 0.222438163067216, 0.03232204539812578, 0.03595928491719717, -0.15043565578587717, -0.3401518648131764, -0.014031185717842091, -0.3946944508459897, -0.23348917389856486, 0.021219505029236918, 0.08993843854389787, 0.07589955330122047, -0.04608985672098318, -0.1883741163344784, -0.38648201492739953, 0.17305668211789288, 0.30120596104203734, -0.0018998505425431291, 0.020265523559253297, -0.00014964185090889044, -0.004121595030068726, 0.004968069833972981, 0.0354470249979554, 0.13406801203531427, 0.3483112186677992, 0.34751706733546495, 0.2284150876252096, 0.11487204334184281, 0.15840268752361142, 0.32761049529264474, 0.293800578840835, 0.0303394505477682, 0.012693769084860702, -0.03644723538724328, 0.15173260360880655, 0.20014199095855761, 0.07764963567002617, -0.025039945636765756, 0.29925969104864014, -0.010467528391008308, -0.001732181418231835, 0.09399142926553815, -0.08501581809541371, 0.22373251300338273, 0.06463063533227652, -0.020106096837423953, -0.002290813163774475, 0.001485347778263975, -0.0012427630385086707, -0.009664295600641047, -0.011476161907599147, 0.14557045567794813, 0.30012798271186514, 0.049941120159248516, 0.11914352931582871, -0.2644987522913808, 0.18992189499272844, 0.1551975026786184, 0.21633068480393147, 0.21654786562776487, 0.19887166792641167, 0.29062045257245056, 0.43609931838721283, -0.4810154328274681, 0.12119598005278784, 0.04356227223503812, 0.3725331601532747, -0.10237130909555557, 0.14301115406145354, 0.19569103933406415, 0.24104402608359132, 0.018840704893343583, 0.023169855394099402, -0.0319072331283616, -0.1650937797729889, -0.001397266520281746, -0.0014755080386159437, -0.010767985226900562, -0.0565446699169614, 0.10567333945164832, 0.1332278151160379, -0.10338956851311679, -0.02572803694141001, 0.13891033533458366, 0.08920180561695816, -0.10743442364746791, 0.12504800169469346, 0.2430112301594335, 0.07718881523306587, 0.3522074067177996, 0.1227787040676988, -0.13483443538033912, 0.03581973978128603, 0.03102272637504502, -0.12189622310975613, -0.2901277677608451, 0.01604155662228872, 0.19492449020177138, 0.17736623126586198, -0.14447240310321244, -0.01267485410537562, 0.0024053656569847683, -0.05161981998346974, 0.0006816886324345408, 0.0023444593616575265, 0.02283421166665943, -0.04500965266970307, -0.16611977310414627, -0.193032856646347, -0.16634234289812766, -0.04171283729019539, 0.15076754319295224, -0.06297700124076512, -0.40250664156235294, 0.11066883128967052, 0.07312510078137062, -0.20929548360032318, -0.05966716583564689, -0.16188192853096986, 0.28618032995184717, -0.04399752516214988, -0.26457355821770606, -0.22715404410673568, -0.32512895888253285, -0.06608449112180792, 0.22163115458125227, -0.20871025193815704, 0.08536228372909645, 0.1544874802989549, 0.02396397257774817, -0.0071900383067058996, 0.0005967905404344404, 0.02369178732731577, 0.00039422205472674224, 0.07867365289909116, -0.11404384223527857, -0.06845185464795325, 0.3029792552982894, -0.09566546432257532, -0.043944202296913065, -0.09289775065505683, 0.13142317673300227, 0.42636134852427915, -0.30264642811159875, 0.07356387147111537, -0.20244987832639183, 0.15591855206546687, -0.11182747515001432, 0.2052386789152996, -0.1393324426322691, 0.06566981967247136, -0.3308901840146008, -0.11671183869953852, -0.019117965405752797, -0.12291436532532526, 0.1461322636443197, 0.07788767766895538, 0.07961853532421859, -0.017472077962983047, -7.133005717529482e-05, 0.053210138778660696, 0.021176946768637198, 0.17432091041818276, -0.08609618831652768, -0.08130422798241231, 0.08422467142727229, 0.029240903750484833, 0.13541670006344467, -0.07981322815467067, 0.19447968327353188, 0.12267436462795853, -0.2390028820666757, -0.30754106222302674, -0.11690984584024963, 0.08914164851111189, 0.1998725858869677, 0.04579555645412817, 0.05742429220207337, -0.003582108268238751, -0.17134007273167123, 0.02375263740353463, 0.03112497360585005, -0.08900199148692174, -0.015416392679833016, -0.01496416383687611, 0.034812850637611664, 0.020087507292822895, -0.000364909031097476, 0.023249913690310577, 0.036535484928372504, 0.10151746904342229, -0.22130137739934175, -0.07095982248627845, 0.12071006638499876, 0.18431529198785368, 0.16138078537996367, 0.10737963010669313, 0.12987892768340772, -0.04095305253420503, 0.12567457329756443, 0.06040123718255368, -0.28355037006172845, 0.0734536389834638, 0.508943374524796, 0.23842293361435613, 0.20602109961454582, 0.05126578268572091, 0.03519843354193514, -0.08419042119343051, -0.22767012004937998, -0.03721808444019004, 0.2683081494740018, 0.19697030356981451, 0.06603535958731961, 0.002024454367353768, -0.0008797578462185629, 0.0006178859786405321, 0.014729874004472435, 0.04528727305051633, -0.1353558178009667, 0.09576648831420208, -0.17376288278480956, -0.11271992065077723, -0.05815265261756603, 0.26951619237689295, 0.1481403182781587, -0.12554747329859506, -0.2574808151470965, -0.5573731982923696, 0.07715454952860018, -0.029766179071290817, 0.18421370534338832, 0.048798173277193366, 0.055958417434801525, -0.19969090211054985, -0.2862543762296724, -0.023028371200328995, -0.17133869317217781, 0.1709876070518225, 0.2650746739170585, 0.10852885099399226, -0.11333451123798596, 0.03362472241144604, -0.0015533352846981313, -0.0003773326037232855, -0.04896018124416743, -0.14506011726309273, -0.11663086034159358, -0.025942403472896735, -0.19986297683928092, 0.2750676651692603, 0.17751996053244143, -0.2300578889650526, 0.5501314844096608, 0.11529720308212899, -0.0895953187442347, 0.02056684826379663, 0.3241230919564403, 0.12328088711501511, 0.31896201143892416, 0.29346848465898395, 0.11130948147120533, -0.32941765614286195, -0.2485557773323934, 0.07025994922381357, -0.1139196109822958, 0.1885438483653611, -0.07309130829992089, -0.008908519089349374, -0.01840433534313175, 0.004928442007619439, -0.001116296191601193, -5.2204667051090644e-05, 0.006866649130100577, -0.17709992186225235, -0.1560801820024534, 0.15783692761338447, 0.18463224004598783, 0.39807432971283874, -0.1173280084606774, 0.16744018945237105, 0.34530886395543225, 0.047832905987149676, -0.1258623265514594, 0.13787101978461008, -0.09035769320609072, 0.7005788627669036, 0.2927297572872956, 0.3947421156911113, 0.15182481672227385, -0.18687227391619346, -0.2347747024860918, -0.23883686582390623, -0.05651174834286076, 0.26932729041279213, -0.10762138669416184, -0.18318344748426724, 0.001020635519625493, 0.04256618417353808, -0.0010481906619164854, -0.00029726444939591945, 0.025435977884907694, -0.17174932076279226, -0.2357970798922408, 0.1199381255291801, 0.4097430133845364, 0.13482148978217795, -0.0160803191882567, 0.10388813995893145, -0.23014772300068365, -0.27822013916890237, -0.39125154230453757, -0.2610325532752348, 0.4165191771530057, 0.42615104315215735, 0.4064815459320715, 0.17760367064219112, -0.3696149362277807, -0.11106289294405748, 0.11188135942274535, -0.07562537791561896, 0.2212291368992777, 0.003037916750611246, -0.14249546043327196, -0.052510992707703444, -0.010010800033238933, 0.002462955394259498, -0.00035897472778911036, 0.002313632273846926, 0.004593665536707778, -0.10831713008908152, -0.05608378875918415, -0.005520017299237176, -0.04961183311011243, -0.12273789808721669, -0.08840455502489014, -0.13396956601663726, -0.3290876539743405, -0.5321516929492505, -0.05882417110753705, -0.08636539090283187, 0.7505287707187026, 0.5067347507220193, 0.38229431670976305, 0.2801872554115096, -0.09978171773767536, 0.008105838452122396, 0.11498346457867983, -0.06934159151927669, 0.07545899009290366, -0.11001431582661142, -0.217771085465182, -0.12245720036864713, 0.02017734029131082, 0.0010502152049179378, -6.0016960632667335e-05, 0.00464496688759389, -0.006092118908322457, -0.004566240471555889, 0.006060136259737016, -0.07486244118394221, -0.2508111275066687, -0.04483399208237553, -0.3347560349778794, -0.008683033891673235, -0.16718967205289165, -0.2841461874535074, -0.37430503198760845, 0.06686503593834443, -0.01564225031884592, 0.4942136859382017, 0.5039918051513437, 0.3061555376091034, 0.15097069894031595, 0.0942424918592963, -0.04075369920372475, 0.11011445983628658, -0.032436147680731664, -0.21109045632615167, -0.1728343602370157, -0.03584327111579673, 0.012378133328484971, 0.0007501767227137398, 0.0002228561908401092, -0.00023450663650915218, 0.0025638619705277165, 0.04112364819307939, 0.017607401865900874, 0.0849912563237222, 0.05658680486835784, 0.0713716835145158, -0.12124721861660774, 0.054794488353285, -0.15432608381612573, 0.30198532680695, 0.3287177754397135, 0.18202507971650816, 0.15171424690345442, 0.7418685719266281, 0.47858715997169515, 0.2239849030558209, -0.2357828239687054, -0.026261899697042096, -0.01998693337214024, -0.06999242276595534, -0.13343893718386882, -0.18992332847699084, -0.34157349660588815, 0.00224588494631619, 0.027503408649683595, -0.0006695810629452703, -0.000409776783960433, 0.001039653076902393, -0.0015903410104829974, 0.04862655788649877, -0.1537331503474463, -0.0832141519205412, 0.06578979414586533, 0.08206143846312199, -0.05947109213498017, 0.0079280880976116, 0.14744382834714176, 0.23088089680152582, 0.09035096586886372, 0.1218683941842322, 0.05041496763356199, 0.37861339314656023, 0.42010492785943787, 0.2524696764383264, 0.0021991790957578846, -0.12024018482130643, -0.13793072178146604, -0.3135874186963046, -0.1675667750397282, -0.2676666378401608, -0.24511363882696285, -0.10352486979827302, 0.0004295169943609998, 0.0006234078391554257, -0.00011810999257509458, -0.0007824092247823588, -0.00038006966982350056, 0.056323025831710685, -0.17431529656365513, -0.20643882718086773, -0.035314447037472815, -0.11333397829396931, -0.04087980693040676, -0.15073692960229043, 0.48403861750447164, 0.0053539677868904055, -0.06478606394417293, 